{"learner":{"attributes":{"best_iteration":"60","best_score":"0.133598828727069"},"feature_names":[],"feature_types":[],"gradient_booster":{"model":{"gbtree_model_param":{"num_parallel_tree":"1","num_trees":"333"},"iteration_indptr":[0,3,6,9,12,15,18,21,24,27,30,33,36,39,42,45,48,51,54,57,60,63,66,69,72,75,78,81,84,87,90,93,96,99,102,105,108,111,114,117,120,123,126,129,132,135,138,141,144,147,150,153,156,159,162,165,168,171,174,177,180,183,186,189,192,195,198,201,204,207,210,213,216,219,222,225,228,231,234,237,240,243,246,249,252,255,258,261,264,267,270,273,276,279,282,285,288,291,294,297,300,303,306,309,312,315,318,321,324,327,330,333],"tree_info":[0,1,2,0,1,2,0,1,2,0,1,2,0,1,2,0,1,2,0,1,2,0,1,2,0,1,2,0,1,2,0,1,2,0,1,2,0,1,2,0,1,2,0,1,2,0,1,2,0,1,2,0,1,2,0,1,2,0,1,2,0,1,2,0,1,2,0,1,2,0,1,2,0,1,2,0,1,2,0,1,2,0,1,2,0,1,2,0,1,2,0,1,2,0,1,2,0,1,2,0,1,2,0,1,2,0,1,2,0,1,2,0,1,2,0,1,2,0,1,2,0,1,2,0,1,2,0,1,2,0,1,2,0,1,2,0,1,2,0,1,2,0,1,2,0,1,2,0,1,2,0,1,2,0,1,2,0,1,2,0,1,2,0,1,2,0,1,2,0,1,2,0,1,2,0,1,2,0,1,2,0,1,2,0,1,2,0,1,2,0,1,2,0,1,2,0,1,2,0,1,2,0,1,2,0,1,2,0,1,2,0,1,2,0,1,2,0,1,2,0,1,2,0,1,2,0,1,2,0,1,2,0,1,2,0,1,2,0,1,2,0,1,2,0,1,2,0,1,2,0,1,2,0,1,2,0,1,2,0,1,2,0,1,2,0,1,2,0,1,2,0,1,2,0,1,2,0,1,2,0,1,2,0,1,2,0,1,2,0,1,2,0,1,2,0,1,2,0,1,2,0,1,2,0,1,2,0,1,2,0,1,2,0,1,2,0,1,2,0,1,2,0,1,2,0,1,2,0,1,2,0,1,2],"trees":[{"base_weights":[-4.367974E-8,1.4014599E-1,-7.2452836E-2],"categories":[],"categories_nodes":[],"categories_segments":[],"categories_sizes":[],"default_left":[0,0,0],"id":0,"left_children":[1,-1,-1],"loss_changes":[4.5354416E1,0E0,0E0],"parents":[2147483647,0,0],"right_children":[2,-1,-1],"split_conditions":[3E0,1.4014599E-1,-7.2452836E-2],"split_indices":[2,0,0],"split_type":[0,0,0],"sum_hessian":[4.2666664E1,1.4222221E1,2.8444443E1],"tree_param":{"num_deleted":"0","num_feature":"4","num_nodes":"3","size_leaf_vector":"1"}},{"base_weights":[2.2900721E-2,-7.0073E-2,3.9622638E-1,1.3308271E0,-5.1063836E-1,4.285714E-2,1.3884299E-1,-6.1224528E-2,-6.831684E-2,-2.727273E-1,2.3999998E-2,-2.5544848E-9,-4.2857148E-2],"categories":[],"categories_nodes":[],"categories_segments":[],"categories_sizes":[],"default_left":[0,0,0,0,0,0,0,0,0,0,0,0,0],"id":1,"left_children":[1,-1,3,5,7,-1,-1,9,-1,11,-1,-1,-1],"loss_changes":[1.2074193E1,0E0,2.5635397E1,1.729927E-1,1.172926E0,0E0,0E0,4.123191E-1,0E0,1.5584415E-1,0E0,0E0,0E0],"parents":[2147483647,0,0,2,2,3,3,4,4,7,7,9,9],"right_children":[2,-1,4,6,8,-1,-1,10,-1,12,-1,-1,-1],"split_conditions":[3E0,-7.0073E-2,4.8E0,5.1E0,5.2E0,4.285714E-2,1.3884299E-1,2.9E0,-6.831684E-2,6.1E0,2.3999998E-2,-2.5544848E-9,-4.2857148E-2],"split_indices":[2,0,2,0,2,0,0,1,0,0,0,0,0],"split_type":[0,0,0,0,0,0,0,0,0,0,0,0,0],"sum_hessian":[4.2666664E1,1.4222221E1,2.8444443E1,1.3777777E1,1.4666666E1,1.3333333E0,1.2444444E1,4.444444E0,1.0222221E1,2.6666665E0,1.7777777E0,1.3333333E0,1.3333333E0],"tree_param":{"num_deleted":"0","num_feature":"4","num_nodes":"13","size_leaf_vector":"1"}},{"base_weights":[-2.2900809E-2,-6.8965524E-1,1.2127659E0,-7.219918E-2,-2.0689659E-2,6.7346936E-1,1.3663366E-1,8.1818186E-2,2.3999998E-2],"categories":[],"categories_nodes":[],"categories_segments":[],"categories_sizes":[],"default_left":[0,0,0,0,0,0,0,0,0],"id":2,"left_children":[1,3,5,-1,-1,7,-1,-1,-1],"loss_changes":[3.6812756E1,3.0333328E-1,3.7733078E-1,0E0,0E0,1.4515781E-1,0E0,0E0,0E0],"parents":[2147483647,0,0,1,1,2,2,5,5],"right_children":[2,4,6,-1,-1,8,-1,-1,-1],"split_conditions":[4.8E0,1.5E0,5.2E0,-7.219918E-2,-2.0689659E-2,2.9E0,1.3663366E-1,8.1818186E-2,2.3999998E-2],"split_indices":[2,3,2,0,0,1,0,0,0],"split_type":[0,0,0,0,0,0,0,0,0],"sum_hessian":[4.2666664E1,2.7999998E1,1.4666666E1,2.5777777E1,2.222222E0,4.444444E0,1.0222221E1,2.6666665E0,1.7777777E0],"tree_param":{"num_deleted":"0","num_feature":"4","num_nodes":"9","size_leaf_vector":"1"}},{"base_weights":[-6.045642E-4,1.2282383E-1,-6.986028E-2],"categories":[],"categories_nodes":[],"categories_segments":[],"categories_sizes":[],"default_left":[0,0,0],"id":3,"left_children":[1,-1,-1],"loss_changes":[3.813516E1,0E0,0E0],"parents":[2147483647,0,0],"right_children":[2,-1,-1],"split_conditions":[3E0,1.2282383E-1,-6.986028E-2],"split_indices":[2,0,0],"split_type":[0,0,0],"sum_hessian":[4.2460186E1,1.5106017E1,2.7354168E1],"tree_param":{"num_deleted":"0","num_feature":"4","num_nodes":"3","size_leaf_vector":"1"}},{"base_weights":[2.0399503E-2,-6.74696E-2,3.6120084E-1,1.1719065E0,-4.8875475E-1,3.9015915E-2,1.2202717E-1,-6.1890326E-2,-6.580376E-2,2.4170853E-2,-2.7452183E-1,-4.2534477E-4,-4.2795777E-2],"categories":[],"categories_nodes":[],"categories_segments":[],"categories_sizes":[],"default_left":[0,0,0,0,0,0,0,0,0,0,0,0,0],"id":4,"left_children":[1,-1,3,5,7,-1,-1,9,-1,-1,11,-1,-1],"loss_changes":[1.0559713E1,0E0,2.115666E1,1.1310196E-1,1.0640545E0,0E0,0E0,4.1787034E-1,0E0,0E0,1.5039566E-1,0E0,0E0],"parents":[2147483647,0,0,2,2,3,3,4,4,7,7,10,10],"right_children":[2,-1,4,6,8,-1,-1,10,-1,-1,12,-1,-1],"split_conditions":[3E0,-6.74696E-2,4.8E0,5.1E0,5.2E0,3.9015915E-2,1.2202717E-1,1.8E0,-6.580376E-2,2.4170853E-2,4.9E0,-4.2534477E-4,-4.2795777E-2],"split_indices":[2,0,2,0,2,0,0,3,0,0,2,0,0],"split_type":[0,0,0,0,0,0,0,0,0,0,0,0,0],"sum_hessian":[4.254779E1,1.3675541E1,2.887225E1,1.4583455E1,1.4288794E1,1.3779547E0,1.3205501E1,4.4452453E0,9.843549E0,1.7746383E0,2.6706069E0,1.3392746E0,1.3313322E0],"tree_param":{"num_deleted":"0","num_feature":"4","num_nodes":"13","size_leaf_vector":"1"}},{"base_weights":[-1.98676E-2,-6.634065E-1,1.0771394E0,-6.958622E-2,-1.9237153E-2,4.788279E-1,1.1639231E0,7.906491E-2,-3.5487474E-3,4.003599E-2,1.2162652E-1],"categories":[],"categories_nodes":[],"categories_segments":[],"categories_sizes":[],"default_left":[0,0,0,0,0,0,0,0,0,0,0],"id":5,"left_children":[1,3,5,-1,-1,7,9,-1,-1,-1,-1],"loss_changes":[3.134729E1,2.936859E-1,2.9549217E-1,0E0,0E0,6.341871E-1,5.839348E-2,0E0,0E0,0E0,0E0],"parents":[2147483647,0,0,1,1,2,2,5,5,6,6],"right_children":[2,4,6,-1,-1,8,10,-1,-1,-1,-1],"split_conditions":[4.8E0,1.5E0,1.8E0,-6.958622E-2,-1.9237153E-2,1.6E0,4.9E0,7.906491E-2,-3.5487474E-3,4.003599E-2,1.2162652E-1],"split_indices":[2,3,3,0,0,3,2,0,0,0,0],"split_type":[0,0,0,0,0,0,0,0,0,0,0],"sum_hessian":[4.2391155E1,2.6966824E1,1.5424333E1,2.478197E1,2.1848538E0,2.7794604E0,1.2644873E1,1.3958774E0,1.383583E0,1.3660401E0,1.1278832E1],"tree_param":{"num_deleted":"0","num_feature":"4","num_nodes":"11","size_leaf_vector":"1"}},{"base_weights":[-1.5208379E-3,1.0984468E-1,-6.756443E-2],"categories":[],"categories_nodes":[],"categories_segments":[],"categories_sizes":[],"default_left":[0,0,0],"id":6,"left_children":[1,-1,-1],"loss_changes":[3.252385E1,0E0,0E0],"parents":[2147483647,0,0],"right_children":[2,-1,-1],"split_conditions":[3E0,1.0984468E-1,-6.756443E-2],"split_indices":[2,0,0],"split_type":[0,0,0],"sum_hessian":[4.1860542E1,1.5667094E1,2.6193449E1],"tree_param":{"num_deleted":"0","num_feature":"4","num_nodes":"3","size_leaf_vector":"1"}},{"base_weights":[1.8252071E-2,-6.511795E-2,3.3210602E-1,1.0508199E0,-4.681419E-1,3.5532128E-2,1.0935875E-1,-5.93645E-2,-6.358575E-2,2.2884076E-2,-2.6441777E-1,5.698653E-4,-4.213097E-2],"categories":[],"categories_nodes":[],"categories_segments":[],"categories_sizes":[],"default_left":[0,0,0,0,0,0,0,0,0,0,0,0,0],"id":7,"left_children":[1,-1,3,5,7,-1,-1,9,-1,-1,11,-1,-1],"loss_changes":[9.266811E0,0E0,1.7740234E1,9.0545654E-2,9.825072E-1,0E0,0E0,3.8154906E-1,0E0,0E0,1.5657645E-1,0E0,0E0],"parents":[2147483647,0,0,2,2,3,3,4,4,7,7,10,10],"right_children":[2,-1,4,6,8,-1,-1,10,-1,-1,12,-1,-1],"split_conditions":[3E0,-6.511795E-2,4.8E0,5.1E0,5.2E0,3.5532128E-2,1.0935875E-1,1.8E0,-6.358575E-2,2.2884076E-2,6E0,5.698653E-4,-4.213097E-2],"split_indices":[2,0,2,0,2,0,0,3,0,0,0,0,0],"split_type":[0,0,0,0,0,0,0,0,0,0,0,0,0],"sum_hessian":[4.2076588E1,1.3087326E1,2.898926E1,1.5107703E1,1.38815565E1,1.4144082E0,1.3693295E1,4.4323754E0,9.449182E0,1.7943645E0,2.638011E0,1.3233368E0,1.3146744E0],"tree_param":{"num_deleted":"0","num_feature":"4","num_nodes":"13","size_leaf_vector":"1"}},{"base_weights":[-1.6852127E-2,-6.395614E-1,9.7179496E-1,-6.7245334E-2,-1.7779581E-2,4.454125E-1,1.0457757E0,7.447536E-2,-4.4792597E-3,3.5313603E-2,1.09520055E-1],"categories":[],"categories_nodes":[],"categories_segments":[],"categories_sizes":[],"default_left":[0,0,0,0,0,0,0,0,0,0,0],"id":8,"left_children":[1,3,5,-1,-1,7,9,-1,-1,-1,-1],"loss_changes":[2.696303E1,2.8832626E-1,1.9356728E-1,0E0,0E0,5.9513074E-1,9.606552E-2,0E0,0E0,0E0,0E0],"parents":[2147483647,0,0,1,1,2,2,5,5,6,6],"right_children":[2,4,6,-1,-1,8,10,-1,-1,-1,-1],"split_conditions":[4.8E0,1.5E0,1.8E0,-6.7245334E-2,-1.7779581E-2,1.6E0,6E0,7.447536E-2,-4.4792597E-3,3.5313603E-2,1.09520055E-1],"split_indices":[2,3,3,0,0,3,0,0,0,0,0],"split_type":[0,0,0,0,0,0,0,0,0,0,0],"sum_hessian":[4.1787212E1,2.5855167E1,1.5932043E1,2.371002E1,2.1451478E0,2.828383E0,1.3103661E1,1.4336579E0,1.3947251E0,1.4152522E0,1.1688408E1],"tree_param":{"num_deleted":"0","num_feature":"4","num_nodes":"11","size_leaf_vector":"1"}},{"base_weights":[-2.5700459E-3,9.980681E-2,-6.5517806E-2],"categories":[],"categories_nodes":[],"categories_segments":[],"categories_sizes":[],"default_left":[0,0,0],"id":9,"left_children":[1,-1,-1],"loss_changes":[2.803488E1,0E0,0E0],"parents":[2147483647,0,0],"right_children":[2,-1,-1],"split_conditions":[3E0,9.980681E-2,-6.5517806E-2],"split_indices":[2,0,0],"split_type":[0,0,0],"sum_hessian":[4.0929474E1,1.594768E1,2.4981792E1],"tree_param":{"num_deleted":"0","num_feature":"4","num_nodes":"3","size_leaf_vector":"1"}},{"base_weights":[1.6473835E-2,-6.298863E-2,3.077428E-1,9.557945E-1,-4.485539E-1,3.235587E-2,9.9520504E-2,-5.6348998E-2,-6.155252E-2,-2.5719476E-1,2.2255326E-2,8.491454E-4,-4.1298863E-2],"categories":[],"categories_nodes":[],"categories_segments":[],"categories_sizes":[],"default_left":[0,0,0,0,0,0,0,0,0,0,0,0,0],"id":10,"left_children":[1,-1,3,5,7,-1,-1,9,-1,11,-1,-1,-1],"loss_changes":[8.1582155E0,0E0,1.5051135E1,8.6289406E-2,9.114711E-1,0E0,0E0,3.6056665E-1,0E0,1.5301168E-1,0E0,0E0,0E0],"parents":[2147483647,0,0,2,2,3,3,4,4,7,7,9,9],"right_children":[2,-1,4,6,8,-1,-1,10,-1,12,-1,-1,-1],"split_conditions":[3E0,-6.298863E-2,4.8E0,5.1E0,5.2E0,3.235587E-2,9.9520504E-2,2.9E0,-6.155252E-2,2.8E0,2.2255326E-2,8.491454E-4,-4.1298863E-2],"split_indices":[2,0,2,0,2,0,0,1,0,1,0,0,0],"split_type":[0,0,0,0,0,0,0,0,0,0,0,0,0],"sum_hessian":[4.1304127E1,1.2469742E1,2.8834387E1,1.5386391E1,1.3447995E1,1.4432523E0,1.3943138E1,4.4149756E0,9.033019E0,2.6119008E0,1.803075E0,1.3149388E0,1.296962E0],"tree_param":{"num_deleted":"0","num_feature":"4","num_nodes":"13","size_leaf_vector":"1"}},{"base_weights":[-1.4056868E-2,-6.1782837E-1,8.87246E-1,-6.51449E-2,-1.6328169E-2,4.155285E-1,9.5242435E-1,7.044862E-2,-5.3189127E-3,3.2988098E-2,9.960955E-2],"categories":[],"categories_nodes":[],"categories_segments":[],"categories_sizes":[],"default_left":[0,0,0,0,0,0,0,0,0,0,0],"id":11,"left_children":[1,3,5,-1,-1,7,9,-1,-1,-1,-1],"loss_changes":[2.3355768E1,2.8619862E-1,1.3379669E-1,0E0,0E0,5.609285E-1,6.1782837E-2,0E0,0E0,0E0,0E0],"parents":[2147483647,0,0,1,1,2,2,5,5,6,6],"right_children":[2,4,6,-1,-1,8,10,-1,-1,-1,-1],"split_conditions":[4.8E0,1.5E0,1.8E0,-6.51449E-2,-1.6328169E-2,1.6E0,4.9E0,7.044862E-2,-5.3189127E-3,3.2988098E-2,9.960955E-2],"split_indices":[2,3,3,0,0,3,2,0,0,0,0],"split_type":[0,0,0,0,0,0,0,0,0,0,0],"sum_hessian":[4.0911793E1,2.4688076E1,1.6223717E1,2.2584435E1,2.1036413E0,2.864879E0,1.3358838E1,1.4611149E0,1.4037641E0,1.4363942E0,1.1922443E1],"tree_param":{"num_deleted":"0","num_feature":"4","num_nodes":"11","size_leaf_vector":"1"}},{"base_weights":[-3.7329425E-3,9.1847144E-2,-6.3688405E-2],"categories":[],"categories_nodes":[],"categories_segments":[],"categories_sizes":[],"default_left":[0,0,0],"id":12,"left_children":[1,-1,-1],"loss_changes":[2.4367683E1,0E0,0E0],"parents":[2147483647,0,0],"right_children":[2,-1,-1],"split_conditions":[3E0,9.1847144E-2,-6.3688405E-2],"split_indices":[2,0,0],"split_type":[0,0,0],"sum_hessian":[3.973119E1,1.5990252E1,2.3740936E1],"tree_param":{"num_deleted":"0","num_feature":"4","num_nodes":"3","size_leaf_vector":"1"}},{"base_weights":[1.4977083E-2,-6.105445E-2,2.8704652E-1,8.7940854E-1,-4.2990947E-1,2.944521E-2,9.169372E-2,-5.2783202E-2,-5.9690863E-2,2.1671314E-2,-2.4926178E-1,9.0654904E-4,-4.0312316E-2],"categories":[],"categories_nodes":[],"categories_segments":[],"categories_sizes":[],"default_left":[0,0,0,0,0,0,0,0,0,0,0,0,0],"id":13,"left_children":[1,-1,3,5,7,-1,-1,9,-1,-1,11,-1,-1],"loss_changes":[7.2015715E0,0E0,1.2886329E1,9.125233E-2,8.4998393E-1,0E0,0E0,3.395624E-1,0E0,0E0,1.4610355E-1,0E0,0E0],"parents":[2147483647,0,0,2,2,3,3,4,4,7,7,10,10],"right_children":[2,-1,4,6,8,-1,-1,10,-1,-1,12,-1,-1],"split_conditions":[3E0,-6.105445E-2,4.8E0,5.1E0,5.2E0,2.944521E-2,9.169372E-2,1.8E0,-5.9690863E-2,2.1671314E-2,6E0,9.0654904E-4,-4.0312316E-2],"split_indices":[2,0,2,0,2,0,0,3,0,0,0,0,0],"split_type":[0,0,0,0,0,0,0,0,0,0,0,0,0],"sum_hessian":[4.0286274E1,1.1834108E1,2.8452168E1,1.5455755E1,1.2996411E1,1.4651172E0,1.3990638E1,4.3926854E0,8.603726E0,1.8087542E0,2.5839314E0,1.3158127E0,1.2681186E0],"tree_param":{"num_deleted":"0","num_feature":"4","num_nodes":"13","size_leaf_vector":"1"}},{"base_weights":[-1.1425004E-2,-5.9793544E-1,8.1809384E-1,-6.325581E-2,-1.48913665E-2,3.8448024E-1,8.784226E-1,6.633845E-2,-6.18883E-3,2.9623657E-2,9.2112795E-2],"categories":[],"categories_nodes":[],"categories_segments":[],"categories_sizes":[],"default_left":[0,0,0,0,0,0,0,0,0,0,0],"id":14,"left_children":[1,3,5,-1,-1,7,9,-1,-1,-1,-1],"loss_changes":[2.0346128E1,2.8648376E-1,1.15532875E-1,0E0,0E0,5.259217E-1,8.595562E-2,0E0,0E0,0E0,0E0],"parents":[2147483647,0,0,1,1,2,2,5,5,6,6],"right_children":[2,4,6,-1,-1,8,10,-1,-1,-1,-1],"split_conditions":[4.8E0,1.5E0,1.8E0,-6.325581E-2,-1.48913665E-2,1.6E0,6E0,6.633845E-2,-6.18883E-3,2.9623657E-2,9.2112795E-2],"split_indices":[2,3,3,0,0,3,0,0,0,0,0],"split_type":[0,0,0,0,0,0,0,0,0,0,0],"sum_hessian":[3.981415E1,2.3486923E1,1.6327227E1,2.142608E1,2.0608428E0,2.8946912E0,1.3432536E1,1.4823154E0,1.4123757E0,1.4603853E0,1.1972151E1],"tree_param":{"num_deleted":"0","num_feature":"4","num_nodes":"11","size_leaf_vector":"1"}},{"base_weights":[-4.970643E-3,8.54054E-2,-6.2045246E-2],"categories":[],"categories_nodes":[],"categories_segments":[],"categories_sizes":[],"default_left":[0,0,0],"id":15,"left_children":[1,-1,-1],"loss_changes":[2.132163E1,0E0,0E0],"parents":[2147483647,0,0],"right_children":[2,-1,-1],"split_conditions":[3E0,8.54054E-2,-6.2045246E-2],"split_indices":[2,0,0],"split_type":[0,0,0],"sum_hessian":[3.8325092E1,1.5835689E1,2.2489405E1],"tree_param":{"num_deleted":"0","num_feature":"4","num_nodes":"3","size_leaf_vector":"1"}},{"base_weights":[1.36931E-2,-5.9290435E-2,2.6923177E-1,8.1675184E-1,-4.1215447E-1,2.6764935E-2,8.534288E-2,-4.9041457E-2,-5.7977088E-2,-2.4357483E-1,2.1446936E-2,1.2679457E-3,-3.9694507E-2],"categories":[],"categories_nodes":[],"categories_segments":[],"categories_sizes":[],"default_left":[0,0,0,0,0,0,0,0,0,0,0,0,0],"id":16,"left_children":[1,-1,3,5,7,-1,-1,9,-1,11,-1,-1,-1],"loss_changes":[6.3716235E0,0E0,1.1112621E1,1.008749E-1,7.95274E-1,0E0,0E0,3.2734168E-1,0E0,1.4477557E-1,0E0,0E0,0E0],"parents":[2147483647,0,0,2,2,3,3,4,4,7,7,9,9],"right_children":[2,-1,4,6,8,-1,-1,10,-1,12,-1,-1,-1],"split_conditions":[3E0,-5.9290435E-2,4.8E0,5.1E0,5.2E0,2.6764935E-2,8.534288E-2,2.9E0,-5.7977088E-2,2.8E0,2.1446936E-2,1.2679457E-3,-3.9694507E-2],"split_indices":[2,0,2,0,2,0,0,1,0,1,0,0,0],"split_type":[0,0,0,0,0,0,0,0,0,0,0,0,0],"sum_hessian":[3.907503E1,1.1190595E1,2.7884438E1,1.5350809E1,1.2533628E1,1.48067E0,1.3870139E1,4.366631E0,8.166997E0,2.5556278E0,1.8110031E0,1.3003324E0,1.2552955E0],"tree_param":{"num_deleted":"0","num_feature":"4","num_nodes":"13","size_leaf_vector":"1"}},{"base_weights":[-8.933769E-3,-5.796336E-1,7.604178E-1,-6.155174E-2,-1.3475612E-2,4.440667E-1,8.491933E-2,5.697733E-2,1.2221145E-2],"categories":[],"categories_nodes":[],"categories_segments":[],"categories_sizes":[],"default_left":[0,0,0,0,0,0,0,0,0],"id":17,"left_children":[1,3,5,-1,-1,7,-1,-1,-1],"loss_changes":[1.7803566E1,2.8854895E-1,1.0802078E-1,0E0,0E0,1.6832137E-1,0E0,0E0,0E0],"parents":[2147483647,0,0,1,1,2,2,5,5],"right_children":[2,4,6,-1,-1,8,-1,-1,-1],"split_conditions":[4.8E0,1.5E0,5.2E0,-6.155174E-2,-1.3475612E-2,2.9E0,8.491933E-2,5.697733E-2,1.2221145E-2],"split_indices":[2,3,2,0,0,1,0,0,0],"split_type":[0,0,0,0,0,0,0,0,0],"sum_hessian":[3.8544605E1,2.227084E1,1.6273764E1,2.0253618E1,2.0172217E0,4.881323E0,1.1392442E1,2.9563763E0,1.9249467E0],"tree_param":{"num_deleted":"0","num_feature":"4","num_nodes":"9","size_leaf_vector":"1"}},{"base_weights":[-6.1635165E-3,8.010225E-2,-6.055043E-2],"categories":[],"categories_nodes":[],"categories_segments":[],"categories_sizes":[],"default_left":[0,0,0],"id":18,"left_children":[1,-1,-1],"loss_changes":[1.8754166E1,0E0,0E0],"parents":[2147483647,0,0],"right_children":[2,-1,-1],"split_conditions":[3E0,8.010225E-2,-6.055043E-2],"split_indices":[2,0,0],"split_type":[0,0,0],"sum_hessian":[3.676337E1,1.5521997E1,2.1241375E1],"tree_param":{"num_deleted":"0","num_feature":"4","num_nodes":"3","size_leaf_vector":"1"}},{"base_weights":[1.2665271E-2,-5.767407E-2,2.5383508E-1,7.644492E-1,-3.9493677E-1,2.4285605E-2,8.01033E-2,-4.660811E-2,-5.6328405E-2,2.1121806E-2,-2.3832539E-1,1.598636E-3,-3.93099E-2],"categories":[],"categories_nodes":[],"categories_segments":[],"categories_sizes":[],"default_left":[0,0,0,0,0,0,0,0,0,0,0,0,0],"id":19,"left_children":[1,-1,3,5,7,-1,-1,9,-1,-1,11,-1,-1],"loss_changes":[5.650082E0,0E0,9.633926E0,1.12763405E-1,7.399411E-1,0E0,0E0,3.1466323E-1,0E0,0E0,1.4549476E-1,0E0,0E0],"parents":[2147483647,0,0,2,2,3,3,4,4,7,7,10,10],"right_children":[2,-1,4,6,8,-1,-1,10,-1,-1,12,-1,-1],"split_conditions":[3E0,-5.767407E-2,4.8E0,5.1E0,5.2E0,2.4285605E-2,8.01033E-2,1.8E0,-5.6328405E-2,2.1121806E-2,4.9E0,1.598636E-3,-3.93099E-2],"split_indices":[2,0,2,0,2,0,0,3,0,0,2,0,0],"split_type":[0,0,0,0,0,0,0,0,0,0,0,0,0],"sum_hessian":[3.7718285E1,1.0548033E1,2.7170254E1,1.5104218E1,1.2066036E1,1.4905845E0,1.3613633E1,4.3474827E0,7.7185535E0,1.8106966E0,2.536786E0,1.2990315E0,1.2377545E0],"tree_param":{"num_deleted":"0","num_feature":"4","num_nodes":"13","size_leaf_vector":"1"}},{"base_weights":[-6.7517487E-3,-5.626968E-1,7.10734E-1,-6.0009014E-2,-1.2085824E-2,3.2240394E-1,7.6822186E-1,5.9885085E-2,-9.280927E-3,2.5710631E-2,8.074667E-2],"categories":[],"categories_nodes":[],"categories_segments":[],"categories_sizes":[],"default_left":[0,0,0,0,0,0,0,0,0,0,0],"id":20,"left_children":[1,3,5,-1,-1,7,9,-1,-1,-1,-1],"loss_changes":[1.5619819E1,2.9188728E-1,1.3406372E-1,0E0,0E0,5.064739E-1,7.6660156E-2,0E0,0E0,0E0,0E0],"parents":[2147483647,0,0,1,1,2,2,5,5,6,6],"right_children":[2,4,6,-1,-1,8,10,-1,-1,-1,-1],"split_conditions":[4.8E0,1.5E0,1.8E0,-6.0009014E-2,-1.2085824E-2,1.6E0,4.9E0,5.9885085E-2,-9.280927E-3,2.5710631E-2,8.074667E-2],"split_indices":[2,3,3,0,0,3,2,0,0,0,0],"split_type":[0,0,0,0,0,0,0,0,0,0,0],"sum_hessian":[3.715631E1,2.1056435E1,1.6099876E1,1.9083231E1,1.9732026E0,2.9281898E0,1.3171687E1,1.4923304E0,1.4358592E0,1.477707E0,1.169398E1],"tree_param":{"num_deleted":"0","num_feature":"4","num_nodes":"11","size_leaf_vector":"1"}},{"base_weights":[-7.538537E-3,7.567182E-2,-5.921008E-2],"categories":[],"categories_nodes":[],"categories_segments":[],"categories_sizes":[],"default_left":[0,0,0],"id":21,"left_children":[1,-1,-1],"loss_changes":[1.6575146E1,0E0,0E0],"parents":[2147483647,0,0],"right_children":[2,-1,-1],"split_conditions":[3E0,7.567182E-2,-5.921008E-2],"split_indices":[2,0,0],"split_type":[0,0,0],"sum_hessian":[3.5098236E1,1.5083528E1,2.0014708E1],"tree_param":{"num_deleted":"0","num_feature":"4","num_nodes":"3","size_leaf_vector":"1"}},{"base_weights":[1.1694723E-2,-5.6185097E-2,2.4016142E-1,7.2010696E-1,-3.7859064E-1,2.19828E-2,7.571839E-2,-4.245705E-2,-5.485946E-2,-2.2847597E-1,2.026484E-2,1.9445306E-3,-3.8105033E-2],"categories":[],"categories_nodes":[],"categories_segments":[],"categories_sizes":[],"default_left":[0,0,0,0,0,0,0,0,0,0,0,0,0],"id":22,"left_children":[1,-1,3,5,7,-1,-1,9,-1,11,-1,-1,-1],"loss_changes":[5.017474E0,0E0,8.393834E0,1.2561321E-1,6.9680953E-1,0E0,0E0,2.88704E-1,0E0,1.3952366E-1,0E0,0E0,0E0],"parents":[2147483647,0,0,2,2,3,3,4,4,7,7,9,9],"right_children":[2,-1,4,6,8,-1,-1,10,-1,12,-1,-1,-1],"split_conditions":[3E0,-5.6185097E-2,4.8E0,5.1E0,5.2E0,2.19828E-2,7.571839E-2,2.9E0,-5.485946E-2,2.8E0,2.026484E-2,1.9445306E-3,-3.8105033E-2],"split_indices":[2,0,2,0,2,0,0,1,0,1,0,0,0],"split_type":[0,0,0,0,0,0,0,0,0,0,0,0,0],"sum_hessian":[3.626103E1,9.9138775E0,2.6347149E1,1.4745639E1,1.1601511E1,1.4955223E0,1.3250116E1,4.316541E0,7.2849693E0,2.4926386E0,1.8239027E0,1.2820159E0,1.2106227E0],"tree_param":{"num_deleted":"0","num_feature":"4","num_nodes":"13","size_leaf_vector":"1"}},{"base_weights":[-4.4619674E-3,-5.469218E-1,6.687277E-1,-5.8606513E-2,-1.0725727E-2,3.033524E-1,7.237793E-1,5.7440143E-2,-9.772903E-3,2.3089757E-2,7.641271E-2],"categories":[],"categories_nodes":[],"categories_segments":[],"categories_sizes":[],"default_left":[0,0,0,0,0,0,0,0,0,0,0],"id":23,"left_children":[1,3,5,-1,-1,7,9,-1,-1,-1,-1],"loss_changes":[1.3757394E1,2.9610062E-1,1.1864281E-1,0E0,0E0,4.8263526E-1,9.98044E-2,0E0,0E0,0E0,0E0],"parents":[2147483647,0,0,1,1,2,2,5,5,6,6],"right_children":[2,4,6,-1,-1,8,10,-1,-1,-1,-1],"split_conditions":[4.8E0,1.5E0,1.8E0,-5.8606513E-2,-1.0725727E-2,1.6E0,6E0,5.7440143E-2,-9.772903E-3,2.3089757E-2,7.641271E-2],"split_indices":[2,3,3,0,0,3,0,0,0,0,0],"split_type":[0,0,0,0,0,0,0,0,0,0,0],"sum_hessian":[3.5671543E1,1.9857683E1,1.581386E1,1.7928524E1,1.9291588E0,2.9231782E0,1.2890681E1,1.4864857E0,1.4366925E0,1.48408E0,1.1406602E1],"tree_param":{"num_deleted":"0","num_feature":"4","num_nodes":"11","size_leaf_vector":"1"}},{"base_weights":[-8.966558E-3,7.1922384E-2,-5.799082E-2],"categories":[],"categories_nodes":[],"categories_segments":[],"categories_sizes":[],"default_left":[0,0,0],"id":24,"left_children":[1,-1,-1],"loss_changes":[1.47059145E1,0E0,0E0],"parents":[2147483647,0,0],"right_children":[2,-1,-1],"split_conditions":[3E0,7.1922384E-2,-5.799082E-2],"split_indices":[2,0,0],"split_type":[0,0,0],"sum_hessian":[3.3368454E1,1.4550605E1,1.8817848E1],"tree_param":{"num_deleted":"0","num_feature":"4","num_nodes":"3","size_leaf_vector":"1"}},{"base_weights":[1.082456E-2,-5.4805458E-2,2.2797713E-1,6.819761E-1,-3.628896E-1,1.9835746E-2,7.200193E-2,-3.8283255E-2,-5.3490292E-2,2.031934E-2,-2.228125E-1,2.0588932E-3,-3.7562825E-2],"categories":[],"categories_nodes":[],"categories_segments":[],"categories_sizes":[],"default_left":[0,0,0,0,0,0,0,0,0,0,0,0,0],"id":25,"left_children":[1,-1,3,5,7,-1,-1,9,-1,-1,11,-1,-1],"loss_changes":[4.4622216E0,0E0,7.341191E0,1.386981E-1,6.575335E-1,0E0,0E0,2.8068018E-1,0E0,0E0,1.3686049E-1,0E0,0E0],"parents":[2147483647,0,0,2,2,3,3,4,4,7,7,10,10],"right_children":[2,-1,4,6,8,-1,-1,10,-1,-1,12,-1,-1],"split_conditions":[3E0,-5.4805458E-2,4.8E0,5.1E0,5.2E0,1.9835746E-2,7.200193E-2,1.8E0,-5.3490292E-2,2.031934E-2,4.9E0,2.0588932E-3,-3.7562825E-2],"split_indices":[2,0,2,0,2,0,0,3,0,0,2,0,0],"split_type":[0,0,0,0,0,0,0,0,0,0,0,0,0],"sum_hessian":[3.4738342E1,9.294231E0,2.544411E1,1.430133E1,1.114278E1,1.4961184E0,1.2805211E1,4.282962E0,6.8598185E0,1.8114012E0,2.4715607E0,1.2869713E0,1.1845894E0],"tree_param":{"num_deleted":"0","num_feature":"4","num_nodes":"13","size_leaf_vector":"1"}},{"base_weights":[-2.239679E-3,-5.3212726E-1,6.3213533E-1,-5.7325494E-2,-9.398456E-3,2.821197E-1,6.866019E-1,5.4774404E-2,-1.0325076E-2,2.17435E-2,7.263519E-2],"categories":[],"categories_nodes":[],"categories_segments":[],"categories_sizes":[],"default_left":[0,0,0,0,0,0,0,0,0,0,0],"id":26,"left_children":[1,3,5,-1,-1,7,9,-1,-1,-1,-1],"loss_changes":[1.2146306E1,3.008623E-1,1.19846344E-1,0E0,0E0,4.570236E-1,9.4483376E-2,0E0,0E0,0E0,0E0],"parents":[2147483647,0,0,1,1,2,2,5,5,6,6],"right_children":[2,4,6,-1,-1,8,10,-1,-1,-1,-1],"split_conditions":[4.8E0,1.5E0,1.8E0,-5.7325494E-2,-9.398456E-3,1.6E0,6E0,5.4774404E-2,-1.0325076E-2,2.17435E-2,7.263519E-2],"split_indices":[2,3,3,0,0,3,0,0,0,0,0],"split_type":[0,0,0,0,0,0,0,0,0,0,0],"sum_hessian":[3.413318E1,1.8686064E1,1.5447117E1,1.6800642E1,1.8854206E0,2.91221E0,1.2534907E1,1.4745218E0,1.4376882E0,1.4844218E0,1.1050486E1],"tree_param":{"num_deleted":"0","num_feature":"4","num_nodes":"11","size_leaf_vector":"1"}},{"base_weights":[-1.0455584E-2,6.87123E-2,-5.6877565E-2],"categories":[],"categories_nodes":[],"categories_segments":[],"categories_sizes":[],"default_left":[0,0,0],"id":27,"left_children":[1,-1,-1],"loss_changes":[1.3091095E1,0E0,0E0],"parents":[2147483647,0,0],"right_children":[2,-1,-1],"split_conditions":[3E0,6.87123E-2,-5.6877565E-2],"split_indices":[2,0,0],"split_type":[0,0,0],"sum_hessian":[3.1608948E1,1.394946E1,1.7659489E1],"tree_param":{"num_deleted":"0","num_feature":"4","num_nodes":"3","size_leaf_vector":"1"}},{"base_weights":[1.0035994E-2,-5.3519078E-2,2.1700607E-1,6.487546E-1,-3.477393E-1,1.7827246E-2,6.881605E-2,-3.4045145E-2,-5.2208494E-2,-2.1469127E-1,1.9706106E-2,2.4400768E-3,-3.6538552E-2],"categories":[],"categories_nodes":[],"categories_segments":[],"categories_sizes":[],"default_left":[0,0,0,0,0,0,0,0,0,0,0,0,0],"id":28,"left_children":[1,-1,3,5,7,-1,-1,9,-1,11,-1,-1,-1],"loss_changes":[3.9734733E0,0E0,6.4403996E0,1.5159893E-1,6.218045E-1,0E0,0E0,2.613786E-1,0E0,1.3227561E-1,0E0,0E0,0E0],"parents":[2147483647,0,0,2,2,3,3,4,4,7,7,9,9],"right_children":[2,-1,4,6,8,-1,-1,10,-1,12,-1,-1,-1],"split_conditions":[3E0,-5.3519078E-2,4.8E0,5.1E0,5.2E0,1.7827246E-2,6.881605E-2,2.9E0,-5.2208494E-2,2.8E0,1.9706106E-2,2.4400768E-3,-3.6538552E-2],"split_indices":[2,0,2,0,2,0,0,1,0,1,0,0,0],"split_type":[0,0,0,0,0,0,0,0,0,0,0,0,0],"sum_hessian":[3.3182396E1,8.693925E0,2.4488472E1,1.37941065E1,1.06943655E1,1.4929695E0,1.2301137E1,4.247413E0,6.446953E0,2.423832E0,1.8235812E0,1.2610781E0,1.1627538E0],"tree_param":{"num_deleted":"0","num_feature":"4","num_nodes":"13","size_leaf_vector":"1"}},{"base_weights":[-6.274361E-5,-5.181518E-1,5.9989244E-1,-5.6149334E-2,-8.106413E-3,3.3638296E-1,6.8498366E-2,6.191608E-3,4.55092E-2],"categories":[],"categories_nodes":[],"categories_segments":[],"categories_sizes":[],"default_left":[0,0,0,0,0,0,0,0,0],"id":29,"left_children":[1,3,5,-1,-1,7,-1,-1,-1],"loss_changes":[1.0745434E1,3.0590773E-1,1.2877703E-1,0E0,0E0,1.6324645E-1,0E0,0E0,0E0],"parents":[2147483647,0,0,1,1,2,2,5,5],"right_children":[2,4,6,-1,-1,8,-1,-1,-1],"split_conditions":[4.8E0,1.5E0,5.2E0,-5.6149334E-2,-8.106413E-3,1.8E0,6.8498366E-2,6.191608E-3,4.55092E-2],"split_indices":[2,3,2,0,0,3,0,0,0],"split_type":[0,0,0,0,0,0,0,0,0],"sum_hessian":[3.2570095E1,1.7550648E1,1.5019447E1,1.5708382E1,1.8422658E0,4.875198E0,1.0144249E1,1.9313369E0,2.9438608E0],"tree_param":{"num_deleted":"0","num_feature":"4","num_nodes":"9","size_leaf_vector":"1"}},{"base_weights":[-1.18660135E-2,6.593458E-2,-5.5838104E-2],"categories":[],"categories_nodes":[],"categories_segments":[],"categories_sizes":[],"default_left":[0,0,0],"id":30,"left_children":[1,-1,-1],"loss_changes":[1.1683443E1,0E0,0E0],"parents":[2147483647,0,0],"right_children":[2,-1,-1],"split_conditions":[3E0,6.593458E-2,-5.5838104E-2],"split_indices":[2,0,0],"split_type":[0,0,0],"sum_hessian":[2.984633E1,1.3302357E1,1.6543974E1],"tree_param":{"num_deleted":"0","num_feature":"4","num_nodes":"3","size_leaf_vector":"1"}},{"base_weights":[9.360089E-3,-5.231173E-2,2.070852E-1,6.194523E-1,-3.3290696E-1,1.5942944E-2,6.605641E-2,-3.131887E-2,-5.0933924E-2,-2.0913297E-1,1.9342305E-2,2.3301805E-3,-3.571495E-2],"categories":[],"categories_nodes":[],"categories_segments":[],"categories_sizes":[],"default_left":[0,0,0,0,0,0,0,0,0,0,0,0,0],"id":31,"left_children":[1,-1,3,5,7,-1,-1,9,-1,11,-1,-1,-1],"loss_changes":[3.5427625E0,0E0,5.662638E0,1.6406202E-1,5.832199E-1,0E0,0E0,2.491207E-1,0E0,1.2514772E-1,0E0,0E0,0E0],"parents":[2147483647,0,0,2,2,3,3,4,4,7,7,9,9],"right_children":[2,-1,4,6,8,-1,-1,10,-1,12,-1,-1,-1],"split_conditions":[3E0,-5.231173E-2,4.8E0,5.1E0,5.2E0,1.5942944E-2,6.605641E-2,2.9E0,-5.0933924E-2,2.8E0,1.9342305E-2,2.3301805E-3,-3.571495E-2],"split_indices":[2,0,2,0,2,0,0,1,0,1,0,0,0],"split_type":[0,0,0,0,0,0,0,0,0,0,0,0,0],"sum_hessian":[3.16206E1,8.116645E0,2.3503956E1,1.3243418E1,1.0260537E1,1.4866288E0,1.1756789E1,4.221663E0,6.038874E0,2.3956757E0,1.8259875E0,1.2598573E0,1.1358184E0],"tree_param":{"num_deleted":"0","num_feature":"4","num_nodes":"13","size_leaf_vector":"1"}},{"base_weights":[1.895494E-3,-5.048521E-1,5.7036644E-1,-5.5063315E-2,-6.8515646E-3,3.1621605E-1,6.561013E-2,4.354494E-2,5.1600374E-3],"categories":[],"categories_nodes":[],"categories_segments":[],"categories_sizes":[],"default_left":[0,0,0,0,0,0,0,0,0],"id":32,"left_children":[1,3,5,-1,-1,7,-1,-1,-1],"loss_changes":[9.511358E0,3.110199E-1,1.3156319E-1,0E0,0E0,1.6226721E-1,0E0,0E0,0E0],"parents":[2147483647,0,0,1,1,2,2,5,5],"right_children":[2,4,6,-1,-1,8,-1,-1,-1],"split_conditions":[4.8E0,1.5E0,5.2E0,-5.5063315E-2,-6.8515646E-3,2.9E0,6.561013E-2,4.354494E-2,5.1600374E-3],"split_indices":[2,3,2,0,0,1,0,0,0],"split_type":[0,0,0,0,0,0,0,0,0],"sum_hessian":[3.1017796E1,1.645836E1,1.4559436E1,1.4658431E1,1.7999287E0,4.855173E0,9.704263E0,2.9019775E0,1.9531953E0],"tree_param":{"num_deleted":"0","num_feature":"4","num_nodes":"9","size_leaf_vector":"1"}},{"base_weights":[-1.3323892E-2,6.350701E-2,-5.487705E-2],"categories":[],"categories_nodes":[],"categories_segments":[],"categories_sizes":[],"default_left":[0,0,0],"id":33,"left_children":[1,-1,-1],"loss_changes":[1.0453371E1,0E0,0E0],"parents":[2147483647,0,0],"right_children":[2,-1,-1],"split_conditions":[3E0,6.350701E-2,-5.487705E-2],"split_indices":[2,0,0],"split_type":[0,0,0],"sum_hessian":[2.8105515E1,1.2627864E1,1.5477652E1],"tree_param":{"num_deleted":"0","num_feature":"4","num_nodes":"3","size_leaf_vector":"1"}},{"base_weights":[8.716787E-3,-5.1170837E-2,1.9795889E-1,5.9330577E-1,-3.185756E-1,1.4171041E-2,6.364276E-2,-2.8640917E-2,-4.9721997E-2,1.9646678E-2,-2.063667E-1,2.9905844E-3,-3.6034644E-2],"categories":[],"categories_nodes":[],"categories_segments":[],"categories_sizes":[],"default_left":[0,0,0,0,0,0,0,0,0,0,0,0,0],"id":34,"left_children":[1,-1,3,5,7,-1,-1,9,-1,-1,11,-1,-1],"loss_changes":[3.161598E0,0E0,4.9896474E0,1.7593002E-1,5.473579E-1,0E0,0E0,2.4837731E-1,0E0,0E0,1.3413256E-1,0E0,0E0],"parents":[2147483647,0,0,2,2,3,3,4,4,7,7,10,10],"right_children":[2,-1,4,6,8,-1,-1,10,-1,-1,12,-1,-1],"split_conditions":[3E0,-5.1170837E-2,4.8E0,5.1E0,5.2E0,1.4171041E-2,6.364276E-2,1.8E0,-4.9721997E-2,1.9646678E-2,4.9E0,2.9905844E-3,-3.6034644E-2],"split_indices":[2,0,2,0,2,0,0,3,0,0,2,0,0],"split_type":[0,0,0,0,0,0,0,0,0,0,0,0,0],"sum_hessian":[3.0073349E1,7.5650625E0,2.2508287E1,1.2665611E1,9.842676E0,1.4776043E0,1.1188006E1,4.1948614E0,5.6478143E0,1.8042047E0,2.3906567E0,1.261201E0,1.1294558E0],"tree_param":{"num_deleted":"0","num_feature":"4","num_nodes":"13","size_leaf_vector":"1"}},{"base_weights":[3.836045E-3,-4.9210158E-1,5.4377013E-1,-5.4054376E-2,-5.6354213E-3,2.1951348E-1,6.0141253E-1,4.9318835E-2,-1.4153073E-2,1.6627407E-2,6.453272E-2],"categories":[],"categories_nodes":[],"categories_segments":[],"categories_sizes":[],"default_left":[0,0,0,0,0,0,0,0,0,0,0],"id":35,"left_children":[1,3,5,-1,-1,7,9,-1,-1,-1,-1],"loss_changes":[8.430347E0,3.1601858E-1,1.4964676E-1,0E0,0E0,4.501497E-1,1.2621498E-1,0E0,0E0,0E0,0E0],"parents":[2147483647,0,0,1,1,2,2,5,5,6,6],"right_children":[2,4,6,-1,-1,8,10,-1,-1,-1,-1],"split_conditions":[4.8E0,1.5E0,1.8E0,-5.4054376E-2,-5.6354213E-3,1.6E0,4.9E0,4.9318835E-2,-1.4153073E-2,1.6627407E-2,6.453272E-2],"split_indices":[2,3,3,0,0,3,2,0,0,0,0],"split_type":[0,0,0,0,0,0,0,0,0,0,0],"sum_hessian":[2.9483797E1,1.54142065E1,1.40695915E1,1.3655609E1,1.7585971E0,2.8493404E0,1.122025E1,1.4125836E0,1.436757E0,1.4673147E0,9.752935E0],"tree_param":{"num_deleted":"0","num_feature":"4","num_nodes":"11","size_leaf_vector":"1"}},{"base_weights":[-1.4936481E-2,6.1365355E-2,-5.3997226E-2],"categories":[],"categories_nodes":[],"categories_segments":[],"categories_sizes":[],"default_left":[0,0,0],"id":36,"left_children":[1,-1,-1],"loss_changes":[9.376344E0,0E0,0E0],"parents":[2147483647,0,0],"right_children":[2,-1,-1],"split_conditions":[3E0,6.1365355E-2,-5.3997226E-2],"split_indices":[2,0,0],"split_type":[0,0,0],"sum_hessian":[2.6406376E1,1.1941197E1,1.4465178E1],"tree_param":{"num_deleted":"0","num_feature":"4","num_nodes":"3","size_leaf_vector":"1"}},{"base_weights":[8.072172E-3,-5.0085314E-2,1.8947642E-1,5.697146E-1,-3.0484277E-1,1.2501446E-2,6.151216E-2,-2.4652524E-2,-4.862391E-2,1.894523E-2,-1.9671051E-1,4.102766E-3,-3.5591777E-2],"categories":[],"categories_nodes":[],"categories_segments":[],"categories_sizes":[],"default_left":[0,0,0,0,0,0,0,0,0,0,0,0,0],"id":37,"left_children":[1,-1,3,5,7,-1,-1,9,-1,-1,11,-1,-1],"loss_changes":[2.8234742E0,0E0,4.405431E0,1.8709993E-1,5.1863766E-1,0E0,0E0,2.2721426E-1,0E0,0E0,1.4137705E-1,0E0,0E0],"parents":[2147483647,0,0,2,2,3,3,4,4,7,7,10,10],"right_children":[2,-1,4,6,8,-1,-1,10,-1,-1,12,-1,-1],"split_conditions":[3E0,-5.0085314E-2,4.8E0,5.1E0,5.2E0,1.2501446E-2,6.151216E-2,1.8E0,-4.862391E-2,1.894523E-2,6E0,4.102766E-3,-3.5591777E-2],"split_indices":[2,0,2,0,2,0,0,3,0,0,0,0,0],"split_type":[0,0,0,0,0,0,0,0,0,0,0,0,0],"sum_hessian":[2.855523E1,7.0409718E0,2.1514257E1,1.2074124E1,9.440132E0,1.4663564E0,1.0607768E1,4.156217E0,5.283915E0,1.8067923E0,2.3494248E0,1.2400322E0,1.1093925E0],"tree_param":{"num_deleted":"0","num_feature":"4","num_nodes":"13","size_leaf_vector":"1"}},{"base_weights":[5.8941944E-3,-4.7978893E-1,5.2016556E-1,-5.3110983E-2,-4.4593285E-3,2.7903756E-1,6.0966194E-2,2.832122E-3,3.9633435E-1,1.47662265E-2,4.856047E-2],"categories":[],"categories_nodes":[],"categories_segments":[],"categories_sizes":[],"default_left":[0,0,0,0,0,0,0,0,0,0,0],"id":38,"left_children":[1,3,5,-1,-1,7,-1,-1,9,-1,-1],"loss_changes":[7.486592E0,3.2075095E-1,1.4393306E-1,0E0,0E0,1.5885073E-1,0E0,0E0,1.404953E-2,0E0,0E0],"parents":[2147483647,0,0,1,1,2,2,5,5,8,8],"right_children":[2,4,6,-1,-1,8,-1,-1,10,-1,-1],"split_conditions":[4.8E0,1.5E0,5.2E0,-5.3110983E-2,-4.4593285E-3,1.8E0,6.0966194E-2,2.832122E-3,6E0,1.47662265E-2,4.856047E-2],"split_indices":[2,3,2,0,0,3,0,0,0,0,0],"split_type":[0,0,0,0,0,0,0,0,0,0,0],"sum_hessian":[2.7974405E1,1.4421575E1,1.355283E1,1.270315E1,1.718425E0,4.7832613E0,8.769568E0,1.9202555E0,2.8630056E0,1.4573907E0,1.4056151E0],"tree_param":{"num_deleted":"0","num_feature":"4","num_nodes":"11","size_leaf_vector":"1"}},{"base_weights":[-1.6612733E-2,5.9458654E-2,-5.316518E-2],"categories":[],"categories_nodes":[],"categories_segments":[],"categories_sizes":[],"default_left":[0,0,0],"id":39,"left_children":[1,-1,-1],"loss_changes":[8.426687E0,0E0,0E0],"parents":[2147483647,0,0],"right_children":[2,-1,-1],"split_conditions":[3E0,5.9458654E-2,-5.316518E-2],"split_indices":[2,0,0],"split_type":[0,0,0],"sum_hessian":[2.4764912E1,1.1254588E1,1.3510323E1],"tree_param":{"num_deleted":"0","num_feature":"4","num_nodes":"3","size_leaf_vector":"1"}},{"base_weights":[7.187398E-3,-4.9045395E-2,1.8113907E-1,5.050985E-1,-3.568273E-1,6.1422583E-2,-1.2410907E-2,-8.146371E-2,-4.8013985E-2,-4.5963455E-2,3.450762E-2],"categories":[],"categories_nodes":[],"categories_segments":[],"categories_sizes":[],"default_left":[0,0,0,0,0,0,0,0,0,0,0],"id":40,"left_children":[1,-1,3,5,7,-1,-1,9,-1,-1,-1],"loss_changes":[2.5204747E0,0E0,3.9350214E0,1.0279768E0,2.5574744E-1,0E0,0E0,7.8612465E-1,0E0,0E0,0E0],"parents":[2147483647,0,0,2,2,3,3,4,4,7,7],"right_children":[2,-1,4,6,8,-1,-1,10,-1,-1,-1],"split_conditions":[3E0,-4.9045395E-2,1.7E0,4.8E0,5.1E0,6.1422583E-2,-1.2410907E-2,2.9E0,-4.8013985E-2,-4.5963455E-2,3.450762E-2],"split_indices":[2,0,3,2,2,0,0,1,0,0,0],"split_type":[0,0,0,0,0,0,0,0,0,0,0],"sum_hessian":[2.7090092E1,6.5454288E0,2.0544662E1,1.2860974E1,7.6836886E0,1.0980389E1,1.8805856E0,2.8902445E0,4.793444E0,1.4908587E0,1.3993858E0],"tree_param":{"num_deleted":"0","num_feature":"4","num_nodes":"11","size_leaf_vector":"1"}},{"base_weights":[8.215917E-3,-4.6781722E-1,4.9862686E-1,-5.2222926E-2,-3.324485E-3,2.6508033E-1,5.8944296E-2,3.8314527E-1,2.262377E-3,1.4044833E-2,4.6641357E-2],"categories":[],"categories_nodes":[],"categories_segments":[],"categories_sizes":[],"default_left":[0,0,0,0,0,0,0,0,0,0,0],"id":41,"left_children":[1,3,5,-1,-1,7,-1,9,-1,-1,-1],"loss_changes":[6.6587057E0,3.2509065E-1,1.4156008E-1,0E0,0E0,1.5588665E-1,0E0,1.1352122E-2,0E0,0E0,0E0],"parents":[2147483647,0,0,1,1,2,2,5,5,7,7],"right_children":[2,4,6,-1,-1,8,-1,10,-1,-1,-1],"split_conditions":[4.8E0,1.5E0,5.2E0,-5.2222926E-2,-3.324485E-3,2.9E0,5.8944296E-2,2.8E0,2.262377E-3,1.4044833E-2,4.6641357E-2],"split_indices":[2,3,2,0,0,1,0,1,0,0,0],"split_type":[0,0,0,0,0,0,0,0,0,0,0],"sum_hessian":[2.6523615E1,1.3482482E1,1.3041134E1,1.1802948E1,1.6795337E0,4.7485175E0,8.292616E0,2.8032186E0,1.9452989E0,1.4024067E0,1.4008119E0],"tree_param":{"num_deleted":"0","num_feature":"4","num_nodes":"11","size_leaf_vector":"1"}},{"base_weights":[-1.7900523E-2,5.774602E-2,-5.235649E-2],"categories":[],"categories_nodes":[],"categories_segments":[],"categories_sizes":[],"default_left":[0,0,0],"id":42,"left_children":[1,-1,-1],"loss_changes":[7.5798774E0,0E0,0E0],"parents":[2147483647,0,0],"right_children":[2,-1,-1],"split_conditions":[3E0,5.774602E-2,-5.235649E-2],"split_indices":[2,0,0],"split_type":[0,0,0],"sum_hessian":[2.3173641E1,1.0577678E1,1.25959635E1],"tree_param":{"num_deleted":"0","num_feature":"4","num_nodes":"3","size_leaf_vector":"1"}},{"base_weights":[5.9427945E-3,-4.8042566E-2,1.7303821E-1,4.8745152E-1,-3.4580806E-1,5.9591603E-2,-1.1591173E-2,-8.019236E-2,-4.6996195E-2,-4.5075707E-2,3.298776E-2],"categories":[],"categories_nodes":[],"categories_segments":[],"categories_sizes":[],"default_left":[0,0,0,0,0,0,0,0,0,0,0],"id":43,"left_children":[1,-1,3,5,7,-1,-1,9,-1,-1,-1],"loss_changes":[2.2488096E0,0E0,3.5240436E0,9.344177E-1,2.375508E-1,0E0,0E0,7.3590475E-1,0E0,0E0,0E0],"parents":[2147483647,0,0,2,2,3,3,4,4,7,7],"right_children":[2,-1,4,6,8,-1,-1,10,-1,-1,-1],"split_conditions":[3E0,-4.8042566E-2,1.7E0,4.8E0,5.1E0,5.9591603E-2,-1.1591173E-2,2.9E0,-4.6996195E-2,-4.5075707E-2,3.298776E-2],"split_indices":[2,0,3,2,2,0,0,1,0,0,0],"split_type":[0,0,0,0,0,0,0,0,0,0,0],"sum_hessian":[2.5647955E1,6.0788755E0,1.956908E1,1.2222768E1,7.346312E0,1.03707905E1,1.8519773E0,2.8643064E0,4.482005E0,1.452509E0,1.4117974E0],"tree_param":{"num_deleted":"0","num_feature":"4","num_nodes":"11","size_leaf_vector":"1"}},{"base_weights":[1.0508682E-2,-4.5609516E-1,4.7834054E-1,-5.134034E-2,-2.547844E-3,1.7762184E-1,5.3876555E-1,4.5804124E-2,-1.6796848E-2,1.2668741E-2,5.8860313E-2],"categories":[],"categories_nodes":[],"categories_segments":[],"categories_sizes":[],"default_left":[0,0,0,0,0,0,0,0,0,0,0],"id":44,"left_children":[1,3,5,-1,-1,7,9,-1,-1,-1,-1],"loss_changes":[5.917244E0,3.221147E-1,1.5005994E-1,0E0,0E0,4.4080812E-1,1.4661455E-1,0E0,0E0,0E0,0E0],"parents":[2147483647,0,0,1,1,2,2,5,5,6,6],"right_children":[2,4,6,-1,-1,8,10,-1,-1,-1,-1],"split_conditions":[4.8E0,1.5E0,1.8E0,-5.134034E-2,-2.547844E-3,1.6E0,6E0,4.5804124E-2,-1.6796848E-2,1.2668741E-2,5.8860313E-2],"split_indices":[2,3,3,0,0,3,0,0,0,0,0],"split_type":[0,0,0,0,0,0,0,0,0,0,0],"sum_hessian":[2.510756E1,1.2582837E1,1.2524721E1,1.0935275E1,1.6475627E0,2.7547297E0,9.769992E0,1.3411247E0,1.4136051E0,1.4362744E0,8.333717E0],"tree_param":{"num_deleted":"0","num_feature":"4","num_nodes":"11","size_leaf_vector":"1"}},{"base_weights":[-1.919356E-2,5.6194514E-2,-5.1599074E-2],"categories":[],"categories_nodes":[],"categories_segments":[],"categories_sizes":[],"default_left":[0,0,0],"id":45,"left_children":[1,-1,-1],"loss_changes":[6.8294654E0,0E0,0E0],"parents":[2147483647,0,0],"right_children":[2,-1,-1],"split_conditions":[3E0,5.6194514E-2,-5.1599074E-2],"split_indices":[2,0,0],"split_type":[0,0,0],"sum_hessian":[2.1650934E1,9.918006E0,1.1732928E1],"tree_param":{"num_deleted":"0","num_feature":"4","num_nodes":"3","size_leaf_vector":"1"}},{"base_weights":[5.0060535E-3,-4.7069356E-2,1.6582915E-1,4.701557E-1,-3.3394673E-1,5.793816E-2,-1.1092986E-2,-7.6148145E-2,-4.5974307E-2,-4.416925E-2,3.202993E-2],"categories":[],"categories_nodes":[],"categories_segments":[],"categories_sizes":[],"default_left":[0,0,0,0,0,0,0,0,0,0,0],"id":46,"left_children":[1,-1,3,5,7,-1,-1,9,-1,-1,-1],"loss_changes":[2.0100944E0,0E0,3.1400528E0,8.643329E-1,2.2467852E-1,0E0,0E0,6.957206E-1,0E0,0E0,0E0],"parents":[2147483647,0,0,2,2,3,3,4,4,7,7],"right_children":[2,-1,4,6,8,-1,-1,10,-1,-1,-1],"split_conditions":[3E0,-4.7069356E-2,1.7E0,4.8E0,5.1E0,5.793816E-2,-1.1092986E-2,2.9E0,-4.5974307E-2,-4.416925E-2,3.202993E-2],"split_indices":[2,0,3,2,2,0,0,1,0,0,0],"split_type":[0,0,0,0,0,0,0,0,0,0,0],"sum_hessian":[2.4254272E1,5.641239E0,1.8613033E1,1.1605444E1,7.00759E0,9.771619E0,1.8338257E0,2.8245254E0,4.1830645E0,1.4101604E0,1.4143648E0],"tree_param":{"num_deleted":"0","num_feature":"4","num_nodes":"11","size_leaf_vector":"1"}},{"base_weights":[1.2462315E-2,-4.4461486E-1,4.5926902E-1,-5.049588E-2,-1.8169042E-3,2.3285818E-1,5.567419E-2,5.805014E-4,3.4649682E-1,1.155085E-2,4.3861773E-2],"categories":[],"categories_nodes":[],"categories_segments":[],"categories_sizes":[],"default_left":[0,0,0,0,0,0,0,0,0,0,0],"id":47,"left_children":[1,3,5,-1,-1,7,-1,-1,9,-1,-1],"loss_changes":[5.2568755E0,3.1861567E-1,1.5731597E-1,0E0,0E0,1.4330956E-1,0E0,0E0,2.8844297E-2,0E0,0E0],"parents":[2147483647,0,0,1,1,2,2,5,5,8,8],"right_children":[2,4,6,-1,-1,8,-1,-1,10,-1,-1],"split_conditions":[4.8E0,1.5E0,5.2E0,-5.049588E-2,-1.8169042E-3,1.8E0,5.567419E-2,5.805014E-4,6E0,1.155085E-2,4.3861773E-2],"split_indices":[2,3,2,0,0,3,0,0,0,0,0],"split_type":[0,0,0,0,0,0,0,0,0,0,0],"sum_hessian":[2.3740723E1,1.1737908E1,1.2002814E1,1.0121552E1,1.6163554E0,4.632157E0,7.3706574E0,1.8956597E0,2.7364972E0,1.4227941E0,1.3137031E0],"tree_param":{"num_deleted":"0","num_feature":"4","num_nodes":"11","size_leaf_vector":"1"}},{"base_weights":[-2.0529624E-2,5.477686E-2,-5.0868608E-2],"categories":[],"categories_nodes":[],"categories_segments":[],"categories_sizes":[],"default_left":[0,0,0],"id":48,"left_children":[1,-1,-1],"loss_changes":[6.1621385E0,0E0,0E0],"parents":[2147483647,0,0],"right_children":[2,-1,-1],"split_conditions":[3E0,5.477686E-2,-5.0868608E-2],"split_indices":[2,0,0],"split_type":[0,0,0],"sum_hessian":[2.020802E1,9.281101E0,1.0926917E1],"tree_param":{"num_deleted":"0","num_feature":"4","num_nodes":"3","size_leaf_vector":"1"}},{"base_weights":[3.7992895E-3,-4.611937E-2,1.5854953E-1,4.5395592E-1,-3.2271487E-1,5.643299E-2,-1.0673233E-2,-7.289274E-2,-4.4992846E-2,-4.335661E-2,3.1130353E-2],"categories":[],"categories_nodes":[],"categories_segments":[],"categories_sizes":[],"default_left":[0,0,0,0,0,0,0,0,0,0,0],"id":49,"left_children":[1,-1,3,5,7,-1,-1,9,-1,-1,-1],"loss_changes":[1.7953339E0,0E0,2.805274E0,8.0310106E-1,2.1183985E-1,0E0,0E0,6.6022384E-1,0E0,0E0,0E0],"parents":[2147483647,0,0,2,2,3,3,4,4,7,7],"right_children":[2,-1,4,6,8,-1,-1,10,-1,-1,-1],"split_conditions":[3E0,-4.611937E-2,1.7E0,4.8E0,5.1E0,5.643299E-2,-1.0673233E-2,2.9E0,-4.4992846E-2,-4.335661E-2,3.1130353E-2],"split_indices":[2,0,3,2,2,0,0,1,0,0,0],"split_type":[0,0,0,0,0,0,0,0,0,0,0],"sum_hessian":[2.2933645E1,5.232076E0,1.770157E1,1.1003946E1,6.6976233E0,9.188629E0,1.8153174E0,2.7905445E0,3.9070785E0,1.3730552E0,1.4174894E0],"tree_param":{"num_deleted":"0","num_feature":"4","num_nodes":"11","size_leaf_vector":"1"}},{"base_weights":[1.46876825E-2,-4.3331635E-1,4.4150832E-1,-4.9682133E-2,-1.1305239E-3,2.1982363E-1,5.4181796E-2,1.2049424E-4,3.3157617E-1,1.0500376E-2,4.2550404E-2],"categories":[],"categories_nodes":[],"categories_segments":[],"categories_sizes":[],"default_left":[0,0,0,0,0,0,0,0,0,0,0],"id":50,"left_children":[1,3,5,-1,-1,7,-1,-1,9,-1,-1],"loss_changes":[4.6758223E0,3.1455946E-1,1.5898132E-1,0E0,0E0,1.3588929E-1,0E0,0E0,3.3802956E-2,0E0,0E0],"parents":[2147483647,0,0,1,1,2,2,5,5,8,8],"right_children":[2,4,6,-1,-1,8,-1,-1,10,-1,-1],"split_conditions":[4.8E0,1.5E0,5.2E0,-4.9682133E-2,-1.1305239E-3,1.8E0,5.4181796E-2,1.2049424E-4,6E0,1.0500376E-2,4.2550404E-2],"split_indices":[2,3,2,0,0,3,0,0,0,0,0],"split_type":[0,0,0,0,0,0,0,0,0,0,0],"sum_hessian":[2.245242E1,1.0946949E1,1.1505471E1,9.361015E0,1.585933E0,4.5784755E0,6.926996E0,1.8906422E0,2.6878335E0,1.4084047E0,1.2794287E0],"tree_param":{"num_deleted":"0","num_feature":"4","num_nodes":"11","size_leaf_vector":"1"}},{"base_weights":[-2.188346E-2,5.3470492E-2,-5.016777E-2],"categories":[],"categories_nodes":[],"categories_segments":[],"categories_sizes":[],"default_left":[0,0,0],"id":51,"left_children":[1,-1,-1],"loss_changes":[5.567575E0,0E0,0E0],"parents":[2147483647,0,0],"right_children":[2,-1,-1],"split_conditions":[3E0,5.3470492E-2,-5.016777E-2],"split_indices":[2,0,0],"split_type":[0,0,0],"sum_hessian":[1.8844103E1,8.670911E0,1.0173192E1],"tree_param":{"num_deleted":"0","num_feature":"4","num_nodes":"3","size_leaf_vector":"1"}},{"base_weights":[2.6043472E-3,-4.5187127E-2,1.515957E-1,4.3876562E-1,-3.1184274E-1,5.5052128E-2,-1.026776E-2,-6.979795E-2,-4.4033732E-2,-4.2568766E-2,3.0276611E-2],"categories":[],"categories_nodes":[],"categories_segments":[],"categories_sizes":[],"default_left":[0,0,0,0,0,0,0,0,0,0,0],"id":52,"left_children":[1,-1,3,5,7,-1,-1,9,-1,-1,-1],"loss_changes":[1.6042066E0,0E0,2.5096083E0,7.477479E-1,1.9959062E-1,0E0,0E0,6.269601E-1,0E0,0E0,0E0],"parents":[2147483647,0,0,2,2,3,3,4,4,7,7],"right_children":[2,-1,4,6,8,-1,-1,10,-1,-1,-1],"split_conditions":[3E0,-4.5187127E-2,1.7E0,4.8E0,5.1E0,5.5052128E-2,-1.026776E-2,2.9E0,-4.4033732E-2,-4.2568766E-2,3.0276611E-2],"split_indices":[2,0,3,2,2,0,0,1,0,0,0],"split_type":[0,0,0,0,0,0,0,0,0,0,0],"sum_hessian":[2.1679634E1,4.850635E0,1.6828999E1,1.0423383E1,6.4056163E0,8.62615E0,1.7972323E0,2.7564666E0,3.64915E0,1.3368547E0,1.4196119E0],"tree_param":{"num_deleted":"0","num_feature":"4","num_nodes":"11","size_leaf_vector":"1"}},{"base_weights":[1.6876059E-2,-4.22151E-1,4.2474508E-1,-4.8892494E-2,-4.8808727E-4,2.076351E-1,5.279953E-2,-3.002393E-4,3.1762213E-1,9.512426E-3,4.1335326E-2],"categories":[],"categories_nodes":[],"categories_segments":[],"categories_sizes":[],"default_left":[0,0,0,0,0,0,0,0,0,0,0],"id":53,"left_children":[1,3,5,-1,-1,7,-1,-1,9,-1,-1],"loss_changes":[4.160311E0,3.0991662E-1,1.5989614E-1,0E0,0E0,1.2891251E-1,0E0,0E0,3.8167357E-2,0E0,0E0],"parents":[2147483647,0,0,1,1,2,2,5,5,8,8],"right_children":[2,4,6,-1,-1,8,-1,-1,10,-1,-1],"split_conditions":[4.8E0,1.5E0,5.2E0,-4.8892494E-2,-4.8808727E-4,1.8E0,5.279953E-2,-3.002393E-4,6E0,9.512426E-3,4.1335326E-2],"split_indices":[2,3,2,0,0,3,0,0,0,0,0],"split_type":[0,0,0,0,0,0,0,0,0,0,0],"sum_hessian":[2.1232111E1,1.0208618E1,1.1023493E1,8.652305E0,1.5563134E0,4.523231E0,6.5002623E0,1.8853248E0,2.637906E0,1.3932896E0,1.2446164E0],"tree_param":{"num_deleted":"0","num_feature":"4","num_nodes":"11","size_leaf_vector":"1"}},{"base_weights":[-2.3250872E-2,5.225665E-2,-4.9491122E-2],"categories":[],"categories_nodes":[],"categories_segments":[],"categories_sizes":[],"default_left":[0,0,0],"id":54,"left_children":[1,-1,-1],"loss_changes":[5.0367413E0,0E0,0E0],"parents":[2147483647,0,0],"right_children":[2,-1,-1],"split_conditions":[3E0,5.225665E-2,-4.9491122E-2],"split_indices":[2,0,0],"split_type":[0,0,0],"sum_hessian":[1.756009E1,8.0900955E0,9.469994E0],"tree_param":{"num_deleted":"0","num_feature":"4","num_nodes":"3","size_leaf_vector":"1"}},{"base_weights":[1.4188197E-3,-4.4268038E-2,1.4492534E-1,4.244255E-1,-3.0131707E-1,5.3775597E-2,-9.877226E-3,-6.686033E-2,-4.309342E-2,-4.1803624E-2,2.9464671E-2],"categories":[],"categories_nodes":[],"categories_segments":[],"categories_sizes":[],"default_left":[0,0,0,0,0,0,0,0,0,0,0],"id":55,"left_children":[1,-1,3,5,7,-1,-1,9,-1,-1,-1],"loss_changes":[1.4339873E0,0E0,2.2479572E0,6.974571E-1,1.8789989E-1,0E0,0E0,5.957489E-1,0E0,0E0,0E0],"parents":[2147483647,0,0,2,2,3,3,4,4,7,7],"right_children":[2,-1,4,6,8,-1,-1,10,-1,-1,-1],"split_conditions":[3E0,-4.4268038E-2,1.7E0,4.8E0,5.1E0,5.3775597E-2,-9.877226E-3,2.9E0,-4.309342E-2,-4.1803624E-2,2.9464671E-2],"split_indices":[2,0,3,2,2,0,0,1,0,0,0],"split_type":[0,0,0,0,0,0,0,0,0,0,0],"sum_hessian":[2.0493917E1,4.4959345E0,1.5997983E1,9.866853E0,6.13113E0,8.087241E0,1.7796118E0,2.722461E0,3.408669E0,1.3016443E0,1.4208167E0],"tree_param":{"num_deleted":"0","num_feature":"4","num_nodes":"11","size_leaf_vector":"1"}},{"base_weights":[1.9024258E-2,-4.1107935E-1,4.0884507E-1,-4.8121136E-2,1.115452E-4,1.9622575E-1,5.1509153E-2,-6.845579E-4,3.0454507E-1,8.582922E-3,4.0206093E-2],"categories":[],"categories_nodes":[],"categories_segments":[],"categories_sizes":[],"default_left":[0,0,0,0,0,0,0,0,0,0,0],"id":56,"left_children":[1,3,5,-1,-1,7,-1,-1,9,-1,-1],"loss_changes":[3.702521E0,3.0468178E-1,1.6005623E-1,0E0,0E0,1.2234078E-1,0E0,0E0,4.2001814E-2,0E0,0E0],"parents":[2147483647,0,0,1,1,2,2,5,5,8,8],"right_children":[2,4,6,-1,-1,8,-1,-1,10,-1,-1],"split_conditions":[4.8E0,1.5E0,5.2E0,-4.8121136E-2,1.115452E-4,1.8E0,5.1509153E-2,-6.845579E-4,6E0,8.582922E-3,4.0206093E-2],"split_indices":[2,3,2,0,0,3,0,0,0,0,0],"split_type":[0,0,0,0,0,0,0,0,0,0,0],"sum_hessian":[2.0080658E1,9.521121E0,1.0559537E1,7.993625E0,1.5274953E0,4.467039E0,6.0924973E0,1.8797623E0,2.587277E0,1.3776151E0,1.2096618E0],"tree_param":{"num_deleted":"0","num_feature":"4","num_nodes":"11","size_leaf_vector":"1"}},{"base_weights":[-2.4627948E-2,5.1119596E-2,-4.8833925E-2],"categories":[],"categories_nodes":[],"categories_segments":[],"categories_sizes":[],"default_left":[0,0,0],"id":57,"left_children":[1,-1,-1],"loss_changes":[4.561919E0,0E0,0E0],"parents":[2147483647,0,0],"right_children":[2,-1,-1],"split_conditions":[3E0,5.1119596E-2,-4.8833925E-2],"split_indices":[2,0,0],"split_type":[0,0,0],"sum_hessian":[1.635551E1,7.540255E0,8.815255E0],"tree_param":{"num_deleted":"0","num_feature":"4","num_nodes":"3","size_leaf_vector":"1"}},{"base_weights":[2.4150578E-4,-4.335829E-2,1.3850501E-1,4.108053E-1,-2.9112852E-1,5.2586716E-2,-9.502077E-3,-6.407534E-2,-4.216914E-2,-4.105931E-2,2.8691022E-2],"categories":[],"categories_nodes":[],"categories_segments":[],"categories_sizes":[],"default_left":[0,0,0,0,0,0,0,0,0,0,0],"id":58,"left_children":[1,-1,3,5,7,-1,-1,9,-1,-1,-1],"loss_changes":[1.2822983E0,0E0,2.0159955E0,6.51562E-1,1.7674524E-1,0E0,0E0,5.664287E-1,0E0,0E0,0E0],"parents":[2147483647,0,0,2,2,3,3,4,4,7,7],"right_children":[2,-1,4,6,8,-1,-1,10,-1,-1,-1],"split_conditions":[3E0,-4.335829E-2,1.7E0,4.8E0,5.1E0,5.2586716E-2,-9.502077E-3,2.9E0,-4.216914E-2,-4.105931E-2,2.8691022E-2],"split_indices":[2,0,3,2,2,0,0,1,0,0,0],"split_type":[0,0,0,0,0,0,0,0,0,0,0],"sum_hessian":[1.9376835E1,4.1668243E0,1.521001E1,9.336433E0,5.8735766E0,7.573944E0,1.7624893E0,2.688664E0,3.1849127E0,1.2674845E0,1.4211794E0],"tree_param":{"num_deleted":"0","num_feature":"4","num_nodes":"11","size_leaf_vector":"1"}},{"base_weights":[2.1127755E-2,-4.00071E-1,3.9370033E-1,-4.736295E-2,6.6961E-4,1.855371E-1,5.029549E-2,2.9292104E-1,-9.76728E-4,7.098004E-3,3.9093938E-2],"categories":[],"categories_nodes":[],"categories_segments":[],"categories_sizes":[],"default_left":[0,0,0,0,0,0,0,0,0,0,0],"id":59,"left_children":[1,3,5,-1,-1,7,-1,9,-1,-1,-1],"loss_changes":[3.295695E0,2.9886222E-1,1.5947855E-1,0E0,0E0,1.163314E-1,0E0,4.889688E-2,0E0,0E0,0E0],"parents":[2147483647,0,0,1,1,2,2,5,5,7,7],"right_children":[2,4,6,-1,-1,8,-1,10,-1,-1,-1],"split_conditions":[4.8E0,1.5E0,5.2E0,-4.736295E-2,6.6961E-4,2.9E0,5.029549E-2,2.8E0,-9.76728E-4,7.098004E-3,3.9093938E-2],"split_indices":[2,3,2,0,0,1,0,1,0,0,0],"split_type":[0,0,0,0,0,0,0,0,0,0,0],"sum_hessian":[1.8997738E1,8.882328E0,1.0115409E1,7.38286E0,1.4994678E0,4.4104214E0,5.7049875E0,2.5232491E0,1.8871725E0,1.3011751E0,1.2220739E0],"tree_param":{"num_deleted":"0","num_feature":"4","num_nodes":"11","size_leaf_vector":"1"}},{"base_weights":[-2.5959643E-2,5.0046157E-2,-4.818844E-2],"categories":[],"categories_nodes":[],"categories_segments":[],"categories_sizes":[],"default_left":[0,0,0],"id":60,"left_children":[1,-1,-1],"loss_changes":[4.135974E0,0E0,0E0],"parents":[2147483647,0,0],"right_children":[2,-1,-1],"split_conditions":[3E0,5.0046157E-2,-4.818844E-2],"split_indices":[2,0,0],"split_type":[0,0,0],"sum_hessian":[1.5227797E1,7.022162E0,8.205635E0],"tree_param":{"num_deleted":"0","num_feature":"4","num_nodes":"3","size_leaf_vector":"1"}},{"base_weights":[-9.5834624E-4,-4.2454813E-2,1.3228129E-1,3.9911377E-1,-2.825167E-1,5.1471483E-2,-8.817709E-3,-6.3765265E-2,-4.127876E-2,-4.031163E-2,2.7493928E-2],"categories":[],"categories_nodes":[],"categories_segments":[],"categories_sizes":[],"default_left":[0,0,0,0,0,0,0,0,0,0,0],"id":61,"left_children":[1,-1,3,5,7,-1,-1,9,-1,-1,-1],"loss_changes":[1.1469228E0,0E0,1.8243787E0,5.988488E-1,1.6287678E-1,0E0,0E0,5.3159976E-1,0E0,0E0,0E0],"parents":[2147483647,0,0,2,2,3,3,4,4,7,7],"right_children":[2,-1,4,6,8,-1,-1,10,-1,-1,-1],"split_conditions":[3E0,-4.2454813E-2,1.7E0,4.8E0,5.1E0,5.1471483E-2,-8.817709E-3,2.9E0,-4.127876E-2,-4.031163E-2,2.7493928E-2],"split_indices":[2,0,3,2,2,0,0,1,0,0,0],"split_type":[0,0,0,0,0,0,0,0,0,0,0],"sum_hessian":[1.8326424E1,3.8620403E0,1.4464384E1,8.825136E0,5.639248E0,7.0874796E0,1.7376564E0,2.660764E0,2.9784842E0,1.2341187E0,1.4266453E0],"tree_param":{"num_deleted":"0","num_feature":"4","num_nodes":"11","size_leaf_vector":"1"}},{"base_weights":[2.3169987E-2,-3.891039E-1,3.7924364E-1,-4.661345E-2,1.1874624E-3,1.7551012E-1,4.9145874E-2,-1.8107066E-3,2.8397313E-1,6.8148407E-3,3.8678866E-2],"categories":[],"categories_nodes":[],"categories_segments":[],"categories_sizes":[],"default_left":[0,0,0,0,0,0,0,0,0,0,0],"id":62,"left_children":[1,3,5,-1,-1,7,-1,-1,9,-1,-1],"loss_changes":[2.9339669E0,2.924776E-1,1.5816307E-1,0E0,0E0,1.1754891E-1,0E0,0E0,5.1099896E-2,0E0,0E0],"parents":[2147483647,0,0,1,1,2,2,5,5,8,8],"right_children":[2,4,6,-1,-1,8,-1,-1,10,-1,-1],"split_conditions":[4.8E0,1.5E0,5.2E0,-4.661345E-2,1.1874624E-3,1.8E0,4.9145874E-2,-1.8107066E-3,6E0,6.8148407E-3,3.8678866E-2],"split_indices":[2,3,2,0,0,3,0,0,0,0,0],"split_type":[0,0,0,0,0,0,0,0,0,0,0],"sum_hessian":[1.7980955E1,8.289887E0,9.691069E0,6.8176746E0,1.472213E0,4.3526354E0,5.338433E0,1.8619425E0,2.490693E0,1.3402128E0,1.1504803E0],"tree_param":{"num_deleted":"0","num_feature":"4","num_nodes":"11","size_leaf_vector":"1"}},{"base_weights":[-2.7336165E-2,4.9025204E-2,-4.755787E-2],"categories":[],"categories_nodes":[],"categories_segments":[],"categories_sizes":[],"default_left":[0,0,0],"id":63,"left_children":[1,-1,-1],"loss_changes":[3.7542195E0,0E0,0E0],"parents":[2147483647,0,0],"right_children":[2,-1,-1],"split_conditions":[3E0,4.9025204E-2,-4.755787E-2],"split_indices":[2,0,0],"split_type":[0,0,0],"sum_hessian":[1.4176679E1,6.535908E0,7.64077E0],"tree_param":{"num_deleted":"0","num_feature":"4","num_nodes":"3","size_leaf_vector":"1"}},{"base_weights":[-2.1234942E-3,-4.155524E-2,1.2628417E-1,3.8662407E-1,-2.729914E-1,5.041812E-2,-8.487335E-3,-6.1196007E-2,-4.0381372E-2,-3.960136E-2,2.6800448E-2],"categories":[],"categories_nodes":[],"categories_segments":[],"categories_sizes":[],"default_left":[0,0,0,0,0,0,0,0,0,0,0],"id":64,"left_children":[1,-1,3,5,7,-1,-1,9,-1,-1,-1],"loss_changes":[1.0262944E0,0E0,1.6401596E0,5.6106305E-1,1.5297714E-1,0E0,0E0,5.0594264E-1,0E0,0E0,0E0],"parents":[2147483647,0,0,2,2,3,3,4,4,7,7],"right_children":[2,-1,4,6,8,-1,-1,10,-1,-1,-1],"split_conditions":[3E0,-4.155524E-2,1.7E0,4.8E0,5.1E0,5.041812E-2,-8.487335E-3,2.9E0,-4.0381372E-2,-3.960136E-2,2.6800448E-2],"split_indices":[2,0,3,2,2,0,0,1,0,0,0],"split_type":[0,0,0,0,0,0,0,0,0,0,0],"sum_hessian":[1.7343636E1,3.580251E0,1.3763384E1,8.350372E0,5.413012E0,6.6284094E0,1.7219626E0,2.627305E0,2.7857072E0,1.2019205E0,1.4253844E0],"tree_param":{"num_deleted":"0","num_feature":"4","num_nodes":"11","size_leaf_vector":"1"}},{"base_weights":[2.5169592E-2,-3.7816313E-1,3.6537462E-1,-4.586878E-2,1.6667035E-3,1.6611202E-1,4.8050165E-2,-2.0824287E-3,2.7300566E-1,6.0409666E-3,3.774101E-2],"categories":[],"categories_nodes":[],"categories_segments":[],"categories_sizes":[],"default_left":[0,0,0,0,0,0,0,0,0,0,0],"id":65,"left_children":[1,3,5,-1,-1,7,-1,-1,9,-1,-1],"loss_changes":[2.6122599E0,2.8556216E-1,1.5622544E-1,0E0,0E0,1.1151613E-1,0E0,0E0,5.356309E-2,0E0,0E0],"parents":[2147483647,0,0,1,1,2,2,5,5,8,8],"right_children":[2,4,6,-1,-1,8,-1,-1,10,-1,-1],"split_conditions":[4.8E0,1.5E0,5.2E0,-4.586878E-2,1.6667035E-3,1.8E0,4.8050165E-2,-2.0824287E-3,6E0,6.0409666E-3,3.774101E-2],"split_indices":[2,3,2,0,0,3,0,0,0,0,0],"split_type":[0,0,0,0,0,0,0,0,0,0,0],"sum_hessian":[1.7030638E1,7.7413025E0,9.289336E0,6.2955966E0,1.4457059E0,4.296238E0,4.9930983E0,1.8558687E0,2.4403691E0,1.3236557E0,1.1167133E0],"tree_param":{"num_deleted":"0","num_feature":"4","num_nodes":"11","size_leaf_vector":"1"}},{"base_weights":[-2.8707415E-2,4.8047397E-2,-4.6935882E-2],"categories":[],"categories_nodes":[],"categories_segments":[],"categories_sizes":[],"default_left":[0,0,0],"id":66,"left_children":[1,-1,-1],"loss_changes":[3.4112039E0,0E0,0E0],"parents":[2147483647,0,0],"right_children":[2,-1,-1],"split_conditions":[3E0,4.8047397E-2,-4.6935882E-2],"split_indices":[2,0,0],"split_type":[0,0,0],"sum_hessian":[1.3198278E1,6.081089E0,7.11719E0],"tree_param":{"num_deleted":"0","num_feature":"4","num_nodes":"3","size_leaf_vector":"1"}},{"base_weights":[-3.278859E-3,-4.065784E-2,1.2047628E-1,3.7458983E-1,-2.6378706E-1,4.9416658E-2,-8.172358E-3,-3.510036E-1,1.1231465E-3,-4.7983628E-2,-1.4876041E-3],"categories":[],"categories_nodes":[],"categories_segments":[],"categories_sizes":[],"default_left":[0,0,0,0,0,0,0,0,0,0,0],"id":67,"left_children":[1,-1,3,5,7,-1,-1,9,-1,-1,-1],"loss_changes":[9.1867685E-1,0E0,1.4761177E0,5.262033E-1,1.5269136E-1,0E0,0E0,1.9809431E-1,0E0,0E0,0E0],"parents":[2147483647,0,0,2,2,3,3,4,4,7,7],"right_children":[2,-1,4,6,8,-1,-1,10,-1,-1,-1],"split_conditions":[3E0,-4.065784E-2,1.7E0,4.8E0,3.2E0,4.9416658E-2,-8.172358E-3,6.6E0,1.1231465E-3,-4.7983628E-2,-1.4876041E-3],"split_indices":[2,0,3,2,1,0,0,0,0,0,0],"split_type":[0,0,0,0,0,0,0,0,0,0,0],"sum_hessian":[1.6425104E1,3.3200881E0,1.3105017E1,7.903562E0,5.2014546E0,6.196751E0,1.7068106E0,3.7393165E0,1.4621384E0,2.394137E0,1.3451794E0],"tree_param":{"num_deleted":"0","num_feature":"4","num_nodes":"11","size_leaf_vector":"1"}},{"base_weights":[2.7108634E-2,-3.6724186E-1,3.520537E-1,-4.5125645E-2,2.108669E-3,1.5729778E-1,4.699913E-2,-2.32789E-3,2.6267108E-1,5.3128805E-3,3.686096E-2],"categories":[],"categories_nodes":[],"categories_segments":[],"categories_sizes":[],"default_left":[0,0,0,0,0,0,0,0,0,0,0],"id":68,"left_children":[1,3,5,-1,-1,7,-1,-1,9,-1,-1],"loss_changes":[2.3260705E0,2.781521E-1,1.5367854E-1,0E0,0E0,1.05830684E-1,0E0,0E0,5.5686608E-2,0E0,0E0],"parents":[2147483647,0,0,1,1,2,2,5,5,8,8],"right_children":[2,4,6,-1,-1,8,-1,-1,10,-1,-1],"split_conditions":[4.8E0,1.5E0,5.2E0,-4.5125645E-2,2.108669E-3,1.8E0,4.699913E-2,-2.32789E-3,6E0,5.3128805E-3,3.686096E-2],"split_indices":[2,3,2,0,0,3,0,0,0,0,0],"split_type":[0,0,0,0,0,0,0,0,0,0,0],"sum_hessian":[1.6143309E1,7.23401E0,8.909298E0,5.814089E0,1.4199215E0,4.240499E0,4.668799E0,1.8497283E0,2.3907707E0,1.3070276E0,1.0837431E0],"tree_param":{"num_deleted":"0","num_feature":"4","num_nodes":"11","size_leaf_vector":"1"}},{"base_weights":[-3.03093E-2,4.7104858E-2,-4.633155E-2],"categories":[],"categories_nodes":[],"categories_segments":[],"categories_sizes":[],"default_left":[0,0,0],"id":69,"left_children":[1,-1,-1],"loss_changes":[3.1043854E0,0E0,0E0],"parents":[2147483647,0,0],"right_children":[2,-1,-1],"split_conditions":[3E0,4.7104858E-2,-4.633155E-2],"split_indices":[2,0,0],"split_type":[0,0,0],"sum_hessian":[1.229461E1,5.6568956E0,6.637714E0],"tree_param":{"num_deleted":"0","num_feature":"4","num_nodes":"3","size_leaf_vector":"1"}},{"base_weights":[-4.211954E-3,-3.976148E-2,1.1474525E-1,3.6295438E-1,-2.5262865E-1,4.8458684E-2,-7.872657E-3,-3.4073526E-1,1.8984796E-3,-4.701614E-2,-8.2872016E-4],"categories":[],"categories_nodes":[],"categories_segments":[],"categories_sizes":[],"default_left":[0,0,0,0,0,0,0,0,0,0,0],"id":70,"left_children":[1,-1,3,5,7,-1,-1,9,-1,-1,-1],"loss_changes":[8.2290065E-1,0E0,1.3253384E0,4.939518E-1,1.5112221E-1,0E0,0E0,1.9475639E-1,0E0,0E0,0E0],"parents":[2147483647,0,0,2,2,3,3,4,4,7,7],"right_children":[2,-1,4,6,8,-1,-1,10,-1,-1,-1],"split_conditions":[3E0,-3.976148E-2,1.7E0,4.8E0,3.2E0,4.8458684E-2,-7.872657E-3,6.6E0,1.8984796E-3,-4.701614E-2,-8.2872016E-4],"split_indices":[2,0,3,2,1,0,0,0,0,0,0],"split_type":[0,0,0,0,0,0,0,0,0,0,0],"sum_hessian":[1.560914E1,3.080182E0,1.2528958E1,7.4843388E0,5.04462E0,5.792129E0,1.6922095E0,3.6168816E0,1.4277384E0,2.3051991E0,1.3116825E0],"tree_param":{"num_deleted":"0","num_feature":"4","num_nodes":"11","size_leaf_vector":"1"}},{"base_weights":[2.8907113E-2,-3.5653228E-1,3.3790562E-1,-4.4381283E-2,2.4433646E-3,1.436181E-1,4.6135645E-2,2.482972E-1,-3.0152013E-3,3.782713E-3,3.546856E-2],"categories":[],"categories_nodes":[],"categories_segments":[],"categories_sizes":[],"default_left":[0,0,0,0,0,0,0,0,0,0,0],"id":71,"left_children":[1,3,5,-1,-1,7,-1,9,-1,-1,-1],"loss_changes":[2.068904E0,2.6906997E-1,1.6384304E-1,0E0,0E0,1.01700485E-1,0E0,6.138371E-2,0E0,0E0,0E0],"parents":[2147483647,0,0,1,1,2,2,5,5,7,7],"right_children":[2,4,6,-1,-1,8,-1,10,-1,-1,-1],"split_conditions":[4.8E0,1.5E0,5.2E0,-4.4381283E-2,2.4433646E-3,2.9E0,4.6135645E-2,2.8E0,-3.0152013E-3,3.782713E-3,3.546856E-2],"split_indices":[2,3,2,0,0,1,0,1,0,0,0],"split_type":[0,0,0,0,0,0,0,0,0,0,0],"sum_hessian":[1.5359585E1,6.765983E0,8.593601E0,5.370595E0,1.3953882E0,4.1794014E0,4.4142E0,2.3405633E0,1.8388382E0,1.2410092E0,1.0995542E0],"tree_param":{"num_deleted":"0","num_feature":"4","num_nodes":"11","size_leaf_vector":"1"}},{"base_weights":[-3.1839736E-2,4.619101E-2,-4.5727145E-2],"categories":[],"categories_nodes":[],"categories_segments":[],"categories_sizes":[],"default_left":[0,0,0],"id":72,"left_children":[1,-1,-1],"loss_changes":[2.827533E0,0E0,0E0],"parents":[2147483647,0,0],"right_children":[2,-1,-1],"split_conditions":[3E0,4.619101E-2,-4.5727145E-2],"split_indices":[2,0,0],"split_type":[0,0,0],"sum_hessian":[1.1455271E1,5.2622433E0,6.1930275E0],"tree_param":{"num_deleted":"0","num_feature":"4","num_nodes":"3","size_leaf_vector":"1"}},{"base_weights":[-5.0690244E-3,-3.886555E-2,1.0931045E-1,3.5309166E-1,-2.4309987E-1,4.753692E-2,-7.2827647E-3,-3.816376E-2,-3.8304567E-2,-3.7244286E-2,2.7007535E-2],"categories":[],"categories_nodes":[],"categories_segments":[],"categories_sizes":[],"default_left":[0,0,0,0,0,0,0,0,0,0,0],"id":73,"left_children":[1,-1,3,5,7,-1,-1,9,-1,-1,-1],"loss_changes":[7.377067E-1,0E0,1.2015253E0,4.5564508E-1,1.5466261E-1,0E0,0E0,4.6181118E-1,0E0,0E0,0E0],"parents":[2147483647,0,0,2,2,3,3,4,4,7,7],"right_children":[2,-1,4,6,8,-1,-1,10,-1,-1,-1],"split_conditions":[3E0,-3.886555E-2,1.7E0,4.8E0,5.1E0,4.753692E-2,-7.2827647E-3,2.9E0,-3.8304567E-2,-3.7244286E-2,2.7007535E-2],"split_indices":[2,0,3,2,2,0,0,1,0,0,0],"split_type":[0,0,0,0,0,0,0,0,0,0,0],"sum_hessian":[1.4845737E1,2.8591747E0,1.1986563E1,7.0841446E0,4.902418E0,5.413793E0,1.6703516E0,2.5057344E0,2.3966837E0,1.1021658E0,1.4035687E0],"tree_param":{"num_deleted":"0","num_feature":"4","num_nodes":"11","size_leaf_vector":"1"}},{"base_weights":[3.051691E-2,-2.8526366E-1,3.837942E-1,-4.5380484E-2,1.9722372E-2,4.504807E-1,1.3215013E-1,5.4799315E-2,1.5437514E-2,-8.414056E-3,2.8121108E-2],"categories":[],"categories_nodes":[],"categories_segments":[],"categories_sizes":[],"default_left":[0,0,0,0,0,0,0,0,0,0,0],"id":74,"left_children":[1,3,5,-1,-1,7,9,-1,-1,-1,-1],"loss_changes":[1.8528303E0,8.0715513E-1,7.139778E-2,0E0,0E0,8.1501365E-2,1.2198126E-1,0E0,0E0,0E0,0E0],"parents":[2147483647,0,0,1,1,2,2,5,5,6,6],"right_children":[2,4,6,-1,-1,8,10,-1,-1,-1,-1],"split_conditions":[1.7E0,4.8E0,3.2E0,-4.5380484E-2,1.9722372E-2,6.6E0,6.4E0,5.4799315E-2,1.5437514E-2,-8.414056E-3,2.8121108E-2],"split_indices":[3,2,1,0,0,0,0,0,0,0,0],"split_type":[0,0,0,0,0,0,0,0,0,0,0],"sum_hessian":[1.4627263E1,7.8251734E0,6.80209E0,5.843415E0,1.9817585E0,4.752509E0,2.049581E0,2.9352238E0,1.8172853E0,1.0139078E0,1.0356733E0],"tree_param":{"num_deleted":"0","num_feature":"4","num_nodes":"11","size_leaf_vector":"1"}},{"base_weights":[-3.374662E-2,4.5291856E-2,-4.5111764E-2],"categories":[],"categories_nodes":[],"categories_segments":[],"categories_sizes":[],"default_left":[0,0,0],"id":75,"left_children":[1,-1,-1],"loss_changes":[2.5772252E0,0E0,0E0],"parents":[2147483647,0,0],"right_children":[2,-1,-1],"split_conditions":[3E0,4.5291856E-2,-4.5111764E-2],"split_indices":[2,0,0],"split_type":[0,0,0],"sum_hessian":[1.0682288E1,4.8924255E0,5.7898626E0],"tree_param":{"num_deleted":"0","num_feature":"4","num_nodes":"3","size_leaf_vector":"1"}},{"base_weights":[-6.2540323E-3,-3.797076E-2,1.0416634E-1,3.4182167E-1,-2.3253669E-1,4.652446E-2,-6.72329E-3,-3.0055072E-2,-3.7527323E-2,-3.5993222E-2,2.6548684E-2],"categories":[],"categories_nodes":[],"categories_segments":[],"categories_sizes":[],"default_left":[0,0,0,0,0,0,0,0,0,0,0],"id":76,"left_children":[1,-1,3,5,7,-1,-1,9,-1,-1,-1],"loss_changes":[6.612927E-1,0E0,1.0734341E0,4.193493E-1,1.5446529E-1,0E0,0E0,4.3270695E-1,0E0,0E0,0E0],"parents":[2147483647,0,0,2,2,3,3,4,4,7,7],"right_children":[2,-1,4,6,8,-1,-1,10,-1,-1,-1],"split_conditions":[3E0,-3.797076E-2,1.7E0,4.8E0,5.1E0,4.652446E-2,-6.72329E-3,2.9E0,-3.7527323E-2,-3.5993222E-2,2.6548684E-2],"split_indices":[2,0,3,2,2,0,0,1,0,0,0],"split_type":[0,0,0,0,0,0,0,0,0,0,0],"sum_hessian":[1.407728E1,2.655922E0,1.1421358E1,6.6865697E0,4.734789E0,5.0311646E0,1.6554052E0,2.458211E0,2.2765777E0,1.0586727E0,1.3995383E0],"tree_param":{"num_deleted":"0","num_feature":"4","num_nodes":"11","size_leaf_vector":"1"}},{"base_weights":[3.27672E-2,-2.758102E-1,3.7028727E-1,-4.463021E-2,1.8653175E-2,4.3609932E-1,1.2279942E-2,5.325547E-2,1.4414312E-2],"categories":[],"categories_nodes":[],"categories_segments":[],"categories_sizes":[],"default_left":[0,0,0,0,0,0,0,0,0],"id":77,"left_children":[1,3,5,-1,-1,7,-1,-1,-1],"loss_changes":[1.6549305E0,7.423582E-1,6.9378614E-2,0E0,0E0,8.0094695E-2,0E0,0E0,0E0],"parents":[2147483647,0,0,1,1,2,2,5,5],"right_children":[2,4,6,-1,-1,8,-1,-1,-1],"split_conditions":[1.7E0,4.8E0,3.2E0,-4.463021E-2,1.8653175E-2,6.6E0,1.2279942E-2,5.325547E-2,1.4414312E-2],"split_indices":[3,2,1,0,0,0,0,0,0],"split_type":[0,0,0,0,0,0,0,0,0],"sum_hessian":[1.3909125E1,7.361612E0,6.5475135E0,5.4036646E0,1.9579473E0,4.570122E0,1.9773918E0,2.815768E0,1.7543538E0],"tree_param":{"num_deleted":"0","num_feature":"4","num_nodes":"9","size_leaf_vector":"1"}},{"base_weights":[-3.561125E-2,4.4411555E-2,-4.4497665E-2],"categories":[],"categories_nodes":[],"categories_segments":[],"categories_sizes":[],"default_left":[0,0,0],"id":78,"left_children":[1,-1,-1],"loss_changes":[2.3512912E0,0E0,0E0],"parents":[2147483647,0,0],"right_children":[2,-1,-1],"split_conditions":[3E0,4.4411555E-2,-4.4497665E-2],"split_indices":[2,0,0],"split_type":[0,0,0],"sum_hessian":[9.966652E0,4.549868E0,5.4167833E0],"tree_param":{"num_deleted":"0","num_feature":"4","num_nodes":"3","size_leaf_vector":"1"}},{"base_weights":[-7.0919064E-3,-3.7076566E-2,9.9572614E-2,3.3087978E-1,-2.2168009E-1,4.5539595E-2,-6.1928923E-3,-2.1074368E-2,-3.6780067E-2,-3.4784168E-2,2.629214E-2],"categories":[],"categories_nodes":[],"categories_segments":[],"categories_sizes":[],"default_left":[0,0,0,0,0,0,0,0,0,0,0],"id":79,"left_children":[1,-1,3,5,7,-1,-1,9,-1,-1,-1],"loss_changes":[5.940665E-1,0E0,9.5715916E-1,3.86043E-1,1.5574592E-1,0E0,0E0,4.080336E-1,0E0,0E0,0E0],"parents":[2147483647,0,0,2,2,3,3,4,4,7,7],"right_children":[2,-1,4,6,8,-1,-1,10,-1,-1,-1],"split_conditions":[3E0,-3.7076566E-2,1.7E0,4.8E0,5.1E0,4.5539595E-2,-6.1928923E-3,2.9E0,-3.6780067E-2,-3.4784168E-2,2.629214E-2],"split_indices":[2,0,3,2,2,0,0,1,0,0,0],"split_type":[0,0,0,0,0,0,0,0,0,0,0],"sum_hessian":[1.3362797E1,2.4689362E0,1.089386E1,6.3161573E0,4.577703E0,4.674924E0,1.6412332E0,2.4113877E0,2.1663156E0,1.0167248E0,1.3946629E0],"tree_param":{"num_deleted":"0","num_feature":"4","num_nodes":"11","size_leaf_vector":"1"}},{"base_weights":[3.457091E-2,-2.6652405E-1,3.566699E-1,-4.387879E-2,1.7641671E-2,4.223413E-1,1.1264554E-2,5.179301E-2,1.344041E-2],"categories":[],"categories_nodes":[],"categories_segments":[],"categories_sizes":[],"default_left":[0,0,0,0,0,0,0,0,0],"id":80,"left_children":[1,3,5,-1,-1,7,-1,-1,-1],"loss_changes":[1.4763889E0,6.827864E-1,6.9558024E-2,0E0,0E0,7.889247E-2,0E0,0E0,0E0],"parents":[2147483647,0,0,1,1,2,2,5,5],"right_children":[2,4,6,-1,-1,8,-1,-1,-1],"split_conditions":[1.7E0,4.8E0,3.2E0,-4.387879E-2,1.7641671E-2,6.6E0,1.1264554E-2,5.179301E-2,1.344041E-2],"split_indices":[3,2,1,0,0,0,0,0,0],"split_type":[0,0,0,0,0,0,0,0,0],"sum_hessian":[1.3243081E1,6.9338894E0,6.309191E0,4.999077E0,1.9348125E0,4.395538E0,1.9136534E0,2.7003279E0,1.69521E0],"tree_param":{"num_deleted":"0","num_feature":"4","num_nodes":"9","size_leaf_vector":"1"}},{"base_weights":[-3.7423234E-2,4.3546345E-2,-4.388442E-2],"categories":[],"categories_nodes":[],"categories_segments":[],"categories_sizes":[],"default_left":[0,0,0],"id":81,"left_children":[1,-1,-1],"loss_changes":[2.147165E0,0E0,0E0],"parents":[2147483647,0,0],"right_children":[2,-1,-1],"split_conditions":[3E0,4.3546345E-2,-4.388442E-2],"split_indices":[2,0,0],"split_type":[0,0,0],"sum_hessian":[9.30448E0,4.2330303E0,5.0714498E0],"tree_param":{"num_deleted":"0","num_feature":"4","num_nodes":"3","size_leaf_vector":"1"}},{"base_weights":[-7.816421E-3,-3.6183666E-2,9.524585E-2,3.2023922E-1,-2.1121028E-1,4.457703E-2,-5.6907306E-3,-1.256212E-2,-3.6052633E-2,6.97774E-4,-2.6189028E-3],"categories":[],"categories_nodes":[],"categories_segments":[],"categories_sizes":[],"default_left":[0,0,0,0,0,0,0,0,0,0,0],"id":82,"left_children":[1,-1,3,5,7,-1,-1,9,-1,-1,-1],"loss_changes":[5.3425425E-1,0E0,8.537503E-1,3.5543644E-1,1.5651216E-1,0E0,0E0,1.0789703E-3,0E0,0E0,0E0],"parents":[2147483647,0,0,2,2,3,3,4,4,7,7],"right_children":[2,-1,4,6,8,-1,-1,10,-1,-1,-1],"split_conditions":[3E0,-3.6183666E-2,1.7E0,4.8E0,5.1E0,4.457703E-2,-5.6907306E-3,6E0,-3.6052633E-2,6.97774E-4,-2.6189028E-3],"split_indices":[2,0,3,2,2,0,0,0,0,0,0],"split_type":[0,0,0,0,0,0,0,0,0,0,0],"sum_hessian":[1.2698103E1,2.2970052E0,1.0401098E1,5.9717755E0,4.4293227E0,4.343959E0,1.6278167E0,2.365896E0,2.0634265E0,1.1725296E0,1.1933665E0],"tree_param":{"num_deleted":"0","num_feature":"4","num_nodes":"11","size_leaf_vector":"1"}},{"base_weights":[3.6168616E-2,-4.0726684E-2,2.3929925E-1,6.0333885E-2,4.332942E-2,2.214072E-1,-3.7158452E-2,4.50398E-2,4.5105472E-2,-2.6481105E-2,3.848435E-2],"categories":[],"categories_nodes":[],"categories_segments":[],"categories_sizes":[],"default_left":[0,0,0,0,0,0,0,0,0,0,0],"id":83,"left_children":[1,-1,3,5,-1,7,-1,-1,9,-1,-1],"loss_changes":[1.3244829E0,0E0,3.200842E-1,5.239692E-1,0E0,1.9167522E-1,0E0,0E0,5.3129715E-1,0E0,0E0],"parents":[2147483647,0,0,2,2,3,3,5,5,8,8],"right_children":[2,-1,4,6,-1,8,-1,-1,10,-1,-1],"split_conditions":[4.5E0,-4.0726684E-2,5.2E0,3.1E0,4.332942E-2,2.6E0,-3.7158452E-2,4.50398E-2,1.8E0,-2.6481105E-2,3.848435E-2],"split_indices":[2,0,2,1,0,1,0,0,3,0,0],"split_type":[0,0,0,0,0,0,0,0,0,0,0],"sum_hessian":[1.2622202E1,3.6497734E0,8.972428E0,5.3489194E0,3.6235092E0,4.2510004E0,1.0979192E0,1.1728871E0,3.078113E0,1.7250385E0,1.3530747E0],"tree_param":{"num_deleted":"0","num_feature":"4","num_nodes":"11","size_leaf_vector":"1"}},{"base_weights":[-3.789636E-2,4.2704996E-2,-4.3240108E-2],"categories":[],"categories_nodes":[],"categories_segments":[],"categories_sizes":[],"default_left":[0,0,0],"id":84,"left_children":[1,-1,-1],"loss_changes":[1.9593242E0,0E0,0E0],"parents":[2147483647,0,0],"right_children":[2,-1,-1],"split_conditions":[3E0,4.2704996E-2,-4.3240108E-2],"split_indices":[2,0,0],"split_type":[0,0,0],"sum_hessian":[8.675245E0,3.9442384E0,4.731007E0],"tree_param":{"num_deleted":"0","num_feature":"4","num_nodes":"3","size_leaf_vector":"1"}},{"base_weights":[-8.50967E-3,-3.529216E-2,9.115917E-2,2.3131542E-1,-3.5340548E-2,3.5985014E-1,-5.623575E-2,4.3667197E-2,2.7557972E-3,-9.568126E-3,1.8464051E-3],"categories":[],"categories_nodes":[],"categories_segments":[],"categories_sizes":[],"default_left":[0,0,0,0,0,0,0,0,0,0,0],"id":85,"left_children":[1,-1,3,5,-1,7,9,-1,-1,-1,-1],"loss_changes":[4.808477E-1,0E0,7.6289E-1,3.4976882E-1,0E0,1.4870566E-1,1.2430524E-2,0E0,0E0,0E0,0E0],"parents":[2147483647,0,0,2,2,3,3,5,5,6,6],"right_children":[2,-1,4,6,-1,8,10,-1,-1,-1,-1],"split_conditions":[3E0,-3.529216E-2,5.2E0,1.7E0,-3.5340548E-2,4.8E0,4.9E0,4.3667197E-2,2.7557972E-3,-9.568126E-3,1.8464051E-3],"split_indices":[2,0,2,3,0,2,2,0,0,0,0],"split_type":[0,0,0,0,0,0,0,0,0,0,0],"sum_hessian":[1.20705805E1,2.138818E0,9.931762E0,7.9158444E0,2.0159178E0,5.29677E0,2.619074E0,4.047027E0,1.2497431E0,1.53018E0,1.0888942E0],"tree_param":{"num_deleted":"0","num_feature":"4","num_nodes":"11","size_leaf_vector":"1"}},{"base_weights":[3.6750436E-2,-3.9934695E-2,2.3161784E-1,5.8577787E-2,4.2419348E-2,2.1536596E-1,-3.636506E-2,4.3880444E-2,4.178916E-2,-2.5862709E-2,3.7484344E-2],"categories":[],"categories_nodes":[],"categories_segments":[],"categories_sizes":[],"default_left":[0,0,0,0,0,0,0,0,0,0,0],"id":86,"left_children":[1,-1,3,5,-1,7,-1,-1,9,-1,-1],"loss_changes":[1.1975434E0,0E0,2.957341E-1,4.905756E-1,0E0,1.8214302E-1,0E0,0E0,4.986105E-1,0E0,0E0],"parents":[2147483647,0,0,2,2,3,3,5,5,8,8],"right_children":[2,-1,4,6,-1,8,-1,-1,10,-1,-1],"split_conditions":[4.5E0,-3.9934695E-2,5.2E0,3.1E0,4.2419348E-2,2.6E0,-3.636506E-2,4.3880444E-2,1.8E0,-2.5862709E-2,3.7484344E-2],"split_indices":[2,0,2,1,0,1,0,0,3,0,0],"split_type":[0,0,0,0,0,0,0,0,0,0,0],"sum_hessian":[1.2003441E1,3.3830729E0,8.620368E0,5.2274184E0,3.3929496E0,4.1691847E0,1.0582339E0,1.1547315E0,3.0144532E0,1.702374E0,1.3120792E0],"tree_param":{"num_deleted":"0","num_feature":"4","num_nodes":"11","size_leaf_vector":"1"}},{"base_weights":[-3.8333114E-2,4.1873705E-2,-4.2593624E-2],"categories":[],"categories_nodes":[],"categories_segments":[],"categories_sizes":[],"default_left":[0,0,0],"id":87,"left_children":[1,-1,-1],"loss_changes":[1.789563E0,0E0,0E0],"parents":[2147483647,0,0],"right_children":[2,-1,-1],"split_conditions":[3E0,4.1873705E-2,-4.2593624E-2],"split_indices":[2,0,0],"split_type":[0,0,0],"sum_hessian":[8.094555E0,3.677565E0,4.41699E0],"tree_param":{"num_deleted":"0","num_feature":"4","num_nodes":"3","size_leaf_vector":"1"}},{"base_weights":[-9.103549E-3,-3.4404177E-2,8.7316714E-2,2.2183657E-1,-3.442019E-2,3.481078E-1,-5.2283622E-2,4.2771943E-2,2.478468E-3,-9.08139E-3,1.9705116E-3],"categories":[],"categories_nodes":[],"categories_segments":[],"categories_sizes":[],"default_left":[0,0,0,0,0,0,0,0,0,0,0],"id":88,"left_children":[1,-1,3,5,-1,7,9,-1,-1,-1,-1],"loss_changes":[4.3328547E-1,0E0,6.854465E-1,3.161304E-1,0E0,1.4444369E-1,1.1730352E-2,0E0,0E0,0E0,0E0],"parents":[2147483647,0,0,2,2,3,3,5,5,6,6],"right_children":[2,-1,4,6,-1,8,10,-1,-1,-1,-1],"split_conditions":[3E0,-3.4404177E-2,5.2E0,1.7E0,-3.442019E-2,4.8E0,4.9E0,4.2771943E-2,2.478468E-3,-9.08139E-3,1.9705116E-3],"split_indices":[2,0,2,3,0,2,2,0,0,0,0],"split_type":[0,0,0,0,0,0,0,0,0,0,0],"sum_hessian":[1.148636E1,1.9934611E0,9.492899E0,7.6073356E0,1.8855631E0,5.0234256E0,2.58391E0,3.7718105E0,1.2516148E0,1.5127467E0,1.0711633E0],"tree_param":{"num_deleted":"0","num_feature":"4","num_nodes":"11","size_leaf_vector":"1"}},{"base_weights":[3.7202902E-2,-3.9136406E-2,2.2416367E-1,5.7497565E-2,4.1475825E-2,2.1067695E-1,-3.569875E-2,4.2744435E-2,4.0342662E-2,-2.5110707E-2,3.660522E-2],"categories":[],"categories_nodes":[],"categories_segments":[],"categories_sizes":[],"default_left":[0,0,0,0,0,0,0,0,0,0,0],"id":89,"left_children":[1,-1,3,5,-1,7,-1,-1,9,-1,-1],"loss_changes":[1.0833868E0,0E0,2.7118298E-1,4.6350697E-1,0E0,1.7085594E-1,0E0,0E0,4.6754405E-1,0E0,0E0],"parents":[2147483647,0,0,2,2,3,3,5,5,8,8],"right_children":[2,-1,4,6,-1,8,-1,-1,10,-1,-1],"split_conditions":[4.5E0,-3.9136406E-2,5.2E0,3.1E0,4.1475825E-2,2.6E0,-3.569875E-2,4.2744435E-2,1.8E0,-2.5110707E-2,3.660522E-2],"split_indices":[2,0,2,1,0,1,0,0,3,0,0],"split_type":[0,0,0,0,0,0,0,0,0,0,0],"sum_hessian":[1.1426267E1,3.138543E0,8.287724E0,5.1158366E0,3.171887E0,4.0944014E0,1.0214356E0,1.137445E0,2.9569561E0,1.681432E0,1.2755241E0],"tree_param":{"num_deleted":"0","num_feature":"4","num_nodes":"11","size_leaf_vector":"1"}},{"base_weights":[-3.8729593E-2,4.105085E-2,-4.19443E-2],"categories":[],"categories_nodes":[],"categories_segments":[],"categories_sizes":[],"default_left":[0,0,0],"id":90,"left_children":[1,-1,-1],"loss_changes":[1.6360229E0,0E0,0E0],"parents":[2147483647,0,0],"right_children":[2,-1,-1],"split_conditions":[3E0,4.105085E-2,-4.19443E-2],"split_indices":[2,0,0],"split_type":[0,0,0],"sum_hessian":[7.558906E0,3.4315038E0,4.1274023E0],"tree_param":{"num_deleted":"0","num_feature":"4","num_nodes":"3","size_leaf_vector":"1"}},{"base_weights":[-9.670749E-3,-3.3521127E-2,8.36125E-2,2.1274899E-1,-3.3511292E-2,3.365587E-1,-4.8485216E-2,4.1888684E-2,2.2106124E-3,-8.614173E-3,2.0871381E-3],"categories":[],"categories_nodes":[],"categories_segments":[],"categories_sizes":[],"default_left":[0,0,0,0,0,0,0,0,0,0,0],"id":91,"left_children":[1,-1,3,5,-1,7,9,-1,-1,-1,-1],"loss_changes":[3.9073938E-1,0E0,6.1657387E-1,2.8537947E-1,0E0,1.4011317E-1,1.10669155E-2,0E0,0E0,0E0,0E0],"parents":[2147483647,0,0,2,2,3,3,5,5,6,6],"right_children":[2,-1,4,6,-1,8,10,-1,-1,-1,-1],"split_conditions":[3E0,-3.3521127E-2,5.2E0,1.7E0,-3.3511292E-2,4.8E0,4.9E0,4.1888684E-2,2.2106124E-3,-8.614173E-3,2.0871381E-3],"split_indices":[2,0,2,3,0,2,2,0,0,0,0],"split_type":[0,0,0,0,0,0,0,0,0,0,0],"sum_hessian":[1.0944079E1,1.8599023E0,9.084177E0,7.3189106E0,1.7652665E0,4.769911E0,2.5489993E0,3.5169969E0,1.2529142E0,1.4951886E0,1.0538108E0],"tree_param":{"num_deleted":"0","num_feature":"4","num_nodes":"11","size_leaf_vector":"1"}},{"base_weights":[3.759531E-2,-3.8332414E-2,2.1698408E-1,5.641105E-2,4.0549304E-2,4.1664552E-2,-1.1132822E-1,-2.9057142E-1,1.3690203E-2,-2.4774165E-3,-4.175054E-2],"categories":[],"categories_nodes":[],"categories_segments":[],"categories_sizes":[],"default_left":[0,0,0,0,0,0,0,0,0,0,0],"id":92,"left_children":[1,-1,3,5,-1,-1,7,9,-1,-1,-1],"loss_changes":[9.8093605E-1,0E0,2.4879971E-1,4.0943992E-1,0E0,0E0,2.5729093E-1,9.623802E-2,0E0,0E0,0E0],"parents":[2147483647,0,0,2,2,3,3,6,6,7,7],"right_children":[2,-1,4,6,-1,-1,8,10,-1,-1,-1],"split_conditions":[4.5E0,-3.8332414E-2,5.2E0,2.6E0,4.0549304E-2,4.1664552E-2,1.8E0,1.6E0,1.3690203E-2,-2.4774165E-3,-4.175054E-2],"split_indices":[2,0,2,1,0,0,3,3,0,0,0],"split_type":[0,0,0,0,0,0,0,0,0,0,0],"sum_hessian":[1.0889577E1,2.9143903E0,7.9751863E0,5.00832E0,2.966867E0,1.1197255E0,3.8885942E0,2.1590242E0,1.7295699E0,1.0841042E0,1.0749199E0],"tree_param":{"num_deleted":"0","num_feature":"4","num_nodes":"11","size_leaf_vector":"1"}},{"base_weights":[-3.9306488E-2,4.0235296E-2,-4.1302238E-2],"categories":[],"categories_nodes":[],"categories_segments":[],"categories_sizes":[],"default_left":[0,0,0],"id":93,"left_children":[1,-1,-1],"loss_changes":[1.497911E0,0E0,0E0],"parents":[2147483647,0,0],"right_children":[2,-1,-1],"split_conditions":[3E0,4.0235296E-2,-4.1302238E-2],"split_indices":[2,0,0],"split_type":[0,0,0],"sum_hessian":[7.0683956E0,3.2045789E0,3.8638167E0],"tree_param":{"num_deleted":"0","num_feature":"4","num_nodes":"3","size_leaf_vector":"1"}},{"base_weights":[-9.727568E-3,-3.2644548E-2,8.040866E-2,2.0414118E-1,-3.261482E-2,3.2606316E-1,-4.548215E-2,4.1074958E-2,1.958931E-3,-7.936155E-3,1.8015128E-3],"categories":[],"categories_nodes":[],"categories_segments":[],"categories_sizes":[],"default_left":[0,0,0,0,0,0,0,0,0,0,0],"id":94,"left_children":[1,-1,3,5,-1,7,9,-1,-1,-1,-1],"loss_changes":[3.5348934E-1,0E0,5.5582637E-1,2.6048154E-1,0E0,1.3587576E-1,9.015495E-3,0E0,0E0,0E0,0E0],"parents":[2147483647,0,0,2,2,3,3,5,5,6,6],"right_children":[2,-1,4,6,-1,8,10,-1,-1,-1,-1],"split_conditions":[3E0,-3.2644548E-2,5.2E0,1.7E0,-3.261482E-2,4.8E0,4.9E0,4.1074958E-2,1.958931E-3,-7.936155E-3,1.8015128E-3],"split_indices":[2,0,2,3,0,2,2,0,0,0,0],"split_type":[0,0,0,0,0,0,0,0,0,0,0],"sum_hessian":[1.0462908E1,1.7371776E0,8.72573E0,7.0714617E0,1.6542683E0,4.5452385E0,2.5262234E0,3.2946115E0,1.250627E0,1.4843804E0,1.0418429E0],"tree_param":{"num_deleted":"0","num_feature":"4","num_nodes":"11","size_leaf_vector":"1"}},{"base_weights":[3.7545517E-2,-3.7523612E-2,2.090511E-1,5.4508813E-2,3.963808E-2,4.0636797E-2,-1.0990668E-1,-2.8283107E-1,1.2932779E-2,-1.8803116E-3,-4.0964823E-2],"categories":[],"categories_nodes":[],"categories_segments":[],"categories_sizes":[],"default_left":[0,0,0,0,0,0,0,0,0,0,0],"id":95,"left_children":[1,-1,3,5,-1,-1,7,9,-1,-1,-1],"loss_changes":[8.8668424E-1,0E0,2.3048773E-1,3.8777193E-1,0E0,0E0,2.3636083E-1,9.6660465E-2,0E0,0E0,0E0],"parents":[2147483647,0,0,2,2,3,3,6,6,7,7],"right_children":[2,-1,4,6,-1,-1,8,10,-1,-1,-1],"split_conditions":[4.5E0,-3.7523612E-2,5.2E0,2.6E0,3.963808E-2,4.0636797E-2,1.8E0,1.6E0,1.2932779E-2,-1.8803116E-3,-4.0964823E-2],"split_indices":[2,0,2,1,0,0,3,3,0,0,0],"split_type":[0,0,0,0,0,0,0,0,0,0,0],"sum_hessian":[1.0416739E1,2.708939E0,7.7078004E0,4.9309053E0,2.776895E0,1.101671E0,3.8292344E0,2.1168735E0,1.7123607E0,1.059438E0,1.0574356E0],"tree_param":{"num_deleted":"0","num_feature":"4","num_nodes":"11","size_leaf_vector":"1"}},{"base_weights":[-3.983499E-2,3.9426383E-2,-4.0657405E-2],"categories":[],"categories_nodes":[],"categories_segments":[],"categories_sizes":[],"default_left":[0,0,0],"id":96,"left_children":[1,-1,-1],"loss_changes":[1.3727721E0,0E0,0E0],"parents":[2147483647,0,0],"right_children":[2,-1,-1],"split_conditions":[3E0,3.9426383E-2,-4.0657405E-2],"split_indices":[2,0,0],"split_type":[0,0,0],"sum_hessian":[6.6159997E0,2.9953887E0,3.620611E0],"tree_param":{"num_deleted":"0","num_feature":"4","num_nodes":"3","size_leaf_vector":"1"}},{"base_weights":[-9.776457E-3,-3.177605E-2,7.73232E-2,1.9590953E-1,-3.173183E-2,3.1580353E-1,-4.2624623E-2,4.0272173E-2,1.7173339E-3,-7.286352E-3,1.5224577E-3],"categories":[],"categories_nodes":[],"categories_segments":[],"categories_sizes":[],"default_left":[0,0,0,0,0,0,0,0,0,0,0],"id":97,"left_children":[1,-1,3,5,-1,7,9,-1,-1,-1,-1],"loss_changes":[3.2009032E-1,0E0,5.017063E-1,2.3768216E-1,0E0,1.316027E-1,7.238202E-3,0E0,0E0,0E0,0E0],"parents":[2147483647,0,0,2,2,3,3,5,5,6,6],"right_children":[2,-1,4,6,-1,8,10,-1,-1,-1,-1],"split_conditions":[3E0,-3.177605E-2,5.2E0,1.7E0,-3.173183E-2,4.8E0,4.9E0,4.0272173E-2,1.7173339E-3,-7.286352E-3,1.5224577E-3],"split_indices":[2,0,2,3,0,2,2,0,0,0,0],"split_type":[0,0,0,0,0,0,0,0,0,0,0],"sum_hessian":[1.0016468E1,1.6243904E0,8.392077E0,6.840225E0,1.5518522E0,4.3365955E0,2.5036297E0,3.0889688E0,1.2476267E0,1.4737365E0,1.029893E0],"tree_param":{"num_deleted":"0","num_feature":"4","num_nodes":"11","size_leaf_vector":"1"}},{"base_weights":[3.7448976E-2,-3.671089E-2,2.0144159E-1,5.2678574E-2,3.874087E-2,3.965903E-2,-1.0849397E-1,-2.7535108E-1,1.22158835E-2,-1.3146166E-3,-4.0206116E-2],"categories":[],"categories_nodes":[],"categories_segments":[],"categories_sizes":[],"default_left":[0,0,0,0,0,0,0,0,0,0,0],"id":98,"left_children":[1,-1,3,5,-1,-1,7,9,-1,-1,-1],"loss_changes":[8.0222803E-1,0E0,2.1354485E-1,3.676015E-1,0E0,0E0,2.1730399E-1,9.692526E-2,0E0,0E0,0E0],"parents":[2147483647,0,0,2,2,3,3,6,6,7,7],"right_children":[2,-1,4,6,-1,-1,8,10,-1,-1,-1],"split_conditions":[4.5E0,-3.671089E-2,5.2E0,2.6E0,3.874087E-2,3.965903E-2,1.8E0,1.6E0,1.22158835E-2,-1.3146166E-3,-4.0206116E-2],"split_indices":[2,0,2,1,0,0,3,3,0,0,0],"split_type":[0,0,0,0,0,0,0,0,0,0,0],"sum_hessian":[9.977203E0,2.52057E0,7.456633E0,4.8556557E0,2.6009777E0,1.0833452E0,3.7723103E0,2.0764153E0,1.695895E0,1.0361108E0,1.0403047E0],"tree_param":{"num_deleted":"0","num_feature":"4","num_nodes":"11","size_leaf_vector":"1"}},{"base_weights":[-4.031453E-2,3.8623754E-2,-4.001012E-2],"categories":[],"categories_nodes":[],"categories_segments":[],"categories_sizes":[],"default_left":[0,0,0],"id":99,"left_children":[1,-1,-1],"loss_changes":[1.2593113E0,0E0,0E0],"parents":[2147483647,0,0],"right_children":[2,-1,-1],"split_conditions":[3E0,3.8623754E-2,-4.001012E-2],"split_indices":[2,0,0],"split_type":[0,0,0],"sum_hessian":[6.198758E0,2.8025832E0,3.396175E0],"tree_param":{"num_deleted":"0","num_feature":"4","num_nodes":"3","size_leaf_vector":"1"}},{"base_weights":[-9.817385E-3,-3.0917266E-2,7.43546E-2,1.8804394E-1,-3.0863402E-2,3.0578366E-1,-3.9907932E-2,3.9479632E-2,1.4854295E-3,-6.664163E-3,1.2500944E-3],"categories":[],"categories_nodes":[],"categories_segments":[],"categories_sizes":[],"default_left":[0,0,0,0,0,0,0,0,0,0,0],"id":100,"left_children":[1,-1,3,5,-1,7,9,-1,-1,-1,-1],"loss_changes":[2.9013473E-1,0E0,4.5345923E-1,2.1682677E-1,0E0,1.2731686E-1,5.7106274E-3,0E0,0E0,0E0,0E0],"parents":[2147483647,0,0,2,2,3,3,5,5,6,6],"right_children":[2,-1,4,6,-1,8,10,-1,-1,-1,-1],"split_conditions":[3E0,-3.0917266E-2,5.2E0,1.7E0,-3.0863402E-2,4.8E0,4.9E0,3.9479632E-2,1.4854295E-3,-6.664163E-3,1.2500944E-3],"split_indices":[2,0,2,3,0,2,2,0,0,0,0],"split_type":[0,0,0,0,0,0,0,0,0,0,0],"sum_hessian":[9.602169E0,1.520708E0,8.081461E0,6.624116E0,1.4573452E0,4.1428485E0,2.4812677E0,2.8988876E0,1.2439607E0,1.4632794E0,1.0179882E0],"tree_param":{"num_deleted":"0","num_feature":"4","num_nodes":"11","size_leaf_vector":"1"}},{"base_weights":[3.7308633E-2,-3.5895582E-2,1.9414666E-1,5.0919604E-2,3.7856884E-2,3.872772E-2,-1.0708952E-1,-2.68124E-1,1.1537586E-2,-7.793274E-4,-3.9473053E-2],"categories":[],"categories_nodes":[],"categories_segments":[],"categories_sizes":[],"default_left":[0,0,0,0,0,0,0,0,0,0,0],"id":101,"left_children":[1,-1,3,5,-1,-1,7,9,-1,-1,-1],"loss_changes":[7.265196E-1,0E0,1.9786769E-1,3.4880257E-1,0E0,0E0,1.9994567E-1,9.704062E-2,0E0,0E0,0E0],"parents":[2147483647,0,0,2,2,3,3,6,6,7,7],"right_children":[2,-1,4,6,-1,-1,8,10,-1,-1,-1],"split_conditions":[4.5E0,-3.5895582E-2,5.2E0,2.6E0,3.7856884E-2,3.872772E-2,1.8E0,1.6E0,1.1537586E-2,-7.793274E-4,-3.9473053E-2],"split_indices":[2,0,2,1,0,0,3,3,0,0,0],"split_type":[0,0,0,0,0,0,0,0,0,0,0],"sum_hessian":[9.568569E0,2.3478432E0,7.220726E0,4.7825646E0,2.4381611E0,1.0648386E0,3.717726E0,2.0375671E0,1.680159E0,1.014038E0,1.023529E0],"tree_param":{"num_deleted":"0","num_feature":"4","num_nodes":"11","size_leaf_vector":"1"}},{"base_weights":[-4.0743515E-2,3.7827443E-2,-3.9360862E-2],"categories":[],"categories_nodes":[],"categories_segments":[],"categories_sizes":[],"default_left":[0,0,0],"id":102,"left_children":[1,-1,-1],"loss_changes":[1.1563759E0,0E0,0E0],"parents":[2147483647,0,0],"right_children":[2,-1,-1],"split_conditions":[3E0,3.7827443E-2,-3.9360862E-2],"split_indices":[2,0,0],"split_type":[0,0,0],"sum_hessian":[5.8139143E0,2.6249032E0,3.1890113E0],"tree_param":{"num_deleted":"0","num_feature":"4","num_nodes":"3","size_leaf_vector":"1"}},{"base_weights":[-9.850787E-3,-3.0069811E-2,7.150083E-2,1.8053383E-1,-3.001063E-2,2.9600802E-1,-3.7327338E-2,3.8696926E-2,1.2628791E-3,-6.0689533E-3,9.845275E-4],"categories":[],"categories_nodes":[],"categories_segments":[],"categories_sizes":[],"default_left":[0,0,0,0,0,0,0,0,0,0,0],"id":103,"left_children":[1,-1,3,5,-1,7,9,-1,-1,-1,-1],"loss_changes":[2.6325697E-1,0E0,4.1041702E-1,1.9776917E-1,0E0,1.2303957E-1,4.4097155E-3,0E0,0E0,0E0,0E0],"parents":[2147483647,0,0,2,2,3,3,5,5,6,6],"right_children":[2,-1,4,6,-1,8,10,-1,-1,-1,-1],"split_conditions":[3E0,-3.0069811E-2,5.2E0,1.7E0,-3.001063E-2,4.8E0,4.9E0,3.8696926E-2,1.2628791E-3,-6.0689533E-3,9.845275E-4],"split_indices":[2,0,2,3,0,2,2,0,0,0,0],"split_type":[0,0,0,0,0,0,0,0,0,0,0],"sum_hessian":[9.217566E0,1.4253597E0,7.792206E0,6.4220867E0,1.3701192E0,3.9629054E0,2.459181E0,2.7232292E0,1.2396761E0,1.4530286E0,1.0061526E0],"tree_param":{"num_deleted":"0","num_feature":"4","num_nodes":"11","size_leaf_vector":"1"}},{"base_weights":[3.71273E-2,-3.507919E-2,1.8715753E-1,4.9230978E-2,3.6985647E-2,3.7839632E-2,-1.05693E-1,-2.611428E-2,1.0896055E-2],"categories":[],"categories_nodes":[],"categories_segments":[],"categories_sizes":[],"default_left":[0,0,0,0,0,0,0,0,0],"id":104,"left_children":[1,-1,3,5,-1,-1,7,-1,-1],"loss_changes":[6.5862346E-1,0E0,1.8336204E-1,3.3126116E-1,0E0,0E0,1.8412806E-1,0E0,0E0],"parents":[2147483647,0,0,2,2,3,3,6,6],"right_children":[2,-1,4,6,-1,-1,8,-1,-1],"split_conditions":[4.5E0,-3.507919E-2,5.2E0,2.6E0,3.6985647E-2,3.7839632E-2,1.8E0,-2.611428E-2,1.0896055E-2],"split_indices":[2,0,2,1,0,0,3,0,0],"split_type":[0,0,0,0,0,0,0,0,0],"sum_hessian":[9.18856E0,2.189425E0,6.999134E0,4.7116165E0,2.2875178E0,1.0462327E0,3.6653838E0,2.000248E0,1.665136E0],"tree_param":{"num_deleted":"0","num_feature":"4","num_nodes":"9","size_leaf_vector":"1"}},{"base_weights":[-4.1179284E-2,3.7037637E-2,-3.8712624E-2],"categories":[],"categories_nodes":[],"categories_segments":[],"categories_sizes":[],"default_left":[0,0,0],"id":105,"left_children":[1,-1,-1],"loss_changes":[1.0630848E0,0E0,0E0],"parents":[2147483647,0,0],"right_children":[2,-1,-1],"split_conditions":[3E0,3.7037637E-2,-3.8712624E-2],"split_indices":[2,0,0],"split_type":[0,0,0],"sum_hessian":[5.459655E0,2.461142E0,2.9985127E0],"tree_param":{"num_deleted":"0","num_feature":"4","num_nodes":"3","size_leaf_vector":"1"}},{"base_weights":[-1.0474407E-2,-2.9235238E-2,6.811384E-2,1.7267789E-1,-2.917455E-2,-8.076576E-3,2.6355165E-1,3.7303057E-2,-2.7744493E-3],"categories":[],"categories_nodes":[],"categories_segments":[],"categories_sizes":[],"default_left":[0,0,0,0,0,0,0,0,0],"id":106,"left_children":[1,-1,3,5,-1,-1,7,-1,-1],"loss_changes":[2.382348E-1,0E0,3.7089047E-1,1.8776272E-1,0E0,0E0,1.8750641E-1,0E0,0E0],"parents":[2147483647,0,0,2,2,3,3,6,6],"right_children":[2,-1,4,6,-1,-1,8,-1,-1],"split_conditions":[3E0,-2.9235238E-2,5.2E0,2.6E0,-2.917455E-2,-8.076576E-3,1.8E0,3.7303057E-2,-2.7744493E-3],"split_indices":[2,0,2,1,0,0,3,0,0],"split_type":[0,0,0,0,0,0,0,0,0],"sum_hessian":[8.855482E0,1.3376361E0,7.5178456E0,6.2282577E0,1.2895882E0,1.673146E0,4.5551114E0,3.1068604E0,1.448251E0],"tree_param":{"num_deleted":"0","num_feature":"4","num_nodes":"9","size_leaf_vector":"1"}},{"base_weights":[3.755825E-2,-3.4263335E-2,1.8136075E-1,4.8752338E-2,3.6127005E-2,3.6991786E-2,-1.0304233E-1,-2.5263974E-2,1.0289542E-2],"categories":[],"categories_nodes":[],"categories_segments":[],"categories_sizes":[],"default_left":[0,0,0,0,0,0,0,0,0],"id":107,"left_children":[1,-1,3,5,-1,-1,7,-1,-1],"loss_changes":[5.9962547E-1,0E0,1.6816333E-1,3.1301287E-1,0E0,0E0,1.6805452E-1,0E0,0E0],"parents":[2147483647,0,0,2,2,3,3,6,6],"right_children":[2,-1,4,6,-1,-1,8,-1,-1],"split_conditions":[4.5E0,-3.4263335E-2,5.2E0,2.6E0,3.6127005E-2,3.6991786E-2,1.8E0,-2.5263974E-2,1.0289542E-2],"split_indices":[2,0,2,1,0,0,3,0,0],"split_type":[0,0,0,0,0,0,0,0,0],"sum_hessian":[8.830997E0,2.0440853E0,6.7869115E0,4.638746E0,2.1481662E0,1.0275996E0,3.611146E0,1.9603385E0,1.6508075E0],"tree_param":{"num_deleted":"0","num_feature":"4","num_nodes":"9","size_leaf_vector":"1"}},{"base_weights":[-4.234331E-2,3.625481E-2,-3.8096387E-2],"categories":[],"categories_nodes":[],"categories_segments":[],"categories_sizes":[],"default_left":[0,0,0],"id":108,"left_children":[1,-1,-1],"loss_changes":[9.803742E-1,0E0,0E0],"parents":[2147483647,0,0],"right_children":[2,-1,-1],"split_conditions":[3E0,3.625481E-2,-3.8096387E-2],"split_indices":[2,0,0],"split_type":[0,0,0],"sum_hessian":[5.1431694E0,2.3101919E0,2.8329773E0],"tree_param":{"num_deleted":"0","num_feature":"4","num_nodes":"3","size_leaf_vector":"1"}},{"base_weights":[-1.152572E-2,-2.8415004E-2,6.4068004E-2,1.6383426E-1,-2.8356139E-2,-7.9168435E-3,2.5145027E-1,3.572679E-2,-2.4885566E-3],"categories":[],"categories_nodes":[],"categories_segments":[],"categories_sizes":[],"default_left":[0,0,0,0,0,0,0,0,0],"id":109,"left_children":[1,-1,3,5,-1,-1,7,-1,-1],"loss_changes":[2.1499045E-1,0E0,3.3403018E-1,1.7057382E-1,0E0,0E0,1.679833E-1,0E0,0E0],"parents":[2147483647,0,0,2,2,3,3,6,6],"right_children":[2,-1,4,6,-1,-1,8,-1,-1],"split_conditions":[3E0,-2.8415004E-2,5.2E0,2.6E0,-2.8356139E-2,-7.9168435E-3,1.8E0,3.572679E-2,-2.4885566E-3],"split_indices":[2,0,2,1,0,0,3,0,0],"split_type":[0,0,0,0,0,0,0,0,0],"sum_hessian":[8.54867E0,1.2568834E0,7.291786E0,6.076577E0,1.2152088E0,1.6358814E0,4.440696E0,2.999296E0,1.4413999E0],"tree_param":{"num_deleted":"0","num_feature":"4","num_nodes":"9","size_leaf_vector":"1"}},{"base_weights":[3.89264E-2,-3.3558622E-2,1.7838071E-1,2.5618234E-1,-8.242225E-3,7.067623E-2,3.986424E-2,1.9857405E-2,-7.221022E-3],"categories":[],"categories_nodes":[],"categories_segments":[],"categories_sizes":[],"default_left":[0,0,0,0,0,0,0,0,0],"id":110,"left_children":[1,-1,3,5,-1,7,-1,-1,-1],"loss_changes":[5.5653113E-1,0E0,1.7496885E-1,1.3259804E-1,0E0,8.484457E-2,0E0,0E0,0E0],"parents":[2147483647,0,0,2,2,3,3,5,5],"right_children":[2,-1,4,6,-1,8,-1,-1,-1],"split_conditions":[4.5E0,-3.3558622E-2,3.2E0,1.8E0,-8.242225E-3,1.6E0,3.986424E-2,1.9857405E-2,-7.221022E-3],"split_indices":[2,0,1,3,0,3,0,0,0],"split_type":[0,0,0,0,0,0,0,0,0],"sum_hessian":[8.509741E0,1.9273382E0,6.582402E0,5.083601E0,1.4988016E0,2.8580575E0,2.2255433E0,1.3024763E0,1.5555812E0],"tree_param":{"num_deleted":"0","num_feature":"4","num_nodes":"9","size_leaf_vector":"1"}},{"base_weights":[-4.4105973E-2,3.5478886E-2,-3.7513416E-2],"categories":[],"categories_nodes":[],"categories_segments":[],"categories_sizes":[],"default_left":[0,0,0],"id":111,"left_children":[1,-1,-1],"loss_changes":[9.067E-1,0E0,0E0],"parents":[2147483647,0,0],"right_children":[2,-1,-1],"split_conditions":[3E0,3.5478886E-2,-3.7513416E-2],"split_indices":[2,0,0],"split_type":[0,0,0],"sum_hessian":[4.8586397E0,2.1708949E0,2.6877449E0],"tree_param":{"num_deleted":"0","num_feature":"4","num_nodes":"3","size_leaf_vector":"1"}},{"base_weights":[-1.1366392E-2,6.124737E-2,-2.781415E-2,-2.244855E-2,1.843544E-1,2.6512218E-1,-3.947238E-3,1.0704392E-1,4.17885E-2,2.8039822E-2,-1.7298961E-2],"categories":[],"categories_nodes":[],"categories_segments":[],"categories_sizes":[],"default_left":[0,0,0,0,0,0,0,0,0,0,0],"id":112,"left_children":[1,3,-1,-1,5,7,-1,9,-1,-1,-1],"loss_changes":[1.9693853E-1,3.2699502E-1,0E0,0E0,1.2297711E-1,6.883797E-2,0E0,2.2596967E-1,0E0,0E0,0E0],"parents":[2147483647,0,0,1,1,4,4,5,5,7,7],"right_children":[2,4,-1,-1,6,8,-1,10,-1,-1,-1],"split_conditions":[5.2E0,5.5E0,-2.781415E-2,-2.244855E-2,1.8E0,1.6E0,-3.947238E-3,4.7E0,4.17885E-2,2.8039822E-2,-1.7298961E-2],"split_indices":[2,0,0,0,3,3,0,2,0,0,0],"split_type":[0,0,0,0,0,0,0,0,0,0,0],"sum_hessian":[8.286978E0,7.1195235E0,1.167454E0,1.8958153E0,5.223708E0,3.7029896E0,1.5207188E0,2.6556525E0,1.0473369E0,1.6394509E0,1.0162017E0],"tree_param":{"num_deleted":"0","num_feature":"4","num_nodes":"11","size_leaf_vector":"1"}},{"base_weights":[3.936834E-2,-3.2863475E-2,1.7383017E-1,2.5192723E-1,-8.446792E-3,7.275641E-2,3.908749E-2,1.9743273E-2,-6.8081357E-3],"categories":[],"categories_nodes":[],"categories_segments":[],"categories_sizes":[],"default_left":[0,0,0,0,0,0,0,0,0],"id":113,"left_children":[1,-1,3,5,-1,7,-1,-1,-1],"loss_changes":[5.145915E-1,0E0,1.7106022E-1,1.1974743E-1,0E0,8.066797E-2,0E0,0E0,0E0],"parents":[2147483647,0,0,2,2,3,3,5,5],"right_children":[2,-1,4,6,-1,8,-1,-1,-1],"split_conditions":[4.5E0,-3.2863475E-2,3.2E0,1.8E0,-8.446792E-3,1.6E0,3.908749E-2,1.9743273E-2,-6.8081357E-3],"split_indices":[2,0,1,3,0,3,0,0,0],"split_type":[0,0,0,0,0,0,0,0,0],"sum_hessian":[8.245008E0,1.8199601E0,6.425049E0,4.9523563E0,1.472692E0,2.8285766E0,2.1237798E0,1.2872216E0,1.541355E0],"tree_param":{"num_deleted":"0","num_feature":"4","num_nodes":"9","size_leaf_vector":"1"}},{"base_weights":[-4.5160517E-2,3.477406E-2,-3.6957018E-2],"categories":[],"categories_nodes":[],"categories_segments":[],"categories_sizes":[],"default_left":[0,0,0],"id":114,"left_children":[1,-1,-1],"loss_changes":[8.4362775E-1,0E0,0E0],"parents":[2147483647,0,0],"right_children":[2,-1,-1],"split_conditions":[3E0,3.477406E-2,-3.6957018E-2],"split_indices":[2,0,0],"split_type":[0,0,0],"sum_hessian":[4.6104507E0,2.0525885E0,2.557862E0],"tree_param":{"num_deleted":"0","num_feature":"4","num_nodes":"3","size_leaf_vector":"1"}},{"base_weights":[-9.608981E-3,6.2111992E-2,-2.7288929E-2,-2.1896696E-2,1.8254453E-1,2.8360501E-2,-1.3991931E-3,-3.3829366E-3,3.0055286E-3],"categories":[],"categories_nodes":[],"categories_segments":[],"categories_sizes":[],"default_left":[0,0,0,0,0,0,0,0,0],"id":115,"left_children":[1,3,-1,-1,5,-1,7,-1,-1],"loss_changes":[1.878339E-1,3.083044E-1,0E0,0E0,1.1369173E-1,0E0,4.2362963E-3,0E0,0E0],"parents":[2147483647,0,0,1,1,4,4,6,6],"right_children":[2,4,-1,-1,6,-1,8,-1,-1],"split_conditions":[5.2E0,5.5E0,-2.7288929E-2,-2.1896696E-2,4.9E0,2.8360501E-2,5.1E0,-3.3829366E-3,3.0055286E-3],"split_indices":[2,0,0,0,2,0,2,0,0],"split_type":[0,0,0,0,0,0,0,0,0],"sum_hessian":[8.0497675E0,6.9268794E0,1.1228877E0,1.8322945E0,5.094585E0,2.9383974E0,2.1561875E0,1.0244538E0,1.1317337E0],"tree_param":{"num_deleted":"0","num_feature":"4","num_nodes":"9","size_leaf_vector":"1"}},{"base_weights":[3.7840422E-2,-2.9935716E-2,1.7666923E-1,2.5587672E-1,-8.01418E-3,7.576161E-2,3.831793E-2,2.1203088E-2,-6.4221257E-3],"categories":[],"categories_nodes":[],"categories_segments":[],"categories_sizes":[],"default_left":[0,0,0,0,0,0,0,0,0],"id":116,"left_children":[1,-1,3,5,-1,7,-1,-1,-1],"loss_changes":[4.7391036E-1,0E0,1.6288957E-1,9.91022E-2,0E0,8.1535384E-2,0E0,0E0,0E0],"parents":[2147483647,0,0,2,2,3,3,5,5],"right_children":[2,-1,4,6,-1,8,-1,-1,-1],"split_conditions":[1.5E0,-2.9935716E-2,3.2E0,1.8E0,-8.01418E-3,1.6E0,3.831793E-2,2.1203088E-2,-6.4221257E-3],"split_indices":[3,0,1,3,0,3,0,0,0],"split_type":[0,0,0,0,0,0,0,0,0],"sum_hessian":[7.9937735E0,1.9940863E0,5.999687E0,4.5881996E0,1.4114875E0,2.5605352E0,2.0276647E0,1.0366726E0,1.5238625E0],"tree_param":{"num_deleted":"0","num_feature":"4","num_nodes":"9","size_leaf_vector":"1"}},{"base_weights":[-4.5975678E-2,3.409095E-2,-3.6410145E-2],"categories":[],"categories_nodes":[],"categories_segments":[],"categories_sizes":[],"default_left":[0,0,0],"id":117,"left_children":[1,-1,-1],"loss_changes":[7.8648984E-1,0E0,0E0],"parents":[2147483647,0,0],"right_children":[2,-1,-1],"split_conditions":[3E0,3.409095E-2,-3.6410145E-2],"split_indices":[2,0,0],"split_type":[0,0,0],"sum_hessian":[4.3816557E0,1.9448406E0,2.4368153E0],"tree_param":{"num_deleted":"0","num_feature":"4","num_nodes":"3","size_leaf_vector":"1"}},{"base_weights":[-9.362735E-3,6.14276E-2,-2.68229E-2,-2.135341E-2,1.7863841E-1,2.5491297E-1,-3.2312449E-3,9.434973E-2,4.049897E-2,2.483749E-2,-1.2025377E-2],"categories":[],"categories_nodes":[],"categories_segments":[],"categories_sizes":[],"default_left":[0,0,0,0,0,0,0,0,0,0,0],"id":118,"left_children":[1,3,-1,-1,5,7,-1,9,-1,-1,-1],"loss_changes":[1.7845722E-1,2.88069E-1,0E0,0E0,1.0448077E-1,7.035974E-2,0E0,1.449128E-1,0E0,0E0,0E0],"parents":[2147483647,0,0,1,1,4,4,5,5,7,7],"right_children":[2,4,-1,-1,6,8,-1,10,-1,-1,-1],"split_conditions":[5.2E0,5.5E0,-2.68229E-2,-2.135341E-2,1.8E0,1.6E0,-3.2312449E-3,1.5E0,4.049897E-2,2.483749E-2,-1.2025377E-2],"split_indices":[2,0,0,0,3,3,0,3,0,0,0],"split_type":[0,0,0,0,0,0,0,0,0,0,0],"sum_hessian":[7.8392096E0,6.7547426E0,1.0844667E0,1.7732134E0,4.981529E0,3.505594E0,1.4759352E0,2.4804742E0,1.0251198E0,1.352437E0,1.1280372E0],"tree_param":{"num_deleted":"0","num_feature":"4","num_nodes":"11","size_leaf_vector":"1"}},{"base_weights":[3.7626226E-2,-3.1518143E-2,1.6230075E-1,2.3924562E-1,-8.609781E-3,6.804449E-2,3.7721183E-2,1.8802943E-2,-6.6462867E-3],"categories":[],"categories_nodes":[],"categories_segments":[],"categories_sizes":[],"default_left":[0,0,0,0,0,0,0,0,0],"id":119,"left_children":[1,-1,3,5,-1,7,-1,-1,-1],"loss_changes":[4.3715084E-1,0E0,1.5714511E-1,1.0941982E-1,0E0,7.3377304E-2,0E0,0E0,0E0],"parents":[2147483647,0,0,2,2,3,3,5,5],"right_children":[2,-1,4,6,-1,8,-1,-1,-1],"split_conditions":[4.5E0,-3.1518143E-2,3.2E0,