tree
version=v4
num_class=3
num_tree_per_iteration=3
label_index=0
max_feature_idx=3
objective=multiclass num_class:3
feature_names=Column_0 Column_1 Column_2 Column_3
feature_infos=[4.4000000000000004:7.7000000000000002] [2:4.4000000000000004] [1:6.7000000000000002] [0.10000000000000001:2.5]
tree_sizes=438 617 642 834 931 946 953 932 950 951 929 954 850 943 946 1056 940 749 954 944 951 934 1035 957 958 1034 957 1060 740 855 958 841 964 964 850 968 941 943 1155 1063 1043 1371 1073 846 1066 1055 1165 1160 1049 1058 1380 948 1163 1275 1057 960 1071

Tree=0
num_leaves=3
num_cat=0
split_feature=3 1
split_gain=58.1818 1.01818
threshold=0.45000000000000007 3.2500000000000004
decision_type=2 2
left_child=-1 -2
right_child=1 -3
leaf_value=-0.69861228866810976 -1.2986122886681097 -1.1786122886681099
leaf_weight=10.000000298023222 18.666667222976688 3.3333334326744071
leaf_count=30 56 10
internal_value=-1.09861 -1.28043
internal_weight=0 22
internal_count=96 66
is_linear=0
shrinkage=1


Tree=1
num_leaves=5
num_cat=0
split_feature=2 2 2 0
split_gain=15.9883 34.4108 1.85376 0.705234
threshold=1.8 4.7500000000000009 5.1500000000000012 5.5500000000000007
decision_type=2 2 2 2
left_child=-1 3 -3 -2
right_child=1 2 -4 -5
leaf_value=-1.2710152331759592 -0.78742609504136674 -1.0936992158599419 -1.2710152331759592 -0.67996184212256816
leaf_weight=10.489746093749998 3.7221679687500018 3.3837890624999982 7.78271484375 7.10595703125
leaf_count=31 11 10 23 21
internal_value=-1.06784 -0.970942 -1.21728 -0.716903
internal_weight=0 21.9946 11.1665 10.8281
internal_count=96 65 33 32
is_linear=0
shrinkage=1


Tree=2
num_leaves=5
num_cat=0
split_feature=2 2 1 0
split_gain=52.6834 1.91264 0.228795 3.55271e-15
threshold=4.7500000000000009 5.1500000000000012 2.5500000000000003 5.6500000000000012
decision_type=2 2 2 2
left_child=2 -2 -1 -4
right_child=1 -3 3 -5
leaf_value=-1.2718453004206802 -0.90040566562442348 -0.71745778579940145 -1.3272840518828082 -1.3272840518828084
leaf_weight=3.607584744691855 3.2796224951744062 7.5431317389011383 10.822754234075548 6.2312827408313742
leaf_count=11 10 23 33 19
internal_value=-1.13036 -0.772897 -1.3176 -1.32728
internal_weight=0 10.8228 20.6616 17.054
internal_count=96 33 63 52
is_linear=0
shrinkage=1


Tree=3
num_leaves=7
num_cat=0
split_feature=2 0 2 1 2 2
split_gain=37.7024 0.202458 0.00993102 0.000961623 7.15021e-05 8.49286e-05
threshold=1.8 5.5500000000000007 1.4500000000000002 3.1500000000000008 4.7500000000000009 5.4500000000000011
decision_type=2 2 2 2 2 2
left_child=2 -2 -1 4 -3 -6
right_child=1 3 -4 -5 5 -7
leaf_value=0.27990048790388827 -0.12756619599098248 -0.18037850577898246 0.29169503077715708 -0.18455157894061769 -0.18210381589820768 -0.18068043104480125
leaf_weight=6.3606896996498126 3.3292313218116787 5.2052217125892621 5.181938648223877 3.9035055041313163 3.2351713478565216 3.4808260202407837
leaf_count=17 11 18 14 13 11 12
internal_value=0 -0.172396 0.285196 -0.181827 -0.180935 -0.181366
internal_weight=0 19.154 11.5426 15.8247 11.9212 6.716
internal_count=96 65 31 54 41 23
is_linear=0
shrinkage=0.2


Tree=4
num_leaves=8
num_cat=0
split_feature=2 2 2 0 2 1 0
split_gain=11.0481 19.5442 1.48841 0.368817 0.000390242 6.50657e-05 3.09504e-05
threshold=1.8 4.7500000000000009 5.1500000000000012 5.5500000000000007 1.4500000000000002 3.0500000000000003 6.1500000000000012
decision_type=2 2 2 2 2 2 2
left_child=4 3 -3 -2 -1 -4 -5
right_child=1 2 5 6 -6 -7 -8
leaf_value=-0.18233688026606801 0.20158302534479922 -0.0182383876542427 -0.18249372301137162 0.27614066325073044 -0.18495036863998154 -0.18125069855270307 0.27534632429040234
leaf_weight=5.0113243162632006 4.067370146512987 3.3178028464317304 3.2474477291107178 4.1198002099990845 4.2012917399406433 3.4996955096721649 3.7462131679058075
leaf_count=17 11 10 11 11 14 12 10
internal_value=0 0.0773509 -0.127916 0.250479 -0.183529 -0.181849 0.275762
internal_weight=0 21.9983 10.0649 11.9334 9.21262 6.74714 7.86601
internal_count=96 65 33 32 31 23 21
is_linear=0
shrinkage=0.2


Tree=5
num_leaves=8
num_cat=0
split_feature=2 2 3 1 3 1 2
split_gain=32.2321 0.932263 0.270253 0.00163954 0.00136575 3.92619e-05 2.83064e-05
threshold=4.7500000000000009 5.1500000000000012 1.3500000000000003 3.0500000000000003 0.45000000000000007 2.6500000000000008 1.4500000000000002
decision_type=2 2 2 2 2 2 2
left_child=2 -2 4 -3 6 -6 -1
right_child=1 3 -4 -5 5 -7 -8
leaf_value=-0.17894933795387283 0.16619569188794556 0.28455378326606667 -0.11581149197335357 0.2900885589267998 -0.18293363633464482 -0.18194333559793577 -0.17821283270725771
leaf_weight=4.842771798372274 3.6020302772521964 4.1087005138397199 3.145501345396041 4.4698102474212646 3.5530247092247 2.9153937101364136 3.6685672700405121
leaf_count=17 10 11 11 12 12 10 13
internal_value=0 0.251584 -0.169106 0.287438 -0.180297 -0.182487 -0.178632
internal_weight=0 12.1805 18.1253 8.57851 14.9798 6.46842 8.51134
internal_count=96 33 63 23 52 22 30
is_linear=0
shrinkage=0.2


Tree=6
num_leaves=8
num_cat=0
split_feature=3 1 0 0 3 0 0
split_gain=23.7608 0.806391 0.0126196 0.00172316 0.000139594 0.000315624 9.94919e-06
threshold=0.45000000000000007 3.2500000000000004 4.8500000000000005 5.5500000000000007 1.4500000000000002 6.3500000000000005 5.1500000000000012
decision_type=2 2 2 2 2 2 2
left_child=2 3 -1 -2 -5 -6 -4
right_child=1 -3 6 4 5 -7 -8
leaf_value=0.23954453048384719 -0.1738447138671553 -0.052259792133292737 0.22530298657433928 -0.16732006733086952 -0.17052943162993314 -0.16773548794278617 0.22483420150127642
leaf_weight=3.6090979874134081 2.6808153092861202 2.8313471972942343 3.6235598623752594 4.3701423108577711 2.5571786463260651 4.4003781080245972 3.6201386749744415
leaf_count=10 10 10 10 18 10 18 10
internal_value=0 -0.149609 0.229883 -0.169285 -0.168206 -0.168762 0.225069
internal_weight=0 16.8399 10.8528 14.0085 11.3277 6.95756 7.2437
internal_count=96 66 30 56 46 28 20
is_linear=0
shrinkage=0.2


Tree=7
num_leaves=8
num_cat=0
split_feature=2 2 2 0 2 0 0
split_gain=7.77984 12.2582 1.2883 0.339464 0.000185078 1.36357e-05 2.91455e-06
threshold=1.8 4.7500000000000009 5.1500000000000012 5.5500000000000007 1.4500000000000002 6.1500000000000012 6.7500000000000009
decision_type=2 2 2 2 2 2 2
left_child=4 3 -3 -2 -1 -5 -4
right_child=1 2 6 5 -6 -7 -8
leaf_value=-0.16874064467117869 0.15337779373007127 -0.010721623577879189 -0.16837992118774167 0.22453553507953253 -0.17069842309618646 0.22507190045276457 -0.16866623235606826
leaf_weight=4.2279463708400753 4.098200589418413 3.2499820291995984 2.9662198275327682 3.9787068068981171 3.5559344291687012 3.6216536462306976 2.7321216762065887
leaf_count=17 11 10 12 11 14 10 11
internal_value=0 0.0649954 -0.111207 0.199774 -0.169635 0.224791 -0.168517
internal_weight=0 20.6469 8.94832 11.6986 7.78388 7.60036 5.69834
internal_count=96 65 33 32 31 21 23
is_linear=0
shrinkage=0.2


Tree=8
num_leaves=8
num_cat=0
split_feature=2 2 1 1 2 0 0
split_gain=21.2209 0.680624 0.25334 0.000429928 0.000256609 0.00029542 2.34561e-07
threshold=4.7500000000000009 5.1500000000000012 2.5500000000000003 3.0500000000000003 1.5500000000000003 5.5500000000000007 5.0500000000000007
decision_type=2 2 2 2 2 2 2
left_child=2 -2 -1 -3 6 -6 -4
right_child=1 3 4 -5 5 -7 -8
leaf_value=-0.10143563129976713 0.1270336771979626 0.22820469371185498 -0.16645383831701099 0.23106939479262179 -0.16998568579766263 -0.16728694251097287 -0.16637047626734547
leaf_weight=2.8518816083669689 3.7295851409435263 4.0078241229057294 3.1079975813627225 4.3919297754764557 2.5043777972459793 4.6073944121599197 2.3871307075023651
leaf_count=11 10 11 13 12 10 19 10
internal_value=0 0.198133 -0.155267 0.229703 -0.167444 -0.168237 -0.166418
internal_weight=0 12.1293 15.4588 8.39975 12.6069 7.11177 5.49513
internal_count=96 33 63 23 52 29 23
is_linear=0
shrinkage=0.2


Tree=9
num_leaves=8
num_cat=0
split_feature=2 1 1 0 1 2 2
split_gain=18.3452 0.228002 0.0355057 0.000501861 0.000658047 0.000179962 0.000311113
threshold=3.4000000000000004 3.2500000000000004 3.5500000000000003 5.6500000000000012 3.1500000000000008 4.7500000000000009 5.4500000000000011
decision_type=2 2 2 2 2 2 2
left_child=1 -1 -3 -2 5 -5 -7
right_child=3 2 -4 4 -6 6 -8
leaf_value=0.14608573408083081 -0.16354756085913041 0.22250678337710911 0.1951613072879162 -0.15827442829455735 -0.16296861725155323 -0.16196415008994103 -0.15866759582308049
leaf_weight=3.3841938376426715 2.4738784581422797 3.7060047090053558 3.8958180248737335 3.1858331114053708 2.8793112635612488 2.1776989847421646 2.4151320159435272
leaf_count=11 11 11 12 16 13 10 12
internal_value=0 0.189268 0.208493 -0.160981 -0.160386 -0.159429 -0.160231
internal_weight=0 10.986 7.60182 13.1319 10.658 7.77866 4.59283
internal_count=96 34 23 62 51 38 22
is_linear=0
shrinkage=0.2


Tree=10
num_leaves=8
num_cat=0
split_feature=2 2 2 0 2 1 0
split_gain=5.69655 7.97636 1.13858 0.33287 0.000490965 2.08586e-05 2.083e-07
threshold=1.8 4.7500000000000009 5.1500000000000012 5.5500000000000007 1.4500000000000002 3.0500000000000003 6.1500000000000012
decision_type=2 2 2 2 2 2 2
left_child=4 3 -3 -2 -1 -4 -5
right_child=1 2 5 6 -6 -7 -8
leaf_value=-0.15919996101286521 0.12251008690881826 -0.004003813773914516 -0.15947058667690517 0.19558425863407305 -0.16269314824978254 -0.15862501136946827 0.19551432288714066
leaf_weight=3.4698292911052731 3.9330513179302233 3.1876778304576865 2.2611084580421448 3.576670378446579 3.0016767233610153 2.4113945513963699 3.2528181374073029
leaf_count=17 11 10 11 11 14 12 10
internal_value=0 0.0570003 -0.096162 0.168859 -0.16082 -0.159034 0.195551
internal_weight=0 18.6227 7.86018 10.7625 6.47151 4.6725 6.82949
internal_count=96 65 33 32 31 23 21
is_linear=0
shrinkage=0.2


Tree=11
num_leaves=8
num_cat=0
split_feature=2 2 3 3 1 1 2
split_gain=14.7185 0.623921 0.351303 0.00202278 0.000890808 7.85804e-05 1.27334e-05
threshold=4.7500000000000009 5.1500000000000012 1.3500000000000003 0.45000000000000007 3.0500000000000003 2.6500000000000008 1.4500000000000002
decision_type=2 2 2 2 2 2 2
left_child=2 -2 3 6 -3 -5 -1
right_child=1 4 -4 5 -6 -7 -8
leaf_value=-0.15791812749833886 0.099790614721138121 0.19715270169094565 -0.074168755397372027 -0.16390652141203249 0.20147964962600501 -0.16227853638959586 -0.15732282125649069
leaf_weight=3.3499429523944872 3.7474571764469129 3.6121821999549866 2.3117018342018119 2.7066005766391754 4.0226186513900757 2.110928937792778 2.5171400308609009
leaf_count=17 10 11 11 12 12 10 13
internal_value=0 0.166627 -0.144861 -0.160156 0.199432 -0.163193 -0.157663
internal_weight=0 11.3823 12.9963 10.6846 7.6348 4.81753 5.86708
internal_count=96 33 63 52 23 22 30
is_linear=0
shrinkage=0.2


Tree=12
num_leaves=7
num_cat=0
split_feature=2 3 0 0 2 0
split_gain=13.2667 0.133956 0.0105354 0.00051616 0.000337103 0.000250115
threshold=3.4000000000000004 0.25000000000000006 4.9500000000000011 5.6500000000000012 4.7500000000000009 6.3500000000000005
decision_type=2 2 2 2 2 2
left_child=1 2 -1 -2 -5 -6
right_child=3 -3 -4 4 5 -7
leaf_value=0.19259240437683711 -0.15721363689726181 0.13415512873158167 0.1764945061845454 -0.15203864666186259 -0.15617720806026675 -0.15348892623695998
leaf_weight=3.1832460463047045 2.1081640273332587 3.1555497944355011 3.3246247470378876 3.0682803094387037 2.4251868724822998 3.2256617844104767
leaf_count=11 11 11 12 19 13 19
internal_value=0 0.167972 0.184369 -0.154405 -0.153726 -0.154643
internal_weight=0 9.66342 6.50787 10.8273 8.71913 5.65085
internal_count=96 34 23 62 51 32
is_linear=0
shrinkage=0.2


Tree=13
num_leaves=8
num_cat=0
split_feature=3 3 2 2 1 2 1
split_gain=4.38748 6.30678 0.466029 0.274597 0.23979 0.0070655 0.00114062
threshold=0.45000000000000007 1.6500000000000001 5.0500000000000007 4.5500000000000007 2.8500000000000001 1.4500000000000002 3.0500000000000003
decision_type=2 2 2 2 2 2 2
left_child=5 3 -3 4 -2 -1 -4
right_child=1 2 6 -5 -6 -7 -8
leaf_value=-0.15270728178121282 0.19036918760469856 -0.039983939077138493 -0.15915916403682534 0.092384236944570972 0.11660525536670528 -0.1675684766474512 -0.15219150785842187
leaf_weight=2.8235757648944881 4.9225709438323992 2.2186053097248069 1.8109686970710757 2.976709321141243 2.7462429404258728 2.3403040766716003 1.9535552859306333
leaf_count=17 16 7 10 11 10 13 12
internal_value=0 0.0516024 -0.112693 0.143942 0.163954 -0.159442 -0.155543
internal_weight=0 16.6287 5.98313 10.6455 7.66881 5.16388 3.76452
internal_count=96 66 29 37 26 30 22
is_linear=0
shrinkage=0.2


Tree=14
num_leaves=8
num_cat=0
split_feature=3 3 1 0 3 1 0
split_gain=10.4352 0.973784 0.215755 0.0935028 0.00177757 3.45978e-05 3.57482e-06
threshold=1.6500000000000001 1.4500000000000002 3.1500000000000008 6.0500000000000007 0.45000000000000007 3.3500000000000001 5.1500000000000012
decision_type=2 2 2 2 2 2 2
left_child=1 3 -2 4 5 -1 -7
right_child=2 -3 -4 -5 -6 6 -8
leaf_value=-0.15234018836587845 0.188626615676877 0.0051226328100060312 0.12268495038343 -0.10546815859248795 -0.15757586971388379 -0.15098856632545674 -0.1514165658248226
leaf_weight=1.6357477307319657 5.83291347324848 2.0944278985261908 3.0083686113357544 1.9614964872598637 3.4138645827770233 1.5454210788011553 1.5772964060306547
leaf_count=10 19 8 10 11 18 10 10
internal_value=0 -0.119023 0.166189 -0.144682 -0.154093 -0.151595 -0.151205
internal_weight=0 12.2283 8.84128 10.1338 8.17233 4.75847 3.12272
internal_count=96 67 29 59 48 30 20
is_linear=0
shrinkage=0.2


Tree=15
num_leaves=9
num_cat=0
split_feature=3 3 0 1 0 3 3 0
split_gain=9.08565 0.779253 0.00773142 0.000770195 0.000146755 0.000132403 3.35757e-05 1.97517e-06
threshold=0.45000000000000007 1.0500000000000003 4.8500000000000005 2.5500000000000003 6.3500000000000005 1.4500000000000002 2.0500000000000003 5.1500000000000012
decision_type=2 2 2 2 2 2 2 2
left_child=2 -2 -1 -3 5 -5 -6 -4
right_child=1 3 7 4 6 -7 -8 -9
leaf_value=0.17857631625077455 0.00018189094866390861 -0.15459582258633028 0.16485645929847753 -0.14894867354193972 -0.14799694361617513 -0.1514520305580542 -0.14922041959056301 0.16459507698028911
leaf_weight=2.4746234863996532 1.6463530361652363 1.351831316947935 2.3190937340259552 1.530353829264641 2.1342842727899556 1.8873580843210218 1.5479295104742048 2.3065809458494186
leaf_count=10 8 8 10 11 16 12 11 10
internal_value=0 -0.125699 0.169553 -0.15022 -0.149387 -0.150331 -0.148511 0.164726
internal_weight=0 10.0981 7.1003 8.45176 7.09993 3.41771 3.68221 4.62567
internal_count=96 66 30 58 50 23 27 20
is_linear=0
shrinkage=0.2


Tree=16
num_leaves=8
num_cat=0
split_feature=3 3 1 3 2 1 2
split_gain=3.2782 4.19236 0.798736 1.15637 0.287323 0.220606 0.00411883
threshold=0.45000000000000007 1.6500000000000001 2.9500000000000006 2.0500000000000003 4.5500000000000007 2.8500000000000001 1.4500000000000002
decision_type=2 2 2 2 2 2 2
left_child=6 4 -3 -4 5 -2 -1
right_child=1 2 3 -5 -6 -7 -8
leaf_value=-0.14791286058958319 0.17564844776997812 -0.20830135634156133 0.085616532654871527 -0.14795903443000605 0.072427863805646212 0.10059940188538433 -0.16052236622333105
leaf_weight=2.2648673355579403 4.2286737412214261 1.7462630420923222 1.5509853959083559 1.8700495213270185 2.8901726752519608 2.488794356584549 1.9100353345274923
leaf_count=17 16 8 7 14 11 10 13
internal_value=0 0.0470263 -0.0982428 -0.0420635 0.125157 0.147843 -0.153682
internal_weight=0 14.7749 5.1673 3.42103 9.60764 6.71747 4.1749
internal_count=96 66 29 21 37 26 30
is_linear=0
shrinkage=0.2


Tree=17
num_leaves=6
num_cat=0
split_feature=3 3 0 3 2
split_gain=7.30514 0.798382 0.104632 0.000738481 3.02186e-06
threshold=1.4500000000000002 1.8500000000000003 6.0500000000000007 0.45000000000000007 1.4500000000000002
decision_type=2 2 2 2 2
left_child=2 -2 3 4 -1
right_child=1 -3 -4 -5 -6
leaf_value=-0.1473002652281645 0.061095136453414259 0.17484682675392896 -0.09383690892941049 -0.15144203537682055 -0.14694084684429262
leaf_weight=2.1842658966779731 5.0226254910230619 4.8525249511003494 1.7434806972742078 2.7547680586576462 1.6369121670722959
leaf_count=17 18 19 11 18 13
internal_value=0 0.116991 -0.137397 -0.148946 -0.147146
internal_weight=0 9.87515 8.31943 6.57595 3.82118
internal_count=96 37 59 48 30
is_linear=0
shrinkage=0.2


Tree=18
num_leaves=8
num_cat=0
split_feature=2 3 0 0 3 2 2
split_gain=7.60185 0.0766223 0.00296178 0.00020045 0.000100448 2.39175e-05 9.22239e-06
threshold=3.4000000000000004 0.25000000000000006 4.9500000000000011 6.3500000000000005 1.4500000000000002 4.0500000000000007 5.6500000000000012
decision_type=2 2 2 2 2 2 2
left_child=1 2 -1 4 5 -2 -5
right_child=3 -3 -4 6 -6 -7 -8
leaf_value=0.16621070516241093 -0.14694540488800326 0.11714162999464961 0.15589368922956676 -0.14479336409169527 -0.14825380813533282 -0.14567637002458403 -0.14550581226684595
leaf_weight=2.2249616980552673 1.2346780151128771 2.472679927945137 2.2271416038274765 1.7379009053111079 2.0149523913860321 1.1449417173862455 1.2491493970155714
leaf_count=11 10 11 12 16 15 10 11
internal_value=0 0.145371 0.16105 -0.146355 -0.147215 -0.146335 -0.145091
internal_weight=0 6.92478 4.4521 7.38162 4.39457 2.37962 2.98705
internal_count=96 34 23 62 35 20 27
is_linear=0
shrinkage=0.2


Tree=19
num_leaves=8
num_cat=0
split_feature=3 3 1 3 1 0 0
split_gain=2.42418 2.84996 0.73844 0.942162 0.18107 0.00354603 4.37461e-07
threshold=0.45000000000000007 1.6500000000000001 2.9500000000000006 2.0500000000000003 2.7500000000000004 4.8500000000000005 5.1500000000000012
decision_type=2 2 2 2 2 2 2
left_child=5 4 -3 -4 -2 -1 -7
right_child=1 2 3 -5 -6 6 -8
leaf_value=-0.1575292546367543 0.13872767994358104 -0.19982929642787456 0.077883396767843727 -0.14429102339767771 0.08089741636430138 -0.14414243659691503 -0.14395829812642477
leaf_weight=1.2557491287589102 4.271158039569853 1.5166131630539883 1.5849514305591585 1.4730619713664053 4.3933248519897461 1.0400668978691103 1.0243419855833051
leaf_count=10 18 8 7 14 19 10 10
internal_value=0 0.041979 -0.0857276 -0.0291393 0.109405 -0.149149 -0.144051
internal_weight=0 13.2391 4.57463 3.05801 8.66448 3.32016 2.06441
internal_count=96 66 29 21 37 30 20
is_linear=0
shrinkage=0.2


Tree=20
num_leaves=8
num_cat=0
split_feature=3 3 3 3 0 1 0
split_gain=5.20523 0.70268 0.177629 0.000356289 0.000328946 2.2202e-06 3.81686e-07
threshold=1.4500000000000002 1.8500000000000003 1.3500000000000003 0.45000000000000007 5.5500000000000007 3.3500000000000001 5.1500000000000012
decision_type=2 2 2 2 2 2 2
left_child=2 -2 3 5 -5 -1 -7
right_child=1 -3 -4 4 -6 6 -8
leaf_value=-0.14397605275831635 0.05063087050812326 0.1634770029436696 -0.058292796295066597 -0.14904497266734443 -0.14459861046326361 -0.14352553640402888 -0.14370060699653112
leaf_weight=1.0240610316395771 4.9099105894565565 4.0097784847021103 1.1265400052070615 1.3860249966382983 1.28032711148262 0.98901026695966709 1.0036026239395139
leaf_count=10 18 19 7 10 12 10 10
internal_value=0 0.10136 -0.130844 -0.145226 -0.14691 -0.143737 -0.143614
internal_weight=0 8.91969 6.80957 5.68303 2.66635 3.01667 1.99261
internal_count=96 37 59 52 22 30 20
is_linear=0
shrinkage=0.2


Tree=21
num_leaves=8
num_cat=0
split_feature=2 0 3 0 2 3 2
split_gain=5.93068 0.20682 0.0124676 8.5582e-05 7.58595e-05 1.61496e-05 2.87741e-06
threshold=1.8 5.1500000000000012 0.25000000000000006 6.3500000000000005 4.7500000000000009 1.8500000000000003 1.4500000000000002
decision_type=2 2 2 2 2 2 2
left_child=2 -2 6 4 -3 -5 -1
right_child=1 3 -4 5 -6 -7 -8
leaf_value=0.15018028419976748 -0.046530696878699054 -0.14322744302015245 0.1707968142062509 -0.14305715701602256 -0.14513392677412087 -0.14202317917659554 0.14980251724928856
leaf_weight=1.7921518534421923 1.0390068292617796 1.8045036122202875 1.7872316986322401 1.2291874662041666 1.5536041930317877 1.188405320048332 1.4664664715528486
leaf_count=12 5 19 9 13 14 14 10
internal_value=0 -0.128678 0.157373 -0.143456 -0.144109 -0.142549 0.15001
internal_weight=0 6.81471 5.04585 5.7757 3.35811 2.41759 3.25862
internal_count=96 65 31 60 33 27 22
is_linear=0
shrinkage=0.2


Tree=22
num_leaves=9
num_cat=0
split_feature=2 2 2 0 2 1 0 0
split_gain=2.08645 2.56595 0.467853 0.365124 0.00570087 0.000838532 0.000423102 8.28366e-08
threshold=1.8 5.1500000000000012 4.7500000000000009 5.5500000000000007 1.5500000000000003 3.0500000000000003 6.1500000000000012 4.9500000000000011
decision_type=2 2 2 2 2 2 2 2
left_child=4 2 3 -2 7 -3 -5 -1
right_child=1 5 -4 6 -6 -7 -8 -9
leaf_value=-0.14146492631061408 0.060352805576889892 -0.15027250167125661 0.021322766517014587 0.15494523678213776 -0.16048815113264006 -0.14261910774887274 0.1591151847934513 -0.14154754016996407
leaf_weight=0.89280164986848953 2.6054488122463209 1.2562955245375627 2.8670969903469086 1.9054230004549029 0.93591224402189244 1.0522464439272878 1.9895662218332288 1.0641416683793066
leaf_count=11 11 11 10 11 7 12 10 13
internal_value=0 0.04208 0.0886238 0.118308 -0.14765 -0.146784 0.157075 -0.14151
internal_weight=0 11.6761 9.36754 6.50044 2.89286 2.30854 3.89499 1.95694
internal_count=96 65 42 32 31 23 21 24
is_linear=0
shrinkage=0.2


Tree=23
num_leaves=8
num_cat=0
split_feature=3 3 3 3 0 1 0
split_gain=3.74912 0.608089 0.201941 0.00019776 0.000134084 3.4252e-07 8.89977e-08
threshold=1.4500000000000002 1.8500000000000003 1.3500000000000003 0.45000000000000007 5.5500000000000007 3.3500000000000001 5.1500000000000012
decision_type=2 2 2 2 2 2 2
left_child=2 -2 3 5 -5 -1 -7
right_child=1 -3 -4 4 -6 6 -8
leaf_value=-0.14138900063221124 0.043558980782329101 0.15552225123373642 -0.045527688636725627 -0.14544508740427589 -0.14229649136896685 -0.14118082695994688 -0.14127574248641056
leaf_weight=0.80229564011097076 4.8125635385513288 3.2511188238859177 1.057866223156452 1.1190062612295153 1.0473891347646711 0.78593035042285897 0.79472708702087402
leaf_count=10 18 19 7 10 12 10 10
internal_value=0 0.0887004 -0.124237 -0.14254 -0.143923 -0.141283 -0.141229
internal_weight=0 8.06368 5.60721 4.54935 2.1664 2.38295 1.58066
internal_count=96 37 59 52 22 30 20
is_linear=0
shrinkage=0.2


Tree=24
num_leaves=8
num_cat=0
split_feature=3 1 1 1 0 1 3
split_gain=4.07171 0.491429 0.00766643 0.000558419 6.54458e-05 1.78861e-05 1.6242e-05
threshold=1.0500000000000003 3.1500000000000008 3.5500000000000003 2.5500000000000003 6.3500000000000005 2.8500000000000001 1.8500000000000003
decision_type=2 2 2 2 2 2 2
left_child=1 -1 -3 -2 5 -5 -6
right_child=3 2 -4 4 6 -7 -8
leaf_value=0.020025472171386359 -0.14697563414051204 0.16501697680328126 0.14601105372502196 -0.14281530067366868 -0.14106073426806426 -0.14159374339510875 -0.13989723434352805
leaf_weight=1.4809391796588895 0.85549386218190182 2.0980449616909032 1.4259029701352117 0.87891048192977939 0.99772027134895303 1.0549287945032118 0.9247187003493309
leaf_count=13 8 13 12 10 13 13 14
internal_value=0 0.116699 0.157327 -0.142353 -0.141327 -0.142149 -0.140501
internal_weight=0 5.00489 3.52395 4.71177 3.85628 1.93384 1.92244
internal_count=96 38 25 58 50 23 27
is_linear=0
shrinkage=0.2


Tree=25
num_leaves=9
num_cat=0
split_feature=2 2 3 3 3 2 3 0
split_gain=1.55096 1.93409 0.628862 0.142072 0.0520408 0.00272328 0.0017929 1.82106e-08
threshold=1.8 5.1500000000000012 1.6500000000000001 1.4500000000000002 1.2500000000000002 1.5500000000000003 1.8500000000000003 4.9500000000000011
decision_type=2 2 2 2 2 2 2 2
left_child=5 2 3 4 -2 7 -3 -1
right_child=1 6 -4 -5 -6 -7 -8 -9
leaf_value=-0.13947727416211661 0.10780708846378279 -0.15221966622258454 -0.013985733279048319 0.06449989105998058 0.15119963484702936 -0.15417743055156052 -0.13974070369346386 -0.13952122721052271
leaf_weight=0.69409795477986447 2.1360514312982541 0.79322265833616157 2.1753467917442322 1.8683897107839582 2.2915648892521858 0.75799975916743267 1.0980237647891042 0.82548908144235611
leaf_count=11 12 6 8 7 15 7 17 13
internal_value=0 0.037893 0.0787185 0.110749 0.130265 -0.144386 -0.144975 -0.139501
internal_weight=0 10.3626 8.47135 6.29601 4.42762 2.27759 1.89125 1.51959
internal_count=96 65 42 34 27 31 23 24
is_linear=0
shrinkage=0.2


Tree=26
num_leaves=8
num_cat=0
split_feature=2 2 3 3 0 0 0
split_gain=2.92062 0.96541 0.00326217 0.000191068 7.84046e-05 3.80055e-07 2.27973e-09
threshold=4.4500000000000011 5.1500000000000012 2.0500000000000003 0.45000000000000007 5.5500000000000007 4.8500000000000005 5.1500000000000012
decision_type=2 2 2 2 2 2 2
left_child=3 -2 -3 5 -5 -1 -7
right_child=1 2 -4 4 -6 6 -8
leaf_value=-0.13950502815317287 0.011790087638003717 0.15968038872646681 0.14716446672139102 -0.14337984924574584 -0.14086956334025494 -0.13930528292189812 -0.13932249196222002
leaf_weight=0.62849282100796733 4.5947214588522911 1.5671626925468447 1.778110049664974 1.05486074835062 0.94223478063940991 0.61515155062079407 0.61651002988219261
leaf_count=10 19 9 14 11 13 10 10
internal_value=0 0.0712963 0.153028 -0.140837 -0.142195 -0.139378 -0.139314
internal_weight=0 7.93999 3.34527 3.85725 1.9971 1.86015 1.23166
internal_count=96 42 23 54 24 30 20
is_linear=0
shrinkage=0.2


Tree=27
num_leaves=9
num_cat=0
split_feature=3 1 0 0 0 3 0 0
split_gain=3.1556 0.50041 0.00364872 0.00167554 6.58367e-05 4.14953e-05 2.83943e-06 2.2221e-06
threshold=0.45000000000000007 3.2500000000000004 4.8500000000000005 5.4500000000000011 6.3500000000000005 1.3500000000000003 6.7500000000000009 5.1500000000000012
decision_type=2 2 2 2 2 2 2 2
left_child=2 3 -1 -2 5 -5 -6 -4
right_child=1 -3 7 4 6 -7 -8 -9
leaf_value=0.15715800746309297 -0.15090619081405063 0.016699784859545257 0.1432480089559611 -0.13970341049199236 -0.13907124729676221 -0.14154110373238268 -0.13846357790311536 0.14281420249354945
leaf_weight=1.1940207555890086 0.67362251877784762 0.99983158707618702 0.96173136681318261 0.9364125989377502 0.74961430951952912 1.0344107039272783 0.52159914001822472 0.92812458425760269
leaf_count=10 5 10 10 15 13 13 10 10
internal_value=0 -0.109584 0.148503 -0.14183 -0.139944 -0.140668 -0.138822 0.143035
internal_weight=0 4.91549 3.08388 3.91566 3.24204 1.97082 1.27121 1.88986
internal_count=96 66 30 56 51 28 23 20
is_linear=0
shrinkage=0.2


Tree=28
num_leaves=6
num_cat=0
split_feature=0 3 1 3 1
split_gain=1.47655 1.06584 0.983809 0.345787 0.0345073
threshold=4.9500000000000011 1.8500000000000003 3.2500000000000004 1.4500000000000002 2.5500000000000003
decision_type=2 2 2 2 2
left_child=-1 2 3 4 -2
right_child=1 -3 -4 -5 -6
leaf_value=-0.19606106040005936 0.15402310166965405 -0.14320051660238275 -0.099397142846036651 0.041599497171691743 0.11417834274329447
leaf_weight=1.2814597412943847 1.4024430140852913 1.2124054953455914 1.3512882962822912 3.504420667886734 2.2875270508229733
leaf_count=14 9 19 19 16 19
internal_value=0 0.0322856 0.0571824 0.086592 0.129322
internal_weight=0 9.75808 8.54568 7.19439 3.68997
internal_count=96 82 63 44 28
is_linear=0
shrinkage=0.2


Tree=29
num_leaves=7
num_cat=0
split_feature=2 2 3 3 0 0
split_gain=2.16987 0.785353 0.00145605 8.61805e-05 4.16464e-05 1.23695e-06
threshold=4.4500000000000011 5.1500000000000012 2.0500000000000003 0.45000000000000007 5.5500000000000007 4.9500000000000011
decision_type=2 2 2 2 2 2
left_child=3 -2 -3 5 -5 -1
right_child=1 2 -4 4 -6 -7
leaf_value=-0.13826721802112293 0.011015573187028452 0.15308918293049678 0.14371443623058563 -0.14114432983835137 -0.13909097020856104 -0.13789916598361557
leaf_weight=0.66234295070171378 4.4946296885609627 1.259083688259125 1.3990866020321844 0.8473866134881971 0.74024370685219765 0.81430789455771446
leaf_count=13 19 9 14 11 13 17
internal_value=0 0.0619802 0.148155 -0.139164 -0.140187 -0.138064
internal_weight=0 7.1528 2.65817 3.06428 1.58763 1.47665
internal_count=96 42 23 54 24 30
is_linear=0
shrinkage=0.2


Tree=30
num_leaves=8
num_cat=0
split_feature=2 1 2 0 0 2 2
split_gain=2.75943 0.179833 0.00631542 9.34301e-05 3.76358e-05 4.24145e-05 3.09642e-06
threshold=3.4000000000000004 3.1500000000000008 1.5500000000000003 5.5500000000000007 6.3500000000000005 4.7500000000000009 5.1500000000000012
decision_type=2 2 2 2 2 2 2
left_child=1 -1 -3 -2 5 -5 -6
right_child=3 2 -4 4 6 -7 -8
leaf_value=0.043008677692369809 -0.14147976621886335 0.14050179802711874 0.16150025925630884 -0.13800873150450441 -0.13825073333761984 -0.14014969116322507 -0.13759092532663092
leaf_weight=0.86711072921752963 0.56506346166133914 1.3044203519821169 1.0216099582612512 0.60768769308924697 0.4477230906486509 0.94683058187365532 0.78040198236703873
leaf_count=9 8 18 7 13 9 14 18
internal_value=0 0.120745 0.149724 -0.139135 -0.138659 -0.139313 -0.137831
internal_weight=0 3.19314 2.32603 3.34771 2.78264 1.55452 1.22813
internal_count=96 34 25 62 54 27 27
is_linear=0
shrinkage=0.2


Tree=31
num_leaves=7
num_cat=0
split_feature=0 1 3 1 0 1
split_gain=1.1825 0.706934 0.581433 0.369905 0.137924 0.0316748
threshold=4.9500000000000011 3.2500000000000004 1.4500000000000002 2.9500000000000006 5.7500000000000009 2.5500000000000003
decision_type=2 2 2 2 2 2
left_child=-1 2 5 -4 -3 -2
right_child=1 4 3 -5 -6 -7
leaf_value=-0.19284657116641205 0.14880474172864541 -0.14336644630665274 -0.055838150567866597 0.063246318223452488 -0.015274601606159689 0.10648460979377734
leaf_weight=1.0705111324787147 1.1165888607501968 0.93167133256793 1.9722655080258844 2.2153385579586029 0.52612614259123802 1.9305151775479314
leaf_count=14 9 17 11 17 9 19
internal_value=0 0.0299225 0.0555251 0.00716026 -0.0971375 0.121993
internal_weight=0 8.69251 7.23471 4.1876 1.4578 3.0471
internal_count=96 82 56 28 26 28
is_linear=0
shrinkage=0.2


Tree=32
num_leaves=8
num_cat=0
split_feature=2 2 1 2 0 1 2
split_gain=1.62976 0.705504 0.000607148 3.63288e-05 1.50471e-05 6.64529e-07 5.03778e-07
threshold=4.4500000000000011 5.1500000000000012 3.0500000000000003 1.5500000000000003 5.2500000000000009 3.4500000000000006 4.0500000000000007
decision_type=2 2 2 2 2 2 2
left_child=3 -2 -3 5 -5 -1 -6
right_child=1 2 -4 4 6 -7 -8
leaf_value=-0.13710511979872533 0.0079381006023461972 0.14915519156991511 0.1425303046645254 -0.13933160025137278 -0.13787314766616496 -0.13676033394460627 -0.13816577178882006
leaf_weight=0.3966719172894958 4.4444505870342255 1.1671617552638056 1.0521845817565916 0.56165750324726083 0.45725454017519951 0.51248908415436745 0.48487906530499458
leaf_count=10 19 11 12 10 10 14 10
internal_value=0 0.0539238 0.146014 -0.137909 -0.138512 -0.136911 -0.138024
internal_weight=0 6.6638 2.21935 2.41295 1.50379 0.909161 0.942134
internal_count=96 42 23 54 30 24 20
is_linear=0
shrinkage=0.2


Tree=33
num_leaves=8
num_cat=0
split_feature=3 1 1 1 0 3 3
split_gain=1.93186 0.319249 0.000667443 0.000204832 2.9112e-05 1.61706e-05 4.10507e-06
threshold=1.0500000000000003 3.0500000000000003 3.4500000000000006 2.5500000000000003 6.3500000000000005 1.5500000000000003 1.8500000000000003
decision_type=2 2 2 2 2 2 2
left_child=1 -1 -3 -2 5 -5 -6
right_child=3 2 -4 4 6 -7 -8
leaf_value=-0.0078040621564325827 -0.14211425070555006 0.14941551371808334 0.1419693067097515 -0.13753002090743527 -0.13726743044410675 -0.13906632998634746 -0.13644249571732417
leaf_weight=0.75599204748868976 0.5230431463569406 0.85635981336235989 1.1000206209719179 0.49168281629681609 0.52344557270407666 0.61914174631237984 0.44763736985623837
leaf_count=11 8 10 17 12 13 11 14
internal_value=0 0.102575 0.145229 -0.138576 -0.137687 -0.138386 -0.136887
internal_weight=0 2.71237 1.95638 2.60495 2.08191 1.11082 0.971083
internal_count=96 38 27 58 50 23 27
is_linear=0
shrinkage=0.2


Tree=34
num_leaves=7
num_cat=0
split_feature=0 1 3 0 0 1
split_gain=0.97203 0.480126 0.44618 0.345361 0.148172 0.0336098
threshold=4.9500000000000011 3.2500000000000004 1.4500000000000002 6.3500000000000005 5.8500000000000005 2.5500000000000003
decision_type=2 2 2 2 2 2
left_child=-1 2 5 -4 -3 -2
right_child=1 4 3 -5 -6 -7
leaf_value=-0.18858162954916263 0.14619795919770837 -0.14081936415257049 -0.035714083225993724 0.084356016531367206 0.0042012773451590218 0.098376793058319756
leaf_weight=0.91799779795110215 0.91545145958662066 0.76059070602059342 2.5706646367907524 1.5276492238044737 0.44770147651433945 1.6428868472576139
leaf_count=14 9 18 10 18 8 19
internal_value=0 0.0288993 0.0499525 0.00904213 -0.0870857 0.115489
internal_weight=0 7.86494 6.65665 4.09831 1.20829 2.55834
internal_count=96 82 56 28 26 28
is_linear=0
shrinkage=0.2


Tree=35
num_leaves=8
num_cat=0
split_feature=3 1 0 3 0 1 0
split_gain=1.13872 0.540549 0.723101 1.96025e-05 8.55424e-06 1.38006e-06 1.04469e-08
threshold=1.3500000000000003 3.1500000000000008 6.3500000000000005 0.45000000000000007 5.5500000000000007 3.3500000000000001 5.1500000000000012
decision_type=2 2 2 2 2 2 2
left_child=3 2 -2 5 -5 -1 -7
right_child=1 -3 -4 4 -6 6 -8
leaf_value=-0.13649753372695689 0.12766825730999773 -0.068008046959133289 -0.033040643112886132 -0.13807202486004538 -0.13683750054998661 -0.13601211166497162 -0.13595791208108113
leaf_weight=0.33340904489159562 3.3264637105166912 1.3744988292455671 1.6882827952504156 0.47868363931775093 0.4228304997086525 0.28546503186225891 0.28354392573237419
leaf_count=10 14 13 17 10 12 10 10
internal_value=0 0.0431076 0.0735634 -0.136833 -0.137493 -0.136174 -0.135985
internal_weight=0 6.38925 5.01475 1.80393 0.901514 0.902418 0.569009
internal_count=96 44 31 52 22 30 20
is_linear=0
shrinkage=0.2


Tree=36
num_leaves=8
num_cat=0
split_feature=2 1 2 1 2 2 1
split_gain=1.73957 0.15312 0.000582988 0.000276028 1.03639e-05 3.2199e-05 3.49742e-06
threshold=1.8 3.3500000000000001 1.5500000000000003 2.5500000000000003 4.7500000000000009 5.1500000000000012 3.4500000000000006
decision_type=2 2 2 2 2 2 2
left_child=2 3 6 -2 -5 -6 -1
right_child=1 -3 -4 4 5 -7 -8
leaf_value=0.1381972337724362 -0.1416465875738562 -0.0043172933555121517 0.14571744814968615 -0.13625988379653531 -0.13859907945753394 -0.13632603628692661 0.13748099536756825
leaf_weight=0.49177220463752724 0.70251781307160932 0.39927100390195835 0.56108603626489628 0.61715736798942078 0.43568467348813988 0.58264286071062088 0.61217818036675453
leaf_count=10 12 6 7 20 8 19 14
internal_value=0 -0.118783 0.140468 -0.138331 -0.136907 -0.137299 0.1378
internal_weight=0 2.73727 1.66504 2.338 1.63548 1.01833 1.10395
internal_count=96 65 31 59 47 27 24
is_linear=0
shrinkage=0.2


Tree=37
num_leaves=8
num_cat=0
split_feature=2 0 2 2 1 2 1
split_gain=0.811717 1.2158 0.492697 0.435013 0.000320193 0.000233993 4.33644e-08
threshold=5.1500000000000012 6.3500000000000005 1.8 4.4500000000000011 3.0500000000000003 1.5500000000000003 3.4500000000000006
decision_type=2 2 2 2 2 2 2
left_child=1 2 5 -4 -2 6 -1
right_child=4 -3 3 -5 -6 -7 -8
leaf_value=-0.13554639668304844 -0.14446984454857167 0.21807472370985545 0.11081532365676246 -0.019773193497797249 -0.13790558903102262 -0.14200261395688682 -0.13543293169877199
leaf_weight=0.23396021872758854 0.72079019993543603 1.1957499422132967 1.5033903755247591 3.1757550686597824 0.50582436099648476 0.3661376591771841 0.3176694568246603
leaf_count=10 11 9 20 13 12 7 14
internal_value=0 0.0350141 -0.00409583 0.0221844 -0.141763 -0.138083 -0.135481
internal_weight=0 6.79266 5.59691 4.67915 1.22661 0.917767 0.55163
internal_count=96 73 64 33 23 31 24
is_linear=0
shrinkage=0.2


Tree=38
num_leaves=10
num_cat=0
split_feature=3 1 0 3 0 1 3 3 0
split_gain=0.906736 1.18014 0.661243 1.19036 0.449643 0.738336 0.196307 0.000219278 8.20999e-09
threshold=1.8500000000000003 3.1500000000000008 6.4500000000000011 1.6500000000000001 6.0500000000000007 2.5500000000000003 1.5500000000000003 0.45000000000000007 5.0500000000000007
decision_type=2 2 2 2 2 2 2 2 2
left_child=1 2 3 4 5 -1 7 8 -3
right_child=-2 6 -4 -5 -6 -7 -8 -9 -10
leaf_value=0.05482824440143285 0.14326510559227629 -0.13537261333658271 -0.11913995440449868 0.19911509865296084 0.08104213767898355 -0.23442096208668861 -0.29745546204572842 -0.14219298623903398 -0.13532095072629996
leaf_weight=0.6481976564973595 1.4944641776382921 0.21840682253241517 1.1257173269987104 1.4267852753400805 0.85154633596539486 0.77509986609220505 0.50251740217208862 0.29854157567024231 0.28178896196186543
leaf_count=10 19 10 9 6 8 15 2 4 13
internal_value=0 -0.0304797 0.0150865 0.0559066 -0.033914 -0.102691 -0.199519 -0.137904 -0.135344
internal_weight=0 6.1286 4.82735 3.70163 2.27484 1.4233 1.30125 0.798737 0.500196
internal_count=96 77 48 39 33 25 29 27 23
is_linear=0
shrinkage=0.2


Tree=39
num_leaves=9
num_cat=0
split_feature=2 1 2 0 2 2 0 0
split_gain=1.34459 0.122657 0.00100932 3.33176e-05 5.35857e-05 4.24564e-06 2.94369e-06 1.47595e-07
threshold=3.4000000000000004 3.0500000000000003 1.5500000000000003 6.0500000000000007 4.4500000000000011 4.7500000000000009 6.3500000000000005 5.0500000000000007
decision_type=2 2 2 2 2 2 2 2
left_child=1 -1 7 4 -2 -5 -7 -3
right_child=3 2 -4 5 -6 6 -8 -9
leaf_value=0.018355241340916283 -0.13605531947684465 0.13635430436099291 0.14796069180705498 -0.13542533726380188 -0.13928266439957379 -0.13683304349123165 -0.13602742591559533 0.13654262926272315
leaf_weight=0.43718100711703334 0.38798174448311318 0.32287630438804604 0.56159982457756996 0.29074838943779446 0.43822216987609863 0.28494823910295963 0.4993645716458559 0.3436206728219986
leaf_count=7 14 10 7 13 8 8 19 10
internal_value=0 0.109329 0.141715 -0.136812 -0.137767 -0.136078 -0.13632 0.136451
internal_weight=0 1.66528 1.2281 1.90127 0.826204 1.07506 0.784313 0.666497
internal_count=96 34 27 62 22 40 27 20
is_linear=0
shrinkage=0.2


Tree=40
num_leaves=9
num_cat=0
split_feature=0 2 0 2 2 2 2 0
split_gain=0.673952 0.858272 0.683757 0.381747 0.338133 0.164568 0.0629337 9.15325e-05
threshold=4.9500000000000011 5.1500000000000012 6.3500000000000005 4.8500000000000005 3.4000000000000004 1.6500000000000001 4.6500000000000012 6.5500000000000007
decision_type=2 2 2 2 2 2 2 2
left_child=-1 2 3 4 5 -2 -6 -3
right_child=1 7 -4 -5 6 -7 -8 -9
leaf_value=-0.17526703102648666 -0.1370171534701404 -0.1426368123219007 0.20834128408360214 -0.05563787485765468 0.14153970373065 0.050816271989914119 0.07142851287816239 -0.13882720045243221
leaf_weight=0.7237268118187784 0.38618146255612407 0.50062112510204293 1.0126640386879442 1.5033097788691518 1.1611390821635725 0.36097757983952761 0.91620504856109608 0.50853973999619484
leaf_count=14 16 9 9 6 19 5 4 14
internal_value=0 0.0284352 0.060399 0.025782 0.0691168 -0.0462685 0.110617 -0.140717
internal_weight=0 6.34964 5.34048 4.32781 2.8245 0.747159 2.07734 1.00916
internal_count=96 82 59 50 44 21 23 23
is_linear=0
shrinkage=0.2


Tree=41
num_leaves=12
num_cat=0
split_feature=2 1 1 3 2 2 3 3 2 3 2
split_gain=0.994684 0.940947 0.493412 0.32046 0.189272 0.0481472 0.000933292 0.000405261 0.000229937 1.2293e-05 5.87641e-08
threshold=5.1500000000000012 2.5500000000000003 3.0500000000000003 1.6500000000000001 4.7500000000000009 5.0500000000000007 1.8500000000000003 1.4500000000000002 4.5500000000000007 0.35000000000000003 1.4500000000000002
decision_type=2 2 2 2 2 2 2 2 2 2 2
left_child=1 -1 3 5 7 8 -2 9 -3 10 -4
right_child=6 2 4 -5 -6 -7 -8 -9 -10 -11 -12
leaf_value=0.11888780906904084 0.14834885309489235 -0.13572349572231046 -0.13482486442314431 0.035092925451361431 -0.30876936408475553 -0.065420371221100573 0.13850892584254632 -0.1444867423307962 -0.14291051268267288 -0.13678707153616113 -0.13498413230447304
leaf_weight=1.1692808233201502 0.67379463091492631 0.38112107664346762 0.19678097590804078 1.2931715697050092 0.36802759766578674 0.7045215368270874 0.90131766721606255 0.31439615786075592 0.33420427516102791 0.21957424096763134 0.17513813637197018
leaf_count=13 6 16 12 5 1 2 17 3 4 7 10
internal_value=0 -0.0388759 -0.0851445 -0.036932 -0.187821 -0.102531 0.142718 -0.138684 -0.139081 -0.1356 -0.1349
internal_weight=0 5.15622 3.98694 2.71302 1.27392 1.41985 1.57511 0.90589 0.715325 0.591493 0.371919
internal_count=96 73 60 27 33 22 23 32 20 29 22
is_linear=0
shrinkage=0.2


Tree=42
num_leaves=9
num_cat=0
split_feature=3 1 0 0 3 0 0 1
split_gain=0.972225 0.151492 0.000211939 0.000180523 9.33467e-06 1.83795e-05 1.82586e-06 6.64162e-07
threshold=0.45000000000000007 3.2500000000000004 5.1500000000000012 4.8500000000000005 1.4500000000000002 6.3500000000000005 5.1500000000000012 2.7500000000000004
decision_type=2 2 2 2 2 2 2 2
left_child=3 2 -2 -1 7 -6 -5 -4
right_child=1 -3 4 6 5 -7 -8 -9
leaf_value=0.14166379308262247 -0.14186784101535305 -0.00241349323372565 -0.13537689680758577 0.13650930673371303 -0.13729760911562788 -0.13527235501980303 0.13579077734123479 -0.13488489370169524
leaf_weight=0.41405128128826652 0.29680880904197682 0.43222502805292595 0.27144166268408276 0.30223347991704941 0.37714062444865704 0.34157680161297321 0.26593291945755482 0.18423979077488184
leaf_count=10 4 10 13 10 10 18 10 11
internal_value=0 -0.10651 -0.137093 0.138488 -0.135886 -0.136335 0.136173 -0.135178
internal_weight=0 1.90343 1.47121 0.982218 1.1744 0.718717 0.568166 0.455681
internal_count=96 66 56 30 52 28 20 24
is_linear=0
shrinkage=0.2


Tree=43
num_leaves=7
num_cat=0
split_feature=0 2 0 1 1 0
split_gain=0.516713 0.623012 0.610013 0.439303 0.48837 4.09793e-05
threshold=4.9500000000000011 5.1500000000000012 6.3500000000000005 2.7500000000000004 3.1500000000000008 6.5500000000000007
decision_type=2 2 2 2 2 2
left_child=-1 2 3 -2 -5 -3
right_child=1 5 -4 4 -6 -7
leaf_value=-0.16721911794018982 0.10203412097286112 -0.14043200845290588 0.20715476967431223 -0.1032042964745002 0.084045061710363814 -0.13753832568587115
leaf_weight=0.61081689968705166 1.5866158399730923 0.38971913792192925 0.84978611767292012 1.5018822625279429 0.88571408763527859 0.3933348935097456
leaf_count=14 18 9 9 12 20 14
internal_value=0 0.0264912 0.0533511 0.020464 -0.0337414 -0.138978
internal_weight=0 5.60705 4.824 3.97421 2.3876 0.783054
internal_count=96 82 59 50 32 23
is_linear=0
shrinkage=0.2


Tree=44
num_leaves=9
num_cat=0
split_feature=2 0 3 3 2 3 0 0
split_gain=0.726384 0.679983 0.709836 0.000414169 6.28558e-05 6.45614e-06 1.9855e-06 1.0807e-07
threshold=5.1500000000000012 6.3500000000000005 1.4500000000000002 1.8500000000000003 4.2500000000000009 0.25000000000000006 5.2500000000000009 4.9500000000000011
decision_type=2 2 2 2 2 2 2 2
left_child=1 2 4 -2 5 7 -7 -1
right_child=3 -3 -4 -5 -6 6 -8 -9
leaf_value=-0.13477031504573761 0.14467353496280416 -0.20973950045415021 0.052560420223822124 0.13725829095760539 -0.13916656243343636 -0.13616899966425805 -0.13541775971257092 -0.13453864932623769
leaf_weight=0.1657688217237594 0.53133178502321221 0.72990068979561318 2.8770291283726692 0.69590158015489578 0.21740313060581684 0.27166184596717358 0.29197042994201183 0.15666915196925402
leaf_count=11 6 9 11 17 5 10 15 12
internal_value=0 -0.0322849 0.000254726 0.140469 -0.136119 -0.135372 -0.13578 -0.134658
internal_weight=0 4.7104 3.9805 1.22723 1.10347 0.88607 0.563632 0.322438
internal_count=96 73 64 23 53 48 25 23
is_linear=0
shrinkage=0.2


Tree=45
num_leaves=9
num_cat=0
split_feature=2 1 2 0 2 2 1 0
split_gain=0.889275 0.0917098 0.000173339 0.000117211 6.63544e-06 1.32494e-05 4.53375e-07 1.77168e-07
threshold=1.8 3.3500000000000001 1.5500000000000003 5.1500000000000012 4.7500000000000009 5.1500000000000012 3.4500000000000006 5.7500000000000009
decision_type=2 2 2 2 2 2 2 2
left_child=2 3 6 -2 7 -6 -1 -5
right_child=1 -3 -4 4 5 -7 -8 -9
leaf_value=0.13574239017557757 -0.14029076469307836 -0.0056185662483235295 0.14128415499702962 -0.13494152821113478 -0.13668622355987756 -0.13483883169925287 0.13537477532978032 -0.13467047497197482
leaf_weight=0.23737665452063117 0.24679316766560067 0.25837237387895573 0.34052911028265953 0.17040666844695784 0.3378564864397049 0.28737313579767942 0.3087171521037817 0.22227544244378805
leaf_count=10 4 6 7 10 10 19 14 16
internal_value=0 -0.114198 0.137743 -0.13638 -0.135432 -0.135837 0.135535 -0.134788
internal_weight=0 1.52308 0.886623 1.2647 1.01791 0.62523 0.546094 0.392682
internal_count=96 65 31 59 55 29 24 26
is_linear=0
shrinkage=0.2


Tree=46
num_leaves=10
num_cat=0
split_feature=2 0 0 0 0 2 0 2 3
split_gain=0.35438 0.569065 0.334466 0.432097 0.158577 0.157016 0.00811317 0.00489535 0.000103852
threshold=5.1500000000000012 6.3500000000000005 6.1500000000000012 5.4500000000000011 4.9500000000000011 4.8500000000000005 5.0500000000000007 4.6500000000000012 1.8500000000000003
decision_type=2 2 2 2 2 2 2 2 2
left_child=1 2 3 4 -1 7 -6 -5 -2
right_child=8 -3 -4 5 6 -7 -8 -9 -10
leaf_value=-0.16266107450959888 -0.14017478184529883 0.19120664389836539 -0.13629560378001443 0.12341266206796747 0.0093242535500389391 0.0079720443803165744 -0.035265054192781753 0.099935253150294834 -0.13493300586707843
leaf_weight=0.51279014861211203 0.31409196276217688 0.70212972722947586 0.64097195677459229 0.69807968754321359 0.31016065832227468 0.99813766032457341 0.3445491511374712 0.72340314835309982 0.29150433279573917
leaf_count=14 6 9 5 18 7 4 13 3 17
internal_value=0 0.0244661 -0.00322335 0.0205549 -0.0793743 0.0687722 -0.0141414 0.111465 -0.137652
internal_weight=0 4.93022 4.22809 3.58712 1.1675 2.41962 0.65471 1.42148 0.605596
internal_count=96 73 64 59 34 25 20 21 23
is_linear=0
shrinkage=0.2


Tree=47
num_leaves=10
num_cat=0
split_feature=3 1 0 3 0 1 3 3 3
split_gain=0.446389 0.712124 0.322201 0.707435 0.289197 0.760614 0.0700113 9.16014e-05 9.80863e-07
threshold=1.8500000000000003 3.1500000000000008 6.4500000000000011 1.6500000000000001 6.0500000000000007 2.3500000000000001 1.6500000000000001 1.3500000000000003 0.25000000000000006
decision_type=2 2 2 2 2 2 2 2 2
left_child=1 2 3 4 5 -1 7 8 -3
right_child=-2 6 -4 -5 -6 -7 -8 -9 -10
leaf_value=0.10641359263668033 0.1397157971874515 -0.13424848642068712 -0.10175763958640005 0.17271040258156606 0.073503935451323207 -0.22950760661367997 -0.25389158551943058 -0.14047125589476692 -0.13500695357377976
leaf_weight=0.45318368822336219 0.80579630471765984 0.16779449023306359 0.73780991509556759 1.0969928614795208 0.65985310450196277 0.66563059389591217 0.3740505576133728 0.16639495640993118 0.114906320348382
leaf_count=6 19 17 9 6 8 19 1 3 8
internal_value=0 -0.0220974 0.0161462 0.0463968 -0.0315071 -0.0934403 -0.18998 -0.136748 -0.134557
internal_weight=0 4.43662 3.61347 2.87566 1.77867 1.11881 0.823146 0.449096 0.282701
internal_count=96 77 48 39 33 25 29 28 25
is_linear=0
shrinkage=0.2


Tree=48
num_leaves=9
num_cat=0
split_feature=2 0 2 2 0 2 2 1
split_gain=0.719216 0.112814 0.000102552 4.08417e-05 5.1524e-06 1.03876e-06 1.0144e-06 2.91301e-07
threshold=1.8 4.9500000000000011 1.5500000000000003 3.7500000000000004 6.0500000000000007 4.7500000000000009 5.4500000000000011 3.3500000000000001
decision_type=2 2 2 2 2 2 2 2
left_child=2 -2 7 -3 -5 -6 -7 -1
right_child=1 3 -4 4 5 6 -8 -9
leaf_value=0.13534334565534617 0.041609066995164257 -0.13848935107021529 0.14000801078869657 -0.13583434445601919 -0.13438845942585351 -0.13543692411127944 -0.1347870142942868 0.13500928513171817
leaf_weight=0.17057978082448255 0.16482563316822041 0.18672305531799771 0.28525427170097828 0.35914125014096498 0.13873756397515535 0.1497857291251421 0.26784420106559992 0.26917548757046461
leaf_count=9 2 5 7 18 13 8 19 15
internal_value=0 -0.112716 0.137055 -0.135794 -0.135244 -0.134863 -0.13502 0.135139
internal_weight=0 1.26706 0.72501 1.10223 0.915509 0.556367 0.41763 0.439755
internal_count=96 65 31 63 58 40 27 24
is_linear=0
shrinkage=0.2


Tree=49
num_leaves=9
num_cat=0
split_feature=2 1 2 3 2 2 3 1
split_gain=0.286475 0.183058 0.523319 0.10337 0.0206171 0.000102512 7.10907e-05 5.2507e-08
threshold=5.1500000000000012 2.5500000000000003 3.4000000000000004 1.6500000000000001 5.0500000000000007 1.5500000000000003 1.8500000000000003 3.5500000000000003
decision_type=2 2 2 2 2 2 2 2
left_child=1 -1 5 4 -4 7 -2 -3
right_child=6 2 3 -5 -6 -7 -8 -9
leaf_value=-0.04955046803820462 -0.13934534264033047 -0.13418357685578094 0.13883912956536001 0.040490227035994149 0.090724998918058825 -0.1399217203865967 -0.13455164627283439 -0.13437738826883625
leaf_weight=1.071072327904403 0.27765261195600022 0.11572021711617742 0.79120467789471172 1.3747256174683569 0.64800170063972473 0.30268418695777655 0.22324229311197996 0.10818813508376479
leaf_count=13 6 13 21 6 2 8 17 10
internal_value=0 0.0223985 0.0454675 0.0797116 0.117176 -0.137522 -0.137209 -0.134277
internal_weight=0 4.4116 3.34052 2.81393 1.43921 0.526593 0.500895 0.223908
internal_count=96 73 60 29 23 31 23 23
is_linear=0
shrinkage=0.2


Tree=50
num_leaves=12
num_cat=0
split_feature=2 1 3 2 2 3 2 3 1 3 2
split_gain=0.445176 0.535551 0.27823 0.210029 0.0332075 0.000132957 5.89216e-05 4.8394e-05 1.90972e-06 8.90592e-07 1.28706e-08
threshold=5.1500000000000012 3.0500000000000003 1.6500000000000001 4.8500000000000005 4.7500000000000009 1.8500000000000003 4.5500000000000007 1.4500000000000002 2.5500000000000003 0.35000000000000003 1.4500000000000002
decision_type=2 2 2 2 2 2 2 2 2 2 2
left_child=1 2 3 6 7 -2 8 9 -1 10 -3
right_child=5 4 -4 -5 -6 -7 -8 -9 -10 -11 -12
leaf_value=-0.13551989521964286 0.1409392276750997 -0.13399733594803295 0.07559118024531615 0.01215991289112821 -0.21921095513302508 0.13577827954964602 -0.13930948847883173 -0.13884301796187981 -0.13466634853862544 -0.13481175994275027 -0.13410803353855624
leaf_weight=0.22870459966361589 0.36889068223536003 0.088682972826063522 1.4481466114521024 0.98291802406311035 0.35742548108100891 0.43526850640773773 0.19806770980358124 0.14790591597557068 0.19361761212348938 0.096483571920543909 0.079833049327135086
leaf_count=10 6 12 7 3 1 17 4 3 16 7 10
internal_value=0 -0.0255705 0.0120463 -0.0453489 -0.174579 0.138146 -0.136463 -0.135945 -0.135129 -0.134327 -0.13405
internal_weight=0 3.82179 3.05145 1.60331 0.770331 0.804159 0.62039 0.412906 0.422322 0.265 0.168516
internal_count=96 73 40 33 33 23 30 32 26 29 22
is_linear=0
shrinkage=0.2


Tree=51
num_leaves=8
num_cat=0
split_feature=2 1 3 1 2 2 1
split_gain=0.563168 0.0703651 5.2505e-05 3.1121e-05 3.23128e-06 7.11344e-06 1.27712e-06
threshold=1.8 3.3500000000000001 0.35000000000000003 2.5500000000000003 4.7500000000000009 5.1500000000000012 3.1500000000000008
decision_type=2 2 2 2 2 2 2
left_child=2 3 6 -2 -5 -6 -1
right_child=1 -3 -4 4 5 -7 -8
leaf_value=0.13531462565507821 -0.13740051151049196 0.00019599744179052143 0.13890809888930417 -0.13419801951636143 -0.136036635435835 -0.13431010232838736 0.13453508302094791
leaf_weight=0.1282853363081814 0.3091599792242048 0.1844508433714509 0.18748569674789906 0.17814549338072538 0.20402389764785767 0.17937338724732399 0.24386860709637403
leaf_count=7 12 6 5 20 8 19 19
internal_value=0 -0.112018 0.136179 -0.135789 -0.134902 -0.135229 0.134804
internal_weight=0 1.05515 0.55964 0.870703 0.561543 0.383397 0.372154
internal_count=96 65 31 59 47 27 26
is_linear=0
shrinkage=0.2


Tree=52
num_leaves=10
num_cat=0
split_feature=2 0 0 2 0 2 3 2 3
split_gain=0.21259 0.441171 0.248532 0.219321 0.108577 0.134934 0.141176 0.0110464 3.16263e-05
threshold=5.1500000000000012 6.3500000000000005 6.1500000000000012 5.0500000000000007 5.0500000000000007 4.7500000000000009 1.0500000000000003 3.4000000000000004 1.8500000000000003
decision_type=2 2 2 2 2 2 2 2 2
left_child=1 2 3 4 7 6 -6 -1 -2
right_child=8 -3 -4 -5 5 -7 -8 -9 -10
leaf_value=-0.058970919450990616 -0.13790722135228226 0.18647697820787101 -0.13023697737937975 0.12766951544490177 -0.0407941570375909 -0.034984132804752141 0.13845845200977089 -0.11282709750612355 -0.13426497808836618
leaf_weight=0.34334452054463449 0.21489713340997685 0.54431995749473561 0.55204003490507592 0.56777547299861897 0.26802612841129281 0.97249846160411835 0.51046498771756887 0.27383783087134361 0.17143622692674398
leaf_count=19 6 9 5 2 18 4 14 2 17
internal_value=0 0.0190148 -0.00711866 0.016031 -0.0107346 0.0146901 0.0767437 -0.0828664 -0.136291
internal_weight=0 4.03231 3.48799 2.93595 2.36817 1.75099 0.778491 0.617182 0.386333
internal_count=96 73 64 59 57 36 32 21 23
is_linear=0
shrinkage=0.2


Tree=53
num_leaves=11
num_cat=0
split_feature=2 1 1 3 1 2 3 3 2 1
split_gain=0.321508 0.447262 0.23407 0.189423 0.484202 0.0171406 5.89298e-05 2.17699e-05 4.26105e-07 1.18603e-10
threshold=5.1500000000000012 3.0500000000000003 2.5500000000000003 1.6500000000000001 2.7500000000000004 4.7500000000000009 1.8500000000000003 1.4500000000000002 1.5500000000000003 3.5500000000000003
decision_type=2 2 2 2 2 2 2 2 2 2
left_child=1 2 -1 4 -4 7 -2 8 9 -3
right_child=6 5 3 -5 -6 -7 -8 -9 -10 -11
leaf_value=0.10157370579412235 0.13910634989030971 -0.13384179893099618 -0.24720924824424848 0.03671900402162042 0.037046419758020421 -0.20016508814527698 0.13519931467027016 -0.13754553622508539 -0.13442990229538165 -0.13385465466523735
leaf_weight=0.86961796507239419 0.28649769537150849 0.056709873490035423 0.42220740253105793 1.0435928627848623 0.55451554153114557 0.33360779285430908 0.33495609275996685 0.11469930596649647 0.089784452226012945 0.058128312230110168
leaf_count=13 6 10 7 5 15 1 17 3 9 10
internal_value=0 -0.0189605 0.0148167 -0.0225267 -0.0858286 -0.168462 0.137001 -0.13534 -0.134103 -0.133848
internal_weight=0 3.54286 2.88993 2.02032 0.976723 0.65293 0.621454 0.319322 0.204623 0.114838
internal_count=96 73 40 27 22 33 23 32 29 20
is_linear=0
shrinkage=0.2


Tree=54
num_leaves=9
num_cat=0
split_feature=2 1 0 2 2 2 1 1
split_gain=0.455703 0.0669757 3.85593e-05 2.44905e-05 2.66028e-06 5.19756e-06 2.2063e-07 5.49447e-08
threshold=1.8 3.3500000000000001 5.1500000000000012 1.5500000000000003 4.7500000000000009 5.1500000000000012 3.3500000000000001 2.6500000000000008
decision_type=2 2 2 2 2 2 2 2
left_child=3 2 -2 6 7 -6 -1 -4
right_child=1 -3 4 -5 5 -7 -8 -9
leaf_value=0.13472922773079937 -0.13812022673337873 0.0047251200494008759 -0.13424590341287276 0.13749003438599297 -0.13566301163451885 -0.13408207049051832 0.13436674514676794 -0.13403384439187235
leaf_weight=0.11226537451148033 0.17380595207214355 0.16784312482923269 0.083955216687172651 0.18272516503930092 0.20993686281144619 0.1377690089866519 0.16719698673114181 0.11695992667227983
leaf_count=9 4 6 9 7 10 19 15 17
internal_value=0 -0.109083 -0.135524 0.13569 -0.134702 -0.135037 0.134512 -0.134122
internal_weight=0 0.89027 0.722427 0.462188 0.548621 0.347706 0.279462 0.200915
internal_count=96 65 59 31 55 29 24 26
is_linear=0
shrinkage=0.2


Tree=55
num_leaves=8
num_cat=0
split_feature=1 3 1 2 1 1 2
split_gain=0.104121 0.202889 0.142044 0.0587679 0.0185973 0.00518334 3.28939e-05
threshold=3.2500000000000004 1.4500000000000002 2.9500000000000006 4.4500000000000011 2.5500000000000003 2.8500000000000001 1.6500000000000001
decision_type=2 2 2 2 2 2 2
left_child=1 4 -3 6 -1 -6 -2
right_child=3 2 -4 -5 5 -7 -8
leaf_value=0.13359843491389681 -0.13489452748411779 -0.054403719805655219 0.036644606749751986 0.026615081325204633 0.04375181264981981 0.089095657967294933 -0.13908585438115445
leaf_weight=0.38833050802350078 0.1609175233170389 1.4295685146935286 1.3166457135230301 0.12430791743099689 0.1513145649805665 0.30230288580060005 0.14011376444250345
leaf_count=10 19 12 17 8 8 18 4
internal_value=0 0.0155814 -0.0107515 -0.0890731 0.101472 0.0739702 -0.136845
internal_weight=0 3.58816 2.74621 0.425339 0.841948 0.453617 0.301031
internal_count=96 65 29 31 36 26 23
is_linear=0
shrinkage=0.2


Tree=56
num_leaves=9
num_cat=0
split_feature=2 1 2 0 1 0 2 0
split_gain=0.279891 0.142948 0.612846 0.00141066 6.23068e-06 5.65292e-07 1.46877e-07 5.05436e-09
threshold=4.4500000000000011 2.8500000000000001 5.0500000000000007 6.3500000000000005 2.5500000000000003 5.7500000000000009 1.5500000000000003 4.9500000000000011
decision_type=2 2 2 2 2 2 2 2
left_child=4 -2 -3 -4 -1 6 7 -6
right_child=1 2 3 -5 5 -7 -8 -9
leaf_value=-0.13552811537466739 0.069456000598422385 -0.10438574865629123 0.15507536650503836 0.13591979843791363 -0.1338188243297363 -0.13458728578156917 -0.13411325643431218 -0.13373084379824848
leaf_weight=0.22427167743444476 1.5602803230285647 1.0916373571380971 0.28581337817013253 0.33287774678319693 0.051227815914899111 0.07323930342681706 0.099737784592434764 0.053287859540432692
leaf_count=10 11 10 5 16 10 8 14 12
internal_value=0 0.0256792 -0.014257 0.144769 -0.134744 -0.134111 -0.13394 -0.133774
internal_weight=0 3.27061 1.71033 0.618691 0.501764 0.277493 0.204253 0.104516
internal_count=96 42 31 21 54 44 36 22
is_linear=0
shrinkage=0.2


end of trees

feature_importances:
Column_2=131
Column_0=102
Column_3=91
Column_1=86

parameters:
[boosting: gbdt]
[objective: multiclass]
[metric: multi_logloss]
[tree_learner: serial]
[device_type: cpu]
[data_sample_strategy: bagging]
[data: ]
[valid: ]
[num_iterations: 10000]
[learning_rate: 0.2]
[num_leaves: 63]
[num_threads: 0]
[seed: 1236]
[deterministic: 0]
[force_col_wise: 0]
[force_row_wise: 0]
[histogram_pool_size: -1]
[max_depth: -1]
[min_data_in_leaf: 10]
[min_sum_hessian_in_leaf: 0.001]
[bagging_fraction: 1]
[pos_bagging_fraction: 1]
[neg_bagging_fraction: 1]
[bagging_freq: 0]
[bagging_seed: 21709]
[feature_fraction: 0.8]
[feature_fraction_bynode: 1]
[feature_fraction_seed: 24116]
[extra_trees: 0]
[extra_seed: 15571]
[early_stopping_round: 0]
[early_stopping_min_delta: 0]
[first_metric_only: 0]
[max_delta_step: 0]
[lambda_l1: 0]
[lambda_l2: 0]
[linear_lambda: 0]
[min_gain_to_split: 0]
[drop_rate: 0.1]
[max_drop: 50]
[skip_drop: 0.5]
[xgboost_dart_mode: 0]
[uniform_drop: 0]
[drop_seed: 15722]
[top_rate: 0.2]
[other_rate: 0.1]
[min_data_per_group: 100]
[max_cat_threshold: 32]
[cat_l2: 10]
[cat_smooth: 10]
[max_cat_to_onehot: 4]
[top_k: 20]
[monotone_constraints: ]
[monotone_constraints_method: basic]
[monotone_penalty: 0]
[feature_contri: ]
[forcedsplits_filename: ]
[refit_decay_rate: 0.9]
[cegb_tradeoff: 1]
[cegb_penalty_split: 0]
[cegb_penalty_feature_lazy: ]
[cegb_penalty_feature_coupled: ]
[path_smooth: 0]
[interaction_constraints: ]
[verbosity: -1]
[saved_feature_importance_type: 0]
[use_quantized_grad: 0]
[num_grad_quant_bins: 4]
[quant_train_renew_leaf: 0]
[stochastic_rounding: 1]
[linear_tree: 0]
[max_bin: 255]
[max_bin_by_feature: ]
[min_data_in_bin: 3]
[bin_construct_sample_cnt: 200000]
[data_random_seed: 4074]
[is_enable_sparse: 1]
[enable_bundle: 1]
[use_missing: 1]
[zero_as_missing: 0]
[feature_pre_filter: 1]
[pre_partition: 0]
[two_round: 0]
[header: 0]
[label_column: ]
[weight_column: ]
[group_column: ]
[ignore_column: ]
[categorical_feature: ]
[forcedbins_filename: ]
[precise_float_parser: 0]
[parser_config_file: ]
[objective_seed: 10917]
[num_class: 3]
[is_unbalance: 0]
[scale_pos_weight: 1]
[sigmoid: 1]
[boost_from_average: 1]
[reg_sqrt: 0]
[alpha: 0.9]
[fair_c: 1]
[poisson_max_delta_step: 0.7]
[tweedie_variance_power: 1.5]
[lambdarank_truncation_level: 30]
[lambdarank_norm: 1]
[label_gain: ]
[lambdarank_position_bias_regularization: 0]
[eval_at: ]
[multi_error_top_k: 1]
[auc_mu_weights: ]
[num_machines: 1]
[local_listen_port: 12400]
[time_out: 120]
[machine_list_filename: ]
[machines: ]
[gpu_platform_id: -1]
[gpu_device_id: -1]
[gpu_use_dp: 0]
[num_gpu: 1]

end of parameters

pandas_categorical:null
