tree
version=v4
num_class=3
num_tree_per_iteration=3
label_index=0
max_feature_idx=3
objective=multiclass num_class:3
feature_names=Column_0 Column_1 Column_2 Column_3
feature_infos=[4.2999999999999998:7.7000000000000002] [2:4.2000000000000002] [1.1000000000000001:6.7000000000000002] [0.10000000000000001:2.5]
tree_sizes=541 705 635 949 826 946 956 946 947 951 826 844 750 744 848 847 825 948 751 847 1053 1057 1029 1055 850 1035 950 1062 948 1159 957 847 1251 959 1059 1159 959 944 1066 1068 1047 1266 963 1049 1382

Tree=0
num_leaves=4
num_cat=0
split_feature=3 3 0
split_gain=58.1818 0.909091 3.55271e-15
threshold=0.45000000000000007 1.2500000000000002 5.7500000000000009
decision_type=2 2 2
left_child=-1 -2 -3
right_child=1 2 -4
leaf_value=-0.69861228866810976 -1.1895213795772006 -1.2986122886681097 -1.2986122886681097
leaf_weight=10.000000298023222 3.6666667759418514 4.0000001192092922 14.333333760499952
leaf_count=30 11 12 43
internal_value=-1.09861 -1.28043 -1.29861
internal_weight=0 22 18.3333
internal_count=96 66 55
is_linear=0
shrinkage=1


Tree=1
num_leaves=6
num_cat=0
split_feature=2 2 2 2 0
split_gain=14.5455 28.8545 0.974026 0.6 0.545455
threshold=1.8 4.9500000000000011 4.4500000000000011 5.4500000000000011 5.5500000000000007
decision_type=2 2 2 2 2
left_child=-1 2 4 -3 -2
right_child=1 3 -4 -5 -6
leaf_value=-1.2986122886681097 -0.807703197759019 -1.1986122886681099 -0.87004086009668125 -1.2986122886681097 -0.69861228866810987
leaf_weight=10.000000298023222 3.6666667759418505 4.0000001192092878 4.6666668057441711 6.0000001788139343 3.6666667759418488
leaf_count=30 11 12 14 18 11
internal_value=-1.09861 -1.0077 -0.798612 -1.25861 -0.753158
internal_weight=0 22 12 10 7.33333
internal_count=96 66 36 30 22
is_linear=0
shrinkage=1


Tree=2
num_leaves=5
num_cat=0
split_feature=2 2 0 1
split_gain=48.1333 2.91667 0.222727 3.55271e-15
threshold=4.7500000000000009 5.2000000000000002 4.9500000000000011 2.7500000000000004
decision_type=2 2 2 2
left_child=2 -2 -1 -4
right_child=1 -3 3 -5
leaf_value=-1.2440668341226551 -0.89861228866810972 -0.69861228866810987 -1.2986122886681097 -1.2986122886681097
leaf_weight=3.6666667759418514 5.0000001490116102 7.0000002086162567 4.0000001192092922 12.333333700895308
leaf_count=11 15 21 12 37
internal_value=-1.09861 -0.781946 -1.28861 -1.29861
internal_weight=0 12 20 16.3333
internal_count=96 36 60 49
is_linear=0
shrinkage=1


Tree=3
num_leaves=8
num_cat=0
split_feature=2 1 0 0 2 1 2
split_gain=38.8623 0.153568 0.0232084 0.00178969 0.000535197 0.000187781 0.000194367
threshold=3.1500000000000004 3.2500000000000004 5.1500000000000012 5.5500000000000007 4.7500000000000009 3.0500000000000003 5.2000000000000002
decision_type=2 2 2 2 2 2 2
left_child=1 -1 -3 -2 -5 6 -6
right_child=3 2 -4 4 5 -7 -8
leaf_value=0.24257960345811549 -0.18709151460584766 0.30071383072163238 0.27968308789551288 -0.1834941378546977 -0.1825422894990168 -0.17977966822000643 -0.18042731477276913
leaf_weight=3.6773008108139065 3.0679459869861629 4.7803322672843915 3.7418776750564575 5.0575046539306632 3.8297001719474775 3.4475515484809875 3.1824209094047546
leaf_count=10 10 13 10 17 13 12 11
internal_value=0 0.27674 0.29148 -0.182678 -0.181805 -0.180988 -0.181582
internal_weight=0 12.1995 8.52221 18.5851 15.5172 10.4597 7.01212
internal_count=96 33 23 63 53 36 24
is_linear=0
shrinkage=0.2


Tree=4
num_leaves=7
num_cat=0
split_feature=2 2 2 1 2 2
split_gain=10.1143 17.1405 0.514709 0.531951 0.499971 0.000301029
threshold=1.8 4.9500000000000011 4.4500000000000011 2.6500000000000008 5.4500000000000011 1.4500000000000002
decision_type=2 2 2 2 2 2
left_child=5 2 3 -2 -3 -1
right_child=1 4 -4 -5 -6 -7
leaf_value=-0.18025250131395151 0.29975586665785131 -0.085079797314851033 0.16749143889987847 0.19745218981491275 -0.18057916067325339 -0.18260594610672015
leaf_weight=4.043194532394411 4.0727411210536975 3.7834107577800733 5.0696861445903769 4.0595003664493561 5.2159169912338257 4.7025235891342163
leaf_count=14 11 12 14 11 18 16
internal_value=0 0.0724165 0.217507 0.248687 -0.14043 -0.181518
internal_weight=0 22.2013 13.2019 8.13224 8.99933 8.74572
internal_count=96 66 36 22 30 30
is_linear=0
shrinkage=0.2


Tree=5
num_leaves=8
num_cat=0
split_feature=3 2 1 2 3 1 1
split_gain=32.6166 1.43923 0.523114 0.281181 0.000574957 0.000721929 0.000132603
threshold=1.6500000000000001 4.5500000000000007 2.8500000000000001 5.6500000000000012 0.45000000000000007 2.8500000000000001 3.4500000000000006
decision_type=2 2 2 2 2 2 2
left_child=1 4 -2 -4 6 -6 -1
right_child=2 -3 3 -5 5 -7 -8
leaf_value=-0.1816166183805209 0.33254871166618555 -0.038627925395837946 0.20361484316248074 0.27968308789551288 -0.18160226015128156 -0.18562196926361377 -0.18005524728032499
leaf_weight=4.3854284286499112 3.5787779688835126 3.39338594675064 4.0448988676071167 3.7418776750564575 4.3871884047985068 3.0156088471412659 4.3179082870483398
leaf_count=15 10 10 11 10 15 10 15
internal_value=0 -0.157004 0.269257 0.240169 -0.181944 -0.18324 -0.180842
internal_weight=0 19.4995 11.3656 7.78678 16.1061 7.4028 8.70334
internal_count=96 65 31 21 55 25 30
is_linear=0
shrinkage=0.2


Tree=6
num_leaves=8
num_cat=0
split_feature=3 1 0 3 0 1 0
split_gain=24.2834 0.752432 0.00398562 0.00229202 0.000574559 0.000123715 3.0701e-05
threshold=0.45000000000000007 3.1500000000000008 5.1500000000000012 1.6500000000000001 5.5500000000000007 2.8500000000000001 6.0500000000000007
decision_type=2 2 2 2 2 2 2
left_child=2 3 -1 4 -2 -5 -6
right_child=1 -3 -4 5 6 -7 -8
leaf_value=0.23377013471212102 -0.17567900956547067 -0.063746511837967673 0.22565704533651135 -0.16692655214669538 -0.17163422759208941 -0.16885568482731664 -0.17256374539230476
leaf_weight=7.2940339744091052 2.7063320577144641 3.2106601893901816 3.6261469423770905 2.3994388729333869 2.591880738735199 2.9825802892446518 3.1471972763538361
leaf_count=20 10 12 10 10 10 12 12
internal_value=0 -0.150969 0.231076 -0.171221 -0.173277 -0.167996 -0.172144
internal_weight=0 17.0381 10.9202 13.8274 8.44541 5.38202 5.73908
internal_count=96 66 30 54 32 22 22
is_linear=0
shrinkage=0.2


Tree=7
num_leaves=8
num_cat=0
split_feature=3 3 3 0 3 2 2
split_gain=7.70241 14.6622 0.512248 0.160194 0.308565 0.00709262 0.00268864
threshold=0.45000000000000007 1.6500000000000001 1.8500000000000003 6.0500000000000007 1.2500000000000002 5.5500000000000007 1.4500000000000002
decision_type=2 2 2 2 2 2 2
left_child=6 3 -3 4 -2 -4 -1
right_child=1 2 5 -5 -6 -7 -8
leaf_value=-0.16772465309743029 0.17719100020299192 -0.075225100101889347 -0.18236408049554742 0.17021840312243963 0.25449488486175231 -0.16770365356075731 -0.17531289291484736
leaf_weight=3.4226551800966289 3.9027895629405993 3.2919221967458707 2.8709583878517151 4.2162000834941855 4.3871037364006042 2.4434275925159454 4.1111277341842651
leaf_count=14 11 11 10 12 12 10 16
internal_value=0 0.0636945 -0.137221 0.201958 0.218101 -0.175624 -0.171865
internal_weight=0 21.1124 8.60631 12.5061 8.28989 5.31439 7.53378
internal_count=96 66 31 35 23 20 30
is_linear=0
shrinkage=0.2


Tree=8
num_leaves=8
num_cat=0
split_feature=2 2 0 2 0 1 1
split_gain=20.4434 1.16476 0.255733 0.00320518 0.000625677 0.000311079 0.000101822
threshold=4.7500000000000009 5.2000000000000002 4.9500000000000011 4.2500000000000009 6.7500000000000009 3.5500000000000003 3.2500000000000004
decision_type=2 2 2 2 2 2 2
left_child=2 -2 -1 5 -3 6 -4
right_child=1 4 3 -5 -6 -7 -8
leaf_value=-0.10391723904324859 0.11204978451690054 0.23448036242163878 -0.1687865610758357 -0.17640931184139508 0.23086640910142792 -0.16680990310954022 -0.17037588750120733
leaf_weight=2.8488832712173489 5.5043259561061841 3.6689270734786987 4.4715719819068891 2.744861125946044 4.0111980736255646 2.6351630389690399 2.5217305719852448
leaf_count=11 15 10 18 10 11 11 10
internal_value=0 0.182268 -0.157942 -0.170381 0.232593 -0.168662 -0.16936
internal_weight=0 13.1845 15.2222 12.3733 7.68013 9.62847 6.9933
internal_count=96 36 60 49 21 39 28
is_linear=0
shrinkage=0.2


Tree=9
num_leaves=8
num_cat=0
split_feature=2 1 0 2 2 2 1
split_gain=19.3808 0.0999474 0.0240148 0.000387078 0.000131117 0.00018421 8.02616e-05
threshold=3.1500000000000004 3.2500000000000004 5.1500000000000012 5.2000000000000002 4.2500000000000009 4.7500000000000009 3.0500000000000003
decision_type=2 2 2 2 2 2 2
left_child=1 -1 -3 4 -2 -6 -5
right_child=3 2 -4 6 5 -7 -8
leaf_value=0.1668427315640911 -0.16146671856880304 0.21816490001194599 0.1954850507462324 -0.15932497254097744 -0.16430999193784274 -0.16203205881450244 -0.16103793252668705
leaf_weight=3.2975173592567462 3.4426868855953199 4.3850280940532684 3.2527788579463959 2.2448182851076117 2.5195446312427521 3.2539111077785492 2.1345259547233582
leaf_count=10 16 13 10 11 11 15 10
internal_value=0 0.195943 0.208506 -0.161708 -0.162444 -0.163026 -0.16016
internal_weight=0 10.9353 7.63781 13.5955 9.21614 5.77346 4.37934
internal_count=96 33 23 63 42 26 21
is_linear=0
shrinkage=0.2


Tree=10
num_leaves=7
num_cat=0
split_feature=2 2 0 1 2 2
split_gain=5.52299 8.44103 0.34716 0.149802 0.134957 0.00183017
threshold=1.8 5.0500000000000007 5.7500000000000009 2.9500000000000006 4.0500000000000007 1.4500000000000002
decision_type=2 2 2 2 2 2
left_child=5 2 4 -3 -2 -1
right_child=1 3 -4 -5 -6 -7
leaf_value=-0.15847553931440561 0.14047808957552016 -0.10020800138613369 0.17927596704491972 -0.16301824705217471 0.085080859751130611 -0.16536468587356523
leaf_weight=2.8027491420507458 3.7257866859436053 2.5833068341016761 6.1679289638996124 3.6861114352941513 3.3323455452919006 3.430387943983078
leaf_count=14 11 10 18 17 10 16
internal_value=0 0.0540074 0.144614 -0.137137 0.114323 -0.162267
internal_weight=0 19.4955 13.2261 6.26942 7.05813 6.23314
internal_count=96 66 39 27 21 30
is_linear=0
shrinkage=0.2


Tree=11
num_leaves=7
num_cat=0
split_feature=3 2 1 2 3 1
split_gain=15.8484 1.56563 0.41526 0.00166041 0.000359237 0.000215396
threshold=1.6500000000000001 4.7500000000000009 2.9500000000000006 4.2500000000000009 0.45000000000000007 3.4500000000000006
decision_type=2 2 2 2 2 2
left_child=1 3 -2 4 5 -1
right_child=2 -3 -4 -5 -6 -7
leaf_value=-0.16044823862367 0.23461606529069121 0.022612936106020751 0.15397503420153499 -0.16616298629367954 -0.16172006376396891 -0.15807181293135683
leaf_weight=3.144507050514223 4.2111271917819959 2.1704842448234549 6.4920835494995117 2.3503895848989478 4.0740454494953156 2.9633960723876953
leaf_count=15 12 6 19 10 19 15
internal_value=0 -0.134211 0.185703 -0.161372 -0.160265 -0.159295
internal_weight=0 14.7028 10.7032 12.5323 10.1819 6.1079
internal_count=96 65 31 59 49 30
is_linear=0
shrinkage=0.2


Tree=12
num_leaves=6
num_cat=0
split_feature=2 0 3 2 0
split_gain=14.1941 0.0395399 0.000550281 0.00026482 2.51756e-05
threshold=3.1500000000000004 5.0500000000000007 1.6500000000000001 4.4500000000000011 6.7500000000000009
decision_type=2 2 2 2 2
left_child=1 -1 3 -2 -4
right_child=2 -3 4 -5 -6
leaf_value=0.18855484937889128 -0.1554792446457797 0.16285600917995058 -0.15412320435293225 -0.15816212014687214 -0.15318848106857305
leaf_weight=4.4615679383277911 3.4692936837673169 5.1696853935718536 3.6459659188985825 2.5558556616306305 1.6853757351636884
leaf_count=15 19 18 21 13 10
internal_value=0 0.174761 -0.155308 -0.156617 -0.153828
internal_weight=0 9.63125 11.3565 6.02515 5.33134
internal_count=96 33 63 32 31
is_linear=0
shrinkage=0.2


Tree=13
num_leaves=6
num_cat=0
split_feature=3 3 1 1 2
split_gain=4.20115 7.41635 0.543047 0.304908 0.00200497
threshold=0.45000000000000007 1.6500000000000001 2.9500000000000006 2.7500000000000004 1.4500000000000002
decision_type=2 2 2 2 2
left_child=4 3 -3 -2 -1
right_child=1 2 -4 -5 -6
leaf_value=-0.15219376997906245 0.18722488482557598 -0.18092357689556751 -0.066499517807282832 0.12014006344101097 -0.16014701324939393
leaf_weight=2.2780062854290035 4.9892778694629687 2.9066474586725226 3.8653213232755661 5.9324654936790466 2.8593116104602814
leaf_count=14 16 12 19 19 16
internal_value=0 0.0488264 -0.115612 0.150786 -0.15662
internal_weight=0 17.6937 6.77197 10.9217 5.13732
internal_count=96 66 31 35 30
is_linear=0
shrinkage=0.2


Tree=14
num_leaves=7
num_cat=0
split_feature=3 0 1 0 3 1
split_gain=11.5717 0.942377 0.390675 0.0162747 0.000759183 0.000144301
threshold=1.6500000000000001 6.0500000000000007 2.9500000000000006 5.6500000000000012 0.45000000000000007 3.4500000000000006
decision_type=2 2 2 2 2 2
left_child=1 3 -2 4 5 -1
right_child=2 -3 -4 -5 -6 -7
leaf_value=-0.15372881215022668 0.21332297435274605 -0.03208776259481106 0.13160568443915774 -0.17564585312815356 -0.15684482084000678 -0.15152449463198428
leaf_weight=2.5684667974710482 3.8878404498100263 3.171510398387908 5.8786631524562836 1.7483648359775541 2.8255795687437057 2.2100220173597336
leaf_count=15 12 12 19 9 15 14
internal_value=0 -0.126299 0.164136 -0.158247 -0.154246 -0.152709
internal_weight=0 12.5239 9.7665 9.35243 7.60407 4.77849
internal_count=96 65 31 53 44 29
is_linear=0
shrinkage=0.2


Tree=15
num_leaves=7
num_cat=0
split_feature=3 1 0 0 3 1
split_gain=9.34958 0.840181 0.00821054 0.00143651 0.000371758 9.0052e-05
threshold=1.0500000000000003 3.1500000000000008 5.1500000000000012 5.6500000000000012 1.6500000000000001 2.9500000000000006
decision_type=2 2 2 2 2 2
left_child=1 -1 -3 -2 -5 -6
right_child=3 2 -4 4 5 -7
leaf_value=0.03069217914818852 -0.15667381998016386 0.17969609435506806 0.16499363235628642 -0.15209809508879413 -0.14776003787350286 -0.149772574850984
leaf_weight=2.1408664435148257 1.8135999441146831 4.3810718357563019 2.3259561657905579 2.868712842464447 1.3091192469000814 2.7734389305114746
leaf_count=11 11 17 10 18 10 19
internal_value=0 0.139778 0.174597 -0.151661 -0.150353 -0.149127
internal_weight=0 8.84789 6.70703 8.76487 6.95127 4.08256
internal_count=96 38 27 58 47 29
is_linear=0
shrinkage=0.2


Tree=16
num_leaves=7
num_cat=0
split_feature=2 2 3 3 2 2
split_gain=3.20914 5.13526 1.18831 0.242405 0.182741 0.00174889
threshold=1.8 5.0500000000000007 1.5500000000000003 1.2500000000000002 5.4500000000000011 1.4500000000000002
decision_type=2 2 2 2 2 2
left_child=5 2 3 -2 -3 -1
right_child=1 4 -4 -5 -6 -7
leaf_value=-0.14748715872692938 0.11204652765375143 -0.07785781644090671 0.0031259651457969614 0.18329838143868515 -0.15671860316053343 -0.15573711963790271
leaf_weight=1.8203477039933229 2.9648304730653745 1.9555401206016529 2.6024362593889228 5.3676018565893173 2.9461016356945038 2.360819436609745
leaf_count=14 11 9 9 19 18 16
internal_value=0 0.0448485 0.121099 0.157946 -0.125257 -0.152145
internal_weight=0 15.8365 10.9349 8.33243 4.90164 4.18117
internal_count=96 66 39 30 27 30
is_linear=0
shrinkage=0.2


Tree=17
num_leaves=8
num_cat=0
split_feature=2 3 2 2 3 0 0
split_gain=7.95783 2.79314 0.0560699 0.0152379 0.000275047 4.34467e-05 1.7288e-05
threshold=5.0500000000000007 1.6500000000000001 5.5500000000000007 4.4500000000000011 0.45000000000000007 5.0500000000000007 5.5500000000000007
decision_type=2 2 2 2 2 2 2
left_child=1 3 -2 4 5 -1 -6
right_child=2 -3 -4 -5 6 -7 -8
leaf_value=-0.14855091981254059 0.14482752329786738 0.076714662069673492 0.17966070887161656 -0.1688938634133843 -0.15079935825559099 -0.14722550612445509 -0.1498784263514131
leaf_weight=1.9155539572238942 3.4599122405052176 2.7451975345611563 3.968653216958046 1.9540077149868009 1.6573532819747927 2.045800618827343 1.6049369424581525
leaf_count=14 12 8 15 9 11 16 11
internal_value=0 -0.100282 0.163437 -0.153225 -0.148986 -0.147866 -0.150346
internal_weight=0 11.9229 7.42857 9.17765 7.22364 3.96135 3.26229
internal_count=96 69 27 61 52 30 22
is_linear=0
shrinkage=0.2


Tree=18
num_leaves=6
num_cat=0
split_feature=2 0 3 2 2
split_gain=8.14315 0.0323524 0.000299218 9.78817e-05 3.69401e-05
threshold=3.1500000000000004 5.0500000000000007 1.6500000000000001 4.4500000000000011 5.2000000000000002
decision_type=2 2 2 2 2
left_child=1 -1 3 -2 -4
right_child=2 -3 4 -5 -6
leaf_value=0.16582527938421476 -0.14724351959507304 0.13847552714845177 -0.14636792545097985 -0.14919184064999499 -0.1450534998192069
leaf_weight=3.2430350929498672 2.3889966607093811 3.7083259075880051 1.4439688846468928 1.8150778934359548 2.0976170897483826
leaf_count=15 19 18 12 13 19
internal_value=0 0.151235 -0.146944 -0.148085 -0.145589
internal_weight=0 6.95136 7.74566 4.20407 3.54159
internal_count=96 33 63 32 31
is_linear=0
shrinkage=0.2


Tree=19
num_leaves=7
num_cat=0
split_feature=3 3 1 1 0 0
split_gain=2.50365 3.60102 0.591527 0.285785 0.000313724 0.000578919
threshold=0.45000000000000007 1.6500000000000001 2.9500000000000006 2.7500000000000004 4.9500000000000011 5.1500000000000012
decision_type=2 2 2 2 2 2
left_child=4 3 -3 -2 -1 -6
right_child=1 2 -4 -5 5 -7
leaf_value=-0.15149127327663856 0.16158622939614925 -0.1678277988390332 -0.031284875699917829 0.088520840624750838 -0.15028308043844768 -0.1438691900345502
leaf_weight=1.1311905682086973 3.933702886104582 2.1924406588077536 3.0134416744112968 4.6993907690048218 1.2594627961516383 1.0178007259964941
leaf_count=9 16 12 19 19 11 10
internal_value=0 0.0425898 -0.0887895 0.121813 -0.148769 -0.147416
internal_weight=0 13.839 5.20588 8.63309 3.40845 2.27726
internal_count=96 66 31 35 30 21
is_linear=0
shrinkage=0.2


Tree=20
num_leaves=9
num_cat=0
split_feature=3 0 3 0 0 1 1 1
split_gain=5.80822 0.908775 0.394776 0.0256368 0.00317329 0.00016229 2.86236e-05 9.25382e-06
threshold=1.6500000000000001 6.0500000000000007 1.8500000000000003 5.6500000000000012 6.4500000000000011 3.3500000000000001 2.9500000000000006 3.5500000000000003
decision_type=2 2 2 2 2 2 2 2
left_child=1 3 -2 5 -4 6 -1 -7
right_child=2 -3 4 -5 -6 7 -8 -9
leaf_value=-0.14569553259512619 0.073319092405348812 -0.011891119406757734 0.17066492767996594 -0.17729443691672225 0.16002396293602555 -0.14452755381904595 -0.14699671912344678 -0.14369422686286157
leaf_weight=1.1586532443761846 3.123236119747161 2.6416319310665131 2.4503785967826843 1.2723211422562597 2.0663065016269684 1.1433324143290522 1.6242263689637182 0.99856560677289952
leaf_count=10 11 12 10 9 10 11 13 10
internal_value=0 -0.110116 0.127992 -0.151986 0.165797 -0.145448 -0.146455 -0.144139
internal_weight=0 8.83873 7.63992 6.1971 4.51669 4.92478 2.78288 2.1419
internal_count=96 65 31 53 20 44 23 21
is_linear=0
shrinkage=0.2


Tree=21
num_leaves=9
num_cat=0
split_feature=2 3 0 3 2 0 2 0
split_gain=6.19763 0.0328127 0.000462697 0.000197963 6.30929e-05 1.89187e-05 1.82507e-05 2.06881e-06
threshold=3.1500000000000004 0.25000000000000006 5.0500000000000007 1.8500000000000003 4.9500000000000011 5.5500000000000007 4.4500000000000011 6.4500000000000011
decision_type=2 2 2 2 2 2 2 2
left_child=1 2 -1 4 5 -2 -7 -5
right_child=3 -3 -4 7 -6 6 -8 -9
leaf_value=0.15482947280372095 -0.14504971149561285 0.12092436032450347 0.15040672512902925 -0.14253711694660481 -0.14603486043122269 -0.14343821249929681 -0.14458119008961096 -0.14210376260891083
leaf_weight=2.2018656134605412 1.0870296359062197 1.9178840070962904 1.6591328084468839 0.89987112581729867 1.2437344416975973 1.0742473378777506 1.16464077681303 0.86348076164722443
leaf_count=13 10 9 11 10 11 11 11 10
internal_value=0 0.142307 0.152929 -0.144125 -0.14482 -0.144365 -0.144033 -0.142325
internal_weight=0 5.77888 3.861 6.333 4.56965 3.32592 2.23889 1.76335
internal_count=96 33 24 63 43 32 22 20
is_linear=0
shrinkage=0.2


Tree=22
num_leaves=9
num_cat=0
split_feature=2 2 0 1 0 2 2 1
split_gain=1.952 3.24292 0.442635 0.478677 0.355382 0.00362276 0.00305298 2.92102e-06
threshold=1.8 5.0500000000000007 5.2500000000000009 2.8500000000000001 6.1500000000000012 1.5500000000000003 5.6500000000000012 3.4500000000000006
decision_type=2 2 2 2 2 2 2 2
left_child=5 2 -2 -4 -3 7 -6 -1
right_child=1 4 3 -5 6 -7 -8 -9
leaf_value=-0.14170938302450223 0.022204900064816166 -0.0246723291585919 0.075454528860696007 0.1831055352128729 -0.1630989835032928 -0.15692639236781855 -0.14933455563397049 -0.14120783680509899
leaf_weight=0.91228266060352436 1.8617440909147243 1.2103865370154374 3.1144031137228012 3.5191517174243927 1.2542765066027644 0.89769397675991047 1.3259828090667722 0.94628434628248215
leaf_count=11 8 6 16 15 9 7 12 12
internal_value=0 0.0397415 0.108379 0.132564 -0.114083 -0.146493 -0.156026 -0.141454
internal_weight=0 12.2859 8.4953 6.63355 3.79065 2.75626 2.58026 1.85857
internal_count=96 66 39 31 27 30 21 23
is_linear=0
shrinkage=0.2


Tree=23
num_leaves=9
num_cat=0
split_feature=3 0 3 0 0 3 0 1
split_gain=3.96826 0.904168 0.43551 0.0164478 0.00101173 8.28512e-05 3.23899e-05 4.45601e-08
threshold=1.6500000000000001 6.0500000000000007 1.8500000000000003 5.6500000000000012 6.4500000000000011 0.45000000000000007 4.9500000000000011 3.5500000000000003
decision_type=2 2 2 2 2 2 2 2
left_child=1 3 -2 5 -4 6 -1 -8
right_child=2 -3 4 -5 -6 -7 7 -9
leaf_value=-0.1428763014084726 0.054708093500824728 -0.0023761671349678223 0.16077281230596538 -0.17052920380265291 0.15419136303384007 -0.14376111581346226 -0.14136952291496782 -0.1413026827772825
leaf_weight=0.8305147737264641 2.9120194762945175 2.5605480596423149 2.0266101062297825 1.0738443806767461 1.7334022670984266 1.482399523258209 0.8008819594979284 0.79498740285634995
leaf_count=9 11 12 10 9 10 15 10 10
internal_value=0 -0.0989679 0.112771 -0.148606 0.157739 -0.142583 -0.141863 -0.141336
internal_weight=0 7.54318 6.67203 4.98263 3.76001 3.90878 2.42638 1.59587
internal_count=96 65 31 53 20 44 29 20
is_linear=0
shrinkage=0.2


Tree=24
num_leaves=7
num_cat=0
split_feature=3 1 3 1 3 3
split_gain=4.27058 0.318992 0.0040506 0.00238643 0.000137541 6.66879e-05
threshold=1.0500000000000003 3.2500000000000004 0.25000000000000006 2.6500000000000008 1.8500000000000003 1.4500000000000002
decision_type=2 2 2 2 2 2
left_child=1 -1 -3 -2 5 -5
right_child=3 2 -4 4 -6 -7
leaf_value=0.050133988364432204 -0.15266161200505532 0.14866601676974367 0.16282864652979387 -0.14110166226799317 -0.14008597766212466 -0.1433135229329536
leaf_weight=1.8040756583213804 1.0327711924910543 1.887481711804867 1.4121121838688848 0.77747675776481706 1.2293956913053987 1.8253917098045347
leaf_count=15 10 15 8 10 18 20
internal_value=0 0.117755 0.154727 -0.144129 -0.141829 -0.142653
internal_weight=0 5.10367 3.29959 4.86504 3.83226 2.60287
internal_count=96 38 23 58 48 30
is_linear=0
shrinkage=0.2


Tree=25
num_leaves=9
num_cat=0
split_feature=2 2 3 3 0 3 2 0
split_gain=1.53872 2.20904 1.01607 0.07344 0.0957601 0.00481691 0.0019529 4.0264e-07
threshold=5.2000000000000002 1.8 1.6500000000000001 1.2500000000000002 6.0500000000000007 1.8500000000000003 1.5500000000000003 5.0500000000000007
decision_type=2 2 2 2 2 2 2 2
left_child=1 6 3 -3 -5 -2 7 -1
right_child=5 2 -4 4 -6 -7 -8 -9
leaf_value=-0.13962490454116414 -0.16061966176664144 0.092842595602385114 -0.024851861548779018 0.17097435423190255 0.11073060753485352 -0.14144888804131781 -0.15216102977519438 -0.13941436864358173
leaf_weight=0.70478836819529467 0.99628404527902725 2.0428393930196744 2.5915406048297882 1.9890150576829908 2.2485116571187973 1.1065493188798425 0.73560721799731243 0.75001663342118263
leaf_count=11 7 11 12 12 10 14 7 12
internal_value=0 0.0361052 0.0805134 0.123992 0.139008 -0.150532 -0.143763 -0.139516
internal_weight=0 11.0623 8.87191 6.28037 4.23753 2.10283 2.19041 1.45481
internal_count=96 75 45 33 22 21 30 23
is_linear=0
shrinkage=0.2


Tree=26
num_leaves=8
num_cat=0
split_feature=2 3 2 2 3 0 3
split_gain=3.68933 1.3166 0.0974229 0.00628229 0.000111233 6.48383e-06 1.56347e-06
threshold=5.0500000000000007 1.6500000000000001 5.4500000000000011 4.5500000000000007 0.45000000000000007 5.0500000000000007 1.2500000000000002
decision_type=2 2 2 2 2 2 2
left_child=1 3 -2 4 5 -1 -6
right_child=2 -3 -4 -5 6 -7 -8
leaf_value=-0.14017250708668905 0.1021819623345292 0.035242713988239027 0.16023815957195742 -0.15822523163810953 -0.14170569149403339 -0.13944496126028602 -0.14205777021918148
leaf_weight=0.95767210796475399 1.907075949013233 2.4028825014829636 2.936364933848381 1.0541946738958357 0.88806445151567492 1.0032754950225351 1.1681184098124502
leaf_count=14 9 8 18 6 11 16 14
internal_value=0 -0.0867037 0.137379 -0.144484 -0.140878 -0.1398 -0.141906
internal_weight=0 7.47421 4.84344 5.07133 4.01713 1.96095 2.05618
internal_count=96 69 27 61 55 30 25
is_linear=0
shrinkage=0.2


Tree=27
num_leaves=9
num_cat=0
split_feature=3 1 0 0 0 3 1 3
split_gain=3.31964 0.53717 0.00234785 0.000243107 0.000280126 7.25114e-05 4.02377e-05 1.15887e-05
threshold=0.45000000000000007 3.2500000000000004 5.2500000000000009 4.9500000000000011 5.1500000000000012 1.8500000000000003 2.8500000000000001 1.5500000000000003
decision_type=2 2 2 2 2 2 2 2
left_child=3 2 -2 -1 -5 6 -4 -8
right_child=1 -3 5 4 -6 -7 7 -9
leaf_value=0.1492489232227264 -0.15284187693308651 0.034068654722812695 -0.14162262995748812 0.14769500879632966 0.14306727973316744 -0.13862671964082443 -0.13946703787959122 -0.14062032678296554
leaf_weight=1.1285587921738627 0.71892059966921795 0.82688940316438664 1.2243471555411822 1.1632498502731325 0.95092476159334172 0.81590932607650746 0.68788355216383912 0.70641113817691803
leaf_count=9 6 8 16 11 10 15 11 10
internal_value=0 -0.113141 -0.142449 0.146879 0.145614 -0.140273 -0.140786 -0.140051
internal_weight=0 4.98036 4.15347 3.24273 2.11417 3.43455 2.61864 1.39429
internal_count=96 66 58 30 21 52 37 21
is_linear=0
shrinkage=0.2


Tree=28
num_leaves=8
num_cat=0
split_feature=3 3 3 0 0 1 1
split_gain=1.2194 1.60972 0.271467 0.250673 0.154052 0.000839513 9.21869e-05
threshold=0.45000000000000007 1.8500000000000003 1.6500000000000001 6.0500000000000007 5.4500000000000011 2.9500000000000006 3.5500000000000003
decision_type=2 2 2 2 2 2 2
left_child=6 2 3 4 -2 -3 -1
right_child=1 5 -4 -5 -6 -7 -8
leaf_value=-0.14197920030858219 0.078049049773742871 -0.14880499336551145 0.011057036021755706 0.045809481713493104 0.16469817928870001 -0.13973802958684886 -0.14491531944037706
leaf_weight=1.1256185360252864 1.3670649603009208 0.87218381464481332 2.0762212015688419 2.4053797125816345 2.0536646842956543 0.76828854158520699 0.68991300091147412
leaf_count=19 8 8 11 12 15 12 11
internal_value=0 0.0357269 0.073153 0.0952818 0.13007 -0.144559 -0.143095
internal_weight=0 9.5428 7.90233 5.82611 3.42073 1.64047 1.81553
internal_count=96 66 46 35 23 20 30
is_linear=0
shrinkage=0.2


Tree=29
num_leaves=10
num_cat=0
split_feature=2 3 0 3 2 3 0 0 0
split_gain=2.75225 1.03635 0.208246 0.0177349 0.00318775 4.70746e-05 1.47272e-05 9.93974e-07 1.23733e-07
threshold=5.0500000000000007 1.6500000000000001 6.1500000000000012 1.8500000000000003 4.5500000000000007 0.45000000000000007 4.9500000000000011 5.6500000000000012 5.1500000000000012
decision_type=2 2 2 2 2 2 2 2 2
left_child=1 4 -2 -4 5 6 -1 -7 -8
right_child=2 -3 3 -5 -6 7 8 -9 -10
leaf_value=-0.13929082704258283 0.062764998221680357 0.025113596584126086 0.17719118998608574 0.14511663928389582 -0.15283849747704159 -0.1398552841130242 -0.13793305269318801 -0.14017382799325825 -0.1380722583507058
leaf_weight=0.54130185395479236 1.3076812624931333 2.3281009793281555 1.2502541616559031 1.5375629663467405 0.87784676998853672 0.97887152805924393 0.52561203017830826 0.653359554708004 0.49682360142469406
leaf_count=9 6 8 7 14 6 15 11 10 10
internal_value=0 -0.0813321 0.128614 0.159501 -0.142164 -0.139231 -0.138447 -0.139983 -0.138001
internal_weight=0 6.40192 4.0955 2.78782 4.07382 3.19597 1.56374 1.63223 1.02244
internal_count=96 69 27 21 61 55 30 25 21
is_linear=0
shrinkage=0.2


Tree=30
num_leaves=8
num_cat=0
split_feature=2 1 2 1 2 0 1
split_gain=2.9327 0.0927088 0.00346582 3.68298e-05 2.42204e-05 2.88988e-05 2.09185e-07
threshold=3.1500000000000004 3.2500000000000004 1.5500000000000003 2.6500000000000008 5.2000000000000002 5.8500000000000005 3.0500000000000003
decision_type=2 2 2 2 2 2 2
left_child=1 -1 -3 -2 5 -5 -6
right_child=3 2 -4 4 6 -7 -8
leaf_value=0.075775014802466928 -0.14012665304634089 0.14040325739124532 0.15625012058606558 -0.13793817150323068 -0.13775174148413422 -0.13974650554756374 -0.13794377610670558
leaf_weight=1.0248125940561297 0.97202589735388789 1.0735150352120402 1.1364838555455206 0.52909651026129756 0.42796413600444783 1.0650930628180502 0.48294865339994431
leaf_count=10 15 15 8 11 10 17 10
internal_value=0 0.125496 0.148552 -0.139082 -0.138676 -0.139146 -0.137854
internal_weight=0 3.23481 2.21 3.47713 2.5051 1.59419 0.910913
internal_count=96 33 23 63 48 28 20
is_linear=0
shrinkage=0.2


Tree=31
num_leaves=7
num_cat=0
split_feature=1 3 1 1 0 0
split_gain=0.912632 0.739904 0.948375 0.241778 0.042088 0.0331118
threshold=3.2500000000000004 1.6500000000000001 2.9500000000000006 2.7500000000000004 5.2500000000000009 6.1500000000000012
decision_type=2 2 2 2 2 2
left_child=1 3 -3 -1 -2 -5
right_child=4 2 -4 5 -6 -7
leaf_value=0.12930544361972915 -0.14773194287269148 -0.1613348556611803 0.059472577214880022 0.062954785633306365 -0.082505841358889248 0.018034562133037998
leaf_weight=2.3577818572521192 1.1263974942266948 1.4297661855816843 1.7069682739675043 1.3482493534684183 0.61000670865178097 1.2791124433279035
leaf_count=16 16 12 14 18 13 7
internal_value=0 0.0349264 -0.0411745 0.0828103 -0.124818 0.0410857
internal_weight=0 8.12188 3.13673 4.98514 1.7364 2.62736
internal_count=96 67 26 41 29 25
is_linear=0
shrinkage=0.2


Tree=32
num_leaves=11
num_cat=0
split_feature=2 1 0 0 2 0 0 2 1 1
split_gain=2.15009 1.09241 0.422639 0.648268 0.300855 0.198187 0.185566 0.00504255 1.2969e-05 1.04461e-06
threshold=5.0500000000000007 2.8500000000000001 6.4500000000000011 5.9500000000000011 4.7500000000000009 6.1500000000000012 5.6500000000000012 5.6500000000000012 3.3500000000000001 3.5500000000000003
decision_type=2 2 2 2 2 2 2 2 2 2
left_child=1 4 3 6 -1 -2 8 -7 -3 -10
right_child=5 2 -4 -5 -6 7 -8 -9 9 -11
leaf_value=-0.037784504277903919 0.056907246401668166 -0.13828751953578752 -0.29273024208159243 0.05491077531159301 0.10913841912439137 0.16595236602387631 -0.2813498085706499 0.14738586527068451 -0.13730246308421878 -0.13684649392944778
leaf_weight=1.1955450363457205 1.2146070152521136 0.65785143896937437 0.66564781218767155 0.673096653074026 1.0445945858955381 1.1453982219100001 0.47600120306015004 1.1962128579616544 0.43458328396081924 0.37387529760599136
leaf_count=17 6 13 4 5 5 9 4 12 11 10
internal_value=0 -0.0769382 -0.150447 -0.114234 0.0307268 0.122463 -0.17285 0.156468 -0.137628 -0.137092
internal_weight=0 5.5212 3.28106 2.61541 2.24014 3.55622 1.94231 2.34161 1.46631 0.808459
internal_count=96 69 47 43 22 27 38 21 34 21
is_linear=0
shrinkage=0.2


Tree=33
num_leaves=8
num_cat=0
split_feature=3 1 0 3 3 3 0
split_gain=2.09943 0.256248 0.00165411 0.000984776 2.50486e-05 1.27964e-05 1.69945e-06
threshold=1.0500000000000003 3.1500000000000008 5.4500000000000011 0.25000000000000006 1.8500000000000003 1.4500000000000002 6.4500000000000011
decision_type=2 2 2 2 2 2 2
left_child=1 -1 -2 -3 5 -4 -6
right_child=2 3 4 -5 6 -7 -8
leaf_value=0.010542648883550949 -0.15203561786864705 0.14066181618229465 -0.13744590674858437 0.14961359000923979 -0.1370504823285108 -0.13862258938148705 -0.13643177230067188
leaf_weight=0.79642751440405879 0.37721271067857776 1.2265088371932509 0.58269758895039592 0.82034093141555775 0.38929550535976876 1.0112645011395214 0.32652957923710346
leaf_count=11 4 19 14 8 10 20 10
internal_value=0 0.106797 -0.139756 0.14425 -0.137751 -0.138192 -0.136768
internal_weight=0 2.84328 2.687 2.04685 2.30979 1.59396 0.715825
internal_count=96 38 58 27 54 34 20
is_linear=0
shrinkage=0.2


Tree=34
num_leaves=9
num_cat=0
split_feature=3 3 3 0 3 1 1 1
split_gain=0.73539 0.958898 0.174379 0.240563 0.110346 0.000256301 4.40072e-05 1.55948e-07
threshold=0.45000000000000007 1.8500000000000003 1.6500000000000001 6.0500000000000007 1.2500000000000002 2.9500000000000006 3.3500000000000001 3.5500000000000003
decision_type=2 2 2 2 2 2 2 2
left_child=6 2 3 4 -2 -3 -1 -8
right_child=1 5 -4 -5 -6 -7 7 -9
leaf_value=-0.13744536889960438 0.081805557083502012 -0.14366636993766885 0.0098612187111854141 0.029214028578976425 0.16577366299785923 -0.13761673672323707 -0.13993912898423735 -0.14011569488066675
leaf_weight=0.39042649418115594 1.3057393431663515 0.60378664918243863 2.0036308467388153 2.0111114680767059 1.2025825940072534 0.52257207408547401 0.3747786357998848 0.42927740141749382
leaf_count=9 11 8 11 12 12 12 10 11
internal_value=0 0.0295481 0.0589729 0.0807459 0.122063 -0.14086 -0.139187 -0.140033
internal_weight=0 7.64942 6.52306 4.51943 2.50832 1.12636 1.19448 0.804056
internal_count=96 66 46 35 23 20 30 21
is_linear=0
shrinkage=0.2


Tree=35
num_leaves=10
num_cat=0
split_feature=3 1 3 0 0 0 0 1 1
split_gain=1.16181 0.622456 0.383301 0.681559 0.17349 0.115164 0.0131961 0.000448952 3.39217e-06
threshold=1.8500000000000003 3.0500000000000003 1.6500000000000001 6.0500000000000007 5.9500000000000011 5.7500000000000009 5.6500000000000012 2.9500000000000006 3.5500000000000003
decision_type=2 2 2 2 2 2 2 2 2
left_child=1 2 3 6 5 8 -1 -2 -3
right_child=7 4 -4 -5 -6 -7 -8 -9 -10
leaf_value=-0.13740174657927676 0.14733732245796902 -0.13683480726523392 0.074875065816797939 0.045964775353988026 -0.039848182481141137 -0.26540356195174453 -0.1792145689364798 0.14098388586170171 -0.13600531095430979
leaf_weight=0.67924369871616386 0.86743228510022141 0.62560135126113869 1.7371383607387541 1.4745706990361211 0.52689549326896656 0.39866542816162109 0.54349105432629585 0.91326393187046051 0.28797562420368195
leaf_count=16 8 18 8 9 6 2 7 12 10
internal_value=0 -0.0389662 0.00160468 -0.0455834 -0.136789 -0.175713 -0.155987 0.144079 -0.136573
internal_weight=0 6.27358 4.43444 2.69731 1.83914 1.31224 1.22273 1.7807 0.913577
internal_count=96 76 40 32 36 30 23 20 28
is_linear=0
shrinkage=0.2


Tree=36
num_leaves=8
num_cat=0
split_feature=2 1 2 3 1 2 2
split_gain=1.8394 0.0667616 0.000987648 3.37945e-05 1.08029e-05 1.10235e-05 4.65394e-07
threshold=3.1500000000000004 3.2500000000000004 1.5500000000000003 1.8500000000000003 2.5500000000000003 4.5500000000000007 5.4500000000000011
decision_type=2 2 2 2 2 2 2
left_child=1 -1 -3 4 -2 -6 -5
right_child=3 2 -4 6 5 -7 -8
leaf_value=0.070571227231746858 -0.13860574800015169 0.13737727185325702 0.14801832269010254 -0.13614875167493828 -0.13673720609560835 -0.13791106299954567 -0.13578166225852781
leaf_weight=0.79169085994362864 0.44160528481006656 0.64038670808076836 0.76649200171232224 0.26748840883374203 0.51448291540145852 0.8465138990432024 0.2856931034475565
leaf_count=10 9 15 8 9 15 19 11
internal_value=0 0.117031 0.143175 -0.137327 -0.137746 -0.137467 -0.135959
internal_weight=0 2.19857 1.40688 2.35578 1.8026 1.361 0.553182
internal_count=96 33 23 63 43 34 20
is_linear=0
shrinkage=0.2


Tree=37
num_leaves=8
num_cat=0
split_feature=2 2 1 2 2 2 1
split_gain=0.803635 0.893151 0.226194 0.699772 0.000770226 0.000494132 7.34698e-06
threshold=5.2000000000000002 1.8 2.8500000000000001 4.4500000000000011 5.6500000000000012 1.5500000000000003 3.3500000000000001
decision_type=2 2 2 2 2 2 2
left_child=1 5 3 -3 -2 6 -1
right_child=4 2 -4 -5 -6 -7 -8
leaf_value=-0.13672535230950691 -0.15282477764625799 0.14468120078078697 0.10879155225795589 -0.046695849476155245 -0.14242165784340674 -0.14500637535124772 -0.13533656696983939
leaf_weight=0.28589404001831986 0.60891471430659272 1.2612777687609198 2.5239457227289677 1.9394094534218309 0.53461704589426517 0.40260865353047848 0.32624492794275284
leaf_count=8 9 15 18 12 12 7 15
internal_value=0 0.0333684 0.0640224 0.0287191 -0.147961 -0.139564 -0.135985
internal_weight=0 6.73938 5.72463 3.20069 1.14353 1.01475 0.612139
internal_count=96 75 45 27 21 30 23
is_linear=0
shrinkage=0.2


Tree=38
num_leaves=9
num_cat=0
split_feature=3 3 1 1 0 1 1 1
split_gain=0.875154 0.502771 0.318194 0.000197574 2.89944e-05 8.09483e-06 2.37468e-07 4.38102e-08
threshold=1.3500000000000003 1.8500000000000003 2.9500000000000006 2.9500000000000006 5.6500000000000012 3.3500000000000001 3.5500000000000003 2.9500000000000006
decision_type=2 2 2 2 2 2 2 2
left_child=4 2 -2 -3 5 7 -7 -1
right_child=1 3 -4 -5 -6 6 -8 -9
leaf_value=-0.13664700729012039 0.060463805267211269 0.1438951154142411 -0.048826466746161028 0.13912824226591652 -0.13834590306689454 -0.1356480457533889 -0.13536572002821318 -0.13654493212013302
leaf_weight=0.30956419743597485 2.0286534316837788 0.68167047202587105 2.2446017302572727 0.71008800342679024 0.30244890972971905 0.25837709009647369 0.22118481621146202 0.36827335692942142
leaf_count=9 11 8 16 12 8 11 10 11
internal_value=0 0.0370602 0.00305719 0.141463 -0.136602 -0.136147 -0.135518 -0.136592
internal_weight=0 5.66501 4.27326 1.39176 1.45985 1.1574 0.479562 0.677838
internal_count=96 47 27 20 49 41 21 20
is_linear=0
shrinkage=0.2


Tree=39
num_leaves=9
num_cat=0
split_feature=2 1 2 2 0 1 1 0
split_gain=1.43635 0.0665575 0.000543238 9.67932e-06 3.22032e-06 1.27077e-05 8.68248e-07 3.51879e-07
threshold=3.1500000000000004 3.2500000000000004 1.5500000000000003 5.2000000000000002 5.8500000000000005 2.5500000000000003 3.0500000000000003 6.1500000000000012
decision_type=2 2 2 2 2 2 2 2
left_child=1 -1 -3 4 5 -2 -5 -6
right_child=3 2 -4 6 7 -7 -8 -9
leaf_value=0.062227238187560152 -0.13748333330552395 0.13641177027817628 0.14523154588048459 -0.13609530636643005 -0.13728313853801238 -0.13571920553220881 -0.13556783281566248 -0.13701000735307822
leaf_weight=0.67825772240757976 0.30699088238179661 0.49438383989036061 0.6422063447535038 0.26345275528728951 0.38845833577215672 0.34902091324329376 0.2372223287820816 0.36685332469642162
leaf_count=10 8 15 8 11 10 14 10 10
internal_value=0 0.111808 0.141395 -0.136601 -0.136869 -0.136545 -0.135845 -0.13715
internal_weight=0 1.81485 1.13659 1.912 1.41132 0.656012 0.500675 0.755312
internal_count=96 33 23 63 42 22 21 20
is_linear=0
shrinkage=0.2


Tree=40
num_leaves=9
num_cat=0
split_feature=2 0 2 2 1 0 2 1
split_gain=0.663011 1.11602 0.442873 0.317151 0.0569907 0.000760947 0.000217059 4.66575e-06
threshold=5.2000000000000002 6.4500000000000011 1.8 4.4500000000000011 2.5500000000000003 6.4500000000000011 1.5500000000000003 3.3500000000000001
decision_type=2 2 2 2 2 2 2 2
left_child=1 2 6 4 -4 -2 7 -1
right_child=5 -3 3 -5 -6 -7 -8 -9
leaf_value=-0.13610323407923841 -0.15262583757549511 0.25213165330672604 0.14551548610368639 -0.013322796238963701 0.065154645149786569 -0.14131592330380535 -0.14218948094752967 -0.13486391884368096
leaf_weight=0.23553066141903389 0.42070081084966648 0.79964809864759434 0.63506536930799462 3.0477647930383682 0.79477411881089211 0.54780076257884502 0.31700435001403093 0.25100819021463394
leaf_count=8 7 5 8 19 13 14 7 15
internal_value=0 0.0319405 -0.00139985 0.0231352 0.100847 -0.146229 -0.138117 -0.135464
internal_weight=0 6.0808 5.28115 4.4776 1.42984 0.968502 0.803543 0.486539
internal_count=96 75 70 40 21 21 30 23
is_linear=0
shrinkage=0.2


Tree=41
num_leaves=11
num_cat=0
split_feature=2 3 2 2 2 2 2 1 1 1
split_gain=1.1952 0.542547 0.117031 0.0019445 0.000513586 0.00029965 1.44823e-05 7.0065e-06 1.08821e-06 1.55555e-07
threshold=5.0500000000000007 1.6500000000000001 5.2000000000000002 4.7500000000000009 5.6500000000000012 4.5500000000000007 4.2500000000000009 3.3500000000000001 2.7500000000000004 3.5500000000000003
decision_type=2 2 2 2 2 2 2 2 2 2
left_child=1 3 -2 5 -4 6 7 8 -1 -9
right_child=2 -3 4 -5 -6 -7 -8 9 -10 -11
leaf_value=-0.13575927162016124 0.059288344818312355 0.0083907324035281203 0.15143607405663942 -0.15416897193920576 0.14382804786445003 -0.14258561142995782 -0.13741022746051254 -0.13510863796863568 -0.13625704248474951 -0.13485277090694167
leaf_weight=0.30398044176399774 1.0374987497925761 1.92852446436882 0.7147938124835489 0.32836854457855214 0.7049502320587635 0.34634232148528088 0.23477571271359909 0.19880928285419941 0.41621580347418785 0.18209261819720268
leaf_count=12 6 8 9 2 12 4 6 11 15 11
internal_value=0 -0.0673969 0.110347 -0.140091 0.147658 -0.137343 -0.135984 -0.13568 -0.136047 -0.134986
internal_weight=0 3.93911 2.45724 2.01058 1.41974 1.68222 1.33587 1.1011 0.720196 0.380902
internal_count=96 69 27 61 21 59 55 49 27 22
is_linear=0
shrinkage=0.2


Tree=42
num_leaves=8
num_cat=0
split_feature=3 3 0 0 1 3 3
split_gain=1.09078 0.132456 0.000532715 2.09456e-05 2.03393e-05 1.02787e-05 3.85182e-06
threshold=1.0500000000000003 0.45000000000000007 5.5500000000000007 4.9500000000000011 3.5500000000000003 1.8500000000000003 1.5500000000000003
decision_type=2 2 2 2 2 2 2
left_child=1 3 -2 -1 -5 6 -4
right_child=2 -3 5 4 -6 -7 -8
leaf_value=0.13922053828800104 -0.14521916478439795 0.0077417479543945792 -0.1358340739716421 0.13619147446790505 0.13844289295078038 -0.13493856339303409 -0.13668151157392758
leaf_weight=0.45797087810933612 0.30634842254221428 0.43281549774110306 0.44741347152739741 0.28583541698753834 0.36604544892907143 0.33795718476176262 0.41219379659742117
leaf_count=9 7 8 18 10 11 20 13
internal_value=0 0.101587 -0.137777 0.138184 0.137456 -0.135873 -0.13624
internal_weight=0 1.54267 1.50391 1.10985 0.651881 1.19756 0.859607
internal_count=96 38 58 30 21 51 31
is_linear=0
shrinkage=0.2


Tree=43
num_leaves=9
num_cat=0
split_feature=2 0 2 2 1 0 2 1
split_gain=0.490872 0.923725 0.330623 0.254642 0.0809489 0.000350266 9.45111e-05 2.98805e-06
threshold=5.2000000000000002 6.4500000000000011 1.8 4.4500000000000011 2.6500000000000008 6.4500000000000011 1.5500000000000003 3.3500000000000001
decision_type=2 2 2 2 2 2 2 2
left_child=1 2 6 4 -4 -2 7 -1
right_child=5 -3 3 -5 -6 -7 -8 -9
leaf_value=-0.13561330722155507 -0.14818661918214601 0.24446470982788215 0.14296729210050016 -0.013818987796775178 0.03881890074183493 -0.13952446456169168 -0.14005705274140254 -0.13450345810956313
leaf_weight=0.1952293962240218 0.33321280777454365 0.69155079871416081 0.65273931249976136 2.9549454674124718 0.55008110776543617 0.42474654875695705 0.24848549161106348 0.19291730504482985
leaf_count=8 7 5 11 19 10 14 7 15
internal_value=0 0.0283768 -0.00279208 0.0177594 0.0953375 -0.143333 -0.137011 -0.135062
internal_weight=0 5.48595 4.7944 4.15777 1.20282 0.757959 0.636632 0.388147
internal_count=96 75 70 40 21 21 30 23
is_linear=0
shrinkage=0.2


Tree=44
num_leaves=12
num_cat=0
split_feature=2 0 3 0 2 0 0 3 0 0 0
split_gain=0.821289 0.644312 0.925572 0.196337 0.00413096 0.00116609 0.000119715 1.62264e-06 1.61398e-06 7.19054e-08 2.71881e-08
threshold=5.0500000000000007 6.4500000000000011 1.6500000000000001 6.1500000000000012 5.5500000000000007 6.1500000000000012 6.0500000000000007 0.45000000000000007 4.9500000000000011 5.5500000000000007 5.1500000000000012
decision_type=2 2 2 2 2 2 2 2 2 2 2
left_child=1 2 5 -2 -5 6 7 8 -1 -9 -10
right_child=3 -3 -4 4 -6 -7 -8 9 10 -11 -12
leaf_value=-0.13535381688341275 0.029296409384232183 -0.24551107770209701 0.086329212389670132 0.16433537800187334 0.14088540619597306 -0.15161304229852735 -0.1404723555161988 -0.13549016212229609 -0.13465365514923452 -0.13533111058783295 -0.13452916971538456
leaf_weight=0.18674931209534473 0.91456440091133151 0.60889957100152958 1.5552309751510618 0.58244775421917416 0.6207201536744833 0.23416703939437855 0.20726725831627846 0.27369144558906555 0.15112922620028257 0.19449118990451097 0.13101654220372438
leaf_count=9 6 5 7 7 14 2 3 12 11 10 10
internal_value=0 -0.0582909 -0.0194333 0.0991441 0.152237 -0.138754 -0.136123 -0.135161 -0.134898 -0.135424 -0.134596
internal_weight=0 3.54264 2.93374 2.11773 1.20317 1.37851 1.14434 0.937078 0.468895 0.468183 0.282146
internal_count=96 69 64 27 21 57 55 52 30 22 21
is_linear=0
shrinkage=0.2


end of trees

feature_importances:
Column_2=93
Column_0=78
Column_3=73
Column_1=72

parameters:
[boosting: gbdt]
[objective: multiclass]
[metric: multi_logloss]
[tree_learner: serial]
[device_type: cpu]
[data_sample_strategy: bagging]
[data: ]
[valid: ]
[num_iterations: 10000]
[learning_rate: 0.2]
[num_leaves: 63]
[num_threads: 0]
[seed: 1236]
[deterministic: 0]
[force_col_wise: 0]
[force_row_wise: 0]
[histogram_pool_size: -1]
[max_depth: -1]
[min_data_in_leaf: 10]
[min_sum_hessian_in_leaf: 0.001]
[bagging_fraction: 1]
[pos_bagging_fraction: 1]
[neg_bagging_fraction: 1]
[bagging_freq: 0]
[bagging_seed: 21709]
[feature_fraction: 0.8]
[feature_fraction_bynode: 1]
[feature_fraction_seed: 24116]
[extra_trees: 0]
[extra_seed: 15571]
[early_stopping_round: 0]
[early_stopping_min_delta: 0]
[first_metric_only: 0]
[max_delta_step: 0]
[lambda_l1: 0]
[lambda_l2: 0]
[linear_lambda: 0]
[min_gain_to_split: 0]
[drop_rate: 0.1]
[max_drop: 50]
[skip_drop: 0.5]
[xgboost_dart_mode: 0]
[uniform_drop: 0]
[drop_seed: 15722]
[top_rate: 0.2]
[other_rate: 0.1]
[min_data_per_group: 100]
[max_cat_threshold: 32]
[cat_l2: 10]
[cat_smooth: 10]
[max_cat_to_onehot: 4]
[top_k: 20]
[monotone_constraints: ]
[monotone_constraints_method: basic]
[monotone_penalty: 0]
[feature_contri: ]
[forcedsplits_filename: ]
[refit_decay_rate: 0.9]
[cegb_tradeoff: 1]
[cegb_penalty_split: 0]
[cegb_penalty_feature_lazy: ]
[cegb_penalty_feature_coupled: ]
[path_smooth: 0]
[interaction_constraints: ]
[verbosity: -1]
[saved_feature_importance_type: 0]
[use_quantized_grad: 0]
[num_grad_quant_bins: 4]
[quant_train_renew_leaf: 0]
[stochastic_rounding: 1]
[linear_tree: 0]
[max_bin: 255]
[max_bin_by_feature: ]
[min_data_in_bin: 3]
[bin_construct_sample_cnt: 200000]
[data_random_seed: 4074]
[is_enable_sparse: 1]
[enable_bundle: 1]
[use_missing: 1]
[zero_as_missing: 0]
[feature_pre_filter: 1]
[pre_partition: 0]
[two_round: 0]
[header: 0]
[label_column: ]
[weight_column: ]
[group_column: ]
[ignore_column: ]
[categorical_feature: ]
[forcedbins_filename: ]
[precise_float_parser: 0]
[parser_config_file: ]
[objective_seed: 10917]
[num_class: 3]
[is_unbalance: 0]
[scale_pos_weight: 1]
[sigmoid: 1]
[boost_from_average: 1]
[reg_sqrt: 0]
[alpha: 0.9]
[fair_c: 1]
[poisson_max_delta_step: 0.7]
[tweedie_variance_power: 1.5]
[lambdarank_truncation_level: 30]
[lambdarank_norm: 1]
[label_gain: ]
[lambdarank_position_bias_regularization: 0]
[eval_at: ]
[multi_error_top_k: 1]
[auc_mu_weights: ]
[num_machines: 1]
[local_listen_port: 12400]
[time_out: 120]
[machine_list_filename: ]
[machines: ]
[gpu_platform_id: -1]
[gpu_device_id: -1]
[gpu_use_dp: 0]
[num_gpu: 1]

end of parameters

pandas_categorical:null
