tree
version=v4
num_class=3
num_tree_per_iteration=3
label_index=0
max_feature_idx=3
objective=multiclass num_class:3
feature_names=Column_0 Column_1 Column_2 Column_3
feature_infos=[4.2999999999999998:7.7000000000000002] [2.2000000000000002:4.4000000000000004] [1:6.7000000000000002] [0.10000000000000001:2.5]
tree_sizes=540 623 543 750 743 848 853 842 948 854 846 946 752 841 849 852 943 950 754 949 851 750 1046 853 847 1050 1057 961 951 1049 958 950 1044 959 952 963 964 954 966 1075 1063 1165 966 1067 1067 1073 1169 1160

Tree=0
num_leaves=4
num_cat=0
split_feature=3 3 0
split_gain=58.1818 1.01818 3.55271e-15
threshold=0.45000000000000007 1.2500000000000002 6.0500000000000007
decision_type=2 2 2
left_child=-1 -2 -3
right_child=1 2 -4
leaf_value=-0.69861228866810976 -1.1786122886681096 -1.2986122886681097 -1.2986122886681097
leaf_weight=10.000000298023222 3.3333334326744106 6.3333335220813778 12.333333700895308
leaf_count=30 10 19 37
internal_value=-1.09861 -1.28043 -1.29861
internal_weight=0 22 18.6667
internal_count=96 66 56
is_linear=0
shrinkage=1


Tree=1
num_leaves=5
num_cat=0
split_feature=2 2 2 2
split_gain=16.7619 31.2651 1.60429 0.50169
threshold=2.4500000000000006 4.9500000000000011 4.4500000000000011 5.4500000000000011
decision_type=2 2 2 2
left_child=-1 2 -2 -3
right_child=1 3 -4 -5
leaf_value=-1.2710152331759592 -0.67996184212256838 -1.1800839422446683 -0.82772518988591604 -1.2710152331759592
leaf_weight=10.828124999999998 6.4291992187500018 4.3989257812499982 5.4140625 5.4140625
leaf_count=32 19 13 16 16
internal_value=-1.06784 -0.966253 -0.747511 -1.23025
internal_weight=0 21.6562 11.8433 9.81299
internal_count=96 64 35 29
is_linear=0
shrinkage=1


Tree=2
num_leaves=4
num_cat=0
split_feature=2 2 2
split_gain=46.8539 2.32098 0.517624
threshold=4.9500000000000011 4.4500000000000011 5.4500000000000011
decision_type=2 2 2
left_child=1 -1 -2
right_child=2 -3 -4
leaf_value=-1.3272840518828082 -0.81127721135069475 -1.1748274853619567 -0.71745778579940145
leaf_weight=16.726074725389488 4.2635092437267286 5.2473959922790518 5.2473959922790527
leaf_count=51 13 16 16
internal_value=-1.13036 -1.29088 -0.759515
internal_weight=0 21.9735 9.51091
internal_count=96 67 29
is_linear=0
shrinkage=1


Tree=3
num_leaves=6
num_cat=0
split_feature=2 2 2 2 0
split_gain=39.7365 0.00823382 0.000468136 9.42051e-05 5.8273e-06
threshold=2.4500000000000006 1.4500000000000002 4.2500000000000009 5.4500000000000011 6.1500000000000012
decision_type=2 2 2 2 2
left_child=1 -1 -2 4 -4
right_child=2 -3 3 -5 -6
leaf_value=0.27966237914592207 -0.18376540634634914 0.29017656247353801 -0.18194626863119129 -0.18068043104480128 -0.18163459667223422
leaf_weight=5.9870438575744647 4.4718219935894039 5.9303191304206848 4.4053809940814954 4.641101360321044 5.2701486945152283
leaf_count=16 15 16 15 16 18
internal_value=0 0.284894 -0.181979 -0.181421 -0.181777
internal_weight=0 11.9174 18.7885 14.3166 9.67553
internal_count=96 32 64 49 33
is_linear=0
shrinkage=0.2


Tree=4
num_leaves=6
num_cat=0
split_feature=2 2 2 2 2
split_gain=11.5898 18.2225 0.871059 0.441521 0.000299008
threshold=2.4500000000000006 4.9500000000000011 4.4500000000000011 5.4500000000000011 1.4500000000000002
decision_type=2 2 2 2 2
left_child=4 2 -2 -3 -1
right_child=1 3 -4 -5 -6
leaf_value=-0.18239250377124344 0.27879810749238082 -0.092758926248627693 0.17474435181246098 -0.18249372301137165 -0.18463544751523406
leaf_weight=4.7190680503845233 7.1099535524845141 4.0943672955036146 5.878903865814209 4.7235603332519531 4.7911752462387085
leaf_count=16 19 13 16 16 16
internal_value=0 0.0810637 0.231702 -0.140828 -0.183522
internal_weight=0 21.8068 12.9889 8.81793 9.51024
internal_count=96 64 35 29 32
is_linear=0
shrinkage=0.2


Tree=5
num_leaves=7
num_cat=0
split_feature=3 2 1 1 3 1
split_gain=32.9011 1.26759 0.484467 0.000810766 0.00362058 8.88178e-16
threshold=1.6500000000000001 4.5500000000000007 2.8500000000000001 2.9500000000000006 0.45000000000000007 3.4500000000000006
decision_type=2 2 2 2 2 2
left_child=1 3 -2 -1 5 -5
right_child=2 -3 -4 4 -6 -7
leaf_value=-0.17791668861792787 0.33526456915869107 -0.050062590772720961 0.24726644973291451 -0.17879303161708437 -0.18690592301481379 -0.17879303161708426
leaf_weight=4.787444204092032 3.9081099033355695 3.7020322084426871 6.9580045640468597 4.266253709793089 3.0403591096401215 3.6974198818206787
leaf_count=17 11 11 19 15 10 13
internal_value=0 -0.155396 0.278916 -0.180089 -0.181035 -0.178793
internal_weight=0 19.4935 10.8661 15.7915 11.004 7.96367
internal_count=96 66 30 55 38 28
is_linear=0
shrinkage=0.2


Tree=6
num_leaves=7
num_cat=0
split_feature=3 3 3 3 1 0
split_gain=23.147 0.805318 0.000675497 0.000578611 0.000195721 1.69664e-05
threshold=0.45000000000000007 1.2500000000000002 1.6500000000000001 1.4500000000000002 2.8500000000000001 5.0500000000000007
decision_type=2 2 2 2 2 2
left_child=5 -2 3 -3 -4 -1
right_child=1 2 4 -5 -6 -7
leaf_value=0.22538773914942589 -0.052101709131936215 -0.16894349857873889 -0.16642106224867845 -0.17271131419600746 -0.16857546731444351 0.22487760200436618
leaf_weight=6.5235247015953082 2.8286445736885097 3.7314206361770612 2.6273684352636337 2.8952812850475311 4.7112233638763428 4.3445631265640259
leaf_count=18 10 15 11 11 19 12
internal_value=0 -0.149415 -0.169126 -0.17059 -0.167804 0.225184
internal_weight=0 16.7939 13.9653 6.6267 7.33859 10.8681
internal_count=96 66 56 26 30 30
is_linear=0
shrinkage=0.2


Tree=7
num_leaves=7
num_cat=0
split_feature=2 3 3 2 2 0
split_gain=8.18259 15.8453 0.328961 0.185825 0.000147116 4.28157e-07
threshold=2.4500000000000006 1.6500000000000001 1.8500000000000003 4.5500000000000007 1.4500000000000002 5.7500000000000009
decision_type=2 2 2 2 2 2
left_child=4 3 -3 5 -1 -2
right_child=1 2 -4 -5 -6 -7
leaf_value=-0.16877191766643954 0.23084434489196798 -0.093762244325401436 -0.173898110175498 0.17767027627497955 -0.17048350549524016 0.23093555581865921
leaf_weight=3.981309503316881 4.7382368445396441 3.4439308345317823 5.0589835047721863 3.8225171864032736 4.0542809665203094 3.6400633752346039
leaf_count=16 13 11 19 11 16 10
internal_value=0 0.0681474 -0.141441 0.214212 -0.169635 0.230884
internal_weight=0 20.7037 8.50291 12.2008 8.03559 8.3783
internal_count=96 64 30 34 32 23
is_linear=0
shrinkage=0.2


Tree=8
num_leaves=8
num_cat=0
split_feature=2 2 1 2 0 2 1
split_gain=18.8662 1.75464 0.316688 0.0062522 0.00361005 0.000138583 8.89525e-08
threshold=4.6500000000000012 5.1500000000000012 2.5500000000000003 4.2500000000000009 7.0500000000000007 1.5500000000000003 3.4500000000000006
decision_type=2 2 2 2 2 2 2
left_child=2 -2 -1 5 -3 6 -4
right_child=1 4 3 -5 -6 -7 -8
leaf_value=-0.09095851545971588 0.091991755393185007 0.24252833237951454 -0.16644554742249251 -0.17788934263817621 0.23367109644485795 -0.16798057583944093 -0.16639460779424134
leaf_weight=2.4687296897172955 5.9370069503784162 3.700168788433075 2.8684833347797376 2.7643207162618628 3.6627183854579926 3.8956456333398819 2.6270010024309158
leaf_count=10 17 10 12 10 10 16 11
internal_value=0 0.17289 -0.156265 -0.169529 0.238122 -0.167068 -0.166421
internal_weight=0 13.2999 14.6242 12.1555 7.36289 9.39113 5.49548
internal_count=96 37 59 49 20 39 23
is_linear=0
shrinkage=0.2


Tree=9
num_leaves=7
num_cat=0
split_feature=2 2 0 1 2 2
split_gain=19.3279 0.00516013 0.000428131 0.000148026 6.67913e-05 5.4678e-05
threshold=2.4500000000000006 1.4500000000000002 6.1500000000000012 2.5500000000000003 5.1500000000000012 4.5500000000000007
decision_type=2 2 2 2 2 2
left_child=1 -1 3 -2 -4 -5
right_child=2 -3 4 5 -6 -7
leaf_value=0.19582939380390552 -0.16342494952237707 0.20469589923072121 -0.16057049772139728 -0.16076052255805257 -0.15930814739141866 -0.16215421660272952
leaf_weight=5.2147055268287676 2.2456115484237653 5.2878907918930054 2.9495285600423813 2.3183653801679611 3.8846867382526398 2.1893202215433121
leaf_count=16 10 16 14 11 19 10
internal_value=0 0.200294 -0.160969 -0.162098 -0.159853 -0.161437
internal_weight=0 10.5026 13.5875 6.7533 6.83422 4.50769
internal_count=96 32 64 31 33 21
is_linear=0
shrinkage=0.2


Tree=10
num_leaves=7
num_cat=0
split_feature=2 2 2 2 2 0
split_gain=6.04062 8.12772 0.862353 0.479503 0.000377721 0.000233451
threshold=2.4500000000000006 4.9500000000000011 5.1500000000000012 4.4500000000000011 1.4500000000000002 7.0500000000000007
decision_type=2 2 2 2 2 2
left_child=4 3 -3 -2 -1 -4
right_child=1 2 5 -5 -6 -7
leaf_value=-0.15933382483616279 0.19776044145057189 -0.017279705336496306 -0.16585465373876648 0.11799950660345637 -0.1623395821489155 -0.16296705679459736
leaf_weight=3.2772664278745678 6.2441013157367724 2.4693093895912162 2.3146065175533295 5.8296746909618378 3.414902925491333 2.1697073578834534
leaf_count=16 19 9 10 16 16 10
internal_value=0 0.0600496 -0.112193 0.159249 -0.160868 -0.164458
internal_weight=0 19.0274 6.95362 12.0738 6.69217 4.48431
internal_count=96 64 29 35 32 20
is_linear=0
shrinkage=0.2


Tree=11
num_leaves=8
num_cat=0
split_feature=3 2 1 2 3 2 2
split_gain=15.8897 1.76778 0.455107 0.0114553 0.00030213 0.000646682 3.97418e-06
threshold=1.6500000000000001 4.8500000000000005 2.9500000000000006 4.4500000000000011 0.45000000000000007 4.0500000000000007 1.4500000000000002
decision_type=2 2 2 2 2 2 2
left_child=1 3 -2 4 6 -6 -1
right_child=2 -3 -4 -5 5 -7 -8
leaf_value=-0.15797436379170293 0.2383147238237967 0.036692166932854708 0.1536786367668255 -0.17416623148538102 -0.1622707416794171 -0.15732824839695728 -0.15764518269793762
leaf_weight=3.1588240414857882 4.5122828781604749 2.0974149107933036 5.8181339800357819 2.3787126988172522 2.3356551826000214 1.9371458888053892 2.7391408383846283
leaf_count=16 13 6 17 9 11 10 14
internal_value=0 -0.133266 0.190647 -0.161672 -0.158749 -0.16003 -0.157821
internal_weight=0 14.6469 10.3304 12.5495 10.1708 4.2728 5.89796
internal_count=96 66 30 60 51 21 30
is_linear=0
shrinkage=0.2


Tree=12
num_leaves=6
num_cat=0
split_feature=2 2 3 2 2
split_gain=14.0679 0.00234441 0.000318649 0.000477256 3.25205e-05
threshold=2.4500000000000006 1.4500000000000002 1.6500000000000001 4.4500000000000011 5.4500000000000011
decision_type=2 2 2 2 2
left_child=1 -1 3 -2 -4
right_child=2 -3 4 -5 -6
leaf_value=0.17717643730194421 -0.15381627350264385 0.18361423169889157 -0.15380274160840537 -0.15734404766814447 -0.15278819734239932
leaf_weight=4.4690821468830126 3.2578825503587705 4.5830081403255463 2.7635340541601181 2.8988366276025772 2.3287533074617386
leaf_count=16 19 16 16 15 14
internal_value=0 0.180436 -0.154509 -0.155477 -0.153339
internal_weight=0 9.05209 11.249 6.15672 5.09229
internal_count=96 32 64 34 30
is_linear=0
shrinkage=0.2


Tree=13
num_leaves=7
num_cat=0
split_feature=2 3 1 2 1 2
split_gain=4.41802 8.24727 0.600663 0.124164 0.0011032 0.000201187
threshold=2.4500000000000006 1.6500000000000001 2.9500000000000006 4.5500000000000007 2.8500000000000001 1.4500000000000002
decision_type=2 2 2 2 2 2
left_child=5 3 -3 4 -2 -1
right_child=1 2 -4 -5 -6 -7
leaf_value=-0.15263280260608159 0.17939619679234833 -0.18479891450666608 -0.064508595043544545 0.1358615069815173 0.18457661857053359 -0.15506928808179868
leaf_weight=2.650923743844035 3.7108126580715197 3.0652295500040045 3.6231682151556015 3.6651792526245117 2.9526830315589905 2.7742981761693954
leaf_count=16 13 13 17 11 10 16
internal_value=0 0.0533865 -0.119637 0.165429 0.181692 -0.153879
internal_weight=0 17.0171 6.6884 10.3287 6.6635 5.42522
internal_count=96 64 30 34 23 32
is_linear=0
shrinkage=0.2


Tree=14
num_leaves=7
num_cat=0
split_feature=3 1 3 3 1 1
split_gain=11.4842 0.43533 0.40958 0.000522623 1.85218e-06 4.39475e-10
threshold=1.6500000000000001 2.9500000000000006 1.3500000000000003 0.45000000000000007 3.3500000000000001 3.5500000000000003
decision_type=2 2 2 2 2 2
left_child=2 -2 3 4 -1 -6
right_child=1 -3 -4 -5 5 -7
leaf_value=-0.1516920124024746 0.2165969901327332 0.12992585517987987 -0.077346036832919837 -0.15485672202535639 -0.15142521681658483 -0.15142993681592848
leaf_weight=1.5948894470930115 4.1236153244972211 5.2942429780960083 4.5384675413370132 3.093295156955719 1.5779607146978381 1.5782798528671262
leaf_count=10 13 17 18 18 10 10
internal_value=0 0.167875 -0.125167 -0.152834 -0.151516 -0.151428
internal_weight=0 9.41786 12.3829 7.84443 4.75113 3.15624
internal_count=96 30 66 48 30 20
is_linear=0
shrinkage=0.2


Tree=15
num_leaves=7
num_cat=0
split_feature=3 1 1 3 3 1
split_gain=8.69963 0.519991 0.00120961 0.000148014 0.000206605 6.11188e-05
threshold=1.0500000000000003 3.0500000000000003 3.5500000000000003 1.6500000000000001 1.3500000000000003 2.9500000000000006
decision_type=2 2 2 2 2 2
left_child=1 -1 -3 4 -2 -5
right_child=3 2 -4 5 -6 -7
leaf_value=0.053634130380156131 -0.14862006963857896 0.17003854751533021 0.16424105579829124 -0.14792555033171689 -0.15152945651777305 -0.14948029137187488
leaf_weight=2.1490561962127703 1.5016371756792048 3.8726845234632492 2.2912371903657913 1.721437446773052 2.7909435927867889 2.4520146101713181
leaf_count=11 11 16 10 13 18 17
internal_value=0 0.138348 0.167884 -0.149687 -0.150512 -0.148839
internal_weight=0 8.31298 6.16392 8.46603 4.29258 4.17345
internal_count=96 37 26 59 29 30
is_linear=0
shrinkage=0.2


Tree=16
num_leaves=8
num_cat=0
split_feature=2 3 2 2 1 2 3
split_gain=3.26488 5.45831 0.545671 0.21588 0.000779132 0.000105168 1.60872e-05
threshold=2.4500000000000006 1.6500000000000001 5.0500000000000007 4.5500000000000007 2.8500000000000001 1.4500000000000002 2.0500000000000003
decision_type=2 2 2 2 2 2 2
left_child=5 3 -3 4 -2 -1 -4
right_child=1 2 6 -5 -6 -7 -8
leaf_value=-0.1477710624670249 0.166429415660233 -0.027906967112542383 -0.15309526978736912 0.10578336670361609 0.17116456910891492 -0.14974101451542499 -0.15224000364115195
leaf_weight=2.1157708168029812 3.0973075777292234 2.3314508050680152 1.7411394268274309 3.5929489731788635 2.5215397626161575 2.222894549369812 1.7780791670083997
leaf_count=16 13 8 11 11 10 16 11
internal_value=0 0.0481221 -0.102949 0.144071 0.168554 -0.14878 -0.152663
internal_weight=0 15.0625 5.85067 9.2118 5.61885 4.33867 3.51922
internal_count=96 64 30 34 23 32 22
is_linear=0
shrinkage=0.2


Tree=17
num_leaves=8
num_cat=0
split_feature=3 2 3 2 3 2 2
split_gain=7.79631 1.50821 0.216153 0.00575181 0.000131508 0.000182905 3.2528e-06
threshold=1.6500000000000001 4.8500000000000005 1.8500000000000003 4.4500000000000011 0.45000000000000007 4.0500000000000007 1.4500000000000002
decision_type=2 2 2 2 2 2 2
left_child=1 3 -2 4 6 -6 -1
right_child=2 -3 -4 -5 5 -7 -8
leaf_value=-0.14710621820420097 0.10718883844860733 0.041324900428279757 0.17222347602120475 -0.16035032843270317 -0.15018608377087198 -0.146946093680143 -0.14673397380544434
leaf_weight=2.0360347032547019 3.4919814318418485 2.0357834100723258 4.9307430684566498 1.8403324782848356 1.5608505904674532 1.2591945528984068 1.7426974698901174
leaf_count=16 11 6 19 9 11 10 14
internal_value=0 -0.113189 0.145261 -0.150463 -0.147706 -0.148739 -0.146935
internal_weight=0 10.4749 8.42272 8.43911 6.59878 2.82005 3.77873
internal_count=96 66 30 60 51 21 30
is_linear=0
shrinkage=0.2


Tree=18
num_leaves=6
num_cat=0
split_feature=2 2 3 2 3
split_gain=7.98606 0.000345042 0.000196106 0.000126262 9.73251e-05
threshold=2.4500000000000006 1.4500000000000002 1.8500000000000003 4.4500000000000011 1.6500000000000001
decision_type=2 2 2 2 2
left_child=1 -1 3 -2 -5
right_child=2 -3 -4 4 -6
leaf_value=0.15727423549154912 -0.14580272873400879 0.16024492436770632 -0.14471041378106317 -0.14862533393800068 -0.14642950110838618
leaf_weight=3.0897459834814072 2.1573086977005005 3.1669257879257202 2.0542691349983215 2.0508211776614189 1.3316632062196734
leaf_count=16 19 16 19 15 11
internal_value=0 0.158778 -0.146379 -0.146998 -0.147761
internal_weight=0 6.25667 7.59406 5.53979 3.38248
internal_count=96 32 64 45 26
is_linear=0
shrinkage=0.2


Tree=19
num_leaves=8
num_cat=0
split_feature=3 3 1 1 0 1 1
split_gain=2.16009 3.3807 0.638758 0.0329502 0.0951853 1.33126e-05 4.26008e-08
threshold=0.45000000000000007 1.6500000000000001 2.9500000000000006 2.9500000000000006 5.9500000000000011 3.3500000000000001 3.5500000000000003
decision_type=2 2 2 2 2 2 2
left_child=5 3 -3 4 -2 -1 -7
right_child=1 2 -4 -5 -6 6 -8
leaf_value=-0.14482205926684072 0.15873373447067701 -0.16946738192627148 -0.026401981475453053 0.10151151607118943 0.10388062664606919 -0.14392885542617315 -0.14398651603086796
leaf_weight=1.0928020998835593 2.1971031129360181 2.2304254397749892 2.8350383788347244 3.2744083553552628 2.9840051978826523 1.022692643105984 1.0274398475885389
leaf_count=10 11 13 17 14 11 10 10
internal_value=0 0.0398115 -0.0893966 0.117216 0.127142 -0.144258 -0.143958
internal_weight=0 13.521 5.06546 8.45552 5.18111 3.14293 2.05013
internal_count=96 66 30 36 22 30 20
is_linear=0
shrinkage=0.2


Tree=20
num_leaves=7
num_cat=0
split_feature=3 3 1 3 1 1
split_gain=5.3933 0.496432 0.420117 0.00012997 1.33001e-05 3.99989e-08
threshold=1.6500000000000001 1.3500000000000003 2.9500000000000006 0.45000000000000007 3.3500000000000001 3.5500000000000003
decision_type=2 2 2 2 2 2
left_child=1 3 -2 4 -1 -6
right_child=2 -3 -4 -5 5 -7
leaf_value=-0.14438362047925773 0.18380375608628069 -0.048845580249472408 0.087175678034224602 -0.14589176515479402 -0.14347593720695753 -0.14353285668705573
leaf_weight=1.0564073398709317 3.1527197062969199 3.804491214454174 4.1940849423408508 1.9875766783952711 0.985311299562454 0.99006091058254242
leaf_count=10 13 18 17 18 10 10
internal_value=0 -0.103334 0.128641 -0.144635 -0.143811 -0.143504
internal_weight=0 8.82385 7.3468 5.01936 3.03178 1.97537
internal_count=96 66 30 48 30 20
is_linear=0
shrinkage=0.2


Tree=21
num_leaves=6
num_cat=0
split_feature=2 2 3 2 3
split_gain=6.14111 0.000395448 0.00012429 0.000128257 6.65908e-05
threshold=2.4500000000000006 1.4500000000000002 1.8500000000000003 4.4500000000000011 1.6500000000000001
decision_type=2 2 2 2 2
left_child=1 -1 3 -2 -5
right_child=2 -3 -4 4 -6
leaf_value=0.1510471595008723 -0.14290469838298561 0.15458053804457431 -0.14224176664430657 -0.14586506311719102 -0.14387705572397294
leaf_weight=2.4780150800943375 1.7248199358582494 2.5924808979034424 1.6561308428645132 1.7327844649553299 1.1029653698205948
leaf_count=16 19 16 19 15 11
internal_value=0 0.152854 -0.143726 -0.144265 -0.145092
internal_weight=0 5.0705 6.2167 4.56057 2.83575
internal_count=96 32 64 45 26
is_linear=0
shrinkage=0.2


Tree=22
num_leaves=9
num_cat=0
split_feature=2 2 0 2 1 2 2 0
split_gain=2.17925 3.14613 1.13502 0.856041 0.0637223 0.000333702 7.76847e-05 4.31822e-06
threshold=5.1500000000000012 2.4500000000000006 6.3500000000000005 4.6500000000000012 2.7500000000000004 1.5500000000000003 5.7000000000000002 4.9500000000000011
decision_type=2 2 2 2 2 2 2 2
left_child=1 5 3 4 -3 7 -2 -1
right_child=6 2 -4 -5 -6 -7 -8 -9
leaf_value=-0.14196415849360455 -0.16051493858932789 0.10477959431089774 0.2345381580158819 -0.011338043872388771 0.1571986689403358 -0.14641427168101179 -0.15833581896932838 -0.14136770807597618
leaf_weight=0.8539918959140772 1.266376167535783 2.1258192211389528 1.9507229775190351 3.3439883440732956 1.6457801908254621 0.82431783527135838 1.3541000336408613 1.1253247559070585
leaf_count=10 9 12 9 14 9 8 11 14
internal_value=0 0.0421273 0.0993857 0.0623339 0.127653 -0.143033 -0.159389 -0.141625
internal_weight=0 11.8699 9.06631 7.11559 3.7716 2.80363 2.62048 1.97932
internal_count=96 76 44 35 21 32 20 24
is_linear=0
shrinkage=0.2


Tree=23
num_leaves=7
num_cat=0
split_feature=3 3 1 3 1 1
split_gain=3.62372 0.530991 0.373052 7.24031e-05 6.288e-06 1.81819e-08
threshold=1.6500000000000001 1.3500000000000003 2.9500000000000006 0.45000000000000007 3.3500000000000001 3.5500000000000003
decision_type=2 2 2 2 2 2
left_child=1 3 -2 4 -1 -6
right_child=2 -3 -4 -5 5 -7
leaf_value=-0.14169156845607853 0.17078994412584006 -0.035820903987075263 0.072899079045933235 -0.14299224235774352 -0.14098705302250678 -0.14103046180760578
leaf_weight=0.82944584637880403 2.617216631770134 3.5996059626340866 3.844799742102623 1.587720103561878 0.76997772604227044 0.77387396246194839
leaf_count=10 13 18 17 18 10 10
internal_value=0 -0.0914204 0.112546 -0.141947 -0.141247 -0.141009
internal_weight=0 7.56062 6.46202 3.96102 2.3733 1.54385
internal_count=96 66 30 48 30 20
is_linear=0
shrinkage=0.2


Tree=24
num_leaves=7
num_cat=0
split_feature=3 1 1 3 3 0
split_gain=3.82003 0.237613 0.000262301 6.18755e-05 8.9196e-05 4.61806e-05
threshold=1.0500000000000003 3.1500000000000008 3.5500000000000003 1.8500000000000003 1.3500000000000003 6.1500000000000012
decision_type=2 2 2 2 2 2
left_child=1 -1 -3 4 -2 -6
right_child=3 2 -4 -5 5 -7
leaf_value=0.04812666837546465 -0.14016691026962921 0.14956009357114 0.14577794191503235 -0.14046576518156825 -0.14347743146367176 -0.14175243449401642
leaf_weight=1.363296218216419 0.74971574917435679 1.963499076664448 1.1708409562706945 1.3457331918179987 1.3026960268616679 1.1859336644411085
leaf_count=12 11 15 10 19 14 15
internal_value=0 0.11783 0.148147 -0.141606 -0.142079 -0.142655
internal_weight=0 4.49764 3.13434 4.58408 3.23835 2.48863
internal_count=96 37 25 59 40 29
is_linear=0
shrinkage=0.2


Tree=25
num_leaves=9
num_cat=0
split_feature=2 2 0 3 3 3 3 2
split_gain=1.84032 2.35018 1.02588 1.65326 0.0699026 0.00850825 0.000169273 1.80031e-06
threshold=5.1500000000000012 2.4500000000000006 6.3500000000000005 1.6500000000000001 1.4500000000000002 2.0500000000000003 0.25000000000000006 1.4500000000000002
decision_type=2 2 2 2 2 2 2 2
left_child=1 6 3 4 -3 -2 7 -1
right_child=5 2 -4 -5 -6 -7 -8 -9
leaf_value=-0.13976517906204391 -0.16840530988301636 0.15173450831854898 0.23390939520224033 -0.084782037863944559 0.099212534712884992 -0.1435571964582559 -0.1434041181365425 -0.13932883426457637
leaf_weight=0.85408784449100428 1.2569420412182819 2.463809706270693 1.6424968019127844 2.1762472540140152 1.722071126103401 0.98171672224998463 0.65938672423362721 0.67883649468421936
leaf_count=13 10 17 9 11 7 10 8 11
internal_value=0 0.0427455 0.0929943 0.0566146 0.130127 -0.157509 -0.140725 -0.139572
internal_weight=0 10.1969 8.00462 6.36213 4.18588 2.23866 2.19231 1.53292
internal_count=96 76 44 35 24 20 32 24
is_linear=0
shrinkage=0.2


Tree=26
num_leaves=9
num_cat=0
split_feature=2 3 2 3 2 3 3 2
split_gain=3.24277 1.47632 0.226804 0.0163056 0.00190294 0.000201671 1.90165e-05 1.67038e-06
threshold=5.1500000000000012 1.6500000000000001 4.8500000000000005 2.0500000000000003 4.5500000000000007 1.3500000000000003 0.45000000000000007 1.4500000000000002
decision_type=2 2 2 2 2 2 2 2
left_child=1 2 4 -2 5 6 7 -1
right_child=3 -3 -4 -5 -6 -7 -8 -9
leaf_value=-0.13950116548408592 0.18013750133292747 0.052381057735975914 -0.044961245078061783 0.1526097346301494 -0.15148729367081315 -0.14339275288403777 -0.14036315907979122 -0.13911908180851126
leaf_weight=1.010745309293269 1.8022384196519863 2.9614338427782059 1.2161840498447416 1.6475245654582975 0.75122816115617741 0.74994635581970204 1.1535046584904192 0.83641210570931424
leaf_count=16 10 12 4 10 5 8 17 14
internal_value=0 -0.0622351 -0.121596 0.166991 -0.142299 -0.140459 -0.139726 -0.139328
internal_weight=0 8.67945 5.71802 3.44976 4.50184 3.75061 3.00066 1.84716
internal_count=96 76 64 20 60 55 47 30
is_linear=0
shrinkage=0.2


Tree=27
num_leaves=8
num_cat=0
split_feature=3 0 3 1 1 3 1
split_gain=2.93595 0.335509 5.62386e-05 6.62166e-05 4.74765e-05 3.82321e-05 9.29559e-08
threshold=0.45000000000000007 5.3000000000000016 1.8500000000000003 2.7500000000000004 3.3500000000000001 1.5500000000000003 3.5500000000000003
decision_type=2 2 2 2 2 2 2
left_child=4 -2 3 -3 -1 -5 -6
right_child=1 2 -4 5 6 -7 -8
leaf_value=0.14432877575293496 0.0094106104925054078 -0.14191300690889541 -0.13883947208465247 -0.13897730859680188 0.14259459425672327 -0.14086623826918848 0.14268477046030559
leaf_weight=1.046830475330353 0.71575079485774029 0.9368418902158745 1.0651268437504766 0.95411245524883248 0.91066902875900246 0.77817575260996819 0.91836009919643402
leaf_count=10 7 12 19 17 10 11 10
internal_value=0 -0.116026 -0.140068 -0.140558 0.143255 -0.139826 0.14264
internal_weight=0 4.45001 3.73426 2.66913 2.87586 1.73229 1.82903
internal_count=96 66 59 40 30 28 20
is_linear=0
shrinkage=0.2


Tree=28
num_leaves=8
num_cat=0
split_feature=3 3 0 3 0 1 1
split_gain=0.942887 1.26332 0.265188 0.58102 0.0729479 5.47474e-06 1.09991e-08
threshold=0.45000000000000007 1.8500000000000003 6.3500000000000005 1.6500000000000001 5.9500000000000011 3.3500000000000001 3.5500000000000003
decision_type=2 2 2 2 2 2 2
left_child=5 2 3 4 -2 -1 -7
right_child=1 -3 -4 -5 -6 6 -8
leaf_value=-0.13870526531689026 0.11214366294266856 -0.1411763358822026 0.1311283771260473 -0.057214425606603295 0.058709446794306702 -0.13789480102123813 -0.13793754314781828
leaf_weight=0.55413128063082762 1.9240006804466228 1.4152833819389341 1.8242255710065363 1.6354211121797559 2.1797818914055824 0.4795755110681057 0.48374563083052635
leaf_count=10 17 19 13 7 10 10 10
internal_value=0 0.0322509 0.064703 0.0435894 0.0837613 -0.138204 -0.137916
internal_weight=0 8.97871 7.56343 5.7392 4.10378 1.51745 0.963321
internal_count=96 66 47 34 27 30 20
is_linear=0
shrinkage=0.2


Tree=29
num_leaves=9
num_cat=0
split_feature=2 0 3 2 3 0 3 0
split_gain=2.35389 1.0521 1.65222 0.539857 0.00793018 0.00279864 5.46432e-05 2.53196e-06
threshold=5.1500000000000012 6.3500000000000005 1.6500000000000001 4.9500000000000011 2.0500000000000003 6.0500000000000007 0.45000000000000007 4.9500000000000011
decision_type=2 2 2 2 2 2 2 2
left_child=1 2 3 5 -2 6 7 -1
right_child=4 -3 -4 -5 -6 -7 -8 -9
leaf_value=-0.13833561641036296 0.1690512938886079 -0.24556636781742891 0.101326527916793 0.049150878098529013 0.14769355816485849 -0.15385481778996798 -0.13986796300100041 -0.13780347100440354
leaf_weight=0.61982735991478077 1.482254207134247 1.014417979866266 2.4865891933441162 0.72611761093139637 1.3099633306264875 0.61257727816700924 1.1553690135478971 0.8455335721373558
leaf_count=12 10 9 11 2 10 5 19 18
internal_value=0 -0.0562392 -0.0264446 -0.106687 0.159031 -0.141684 -0.138839 -0.138029
internal_weight=0 7.46043 6.44601 3.95942 2.79222 3.23331 2.62073 1.46536
internal_count=96 76 67 56 20 54 49 30
is_linear=0
shrinkage=0.2


Tree=30
num_leaves=8
num_cat=0
split_feature=2 2 0 0 0 0 1
split_gain=2.9046 0.000559638 4.29661e-05 3.94108e-05 1.4099e-05 1.03748e-05 2.91094e-06
threshold=2.4500000000000006 1.5500000000000003 6.1500000000000012 5.9500000000000011 4.9500000000000011 5.5500000000000007 2.9500000000000006
decision_type=2 2 2 2 2 2 2
left_child=1 4 3 5 -1 -2 -4
right_child=2 -3 6 -5 -6 -7 -8
leaf_value=0.14151032326288326 -0.13946237864530212 0.14724287707846651 -0.13770080465771256 -0.14076834314498726 0.14038774960912595 -0.13826384663858324 -0.13827393089896375
leaf_weight=0.80877951532602343 0.53344107419252418 0.79928518831729878 0.55630252510309197 0.63888462260365475 1.0019354894757269 0.63018426299095154 0.97709503024816513
leaf_count=10 9 8 13 9 14 13 20
internal_value=0 0.142835 -0.138844 -0.139506 0.140889 -0.138813 -0.138066
internal_weight=0 2.61 3.33591 1.80251 1.81072 1.16363 1.5334
internal_count=96 32 64 31 24 22 33
is_linear=0
shrinkage=0.2


Tree=31
num_leaves=8
num_cat=0
split_feature=3 3 1 3 1 1 1
split_gain=0.704601 0.91697 0.230654 0.292083 0.144978 2.43612e-06 4.88242e-09
threshold=0.45000000000000007 1.8500000000000003 2.8500000000000001 1.4500000000000002 3.0500000000000003 3.3500000000000001 3.5500000000000003
decision_type=2 2 2 2 2 2 2
left_child=5 2 3 -2 -4 -1 -7
right_child=1 -3 4 -5 -6 6 -8
leaf_value=-0.13742145142265802 0.084888931174858892 -0.13938015320400224 0.062090027677143049 -0.035240031170449784 0.14709300534121336 -0.1368071824581473 -0.13683955647793036
leaf_weight=0.429492726922035 1.4623409956693652 1.1120469421148298 2.2681485749781136 1.8137563616037367 1.2421215847134588 0.37105342000722885 0.374314334243536
leaf_count=10 14 19 17 7 9 10 10
internal_value=0 0.0289627 0.0565482 0.0183815 0.0921686 -0.137042 -0.136823
internal_weight=0 7.89841 6.78637 3.2761 3.51027 1.17486 0.745368
internal_count=96 66 47 21 26 30 20
is_linear=0
shrinkage=0.2


Tree=32
num_leaves=9
num_cat=0
split_feature=2 1 0 1 0 2 2 2
split_gain=1.8831 1.3143 0.336456 0.622665 0.247692 0.109713 5.78368e-06 4.63166e-06
threshold=5.1500000000000012 2.8500000000000001 6.5500000000000007 3.0500000000000003 5.8500000000000005 4.9500000000000011 5.7000000000000002 1.4500000000000002
decision_type=2 2 2 2 2 2 2 2
left_child=1 5 3 -3 7 -1 -2 -5
right_child=6 2 -4 4 -6 -7 -8 -9
leaf_value=0.011346850826719032 0.15678363084654978 -0.00368872079394241 -0.25965717947529349 -0.13674566782636191 -0.31209365565110903 0.089289453970503974 0.15615314217716886 -0.13761981450154465
leaf_weight=1.6578065752983095 1.1068211868405344 1.2974939160048968 0.7048092409968375 0.40145402401685693 0.4766174592077731 1.2802388817071912 1.227326802909374 0.61216126754879951
leaf_count=19 9 15 6 11 3 7 11 15
internal_value=0 -0.0532711 -0.136201 -0.104988 -0.193186 0.04531 0.156452 -0.137274
internal_weight=0 6.43058 3.49254 2.78773 1.49023 2.93805 2.33415 1.01362
internal_count=96 76 50 44 29 26 20 26
is_linear=0
shrinkage=0.2


Tree=33
num_leaves=8
num_cat=0
split_feature=3 3 3 3 1 0 1
split_gain=1.80474 0.179295 2.95698e-05 2.43373e-05 1.94282e-05 1.10953e-05 1.3453e-08
threshold=1.0500000000000003 0.45000000000000007 1.8500000000000003 1.4500000000000002 3.2500000000000004 6.1500000000000012 3.5500000000000003
decision_type=2 2 2 2 2 2 2
left_child=1 4 3 -2 -1 -5 -6
right_child=2 -3 -4 5 6 -7 -8
leaf_value=0.14005005624126746 -0.13721252346150556 0.015680504213739819 -0.13657616276420134 -0.13934197531916634 0.13863427763481678 -0.13807570853579632 0.1386773570073499
leaf_weight=0.60817437618970904 0.68104447424411807 0.6409393437206744 0.64736092276871193 0.57420603185892083 0.60654032230377175 0.53438179939985275 0.55554423481225967
leaf_count=9 18 7 19 10 11 12 10
internal_value=0 0.106318 -0.137735 -0.138154 0.139134 -0.138732 0.138655
internal_weight=0 2.4112 2.43699 1.78963 1.77026 1.10859 1.16208
internal_count=96 37 59 40 30 22 21
is_linear=0
shrinkage=0.2


Tree=34
num_leaves=8
num_cat=0
split_feature=1 3 1 1 1 0 3
split_gain=0.518372 0.319321 0.766357 0.211411 0.14617 0.0314478 0.000259538
threshold=3.2500000000000004 1.6500000000000001 2.9500000000000006 2.4500000000000006 2.9500000000000006 5.4500000000000011 0.25000000000000006
decision_type=2 2 2 2 2 2 2
left_child=1 3 -3 -1 -5 6 -2
right_child=5 2 -4 4 -6 -7 -8
leaf_value=-0.018820660004577688 -0.13598914844884544 -0.15407794340246228 0.06141962343362254 0.12277564355854693 0.037392281878586058 -0.069266645078175579 -0.14325291260267012
leaf_weight=1.0097675882279871 0.43058474734425523 1.1135648339986803 1.6209655068814752 1.855945020914078 1.4122684951871631 0.37895701266825199 0.36233214475214481
leaf_count=9 15 13 12 15 18 8 6
internal_value=0 0.0270447 -0.026336 0.0611663 0.0858796 -0.116659 -0.139308
internal_weight=0 7.01251 2.73453 4.27798 3.26821 1.17187 0.792917
internal_count=96 67 25 42 33 29 21
is_linear=0
shrinkage=0.2


Tree=35
num_leaves=8
num_cat=0
split_feature=3 3 1 0 3 1 1
split_gain=0.983761 0.504611 0.418626 0.00684644 8.19583e-06 3.8015e-06 1.68793e-09
threshold=1.3500000000000003 1.8500000000000003 2.8500000000000001 6.0500000000000007 0.45000000000000007 3.2500000000000004 3.5500000000000003
decision_type=2 2 2 2 2 2 2
left_child=4 2 -2 -4 5 -1 -7
right_child=1 -3 3 -5 -6 6 -8
leaf_value=-0.13674834648154641 0.073084880594763535 0.14142762261853123 -0.034201656315356981 -0.054707789494816222 -0.13710921158938572 -0.13588113362931495 -0.13590270215584127
leaf_weight=0.32158629223704316 2.1535837016999722 1.473767042160034 1.1618106253445151 1.4820304829627273 0.69749371334910393 0.30348776653409004 0.27815601602196693
leaf_count=9 9 19 7 13 18 11 10
internal_value=0 0.0390693 0.00762491 -0.0456966 -0.136594 -0.136197 -0.135891
internal_weight=0 6.27119 4.79742 2.64384 1.60072 0.90323 0.581644
internal_count=96 48 29 20 48 30 21
is_linear=0
shrinkage=0.2


Tree=36
num_leaves=8
num_cat=0
split_feature=2 3 3 1 3 1 2
split_gain=1.89915 0.000392694 3.58015e-05 1.7845e-05 1.89186e-05 1.24557e-05 4.28725e-06
threshold=2.4500000000000006 0.25000000000000006 1.8500000000000003 2.4500000000000006 1.5500000000000003 3.3500000000000001 4.4500000000000011
decision_type=2 2 2 2 2 2 2
left_child=1 5 3 -2 6 -1 -5
right_child=2 -3 -4 4 -6 -7 -8
leaf_value=0.13871995573673554 -0.13886916286064471 0.14436575584835362 -0.13580446027565674 -0.13616848541823415 -0.13817253311256122 0.13738506157329897 -0.13712367121759392
leaf_weight=0.49440197646617867 0.4150426443666223 0.57822380587458599 0.49879665113985527 0.33652511052787282 0.64691507816314697 0.64353860914707184 0.42575577832758427
leaf_count=9 8 8 19 12 14 15 11
internal_value=0 0.140122 -0.137306 -0.137717 -0.137377 0.137965 -0.136702
internal_weight=0 1.71616 2.32304 1.82424 1.4092 1.13794 0.762281
internal_count=96 32 64 45 37 24 23
is_linear=0
shrinkage=0.2


Tree=37
num_leaves=8
num_cat=0
split_feature=2 2 1 2 2 2 0
split_gain=1.00638 0.893951 0.372662 0.238938 0.000165179 1.29157e-05 1.49988e-06
threshold=5.1500000000000012 2.4500000000000006 2.8500000000000001 4.6500000000000012 1.5500000000000003 5.7000000000000002 4.9500000000000011
decision_type=2 2 2 2 2 2 2
left_child=1 4 3 -3 6 -2 -1
right_child=5 2 -4 -5 -6 -7 -8
leaf_value=-0.13605672770538177 -0.15386290391306781 0.0875415577706114 0.12902912673586076 -0.029216733344230375 -0.1411518241133847 -0.15513058696528415 -0.13542611099736976
leaf_weight=0.28670121729373921 0.62064542621374108 1.2601889483630659 2.4508095867931843 1.580200772732496 0.35651339404284954 0.66694608516991138 0.3184171337634325
leaf_count=10 9 15 19 10 8 11 14
internal_value=0 0.0396499 0.0718885 0.0225851 -0.137737 -0.15452 -0.135725
internal_weight=0 6.25283 5.2912 2.84039 0.961632 1.28759 0.605118
internal_count=96 76 44 25 32 20 24
is_linear=0
shrinkage=0.2


Tree=38
num_leaves=8
num_cat=0
split_feature=3 3 1 0 3 1 1
split_gain=0.768703 0.413974 0.300395 0.00682977 8.43393e-06 1.64586e-06 7.14922e-10
threshold=1.3500000000000003 1.8500000000000003 2.8500000000000001 6.0500000000000007 0.45000000000000007 3.2500000000000004 3.5500000000000003
decision_type=2 2 2 2 2 2 2
left_child=4 2 -2 -4 5 -1 -7
right_child=1 -3 3 -5 -6 6 -8
leaf_value=-0.13592922041051608 0.065256184326038455 0.13977575929859976 -0.025552540443516208 -0.046093567992109813 -0.13654340069225637 -0.13527883833184412 -0.13529483132134132
leaf_weight=0.24733155220746972 2.0508284904062748 1.1964427456259725 1.1680846214294436 1.4527218807488678 0.58946849592030048 0.23381059244275093 0.21426050178706646
leaf_count=9 9 19 7 13 18 11 10
internal_value=0 0.0348077 0.00792454 -0.0369385 -0.135987 -0.135515 -0.135286
internal_weight=0 5.86808 4.67163 2.62081 1.28487 0.695403 0.448071
internal_count=96 48 29 20 48 30 21
is_linear=0
shrinkage=0.2


Tree=39
num_leaves=9
num_cat=0
split_feature=2 2 1 0 0 0 1 0
split_gain=1.48103 0.000175371 1.53602e-05 4.51539e-06 3.88884e-06 9.34407e-06 3.84937e-06 1.33128e-06
threshold=2.4500000000000006 1.5500000000000003 2.4500000000000006 4.9500000000000011 6.1500000000000012 5.8500000000000005 3.0500000000000003 6.5500000000000007
decision_type=2 2 2 2 2 2 2 2
left_child=1 3 -2 -1 5 -4 7 -6
right_child=2 -3 4 -5 6 -7 -8 -9
leaf_value=0.13736302362385874 -0.13784309538821796 0.14174568791104369 -0.13595599634607639 0.13645817713995778 -0.13604946071624283 -0.13736647260854767 -0.13544069483855437 -0.13668144274292923
leaf_weight=0.41624958440661453 0.34124636277556408 0.44623815268278122 0.36193167977035023 0.46933314576745033 0.26524496264755726 0.39065727777779102 0.27033083885908127 0.26808076910674572
leaf_count=10 8 8 14 14 10 10 12 10
internal_value=0 0.138513 -0.136628 0.136883 -0.136361 -0.136688 -0.136056 -0.136367
internal_weight=0 1.33182 1.89749 0.885583 1.55625 0.752589 0.803657 0.533326
internal_count=96 32 64 24 56 24 32 20
is_linear=0
shrinkage=0.2


Tree=40
num_leaves=9
num_cat=0
split_feature=2 0 2 2 1 2 2 0
split_gain=0.831018 0.759078 0.450762 0.220686 0.0802095 8.92427e-05 7.51573e-05 6.72686e-07
threshold=5.1500000000000012 6.3500000000000005 2.4500000000000006 4.6500000000000012 2.5500000000000003 5.7000000000000002 1.5500000000000003 4.9500000000000011
decision_type=2 2 2 2 2 2 2 2
left_child=1 2 6 4 -4 -2 7 -1
right_child=5 -3 3 -5 -6 -7 -8 -9
leaf_value=-0.13541103086521972 -0.15073822803726475 0.21134989061716691 0.047449970988999175 -0.0027386874576061137 0.14018710157943248 -0.15434554347042942 -0.13931527719258341 -0.13492946586185303
leaf_weight=0.22070941329002369 0.5224504182115195 0.8518562614917754 0.74491678923368432 2.5794490911066532 0.74732674658298492 0.57761314883828163 0.27775251679122448 0.2446320578455925
leaf_count=10 9 9 9 14 12 11 8 14
internal_value=0 0.0373233 0.00653358 0.0326762 0.0938934 -0.152632 -0.136712 -0.135158
internal_weight=0 5.66664 4.81479 4.07169 1.49224 1.10006 0.743094 0.465341
internal_count=96 76 67 35 21 20 32 24
is_linear=0
shrinkage=0.2


Tree=41
num_leaves=10
num_cat=0
split_feature=2 1 3 1 3 2 2 3 2
split_gain=1.10643 0.674433 0.688122 0.876649 0.100544 0.053112 0.000110627 5.32547e-05 3.05286e-09
threshold=5.1500000000000012 3.0500000000000003 1.6500000000000001 2.4500000000000006 1.6500000000000001 4.8500000000000005 4.4500000000000011 0.45000000000000007 1.4500000000000002
decision_type=2 2 2 2 2 2 2 2 2
left_child=1 2 3 -1 7 6 -5 8 -3
right_child=-2 4 -4 5 -6 -7 -8 -9 -10
leaf_value=0.11792127319709962 0.15403589929808625 -0.1348480737742529 0.083845358471248008 -0.13575309919038148 -0.26464505588777965 -0.21739398956233652 -0.14052110099908097 -0.13834102296547454 -0.13481280767172865
leaf_weight=0.59536758437752757 1.5204647295176981 0.18325129523873307 1.8988151736557481 0.39049212820827939 0.37497812509536743 0.59773601591587067 0.38810580410063267 0.30707460828125477 0.21151849254965782
leaf_count=9 20 11 11 16 1 2 6 7 13
internal_value=0 -0.0410366 -0.00208718 -0.0848431 -0.181036 -0.172554 -0.13813 -0.136366 -0.134829
internal_weight=0 4.94734 3.87052 1.9717 1.07682 1.37633 0.778598 0.701844 0.39477
internal_count=96 76 44 33 32 24 22 31 24
is_linear=0
shrinkage=0.2


Tree=42
num_leaves=8
num_cat=0
split_feature=3 3 3 3 1 0 1
split_gain=0.828324 0.130321 1.17279e-05 9.8742e-06 4.43322e-06 3.68859e-06 4.37366e-09
threshold=1.0500000000000003 0.45000000000000007 1.8500000000000003 1.4500000000000002 3.2500000000000004 6.1500000000000012 3.5500000000000003
decision_type=2 2 2 2 2 2 2
left_child=1 4 3 -2 -1 -5 -6
right_child=2 -3 -4 5 6 -7 -8
leaf_value=0.13662615986129273 -0.13535504749049071 -0.0030521325408751476 -0.13478394520641981 -0.13710809866927712 0.13565973099908299 -0.1361683759424995 0.13569594892422507
leaf_weight=0.31173709221184276 0.35210532322525956 0.39545412734150887 0.2965047601610421 0.35284666158258915 0.27796692028641701 0.31734830886125565 0.25638419389724731
leaf_count=9 18 7 19 10 11 12 10
internal_value=0 0.0917276 -0.135891 -0.136213 0.136027 -0.136663 0.135677
internal_weight=0 1.24154 1.31881 1.0223 0.846088 0.670195 0.534351
internal_count=96 37 59 40 30 22 21
is_linear=0
shrinkage=0.2


Tree=43
num_leaves=9
num_cat=0
split_feature=2 0 2 2 0 0 2 0
split_gain=0.606239 0.682899 0.316147 0.192938 0.0742001 9.43833e-05 3.41157e-05 3.00136e-07
threshold=5.1500000000000012 6.3500000000000005 2.4500000000000006 4.6500000000000012 5.5500000000000007 7.0500000000000007 1.5500000000000003 4.9500000000000011
decision_type=2 2 2 2 2 2 2 2
left_child=1 2 6 4 -4 -2 7 -1
right_child=5 -3 3 -5 -6 -7 -8 -9
leaf_value=-0.13492022032059758 -0.14627196961766645 0.21220732511429158 0.042147403055704545 -0.0090489753371715605 0.13866892421876034 -0.15044245116724309 -0.13791407837223679 -0.13455338011203796
leaf_weight=0.16975015588104714 0.4307948974892496 0.72478173114359368 0.69307801499962829 2.4771096147596836 0.58958612382411957 0.43750322796404362 0.21521925833076239 0.18803348485380411
leaf_count=10 10 9 9 14 12 10 8 14
internal_value=0 0.0325201 0.00246225 0.0235529 0.0865142 -0.148373 -0.135924 -0.134727
internal_weight=0 5.05756 4.33278 3.75977 1.28266 0.868298 0.573003 0.357784
internal_count=96 76 67 35 21 20 32 24
is_linear=0
shrinkage=0.2


Tree=44
num_leaves=9
num_cat=0
split_feature=2 0 3 2 2 2 3 0
split_gain=0.792407 0.585809 0.71497 0.280131 0.00163181 2.47218e-05 6.86892e-06 2.5461e-07
threshold=5.1500000000000012 6.3500000000000005 1.6500000000000001 4.9500000000000011 4.6500000000000012 4.2500000000000009 0.45000000000000007 4.9500000000000011
decision_type=2 2 2 2 2 2 2 2
left_child=1 2 3 4 5 6 7 -1
right_child=-2 -3 -4 -5 -6 -7 -8 -9
leaf_value=-0.13481663940253982 0.14940806677545118 -0.21659449400477171 0.087351382293274799 0.014125833848977393 -0.15279786580248053 -0.13761312045450513 -0.13578624169796119 -0.13450181977067563
leaf_weight=0.18513526208698816 1.2022106423974035 0.60438696015626181 1.8003203123807905 0.73786616325378407 0.28357622772455204 0.21715486794710159 0.42325733602046967 0.23093364387750626
leaf_count=12 20 9 11 2 2 5 17 18
internal_value=0 -0.0334468 -0.00490495 -0.0848362 -0.139327 -0.135711 -0.135219 -0.134642
internal_weight=0 4.48263 3.87824 2.07792 1.34006 1.05648 0.839326 0.416069
internal_count=96 76 67 56 54 52 47 30
is_linear=0
shrinkage=0.2


Tree=45
num_leaves=9
num_cat=0
split_feature=2 2 1 0 0 1 0 0
split_gain=0.917749 6.14128e-05 9.32217e-06 2.83578e-06 5.64804e-06 1.83495e-06 1.10331e-06 1.44771e-07
threshold=2.4500000000000006 1.5500000000000003 2.4500000000000006 6.1500000000000012 5.8500000000000005 3.0500000000000003 4.9500000000000011 6.5500000000000007
decision_type=2 2 2 2 2 2 2 2
left_child=1 6 -2 4 -4 7 -1 -5
right_child=2 -3 3 5 -6 -7 -8 -9
leaf_value=0.1357292130882076 -0.13677568292937198 0.13904710045310339 -0.1350272001760692 -0.13521242240390546 -0.13636463220624839 -0.13449947594260131 0.13515140519056243 -0.13547764724443387
leaf_weight=0.25172326341271434 0.25801196508109547 0.28969085402786732 0.23219673149287701 0.16885662265121937 0.2769498685374856 0.1508310753852129 0.27836671099066734 0.16063402686268091
leaf_count=10 8 8 14 10 10 12 14 10
internal_value=0 0.136705 -0.135705 -0.135426 -0.135755 -0.135077 0.135426 -0.135342
internal_weight=0 0.819781 1.24748 0.989468 0.509147 0.480322 0.53009 0.329491
internal_count=96 32 64 56 24 32 24 20
is_linear=0
shrinkage=0.2


Tree=46
num_leaves=10
num_cat=0
split_feature=2 0 3 2 2 2 0 3 0
split_gain=0.446586 0.473297 0.282836 0.468818 0.208205 0.00068372 4.53211e-05 3.49437e-05 8.63196e-08
threshold=5.1500000000000012 6.3500000000000005 1.6500000000000001 2.4500000000000006 4.9500000000000011 4.4500000000000011 7.0500000000000007 0.35000000000000003 4.9500000000000011
decision_type=2 2 2 2 2 2 2 2 2
left_child=1 2 3 7 5 -5 -2 8 -1
right_child=6 -3 -4 4 -6 -7 -8 -9 -10
leaf_value=-0.13450161478167591 -0.14333377021265226 0.19306654872249773 -0.062868227607322399 0.13778484708352143 0.0067758899065318168 0.14747144200222437 -0.14659608656691522 -0.13812579016355808 -0.13428941059548663
leaf_weight=0.14962782803922969 0.3364275163039564 0.60672644712030877 1.5601758882403371 0.65952135436236836 0.73986259102821339 0.52229825034737587 0.34502817969769239 0.14901023358106613 0.1572677344083786
leaf_count=12 10 9 11 16 2 6 10 5 15
internal_value=0 0.0286359 0.00330064 0.0467207 0.0899781 0.142066 -0.144986 -0.135613 -0.134393
internal_weight=0 4.54449 3.93776 2.37759 1.92168 1.18182 0.681456 0.455906 0.306896
internal_count=96 76 67 56 24 22 20 32 27
is_linear=0
shrinkage=0.2


Tree=47
num_leaves=10
num_cat=0
split_feature=1 3 1 0 0 0 0 0 3
split_gain=0.440756 0.377581 0.538444 0.343171 0.32976 0.286335 0.0497278 0.0415927 1.15027e-06
threshold=3.1500000000000008 1.6500000000000001 2.3500000000000001 5.9500000000000011 6.0500000000000007 6.1500000000000012 5.8500000000000005 5.9500000000000011 0.25000000000000006
decision_type=2 2 2 2 2 2 2 2 2
left_child=1 2 -1 6 7 -3 8 -4 -2
right_child=3 5 4 -5 -6 -7 -8 -9 -10
leaf_value=0.15504155556205723 -0.13420519464326486 0.1741926298439237 -0.13539281169844386 0.06974733020046503 0.0011559460014858311 0.024091511917965533 -0.24652399661442384 -0.23125332188352432 -0.13505128127733787
leaf_weight=0.49049925990402732 0.17420069221407164 0.95288168266415629 0.35808361228555419 0.26926810201257467 0.82338949106633663 1.0897044036537407 0.37249651551246643 0.36620596051216125 0.10185260605067015
leaf_count=6 18 7 19 9 12 16 1 1 7
internal_value=0 0.033344 -0.0275583 -0.120048 -0.0854289 0.0941148 -0.198849 -0.183861 -0.134517
internal_weight=0 4.08076 2.03818 0.917818 1.54768 2.04259 0.64855 0.72429 0.276053
internal_count=96 61 38 35 32 23 26 20 25
is_linear=0
shrinkage=0.2


end of trees

feature_importances:
Column_2=110
Column_3=88
Column_1=68
Column_0=54

parameters:
[boosting: gbdt]
[objective: multiclass]
[metric: multi_logloss]
[tree_learner: serial]
[device_type: cpu]
[data_sample_strategy: bagging]
[data: ]
[valid: ]
[num_iterations: 10000]
[learning_rate: 0.2]
[num_leaves: 63]
[num_threads: 0]
[seed: 1236]
[deterministic: 0]
[force_col_wise: 0]
[force_row_wise: 0]
[histogram_pool_size: -1]
[max_depth: -1]
[min_data_in_leaf: 10]
[min_sum_hessian_in_leaf: 0.001]
[bagging_fraction: 1]
[pos_bagging_fraction: 1]
[neg_bagging_fraction: 1]
[bagging_freq: 0]
[bagging_seed: 21709]
[feature_fraction: 0.8]
[feature_fraction_bynode: 1]
[feature_fraction_seed: 24116]
[extra_trees: 0]
[extra_seed: 15571]
[early_stopping_round: 0]
[early_stopping_min_delta: 0]
[first_metric_only: 0]
[max_delta_step: 0]
[lambda_l1: 0]
[lambda_l2: 0]
[linear_lambda: 0]
[min_gain_to_split: 0]
[drop_rate: 0.1]
[max_drop: 50]
[skip_drop: 0.5]
[xgboost_dart_mode: 0]
[uniform_drop: 0]
[drop_seed: 15722]
[top_rate: 0.2]
[other_rate: 0.1]
[min_data_per_group: 100]
[max_cat_threshold: 32]
[cat_l2: 10]
[cat_smooth: 10]
[max_cat_to_onehot: 4]
[top_k: 20]
[monotone_constraints: ]
[monotone_constraints_method: basic]
[monotone_penalty: 0]
[feature_contri: ]
[forcedsplits_filename: ]
[refit_decay_rate: 0.9]
[cegb_tradeoff: 1]
[cegb_penalty_split: 0]
[cegb_penalty_feature_lazy: ]
[cegb_penalty_feature_coupled: ]
[path_smooth: 0]
[interaction_constraints: ]
[verbosity: -1]
[saved_feature_importance_type: 0]
[use_quantized_grad: 0]
[num_grad_quant_bins: 4]
[quant_train_renew_leaf: 0]
[stochastic_rounding: 1]
[linear_tree: 0]
[max_bin: 255]
[max_bin_by_feature: ]
[min_data_in_bin: 3]
[bin_construct_sample_cnt: 200000]
[data_random_seed: 4074]
[is_enable_sparse: 1]
[enable_bundle: 1]
[use_missing: 1]
[zero_as_missing: 0]
[feature_pre_filter: 1]
[pre_partition: 0]
[two_round: 0]
[header: 0]
[label_column: ]
[weight_column: ]
[group_column: ]
[ignore_column: ]
[categorical_feature: ]
[forcedbins_filename: ]
[precise_float_parser: 0]
[parser_config_file: ]
[objective_seed: 10917]
[num_class: 3]
[is_unbalance: 0]
[scale_pos_weight: 1]
[sigmoid: 1]
[boost_from_average: 1]
[reg_sqrt: 0]
[alpha: 0.9]
[fair_c: 1]
[poisson_max_delta_step: 0.7]
[tweedie_variance_power: 1.5]
[lambdarank_truncation_level: 30]
[lambdarank_norm: 1]
[label_gain: ]
[lambdarank_position_bias_regularization: 0]
[eval_at: ]
[multi_error_top_k: 1]
[auc_mu_weights: ]
[num_machines: 1]
[local_listen_port: 12400]
[time_out: 120]
[machine_list_filename: ]
[machines: ]
[gpu_platform_id: -1]
[gpu_device_id: -1]
[gpu_use_dp: 0]
[num_gpu: 1]

end of parameters

pandas_categorical:null
