{"learner":{"attributes":{"best_iteration":"55","best_score":"0.1398413716815412"},"feature_names":[],"feature_types":[],"gradient_booster":{"model":{"gbtree_model_param":{"num_parallel_tree":"1","num_trees":"318"},"iteration_indptr":[0,3,6,9,12,15,18,21,24,27,30,33,36,39,42,45,48,51,54,57,60,63,66,69,72,75,78,81,84,87,90,93,96,99,102,105,108,111,114,117,120,123,126,129,132,135,138,141,144,147,150,153,156,159,162,165,168,171,174,177,180,183,186,189,192,195,198,201,204,207,210,213,216,219,222,225,228,231,234,237,240,243,246,249,252,255,258,261,264,267,270,273,276,279,282,285,288,291,294,297,300,303,306,309,312,315,318],"tree_info":[0,1,2,0,1,2,0,1,2,0,1,2,0,1,2,0,1,2,0,1,2,0,1,2,0,1,2,0,1,2,0,1,2,0,1,2,0,1,2,0,1,2,0,1,2,0,1,2,0,1,2,0,1,2,0,1,2,0,1,2,0,1,2,0,1,2,0,1,2,0,1,2,0,1,2,0,1,2,0,1,2,0,1,2,0,1,2,0,1,2,0,1,2,0,1,2,0,1,2,0,1,2,0,1,2,0,1,2,0,1,2,0,1,2,0,1,2,0,1,2,0,1,2,0,1,2,0,1,2,0,1,2,0,1,2,0,1,2,0,1,2,0,1,2,0,1,2,0,1,2,0,1,2,0,1,2,0,1,2,0,1,2,0,1,2,0,1,2,0,1,2,0,1,2,0,1,2,0,1,2,0,1,2,0,1,2,0,1,2,0,1,2,0,1,2,0,1,2,0,1,2,0,1,2,0,1,2,0,1,2,0,1,2,0,1,2,0,1,2,0,1,2,0,1,2,0,1,2,0,1,2,0,1,2,0,1,2,0,1,2,0,1,2,0,1,2,0,1,2,0,1,2,0,1,2,0,1,2,0,1,2,0,1,2,0,1,2,0,1,2,0,1,2,0,1,2,0,1,2,0,1,2,0,1,2,0,1,2,0,1,2,0,1,2,0,1,2,0,1,2,0,1,2,0,1,2,0,1,2,0,1,2,0,1,2,0,1,2],"trees":[{"base_weights":[-4.367974E-8,1.0510949E-1,-5.433963E-2],"categories":[],"categories_nodes":[],"categories_segments":[],"categories_sizes":[],"default_left":[0,0,0],"id":0,"left_children":[1,-1,-1],"loss_changes":[4.5354416E1,0E0,0E0],"parents":[2147483647,0,0],"right_children":[2,-1,-1],"split_conditions":[3E0,1.0510949E-1,-5.433963E-2],"split_indices":[2,0,0],"split_type":[0,0,0],"sum_hessian":[4.2666664E1,1.4222221E1,2.8444443E1],"tree_param":{"num_deleted":"0","num_feature":"4","num_nodes":"3","size_leaf_vector":"1"}},{"base_weights":[-4.367974E-8,-5.255475E-2,3.6226413E-1,1.1677852E0,-6.240001E-1,1.3308271E0,-9.000002E-3,-9.000002E-3,-5.160551E-2,1.04132235E-1,3.2142855E-2],"categories":[],"categories_nodes":[],"categories_segments":[],"categories_sizes":[],"default_left":[0,0,0,0,0,0,0,0,0,0,0],"id":1,"left_children":[1,-1,3,5,7,9,-1,-1,-1,-1,-1],"loss_changes":[1.1338603E1,0E0,2.412103E1,3.6357536E0,3.6594534E-1,1.729927E-1,0E0,0E0,0E0,0E0,0E0],"parents":[2147483647,0,0,2,2,3,3,4,4,5,5],"right_children":[2,-1,4,6,8,10,-1,-1,-1,-1,-1],"split_conditions":[3E0,-5.255475E-2,1.8E0,5.1E0,5E0,1.6E0,-9.000002E-3,-9.000002E-3,-5.160551E-2,1.04132235E-1,3.2142855E-2],"split_indices":[2,0,3,2,2,3,0,0,0,0,0],"split_type":[0,0,0,0,0,0,0,0,0,0,0],"sum_hessian":[4.2666664E1,1.4222221E1,2.8444443E1,1.5555554E1,1.2888888E1,1.3777777E1,1.7777777E0,1.7777777E0,1.1111111E1,1.2444444E1,1.3333333E0],"tree_param":{"num_deleted":"0","num_feature":"4","num_nodes":"11","size_leaf_vector":"1"}},{"base_weights":[-4.367974E-8,-6.245354E-1,1.2631578E0,-5.4249022E-2,4.4999998E-2,3.2142855E-2,9.8553725E-2],"categories":[],"categories_nodes":[],"categories_segments":[],"categories_sizes":[],"default_left":[0,0,0,0,0,0,0],"id":2,"left_children":[1,3,5,-1,-1,-1,-1],"loss_changes":[3.523694E1,4.0495186E0,6.4502716E-2,0E0,0E0,0E0,0E0],"parents":[2147483647,0,0,1,1,2,2],"right_children":[2,4,6,-1,-1,-1,-1],"split_conditions":[1.7E0,5E0,4.9E0,-5.4249022E-2,4.4999998E-2,3.2142855E-2,9.8553725E-2],"split_indices":[3,2,2,0,0,0,0],"split_type":[0,0,0,0,0,0,0],"sum_hessian":[4.2666664E1,2.8888887E1,1.3777777E1,2.7111109E1,1.7777777E0,1.3333333E0,1.2444444E1],"tree_param":{"num_deleted":"0","num_feature":"4","num_nodes":"7","size_leaf_vector":"1"}},{"base_weights":[-3.7448775E-4,9.51256E-2,-5.287556E-2],"categories":[],"categories_nodes":[],"categories_segments":[],"categories_sizes":[],"default_left":[0,0,0],"id":3,"left_children":[1,-1,-1],"loss_changes":[3.9829803E1,0E0,0E0],"parents":[2147483647,0,0],"right_children":[2,-1,-1],"split_conditions":[3E0,9.51256E-2,-5.287556E-2],"split_indices":[2,0,0],"split_type":[0,0,0],"sum_hessian":[4.255316E1,1.4908998E1,2.7644165E1],"tree_param":{"num_deleted":"0","num_feature":"4","num_nodes":"3","size_leaf_vector":"1"}},{"base_weights":[-7.374694E-4,-5.109215E-2,3.3825353E-1,1.0655192E0,-6.059725E-1,1.2096387E0,-8.877173E-3,-8.638801E-3,-5.022374E-2,9.428388E-2,3.0904578E-2],"categories":[],"categories_nodes":[],"categories_segments":[],"categories_sizes":[],"default_left":[0,0,0,0,0,0,0,0,0,0,0],"id":4,"left_children":[1,-1,3,5,7,9,-1,-1,-1,-1,-1],"loss_changes":[1.0283395E1,0E0,2.107994E1,3.07312E0,3.4741879E-1,6.5086365E-2,0E0,0E0,0E0,0E0,0E0],"parents":[2147483647,0,0,2,2,3,3,4,4,5,5],"right_children":[2,-1,4,6,8,10,-1,-1,-1,-1,-1],"split_conditions":[3E0,-5.109215E-2,1.8E0,5.1E0,5E0,1.6E0,-8.877173E-3,-8.638801E-3,-5.022374E-2,9.428388E-2,3.0904578E-2],"split_indices":[2,0,3,2,2,3,0,0,0,0,0],"split_type":[0,0,0,0,0,0,0,0,0,0,0],"sum_hessian":[4.2579636E1,1.382258E1,2.8757053E1,1.6172298E1,1.2584754E1,1.4397827E1,1.7744719E0,1.7678723E0,1.0816882E1,1.3045086E1,1.3527416E0],"tree_param":{"num_deleted":"0","num_feature":"4","num_nodes":"11","size_leaf_vector":"1"}},{"base_weights":[1.1130275E-3,-6.047849E-1,1.150627E0,-5.276456E-2,4.2478457E-2,3.0601947E-2,8.9509875E-2],"categories":[],"categories_nodes":[],"categories_segments":[],"categories_sizes":[],"default_left":[0,0,0,0,0,0,0],"id":5,"left_children":[1,3,5,-1,-1,-1,-1],"loss_changes":[3.101194E1,3.7704868E0,1.9264221E-3,0E0,0E0,0E0,0E0],"parents":[2147483647,0,0,1,1,2,2],"right_children":[2,4,6,-1,-1,-1,-1],"split_conditions":[1.7E0,5E0,4.9E0,-5.276456E-2,4.2478457E-2,3.0601947E-2,8.9509875E-2],"split_indices":[3,2,2,0,0,0,0],"split_type":[0,0,0,0,0,0,0],"sum_hessian":[4.2527027E1,2.8158714E1,1.4368313E1,2.6337458E1,1.8212569E0,1.3576772E0,1.3010635E1],"tree_param":{"num_deleted":"0","num_feature":"4","num_nodes":"7","size_leaf_vector":"1"}},{"base_weights":[-8.461933E-4,8.710218E-2,-5.1530875E-2],"categories":[],"categories_nodes":[],"categories_segments":[],"categories_sizes":[],"default_left":[0,0,0],"id":6,"left_children":[1,-1,-1],"loss_changes":[3.5260853E1,0E0,0E0],"parents":[2147483647,0,0],"right_children":[2,-1,-1],"split_conditions":[3E0,8.710218E-2,-5.1530875E-2],"split_indices":[2,0,0],"split_type":[0,0,0],"sum_hessian":[4.2211243E1,1.5413846E1,2.6797398E1],"tree_param":{"num_deleted":"0","num_feature":"4","num_nodes":"3","size_leaf_vector":"1"}},{"base_weights":[-1.345102E-3,-4.973348E-2,3.1748578E-1,9.8134977E-1,-5.888512E-1,8.3341055E-2,-8.718748E-3,-8.256366E-3,-4.893005E-2],"categories":[],"categories_nodes":[],"categories_segments":[],"categories_sizes":[],"default_left":[0,0,0,0,0,0,0,0,0],"id":7,"left_children":[1,-1,3,5,7,-1,-1,-1,-1],"loss_changes":[9.343464E0,0E0,1.856105E1,2.641674E0,3.3166122E-1,0E0,0E0,0E0,0E0],"parents":[2147483647,0,0,2,2,3,3,4,4],"right_children":[2,-1,4,6,8,-1,-1,-1,-1],"split_conditions":[3E0,-4.973348E-2,1.8E0,5.1E0,5E0,8.3341055E-2,-8.718748E-3,-8.256366E-3,-4.893005E-2],"split_indices":[2,0,3,2,2,0,0,0,0],"split_type":[0,0,0,0,0,0,0,0,0],"sum_hessian":[4.2285686E1,1.3397632E1,2.8888056E1,1.6626726E1,1.2261331E1,1.4856545E1,1.7701807E0,1.756973E0,1.0504357E1],"tree_param":{"num_deleted":"0","num_feature":"4","num_nodes":"9","size_leaf_vector":"1"}},{"base_weights":[2.1947196E-3,-5.864145E-1,7.9357296E-2,-5.139547E-2,4.0165108E-2],"categories":[],"categories_nodes":[],"categories_segments":[],"categories_sizes":[],"default_left":[0,0,0,0,0],"id":8,"left_children":[1,3,-1,-1,-1],"loss_changes":[2.7462797E1,3.514041E0,0E0,0E0,0E0],"parents":[2147483647,0,0,1,1],"right_children":[2,4,-1,-1,-1],"split_conditions":[1.7E0,5E0,7.9357296E-2,-5.139547E-2,4.0165108E-2],"split_indices":[3,2,0,0,0],"split_type":[0,0,0,0,0],"sum_hessian":[4.218859E1,2.7373796E1,1.48147955E1,2.551482E1,1.8589765E0],"tree_param":{"num_deleted":"0","num_feature":"4","num_nodes":"5","size_leaf_vector":"1"}},{"base_weights":[-1.0954918E-3,8.05346E-2,-5.027911E-2],"categories":[],"categories_nodes":[],"categories_segments":[],"categories_sizes":[],"default_left":[0,0,0],"id":9,"left_children":[1,-1,-1],"loss_changes":[3.1407385E1,0E0,0E0],"parents":[2147483647,0,0],"right_children":[2,-1,-1],"split_conditions":[3E0,8.05346E-2,-5.027911E-2],"split_indices":[2,0,0],"split_type":[0,0,0],"sum_hessian":[4.1656162E1,1.5752742E1,2.5903421E1],"tree_param":{"num_deleted":"0","num_feature":"4","num_nodes":"3","size_leaf_vector":"1"}},{"base_weights":[-2.0095655E-3,-4.8470583E-2,2.9904425E-1,9.0988606E-1,-5.723507E-1,1.0285909E0,-8.530629E-3,-7.554571E-3,-4.7744848E-2,7.998181E-2,2.7529292E-2],"categories":[],"categories_nodes":[],"categories_segments":[],"categories_sizes":[],"default_left":[0,0,0,0,0,0,0,0,0,0,0],"id":10,"left_children":[1,-1,3,5,7,9,-1,-1,-1,-1,-1],"loss_changes":[8.498145E0,0E0,1.6417656E1,2.2973318E0,3.274083E-1,1.348114E-2,0E0,0E0,0E0,0E0,0E0],"parents":[2147483647,0,0,2,2,3,3,4,4,5,5],"right_children":[2,-1,4,6,8,10,-1,-1,-1,-1,-1],"split_conditions":[3E0,-4.8470583E-2,1.8E0,5.1E0,5E0,1.6E0,-8.530629E-3,-7.554571E-3,-4.7744848E-2,7.998181E-2,2.7529292E-2],"split_indices":[2,0,3,2,2,3,0,0,0,0,0],"split_type":[0,0,0,0,0,0,0,0,0,0,0],"sum_hessian":[4.181785E1,1.295246E1,2.8865387E1,1.6943758E1,1.1921629E1,1.5178713E1,1.7650456E0,1.7371868E0,1.01844425E1,1.3778662E1,1.400051E0],"tree_param":{"num_deleted":"0","num_feature":"4","num_nodes":"11","size_leaf_vector":"1"}},{"base_weights":[3.1106363E-3,-5.69362E-1,7.352552E-2,-5.0136056E-2,3.803523E-2],"categories":[],"categories_nodes":[],"categories_segments":[],"categories_sizes":[],"default_left":[0,0,0,0,0],"id":11,"left_children":[1,3,-1,-1,-1],"loss_changes":[2.4436937E1,3.2784662E0,0E0,0E0,0E0],"parents":[2147483647,0,0,1,1],"right_children":[2,4,-1,-1,-1],"split_conditions":[1.7E0,5E0,7.352552E-2,-5.0136056E-2,3.803523E-2],"split_indices":[3,2,0,0,0],"split_type":[0,0,0,0,0],"sum_hessian":[4.1683556E1,2.65485E1,1.5135054E1,2.465721E1,1.8912919E0],"tree_param":{"num_deleted":"0","num_feature":"4","num_nodes":"5","size_leaf_vector":"1"}},{"base_weights":[-1.5852705E-3,7.507548E-2,-4.9134504E-2],"categories":[],"categories_nodes":[],"categories_segments":[],"categories_sizes":[],"default_left":[0,0,0],"id":12,"left_children":[1,-1,-1],"loss_changes":[2.8130651E1,0E0,0E0],"parents":[2147483647,0,0],"right_children":[2,-1,-1],"split_conditions":[3E0,7.507548E-2,-4.9134504E-2],"split_indices":[2,0,0],"split_type":[0,0,0],"sum_hessian":[4.09313E1,1.594246E1,2.498884E1],"tree_param":{"num_deleted":"0","num_feature":"4","num_nodes":"3","size_leaf_vector":"1"}},{"base_weights":[-2.1924882E-3,-4.7295462E-2,2.8350672E-1,8.5083455E-1,-5.5658346E-1,7.2079815E-2,-8.3178785E-3,-6.8461923E-3,-4.6632677E-2],"categories":[],"categories_nodes":[],"categories_segments":[],"categories_sizes":[],"default_left":[0,0,0,0,0,0,0,0,0],"id":13,"left_children":[1,-1,3,5,7,-1,-1,-1,-1],"loss_changes":[7.750979E0,0E0,1.4621237E1,2.0268917E0,3.2450843E-1,0E0,0E0,0E0,0E0],"parents":[2147483647,0,0,2,2,3,3,4,4],"right_children":[2,-1,4,6,8,-1,-1,-1,-1],"split_conditions":[3E0,-4.7295462E-2,1.8E0,5.1E0,5E0,7.2079815E-2,-8.3178785E-3,-6.8461923E-3,-4.6632677E-2],"split_indices":[2,0,3,2,2,0,0,0,0],"split_type":[0,0,0,0,0,0,0,0,0],"sum_hessian":[4.1176186E1,1.2492001E1,2.8684187E1,1.7114006E1,1.1570182E1,1.5354818E1,1.7591873E0,1.7166821E0,9.853499E0],"tree_param":{"num_deleted":"0","num_feature":"4","num_nodes":"9","size_leaf_vector":"1"}},{"base_weights":[3.7818435E-3,-5.533751E-1,9.132692E-1,-4.8968617E-2,3.606781E-2,2.4443336E-2,7.111381E-2],"categories":[],"categories_nodes":[],"categories_segments":[],"categories_sizes":[],"default_left":[0,0,0,0,0,0,0],"id":14,"left_children":[1,3,5,-1,-1,-1,-1],"loss_changes":[2.180222E1,3.0612602E0,2.6135445E-2,0E0,0E0,0E0,0E0],"parents":[2147483647,0,0,1,1,2,2],"right_children":[2,4,6,-1,-1,-1,-1],"split_conditions":[1.7E0,5E0,4.9E0,-4.8968617E-2,3.606781E-2,2.4443336E-2,7.111381E-2],"split_indices":[3,2,2,0,0,0,0],"split_type":[0,0,0,0,0,0,0],"sum_hessian":[4.1028214E1,2.5684998E1,1.5343217E1,2.3766424E1,1.9185724E0,1.440737E0,1.390248E1],"tree_param":{"num_deleted":"0","num_feature":"4","num_nodes":"7","size_leaf_vector":"1"}},{"base_weights":[-2.1534336E-3,7.047823E-2,-4.8079744E-2],"categories":[],"categories_nodes":[],"categories_segments":[],"categories_sizes":[],"default_left":[0,0,0],"id":15,"left_children":[1,-1,-1],"loss_changes":[2.5309381E1,0E0,0E0],"parents":[2147483647,0,0],"right_children":[2,-1,-1],"split_conditions":[3E0,7.047823E-2,-4.8079744E-2],"split_indices":[2,0,0],"split_type":[0,0,0],"sum_hessian":[4.0057465E1,1.5999961E1,2.4057503E1],"tree_param":{"num_deleted":"0","num_feature":"4","num_nodes":"3","size_leaf_vector":"1"}},{"base_weights":[-2.8781318E-3,-4.6200313E-2,2.688323E-1,7.984175E-1,-5.417474E-1,9.016566E-1,-8.085164E-3,-6.4295256E-3,-4.5565296E-2,2.8154261E-2,7.106506E-2],"categories":[],"categories_nodes":[],"categories_segments":[],"categories_sizes":[],"default_left":[0,0,0,0,0,0,0,0,0,0,0],"id":16,"left_children":[1,-1,3,5,7,9,-1,-1,-1,-1,-1],"loss_changes":[7.064825E0,0E0,1.3050022E1,1.7982645E0,3.142593E-1,4.0970802E-2,0E0,0E0,0E0,0E0,0E0],"parents":[2147483647,0,0,2,2,3,3,4,4,5,5],"right_children":[2,-1,4,6,8,10,-1,-1,-1,-1,-1],"split_conditions":[3E0,-4.6200313E-2,1.8E0,5.1E0,5E0,5.1E0,-8.085164E-3,-6.4295256E-3,-4.5565296E-2,2.8154261E-2,7.106506E-2],"split_indices":[2,0,3,2,2,0,0,0,0,0,0],"split_type":[0,0,0,0,0,0,0,0,0,0,0],"sum_hessian":[4.041371E1,1.2020903E1,2.8392809E1,1.718206E1,1.1210748E1,1.5429342E1,1.752719E0,1.7038206E0,9.506927E0,1.9735013E0,1.3455841E1],"tree_param":{"num_deleted":"0","num_feature":"4","num_nodes":"11","size_leaf_vector":"1"}},{"base_weights":[5.0355243E-3,-5.384583E-1,8.581917E-1,-4.789155E-2,3.4244422E-2,2.3614407E-2,6.672908E-2],"categories":[],"categories_nodes":[],"categories_segments":[],"categories_sizes":[],"default_left":[0,0,0,0,0,0,0],"id":17,"left_children":[1,3,5,-1,-1,-1,-1],"loss_changes":[1.9579853E1,2.8612661E0,1.3208389E-3,0E0,0E0,0E0,0E0],"parents":[2147483647,0,0,1,1,2,2],"right_children":[2,4,6,-1,-1,-1,-1],"split_conditions":[1.7E0,5E0,4.9E0,-4.789155E-2,3.4244422E-2,2.3614407E-2,6.672908E-2],"split_indices":[3,2,2,0,0,0,0],"split_type":[0,0,0,0,0,0,0],"sum_hessian":[4.0230038E1,2.4800203E1,1.5429833E1,2.2859003E1,1.9411998E0,1.4488337E0,1.3981E1],"tree_param":{"num_deleted":"0","num_feature":"4","num_nodes":"7","size_leaf_vector":"1"}},{"base_weights":[-2.9515994E-3,6.656284E-2,-4.7112387E-2],"categories":[],"categories_nodes":[],"categories_segments":[],"categories_sizes":[],"default_left":[0,0,0],"id":18,"left_children":[1,-1,-1],"loss_changes":[2.2863598E1,0E0,0E0],"parents":[2147483647,0,0],"right_children":[2,-1,-1],"split_conditions":[3E0,6.656284E-2,-4.7112387E-2],"split_indices":[2,0,0],"split_type":[0,0,0],"sum_hessian":[3.9066624E1,1.5941923E1,2.3124699E1],"tree_param":{"num_deleted":"0","num_feature":"4","num_nodes":"3","size_leaf_vector":"1"}},{"base_weights":[-3.094404E-3,-4.5177758E-2,2.5632796E-1,7.5402623E-1,-5.275681E-1,8.5180455E-1,-7.836518E-3,-6.0060094E-3,-4.4562824E-2,2.651789E-2,6.7163125E-2],"categories":[],"categories_nodes":[],"categories_segments":[],"categories_sizes":[],"default_left":[0,0,0,0,0,0,0,0,0,0,0],"id":19,"left_children":[1,-1,3,5,7,9,-1,-1,-1,-1,-1],"loss_changes":[6.4556375E0,0E0,1.1707244E1,1.6119385E0,3.0546427E-1,4.0403366E-2,0E0,0E0,0E0,0E0,0E0],"parents":[2147483647,0,0,2,2,3,3,4,4,5,5],"right_children":[2,-1,4,6,8,10,-1,-1,-1,-1,-1],"split_conditions":[3E0,-4.5177758E-2,1.8E0,5.1E0,5E0,5.1E0,-7.836518E-3,-6.0060094E-3,-4.4562824E-2,2.651789E-2,6.7163125E-2],"split_indices":[2,0,3,2,2,0,0,0,0,0,0],"split_type":[0,0,0,0,0,0,0,0,0,0,0],"sum_hessian":[3.9531387E1,1.1543496E1,2.7987888E1,1.7142294E1,1.0845595E1,1.5396554E1,1.7457398E0,1.690422E0,9.155173E0,1.9747007E0,1.3421853E1],"tree_param":{"num_deleted":"0","num_feature":"4","num_nodes":"11","size_leaf_vector":"1"}},{"base_weights":[6.042157E-3,-5.2452916E-1,8.100356E-1,-4.689816E-2,3.2549307E-2,4.6278334E-1,6.6208385E-2,5.5999655E-2,-9.201395E-3],"categories":[],"categories_nodes":[],"categories_segments":[],"categories_sizes":[],"default_left":[0,0,0,0,0,0,0,0,0],"id":20,"left_children":[1,3,5,-1,-1,7,-1,-1,-1],"loss_changes":[1.7628672E1,2.6770177E0,6.403923E-3,0E0,0E0,9.138001E-1,0E0,0E0,0E0],"parents":[2147483647,0,0,1,1,2,2,5,5],"right_children":[2,4,6,-1,-1,8,-1,-1,-1],"split_conditions":[1.7E0,5E0,5.1E0,-4.689816E-2,3.2549307E-2,2.9E0,6.6208385E-2,5.5999655E-2,-9.201395E-3],"split_indices":[3,2,2,0,0,1,0,0,0],"split_type":[0,0,0,0,0,0,0,0,0],"sum_hessian":[3.9329952E1,2.390329E1,1.5426663E1,2.1943737E1,1.959553E0,3.9469647E0,1.1479698E1,2.4726946E0,1.4742701E0],"tree_param":{"num_deleted":"0","num_feature":"4","num_nodes":"9","size_leaf_vector":"1"}},{"base_weights":[-3.880593E-3,6.319505E-2,-4.6219546E-2],"categories":[],"categories_nodes":[],"categories_segments":[],"categories_sizes":[],"default_left":[0,0,0],"id":21,"left_children":[1,-1,-1],"loss_changes":[2.0724586E1,0E0,0E0],"parents":[2147483647,0,0],"right_children":[2,-1,-1],"split_conditions":[3E0,6.319505E-2,-4.6219546E-2],"split_indices":[2,0,0],"split_type":[0,0,0],"sum_hessian":[3.7978718E1,1.5784358E1,2.219436E1],"tree_param":{"num_deleted":"0","num_feature":"4","num_nodes":"3","size_leaf_vector":"1"}},{"base_weights":[-3.5230448E-3,-4.422083E-2,2.4473481E-1,7.146915E-1,-5.142862E-1,8.08004E-1,-7.5754975E-3,-5.870528E-3,-4.3598223E-2,2.5138674E-2,6.372381E-2],"categories":[],"categories_nodes":[],"categories_segments":[],"categories_sizes":[],"default_left":[0,0,0,0,0,0,0,0,0,0,0],"id":22,"left_children":[1,-1,3,5,7,9,-1,-1,-1,-1,-1],"loss_changes":[5.9000206E0,0E0,1.0531656E1,1.4529448E0,2.899096E-1,3.5757065E-2,0E0,0E0,0E0,0E0,0E0],"parents":[2147483647,0,0,2,2,3,3,4,4,5,5],"right_children":[2,-1,4,6,8,10,-1,-1,-1,-1,-1],"split_conditions":[3E0,-4.422083E-2,1.8E0,5.1E0,5E0,5.1E0,-7.5754975E-3,-5.870528E-3,-4.3598223E-2,2.5138674E-2,6.372381E-2],"split_indices":[2,0,3,2,2,0,0,0,0,0,0],"split_type":[0,0,0,0,0,0,0,0,0,0,0],"sum_hessian":[3.855797E1,1.1063716E1,2.7494253E1,1.7016619E1,1.0477634E1,1.5278279E1,1.7383394E0,1.6848576E0,8.792777E0,1.9692541E0,1.3309025E1],"tree_param":{"num_deleted":"0","num_feature":"4","num_nodes":"11","size_leaf_vector":"1"}},{"base_weights":[7.38876E-3,-5.1142323E-1,5.7683885E-2,-4.5976523E-2,3.0968782E-2],"categories":[],"categories_nodes":[],"categories_segments":[],"categories_sizes":[],"default_left":[0,0,0,0,0],"id":23,"left_children":[1,3,-1,-1,-1],"loss_changes":[1.5937603E1,2.506781E0,0E0,0E0,0E0],"parents":[2147483647,0,0,1,1],"right_children":[2,4,-1,-1,-1],"split_conditions":[1.7E0,5E0,5.7683885E-2,-4.5976523E-2,3.0968782E-2],"split_indices":[3,2,0,0,0],"split_type":[0,0,0,0,0],"sum_hessian":[3.8333187E1,2.299795E1,1.53352375E1,2.1023945E1,1.9740041E0],"tree_param":{"num_deleted":"0","num_feature":"4","num_nodes":"5","size_leaf_vector":"1"}},{"base_weights":[-4.6506743E-3,6.0272727E-2,-4.5383845E-2],"categories":[],"categories_nodes":[],"categories_segments":[],"categories_sizes":[],"default_left":[0,0,0],"id":24,"left_children":[1,-1,-1],"loss_changes":[1.8833603E1,0E0,0E0],"parents":[2147483647,0,0],"right_children":[2,-1,-1],"split_conditions":[3E0,6.0272727E-2,-4.5383845E-2],"split_indices":[2,0,0],"split_type":[0,0,0],"sum_hessian":[3.6802235E1,1.5542362E1,2.1259874E1],"tree_param":{"num_deleted":"0","num_feature":"4","num_nodes":"3","size_leaf_vector":"1"}},{"base_weights":[-3.4275025E-3,-4.3323003E-2,2.3497042E-1,6.8084514E-1,-5.0093937E-1,7.706694E-1,-7.3051737E-3,-5.1830914E-3,-4.2726576E-2,2.3869332E-2,6.0819205E-2],"categories":[],"categories_nodes":[],"categories_segments":[],"categories_sizes":[],"default_left":[0,0,0,0,0,0,0,0,0,0,0],"id":25,"left_children":[1,-1,3,5,7,9,-1,-1,-1,-1,-1],"loss_changes":[5.406529E0,0E0,9.501793E0,1.3200159E0,2.9044485E-1,3.472328E-2,0E0,0E0,0E0,0E0,0E0],"parents":[2147483647,0,0,2,2,3,3,4,4,5,5],"right_children":[2,-1,4,6,8,10,-1,-1,-1,-1,-1],"split_conditions":[3E0,-4.3323003E-2,1.8E0,5.1E0,5E0,5.1E0,-7.3051737E-3,-5.1830914E-3,-4.2726576E-2,2.3869332E-2,6.0819205E-2],"split_indices":[2,0,3,2,2,0,0,0,0,0,0],"split_type":[0,0,0,0,0,0,0,0,0,0,0],"sum_hessian":[3.7503616E1,1.0585074E1,2.6918541E1,1.6809055E1,1.0109485E1,1.5078459E1,1.7305975E0,1.6638029E0,8.445682E0,1.9596864E0,1.31187725E1],"tree_param":{"num_deleted":"0","num_feature":"4","num_nodes":"11","size_leaf_vector":"1"}},{"base_weights":[8.039335E-3,-4.990593E-1,7.3069024E-1,-4.5120038E-2,2.9491063E-2,4.1183314E-1,5.9983697E-2,5.1667288E-2,-1.0512851E-2],"categories":[],"categories_nodes":[],"categories_segments":[],"categories_sizes":[],"default_left":[0,0,0,0,0,0,0,0,0],"id":26,"left_children":[1,3,5,-1,-1,7,-1,-1,-1],"loss_changes":[1.4394112E1,2.3493137E0,2.7358055E-2,0E0,0E0,8.529186E-1,0E0,0E0,0E0],"parents":[2147483647,0,0,1,1,2,2,5,5],"right_children":[2,4,6,-1,-1,8,-1,-1,-1],"split_conditions":[1.7E0,5E0,5.1E0,-4.5120038E-2,2.9491063E-2,2.9E0,5.9983697E-2,5.1667288E-2,-1.0512851E-2],"split_indices":[3,2,2,0,0,1,0,0,0],"split_type":[0,0,0,0,0,0,0,0,0],"sum_hessian":[3.728422E1,2.2091547E1,1.5192677E1,2.0106634E1,1.9849124E0,3.9454186E0,1.1247257E1,2.4617944E0,1.4836242E0],"tree_param":{"num_deleted":"0","num_feature":"4","num_nodes":"9","size_leaf_vector":"1"}},{"base_weights":[-5.60331E-3,5.7716873E-2,-4.4612408E-2],"categories":[],"categories_nodes":[],"categories_segments":[],"categories_sizes":[],"default_left":[0,0,0],"id":27,"left_children":[1,-1,-1],"loss_changes":[1.7161827E1,0E0,0E0],"parents":[2147483647,0,0],"right_children":[2,-1,-1],"split_conditions":[3E0,5.7716873E-2,-4.4612408E-2],"split_indices":[2,0,0],"split_type":[0,0,0],"sum_hessian":[3.5571785E1,1.5229944E1,2.034184E1],"tree_param":{"num_deleted":"0","num_feature":"4","num_nodes":"3","size_leaf_vector":"1"}},{"base_weights":[-3.790791E-3,-4.2478226E-2,2.2543997E-1,6.499368E-1,-4.887085E-1,7.3683685E-1,-7.0281522E-3,-5.0466727E-3,-4.186467E-2,5.7611316E-2,1.9025542E-2],"categories":[],"categories_nodes":[],"categories_segments":[],"categories_sizes":[],"default_left":[0,0,0,0,0,0,0,0,0,0,0],"id":28,"left_children":[1,-1,3,5,7,9,-1,-1,-1,-1,-1],"loss_changes":[4.950258E0,0E0,8.589084E0,1.2026558E0,2.7702212E-1,4.4483185E-2,0E0,0E0,0E0,0E0,0E0],"parents":[2147483647,0,0,2,2,3,3,4,4,5,5],"right_children":[2,-1,4,6,8,10,-1,-1,-1,-1,-1],"split_conditions":[3E0,-4.2478226E-2,1.8E0,5.1E0,5E0,1.6E0,-7.0281522E-3,-5.0466727E-3,-4.186467E-2,5.7611316E-2,1.9025542E-2],"split_indices":[2,0,3,2,2,3,0,0,0,0,0],"split_type":[0,0,0,0,0,0,0,0,0,0,0],"sum_hessian":[3.6395336E1,1.011066E1,2.6284678E1,1.6541914E1,9.7427635E0,1.481933E1,1.7225842E0,1.6576927E0,8.085071E0,1.3363404E1,1.4559262E0],"tree_param":{"num_deleted":"0","num_feature":"4","num_nodes":"11","size_leaf_vector":"1"}},{"base_weights":[9.328899E-3,-5.470372E-1,6.252588E-1,-4.3969642E-2,-1.825002E-1,7.5471744E-2,5.5064335E-2,6.467335E-3,-2.638606E-2,-2.8763147E-2,2.8106049E-2],"categories":[],"categories_nodes":[],"categories_segments":[],"categories_sizes":[],"default_left":[0,0,0,0,0,0,0,0,0,0,0],"id":29,"left_children":[1,3,5,-1,7,9,-1,-1,-1,-1,-1],"loss_changes":[1.307691E1,1.7982197E-1,1.0288119E0,0E0,1.8506697E-1,7.080521E-1,0E0,0E0,0E0,0E0,0E0],"parents":[2147483647,0,0,1,1,2,2,4,4,5,5],"right_children":[2,4,6,-1,8,10,-1,-1,-1,-1,-1],"split_conditions":[4.8E0,1.5E0,1.8E0,-4.3969642E-2,5.7E0,5.1E0,5.5064335E-2,6.467335E-3,-2.638606E-2,-2.8763147E-2,2.8106049E-2],"split_indices":[2,3,3,0,0,2,0,0,0,0,0],"split_type":[0,0,0,0,0,0,0,0,0,0,0],"sum_hessian":[3.6162296E1,1.905861E1,1.7103687E1,1.6657955E1,2.4006546E0,3.1083772E0,1.3995309E1,1.117572E0,1.2830827E0,1.1157556E0,1.9926217E0],"tree_param":{"num_deleted":"0","num_feature":"4","num_nodes":"11","size_leaf_vector":"1"}},{"base_weights":[-6.0979463E-3,5.5469114E-2,-4.3873105E-2],"categories":[],"categories_nodes":[],"categories_segments":[],"categories_sizes":[],"default_left":[0,0,0],"id":30,"left_children":[1,-1,-1],"loss_changes":[1.566209E1,0E0,0E0],"parents":[2147483647,0,0],"right_children":[2,-1,-1],"split_conditions":[3E0,5.5469114E-2,-4.3873105E-2],"split_indices":[2,0,0],"split_type":[0,0,0],"sum_hessian":[3.42811E1,1.4860617E1,1.9420485E1],"tree_param":{"num_deleted":"0","num_feature":"4","num_nodes":"3","size_leaf_vector":"1"}},{"base_weights":[-3.3369898E-3,-4.1680098E-2,2.1779601E-1,6.2261707E-1,-4.7583067E-1,7.071461E-1,-6.746763E-3,-4.331433E-3,-4.1061744E-2,2.0763973E-2,5.6078315E-2],"categories":[],"categories_nodes":[],"categories_segments":[],"categories_sizes":[],"default_left":[0,0,0,0,0,0,0,0,0,0,0],"id":31,"left_children":[1,-1,3,5,7,9,-1,-1,-1,-1,-1],"loss_changes":[4.5482993E0,0E0,7.7656307E0,1.1014638E0,2.7906537E-1,6.382513E-2,0E0,0E0,0E0,0E0,0E0],"parents":[2147483647,0,0,2,2,3,3,4,4,5,5],"right_children":[2,-1,4,6,8,10,-1,-1,-1,-1,-1],"split_conditions":[3E0,-4.1680098E-2,1.8E0,5.1E0,5E0,5.1E0,-6.746763E-3,-4.331433E-3,-4.1061744E-2,2.0763973E-2,5.6078315E-2],"split_indices":[2,0,3,2,2,0,0,0,0,0,0],"split_type":[0,0,0,0,0,0,0,0,0,0,0],"sum_hessian":[3.5243484E1,9.642663E0,2.560082E1,1.6230558E1,9.37026E0,1.4516194E1,1.7143648E0,1.6353197E0,7.734941E0,1.9247061E0,1.2591488E1],"tree_param":{"num_deleted":"0","num_feature":"4","num_nodes":"11","size_leaf_vector":"1"}},{"base_weights":[9.324752E-3,-5.074415E-1,6.2997717E-1,-4.3527067E-2,1.840828E-2,7.011912E-2,5.630276E-2,-2.8167423E-2,2.6804807E-2],"categories":[],"categories_nodes":[],"categories_segments":[],"categories_sizes":[],"default_left":[0,0,0,0,0,0,0,0,0],"id":32,"left_children":[1,3,5,-1,-1,7,-1,-1,-1],"loss_changes":[1.1879544E1,1.2525702E0,1.084301E0,0E0,0E0,6.574925E-1,0E0,0E0,0E0],"parents":[2147483647,0,0,1,1,2,2,5,5],"right_children":[2,4,6,-1,-1,8,-1,-1,-1],"split_conditions":[4.9E0,1.7E0,1.8E0,-4.3527067E-2,1.840828E-2,5.1E0,5.630276E-2,-2.8167423E-2,2.6804807E-2],"split_indices":[2,3,3,0,0,2,0,0,0],"split_type":[0,0,0,0,0,0,0,0,0],"sum_hessian":[3.5042114E1,1.9220877E1,1.5821238E1,1.773257E1,1.4883056E0,3.0868828E0,1.2734355E1,1.0894234E0,1.9974594E0],"tree_param":{"num_deleted":"0","num_feature":"4","num_nodes":"9","size_leaf_vector":"1"}},{"base_weights":[-6.7826095E-3,5.3472724E-2,-4.31897E-2],"categories":[],"categories_nodes":[],"categories_segments":[],"categories_sizes":[],"default_left":[0,0,0],"id":33,"left_children":[1,-1,-1],"loss_changes":[1.4323283E1,0E0,0E0],"parents":[2147483647,0,0],"right_children":[2,-1,-1],"split_conditions":[3E0,5.3472724E-2,-4.31897E-2],"split_indices":[2,0,0],"split_type":[0,0,0],"sum_hessian":[3.296686E1,1.4444777E1,1.8522085E1],"tree_param":{"num_deleted":"0","num_feature":"4","num_nodes":"3","size_leaf_vector":"1"}},{"base_weights":[-3.3355006E-3,-4.0925026E-2,2.1028875E-1,5.970693E-1,-4.6351057E-1,6.796025E-1,-6.4628874E-3,-3.8837683E-3,-4.0269956E-2,5.343419E-2,1.6474927E-2],"categories":[],"categories_nodes":[],"categories_segments":[],"categories_sizes":[],"default_left":[0,0,0,0,0,0,0,0,0,0,0],"id":34,"left_children":[1,-1,3,5,7,9,-1,-1,-1,-1,-1],"loss_changes":[4.176036E0,0E0,7.0189505E0,1.0100288E0,2.744236E-1,7.2677135E-2,0E0,0E0,0E0,0E0,0E0],"parents":[2147483647,0,0,2,2,3,3,4,4,5,5],"right_children":[2,-1,4,6,8,10,-1,-1,-1,-1,-1],"split_conditions":[3E0,-4.0925026E-2,1.8E0,5.1E0,5E0,1.6E0,-6.4628874E-3,-3.8837683E-3,-4.0269956E-2,5.343419E-2,1.6474927E-2],"split_indices":[2,0,3,2,2,3,0,0,0,0,0],"split_type":[0,0,0,0,0,0,0,0,0,0,0],"sum_hessian":[3.405488E1,9.184275E0,2.4870604E1,1.5872945E1,8.997659E0,1.4166951E1,1.7059938E0,1.6197764E0,7.3778825E0,1.2710043E1,1.4569076E0],"tree_param":{"num_deleted":"0","num_feature":"4","num_nodes":"11","size_leaf_vector":"1"}},{"base_weights":[9.96556E-3,-4.967503E-1,6.0518444E-1,-4.2825792E-2,1.7695036E-2,6.6776015E-2,5.4225825E-2,-2.7372373E-2,2.5579808E-2],"categories":[],"categories_nodes":[],"categories_segments":[],"categories_sizes":[],"default_left":[0,0,0,0,0,0,0,0,0],"id":35,"left_children":[1,3,5,-1,-1,7,-1,-1,-1],"loss_changes":[1.081195E1,1.1888618E0,9.9698734E-1,0E0,0E0,6.052853E-1,0E0,0E0,0E0],"parents":[2147483647,0,0,1,1,2,2,5,5],"right_children":[2,4,6,-1,-1,8,-1,-1,-1],"split_conditions":[4.9E0,1.7E0,1.8E0,-4.2825792E-2,1.7695036E-2,5.1E0,5.4225825E-2,-2.7372373E-2,2.5579808E-2],"split_indices":[2,3,3,0,0,2,0,0,0],"split_type":[0,0,0,0,0,0,0,0,0],"sum_hessian":[3.3851078E1,1.8374292E1,1.54767885E1,1.6883724E1,1.4905682E0,3.0601518E0,1.2416636E1,1.0604184E0,1.9997333E0],"tree_param":{"num_deleted":"0","num_feature":"4","num_nodes":"9","size_leaf_vector":"1"}},{"base_weights":[-7.3892227E-3,5.169146E-2,-4.254454E-2],"categories":[],"categories_nodes":[],"categories_segments":[],"categories_sizes":[],"default_left":[0,0,0],"id":36,"left_children":[1,-1,-1],"loss_changes":[1.3119061E1,0E0,0E0],"parents":[2147483647,0,0],"right_children":[2,-1,-1],"split_conditions":[3E0,5.169146E-2,-4.254454E-2],"split_indices":[2,0,0],"split_type":[0,0,0],"sum_hessian":[3.1635202E1,1.3993294E1,1.7641909E1],"tree_param":{"num_deleted":"0","num_feature":"4","num_nodes":"3","size_leaf_vector":"1"}},{"base_weights":[-3.3707765E-3,-4.0207513E-2,2.0337066E-1,5.739726E-1,-4.515339E-1,6.549513E-1,-6.1783087E-3,-3.4414527E-3,-3.951526E-2,1.7925974E-2,5.2266087E-2],"categories":[],"categories_nodes":[],"categories_segments":[],"categories_sizes":[],"default_left":[0,0,0,0,0,0,0,0,0,0,0],"id":37,"left_children":[1,-1,3,5,7,9,-1,-1,-1,-1,-1],"loss_changes":[3.836435E0,0E0,6.3527064E0,9.295316E-1,2.702006E-1,9.113455E-2,0E0,0E0,0E0,0E0,0E0],"parents":[2147483647,0,0,2,2,3,3,4,4,5,5],"right_children":[2,-1,4,6,8,10,-1,-1,-1,-1,-1],"split_conditions":[3E0,-4.0207513E-2,1.8E0,5.1E0,5E0,5.1E0,-6.1783087E-3,-3.4414527E-3,-3.951526E-2,1.7925974E-2,5.2266087E-2],"split_indices":[2,0,3,2,2,0,0,0,0,0,0],"split_type":[0,0,0,0,0,0,0,0,0,0,0],"sum_hessian":[3.2843307E1,8.736942E0,2.4106363E1,1.5473622E1,8.632742E0,1.3776096E1,1.6975255E0,1.6041706E0,7.0285716E0,1.8751528E0,1.1900944E1],"tree_param":{"num_deleted":"0","num_feature":"4","num_nodes":"11","size_leaf_vector":"1"}},{"base_weights":[1.0559594E-2,-4.8641714E-1,5.82207E-1,-4.2159572E-2,1.7001428E-2,6.183735E-2,5.2373875E-2,-2.6815593E-2,2.4424197E-2],"categories":[],"categories_nodes":[],"categories_segments":[],"categories_sizes":[],"default_left":[0,0,0,0,0,0,0,0,0],"id":38,"left_children":[1,3,5,-1,-1,7,-1,-1,-1],"loss_changes":[9.84023E0,1.1284022E0,9.2959166E-1,0E0,0E0,5.6278163E-1,0E0,0E0,0E0],"parents":[2147483647,0,0,1,1,2,2,5,5],"right_children":[2,4,6,-1,-1,8,-1,-1,-1],"split_conditions":[4.9E0,1.7E0,1.8E0,-4.2159572E-2,1.7001428E-2,5.1E0,5.2373875E-2,-2.6815593E-2,2.4424197E-2],"split_indices":[2,3,3,0,0,2,0,0,0],"split_type":[0,0,0,0,0,0,0,0,0],"sum_hessian":[3.2640224E1,1.7540245E1,1.5099979E1,1.6048124E1,1.4921211E0,3.0342252E0,1.2065754E1,1.0344925E0,1.9997327E0],"tree_param":{"num_deleted":"0","num_feature":"4","num_nodes":"9","size_leaf_vector":"1"}},{"base_weights":[-8.105315E-3,5.0092965E-2,-4.1942604E-2],"categories":[],"categories_nodes":[],"categories_segments":[],"categories_sizes":[],"default_left":[0,0,0],"id":39,"left_children":[1,-1,-1],"loss_changes":[1.2036841E1,0E0,0E0],"parents":[2147483647,0,0],"right_children":[2,-1,-1],"split_conditions":[3E0,5.0092965E-2,-4.1942604E-2],"split_indices":[2,0,0],"split_type":[0,0,0],"sum_hessian":[3.0305075E1,1.3515351E1,1.6789722E1],"tree_param":{"num_deleted":"0","num_feature":"4","num_nodes":"3","size_leaf_vector":"1"}},{"base_weights":[-3.352989E-3,-3.952319E-2,1.9696347E-1,5.5264735E-1,-4.398546E-1,6.323296E-1,-5.8945026E-3,-3.0055789E-3,-3.8793392E-2,1.686966E-2,5.0601203E-2],"categories":[],"categories_nodes":[],"categories_segments":[],"categories_sizes":[],"default_left":[0,0,0,0,0,0,0,0,0,0,0],"id":40,"left_children":[1,-1,3,5,7,9,-1,-1,-1,-1,-1],"loss_changes":[3.5268555E0,0E0,5.7545347E0,8.5727215E-1,2.6629126E-1,9.613609E-2,0E0,0E0,0E0,0E0,0E0],"parents":[2147483647,0,0,2,2,3,3,4,4,5,5],"right_children":[2,-1,4,6,8,10,-1,-1,-1,-1,-1],"split_conditions":[3E0,-3.952319E-2,1.8E0,5.1E0,5E0,5.1E0,-5.8945026E-3,-3.0055789E-3,-3.8793392E-2,1.686966E-2,5.0601203E-2],"split_indices":[2,0,3,2,2,0,0,0,0,0,0],"split_type":[0,0,0,0,0,0,0,0,0,0,0],"sum_hessian":[3.1634676E1,8.3021965E0,2.333248E1,1.5055603E1,8.276876E0,1.3366597E1,1.6890062E0,1.5885667E0,6.6883097E0,1.8530099E0,1.1513587E1],"tree_param":{"num_deleted":"0","num_feature":"4","num_nodes":"11","size_leaf_vector":"1"}},{"base_weights":[1.1198615E-2,-4.765813E-1,5.6177944E-1,-4.153878E-2,1.6357305E-2,5.8855943E-2,5.071289E-2,-2.6062943E-2,2.3332072E-2],"categories":[],"categories_nodes":[],"categories_segments":[],"categories_sizes":[],"default_left":[0,0,0,0,0,0,0,0,0],"id":41,"left_children":[1,3,5,-1,-1,7,-1,-1,-1],"loss_changes":[8.976965E0,1.072824E0,8.630228E-1,0E0,0E0,5.184478E-1,0E0,0E0,0E0],"parents":[2147483647,0,0,1,1,2,2,5,5],"right_children":[2,4,6,-1,-1,8,-1,-1,-1],"split_conditions":[4.9E0,1.7E0,1.8E0,-4.153878E-2,1.6357305E-2,5.1E0,5.071289E-2,-2.6062943E-2,2.3332072E-2],"split_indices":[2,3,3,0,0,2,0,0,0],"split_type":[0,0,0,0,0,0,0,0,0],"sum_hessian":[3.142909E1,1.673624E1,1.4692851E1,1.5243438E1,1.4928017E0,3.0033228E0,1.1689528E1,1.0055958E0,1.997727E0],"tree_param":{"num_deleted":"0","num_feature":"4","num_nodes":"9","size_leaf_vector":"1"}},{"base_weights":[-8.838572E-3,4.865047E-2,-4.137523E-2],"categories":[],"categories_nodes":[],"categories_segments":[],"categories_sizes":[],"default_left":[0,0,0],"id":42,"left_children":[1,-1,-1],"loss_changes":[1.1059425E1,0E0,0E0],"parents":[2147483647,0,0],"right_children":[2,-1,-1],"split_conditions":[3E0,4.865047E-2,-4.137523E-2],"split_indices":[2,0,0],"split_type":[0,0,0],"sum_hessian":[2.8983303E1,1.3018949E1,1.5964355E1],"tree_param":{"num_deleted":"0","num_feature":"4","num_nodes":"3","size_leaf_vector":"1"}},{"base_weights":[-3.3275674E-3,-3.8868126E-2,1.9100213E-1,5.329836E-1,-4.28431E-1,6.1163616E-1,-5.6127696E-3,-2.5768662E-3,-3.8100444E-2,4.8628967E-2,1.2886152E-2],"categories":[],"categories_nodes":[],"categories_segments":[],"categories_sizes":[],"default_left":[0,0,0,0,0,0,0,0,0,0,0],"id":43,"left_children":[1,-1,3,5,7,9,-1,-1,-1,-1,-1],"loss_changes":[3.2440686E0,0E0,5.2169976E0,7.924442E-1,2.6261234E-1,1.1388397E-1,0E0,0E0,0E0,0E0,0E0],"parents":[2147483647,0,0,2,2,3,3,4,4,5,5],"right_children":[2,-1,4,6,8,10,-1,-1,-1,-1,-1],"split_conditions":[3E0,-3.8868126E-2,1.8E0,5.1E0,5E0,1.6E0,-5.6127696E-3,-2.5768662E-3,-3.8100444E-2,4.8628967E-2,1.2886152E-2],"split_indices":[2,0,3,2,2,3,0,0,0,0,0],"split_type":[0,0,0,0,0,0,0,0,0,0,0],"sum_hessian":[3.0431002E1,7.881261E0,2.254974E1,1.4618569E1,7.931171E0,1.293809E1,1.6804789E0,1.573016E0,6.358155E0,1.1502751E1,1.435339E0],"tree_param":{"num_deleted":"0","num_feature":"4","num_nodes":"11","size_leaf_vector":"1"}},{"base_weights":[1.1837388E-2,-4.670958E-1,5.430728E-1,-4.0952023E-2,1.5745478E-2,5.602699E-2,4.9214873E-2,1.9213542E-2,-1.2816227E-2],"categories":[],"categories_nodes":[],"categories_segments":[],"categories_sizes":[],"default_left":[0,0,0,0,0,0,0,0,0],"id":44,"left_children":[1,3,5,-1,-1,7,-1,-1,-1],"loss_changes":[8.197607E0,1.0208213E0,8.0432653E-1,0E0,0E0,2.2411531E-1,0E0,0E0,0E0],"parents":[2147483647,0,0,1,1,2,2,5,5],"right_children":[2,4,6,-1,-1,8,-1,-1,-1],"split_conditions":[4.9E0,1.7E0,1.8E0,-4.0952023E-2,1.5745478E-2,1.6E0,4.9214873E-2,1.9213542E-2,-1.2816227E-2],"split_indices":[2,3,3,0,0,3,0,0,0],"split_type":[0,0,0,0,0,0,0,0,0],"sum_hessian":[3.0222958E1,1.5957381E1,1.4265576E1,1.4464557E1,1.4928248E0,2.970738E0,1.1294838E1,1.5098913E0,1.4608465E0],"tree_param":{"num_deleted":"0","num_feature":"4","num_nodes":"9","size_leaf_vector":"1"}},{"base_weights":[-9.635655E-3,4.7341798E-2,-4.08402E-2],"categories":[],"categories_nodes":[],"categories_segments":[],"categories_sizes":[],"default_left":[0,0,0],"id":45,"left_children":[1,-1,-1],"loss_changes":[1.0175272E1,0E0,0E0],"parents":[2147483647,0,0],"right_children":[2,-1,-1],"split_conditions":[3E0,4.7341798E-2,-4.08402E-2],"split_indices":[2,0,0],"split_type":[0,0,0],"sum_hessian":[2.7680464E1,1.2511028E1,1.5169435E1],"tree_param":{"num_deleted":"0","num_feature":"4","num_nodes":"3","size_leaf_vector":"1"}},{"base_weights":[-3.3590265E-3,-3.8238674E-2,1.8525057E-1,5.452553E-1,-3.672788E-1,4.7603436E-2,-5.6568934E-3,-7.218163E-2,-3.696441E-2,-3.246247E-2,2.7666084E-2],"categories":[],"categories_nodes":[],"categories_segments":[],"categories_sizes":[],"default_left":[0,0,0,0,0,0,0,0,0,0,0],"id":46,"left_children":[1,-1,3,5,7,-1,-1,9,-1,-1,-1],"loss_changes":[2.9843602E0,0E0,4.730835E0,8.359561E-1,3.195598E-1,0E0,0E0,8.0108666E-1,0E0,0E0,0E0],"parents":[2147483647,0,0,2,2,3,3,4,4,7,7],"right_children":[2,-1,4,6,8,-1,-1,10,-1,-1,-1],"split_conditions":[3E0,-3.8238674E-2,1.7E0,5E0,5.1E0,4.7603436E-2,-5.6568934E-3,2.9E0,-3.696441E-2,-3.246247E-2,2.7666084E-2],"split_indices":[2,0,3,2,2,0,0,1,0,0,0],"split_type":[0,0,0,0,0,0,0,0,0,0,0],"sum_hessian":[2.9251701E1,7.4750624E0,2.1776638E1,1.3193486E1,8.583152E0,1.15117235E1,1.6817629E0,3.0323339E0,5.5508184E0,1.6785028E0,1.353831E0],"tree_param":{"num_deleted":"0","num_feature":"4","num_nodes":"11","size_leaf_vector":"1"}},{"base_weights":[1.2579531E-2,-4.5781082E-1,5.2487606E-1,-4.038745E-2,1.5146204E-2,5.2558262E-2,4.7856636E-2,1.882681E-2,-1.2809103E-2],"categories":[],"categories_nodes":[],"categories_segments":[],"categories_sizes":[],"default_left":[0,0,0,0,0,0,0,0,0],"id":47,"left_children":[1,3,5,-1,-1,7,-1,-1,-1],"loss_changes":[7.4808416E0,9.7104883E-1,7.604399E-1,0E0,0E0,2.184364E-1,0E0,0E0,0E0],"parents":[2147483647,0,0,1,1,2,2,5,5],"right_children":[2,4,6,-1,-1,8,-1,-1,-1],"split_conditions":[4.9E0,1.7E0,1.8E0,-4.038745E-2,1.5146204E-2,1.6E0,4.7856636E-2,1.882681E-2,-1.2809103E-2],"split_indices":[2,3,3,0,0,3,0,0,0],"split_type":[0,0,0,0,0,0,0,0,0],"sum_hessian":[2.904634E1,1.5197949E1,1.3848392E1,1.3705558E1,1.4923913E0,2.9607015E0,1.088769E1,1.5020523E0,1.4586493E0],"tree_param":{"num_deleted":"0","num_feature":"4","num_nodes":"9","size_leaf_vector":"1"}},{"base_weights":[-1.0273483E-2,4.6148475E-2,-4.032599E-2],"categories":[],"categories_nodes":[],"categories_segments":[],"categories_sizes":[],"default_left":[0,0,0],"id":48,"left_children":[1,-1,-1],"loss_changes":[9.369588E0,0E0,0E0],"parents":[2147483647,0,0],"right_children":[2,-1,-1],"split_conditions":[3E0,4.6148475E-2,-4.032599E-2],"split_indices":[2,0,0],"split_type":[0,0,0],"sum_hessian":[2.6395264E1,1.199758E1,1.4397683E1],"tree_param":{"num_deleted":"0","num_feature":"4","num_nodes":"3","size_leaf_vector":"1"}},{"base_weights":[-3.6304789E-3,-3.7631523E-2,1.7959099E-1,5.2782655E-1,-3.5666358E-1,4.6378028E-2,-5.6931777E-3,-6.682654E-2,-3.6310922E-2,-3.174389E-2,2.6851218E-2],"categories":[],"categories_nodes":[],"categories_segments":[],"categories_sizes":[],"default_left":[0,0,0,0,0,0,0,0,0,0,0],"id":49,"left_children":[1,-1,3,5,7,-1,-1,9,-1,-1,-1],"loss_changes":[2.7444E0,0E0,4.2963142E0,7.9809237E-1,3.0971456E-1,0E0,0E0,7.5544417E-1,0E0,0E0,0E0],"parents":[2147483647,0,0,2,2,3,3,4,4,7,7],"right_children":[2,-1,4,6,8,-1,-1,10,-1,-1,-1],"split_conditions":[3E0,-3.7631523E-2,1.7E0,5E0,5.1E0,4.6378028E-2,-5.6931777E-3,2.9E0,-3.6310922E-2,-3.174389E-2,2.6851218E-2],"split_indices":[2,0,3,2,2,0,0,1,0,0,0],"split_type":[0,0,0,0,0,0,0,0,0,0,0],"sum_hessian":[2.8082735E1,7.0842676E0,2.0998466E1,1.2740619E1,8.257848E0,1.1057925E1,1.6826935E0,2.9882069E0,5.269641E0,1.6269817E0,1.3612251E0],"tree_param":{"num_deleted":"0","num_feature":"4","num_nodes":"11","size_leaf_vector":"1"}},{"base_weights":[1.340107E-2,-4.4851056E-1,5.0787854E-1,-3.984315E-2,1.46017065E-2,5.0035823E-2,4.6590254E-2,1.846122E-2,-1.2716027E-2],"categories":[],"categories_nodes":[],"categories_segments":[],"categories_sizes":[],"default_left":[0,0,0,0,0,0,0,0,0],"id":50,"left_children":[1,3,5,-1,-1,7,-1,-1,-1],"loss_changes":[6.824248E0,9.2625856E-1,7.169702E-1,0E0,0E0,2.1175492E-1,0E0,0E0,0E0],"parents":[2147483647,0,0,1,1,2,2,5,5],"right_children":[2,4,6,-1,-1,8,-1,-1,-1],"split_conditions":[4.9E0,1.7E0,1.8E0,-3.984315E-2,1.46017065E-2,1.6E0,4.6590254E-2,1.846122E-2,-1.2716027E-2],"split_indices":[2,3,3,0,0,3,0,0,0],"split_type":[0,0,0,0,0,0,0,0,0],"sum_hessian":[2.7880548E1,1.4463016E1,1.3417533E1,1.2968952E1,1.4940637E0,2.9481719E0,1.0469361E1,1.4933999E0,1.454772E0],"tree_param":{"num_deleted":"0","num_feature":"4","num_nodes":"9","size_leaf_vector":"1"}},{"base_weights":[-1.0924418E-2,4.5054886E-2,-3.9836712E-2],"categories":[],"categories_nodes":[],"categories_segments":[],"categories_sizes":[],"default_left":[0,0,0],"id":51,"left_children":[1,-1,-1],"loss_changes":[8.636973E0,0E0,0E0],"parents":[2147483647,0,0],"right_children":[2,-1,-1],"split_conditions":[3E0,4.5054886E-2,-3.9836712E-2],"split_indices":[2,0,0],"split_type":[0,0,0],"sum_hessian":[2.5140205E1,1.1483674E1,1.3656532E1],"tree_param":{"num_deleted":"0","num_feature":"4","num_nodes":"3","size_leaf_vector":"1"}},{"base_weights":[-3.906991E-3,-3.7043672E-2,1.7422706E-1,5.1154524E-1,-3.4632745E-1,4.5255546E-2,-5.721673E-3,-6.174075E-2,-3.5676222E-2,-3.1049913E-2,2.6073953E-2],"categories":[],"categories_nodes":[],"categories_segments":[],"categories_sizes":[],"default_left":[0,0,0,0,0,0,0,0,0,0,0],"id":52,"left_children":[1,-1,3,5,7,-1,-1,9,-1,-1,-1],"loss_changes":[2.5246785E0,0E0,3.904749E0,7.63427E-1,2.9986513E-1,0E0,0E0,7.126935E-1,0E0,0E0,0E0],"parents":[2147483647,0,0,2,2,3,3,4,4,7,7],"right_children":[2,-1,4,6,8,-1,-1,10,-1,-1,-1],"split_conditions":[3E0,-3.7043672E-2,1.7E0,5E0,5.1E0,4.5255546E-2,-5.721673E-3,2.9E0,-3.5676222E-2,-3.1049913E-2,2.6073953E-2],"split_indices":[2,0,3,2,2,0,0,1,0,0,0],"split_type":[0,0,0,0,0,0,0,0,0,0,0],"sum_hessian":[2.693794E1,6.70932E0,2.022862E1,1.2285166E1,7.9434543E0,1.0601895E1,1.6832709E0,2.9439511E0,4.9995027E0,1.5763495E0,1.3676016E0],"tree_param":{"num_deleted":"0","num_feature":"4","num_nodes":"11","size_leaf_vector":"1"}},{"base_weights":[1.4229239E-2,-4.3942496E-1,4.9200615E-1,-3.932257E-2,1.4087283E-2,4.76634E-2,4.5430034E-2,1.811262E-2,-1.2619437E-2],"categories":[],"categories_nodes":[],"categories_segments":[],"categories_sizes":[],"default_left":[0,0,0,0,0,0,0,0,0],"id":53,"left_children":[1,3,5,-1,-1,7,-1,-1,-1],"loss_changes":[6.2287E0,8.8414717E-1,6.777215E-1,0E0,0E0,2.0532483E-1,0E0,0E0,0E0],"parents":[2147483647,0,0,1,1,2,2,5,5],"right_children":[2,4,6,-1,-1,8,-1,-1,-1],"split_conditions":[4.9E0,1.7E0,1.8E0,-3.932257E-2,1.4087283E-2,1.6E0,4.5430034E-2,1.811262E-2,-1.2619437E-2],"split_indices":[2,3,3,0,0,3,0,0,0],"split_type":[0,0,0,0,0,0,0,0,0],"sum_hessian":[2.6739908E1,1.3757392E1,1.2982516E1,1.2262278E1,1.495114E0,2.9348652E0,1.0047651E1,1.4840966E0,1.4507685E0],"tree_param":{"num_deleted":"0","num_feature":"4","num_nodes":"9","size_leaf_vector":"1"}},{"base_weights":[-1.158721E-2,4.4047736E-2,-3.9369427E-2],"categories":[],"categories_nodes":[],"categories_segments":[],"categories_sizes":[],"default_left":[0,0,0],"id":54,"left_children":[1,-1,-1],"loss_changes":[7.9695373E0,0E0,0E0],"parents":[2147483647,0,0],"right_children":[2,-1,-1],"split_conditions":[3E0,4.4047736E-2,-3.9369427E-2],"split_indices":[2,0,0],"split_type":[0,0,0],"sum_hessian":[2.392002E1,1.0973553E1,1.2946466E1],"tree_param":{"num_deleted":"0","num_feature":"4","num_nodes":"3","size_leaf_vector":"1"}},{"base_weights":[-4.1894605E-3,-3.647239E-2,1.6912031E-1,4.962534E-1,-3.3624992E-1,4.422235E-2,-5.743102E-3,-5.691554E-2,-3.5057753E-2,-3.0378895E-2,2.5331648E-2],"categories":[],"categories_nodes":[],"categories_segments":[],"categories_sizes":[],"default_left":[0,0,0,0,0,0,0,0,0,0,0],"id":55,"left_children":[1,-1,3,5,7,-1,-1,9,-1,-1,-1],"loss_changes":[2.3233342E0,0E0,3.5512877E0,7.314813E-1,2.900231E-1,0E0,0E0,6.72636E-1,0E0,0E0,0E0],"parents":[2147483647,0,0,2,2,3,3,4,4,7,7],"right_children":[2,-1,4,6,8,-1,-1,10,-1,-1,-1],"split_conditions":[3E0,-3.647239E-2,1.7E0,5E0,5.1E0,4.422235E-2,-5.743102E-3,2.9E0,-3.5057753E-2,-3.0378895E-2,2.5331648E-2],"split_indices":[2,0,3,2,2,0,0,1,0,0,0],"split_type":[0,0,0,0,0,0,0,0,0,0,0],"sum_hessian":[2.5822004E1,6.350469E0,1.9471535E1,1.1831125E1,7.64041E0,1.0147609E1,1.6835165E0,2.8997846E0,4.7406254E0,1.526748E0,1.3730369E0],"tree_param":{"num_deleted":"0","num_feature":"4","num_nodes":"11","size_leaf_vector":"1"}},{"base_weights":[1.5063469E-2,-4.3052006E-1,4.771104E-1,-3.882271E-2,1.3600927E-2,4.5428745E-2,4.436178E-2,1.7779805E-2,-1.251994E-2],"categories":[],"categories_nodes":[],"categories_segments":[],"categories_sizes":[],"default_left":[0,0,0,0,0,0,0,0,0],"id":56,"left_children":[1,3,5,-1,-1,7,-1,-1,-1],"loss_changes":[5.687779E0,8.4446883E-1,6.4203644E-1,0E0,0E0,1.9913651E-1,0E0,0E0,0E0],"parents":[2147483647,0,0,1,1,2,2,5,5],"right_children":[2,4,6,-1,-1,8,-1,-1,-1],"split_conditions":[4.9E0,1.7E0,1.8E0,-3.882271E-2,1.3600927E-2,1.6E0,4.436178E-2,1.7779805E-2,-1.251994E-2],"split_indices":[2,3,3,0,0,3,0,0,0],"split_type":[0,0,0,0,0,0,0,0,0],"sum_hessian":[2.5628912E1,1.3081631E1,1.2547281E1,1.15860405E1,1.4955909E0,2.9208555E0,9.626426E0,1.474205E0,1.4466504E0],"tree_param":{"num_deleted":"0","num_feature":"4","num_nodes":"9","size_leaf_vector":"1"}},{"base_weights":[-1.2260641E-2,4.311565E-2,-3.8921468E-2],"categories":[],"categories_nodes":[],"categories_segments":[],"categories_sizes":[],"default_left":[0,0,0],"id":57,"left_children":[1,-1,-1],"loss_changes":[7.3604355E0,0E0,0E0],"parents":[2147483647,0,0],"right_children":[2,-1,-1],"split_conditions":[3E0,4.311565E-2,-3.8921468E-2],"split_indices":[2,0,0],"split_type":[0,0,0],"sum_hessian":[2.2738379E1,1.0470728E1,1.2267651E1],"tree_param":{"num_deleted":"0","num_feature":"4","num_nodes":"3","size_leaf_vector":"1"}},{"base_weights":[-4.4788662E-3,-3.591523E-2,1.6423742E-1,4.8181662E-1,-3.26414E-1,4.3266788E-2,-5.7581216E-3,-5.2342415E-2,-3.445324E-2,-2.9729376E-2,2.4621895E-2],"categories":[],"categories_nodes":[],"categories_segments":[],"categories_sizes":[],"default_left":[0,0,0,0,0,0,0,0,0,0,0],"id":58,"left_children":[1,-1,3,5,7,-1,-1,9,-1,-1,-1],"loss_changes":[2.1387033E0,0E0,3.2317445E0,7.018583E-1,2.8020328E-1,0E0,0E0,6.3508856E-1,0E0,0E0,0E0],"parents":[2147483647,0,0,2,2,3,3,4,4,7,7],"right_children":[2,-1,4,6,8,-1,-1,10,-1,-1,-1],"split_conditions":[3E0,-3.591523E-2,1.7E0,5E0,5.1E0,4.3266788E-2,-5.7581216E-3,2.9E0,-3.445324E-2,-2.9729376E-2,2.4621895E-2],"split_indices":[2,0,3,2,2,0,0,1,0,0,0],"split_type":[0,0,0,0,0,0,0,0,0,0,0],"sum_hessian":[2.4738636E1,6.0077972E0,1.8730839E1,1.1381834E1,7.349004E0,9.698383E0,1.6834505E0,2.855896E0,4.493108E0,1.4782932E0,1.3776029E0],"tree_param":{"num_deleted":"0","num_feature":"4","num_nodes":"11","size_leaf_vector":"1"}},{"base_weights":[1.5902476E-2,-4.2176574E-1,4.6306506E-1,-3.834081E-2,1.3140802E-2,4.3320537E-2,4.33734E-2,1.7461665E-2,-1.2418093E-2],"categories":[],"categories_nodes":[],"categories_segments":[],"categories_sizes":[],"default_left":[0,0,0,0,0,0,0,0,0],"id":59,"left_children":[1,3,5,-1,-1,7,-1,-1,-1],"loss_changes":[5.195881E0,8.070049E-1,6.093819E-1,0E0,0E0,1.9318064E-1,0E0,0E0,0E0],"parents":[2147483647,0,0,1,1,2,2,5,5],"right_children":[2,4,6,-1,-1,8,-1,-1,-1],"split_conditions":[4.9E0,1.7E0,1.8E0,-3.834081E-2,1.3140802E-2,1.6E0,4.33734E-2,1.7461665E-2,-1.2418093E-2],"split_indices":[2,3,3,0,0,3,0,0,0],"split_type":[0,0,0,0,0,0,0,0,0],"sum_hessian":[2.45511E1,1.243597E1,1.21151285E1,1.0940431E1,1.4955399E0,2.9062126E0,9.208917E0,1.4637833E0,1.4424293E0],"tree_param":{"num_deleted":"0","num_feature":"4","num_nodes":"9","size_leaf_vector":"1"}},{"base_weights":[-1.2943657E-2,4.2248875E-2,-3.849041E-2],"categories":[],"categories_nodes":[],"categories_segments":[],"categories_sizes":[],"default_left":[0,0,0],"id":60,"left_children":[1,-1,-1],"loss_changes":[6.8037004E0,0E0,0E0],"parents":[2147483647,0,0],"right_children":[2,-1,-1],"split_conditions":[3E0,4.2248875E-2,-3.849041E-2],"split_indices":[2,0,0],"split_type":[0,0,0],"sum_hessian":[2.159803E1,9.978055E0,1.1619975E1],"tree_param":{"num_deleted":"0","num_feature":"4","num_nodes":"3","size_leaf_vector":"1"}},{"base_weights":[-4.7757095E-3,-3.5369966E-2,1.5955003E-1,4.6812072E-1,-3.1680563E-1,4.2378858E-2,-5.767337E-3,-4.8013132E-2,-3.386067E-2,-2.9100044E-2,2.3942523E-2],"categories":[],"categories_nodes":[],"categories_segments":[],"categories_sizes":[],"default_left":[0,0,0,0,0,0,0,0,0,0,0],"id":61,"left_children":[1,-1,3,5,7,-1,-1,9,-1,-1,-1],"loss_changes":[1.9692938E0,0E0,2.9424875E0,6.7423224E-1,2.704211E-1,0E0,0E0,5.9988225E-1,0E0,0E0,0E0],"parents":[2147483647,0,0,2,2,3,3,4,4,7,7],"right_children":[2,-1,4,6,8,-1,-1,10,-1,-1,-1],"split_conditions":[3E0,-3.5369966E-2,1.7E0,5E0,5.1E0,4.2378858E-2,-5.767337E-3,2.9E0,-3.386067E-2,-2.9100044E-2,2.3942523E-2],"split_indices":[2,0,3,2,2,0,0,1,0,0,0],"split_type":[0,0,0,0,0,0,0,0,0,0,0],"sum_hessian":[2.369067E1,5.6812415E0,1.800943E1,1.0940043E1,7.0693855E0,9.256952E0,1.683091E0,2.8124473E0,4.2569385E0,1.4310794E0,1.3813678E0],"tree_param":{"num_deleted":"0","num_feature":"4","num_nodes":"11","size_leaf_vector":"1"}},{"base_weights":[1.6745469E-2,-4.1313547E-1,4.4976345E-1,-3.787435E-2,1.2705223E-2,4.1328944E-2,4.245454E-2,1.7157195E-2,-1.2314348E-2],"categories":[],"categories_nodes":[],"categories_segments":[],"categories_sizes":[],"default_left":[0,0,0,0,0,0,0,0,0],"id":62,"left_children":[1,3,5,-1,-1,7,-1,-1,-1],"loss_changes":[4.7481008E0,7.7155876E-1,5.7932043E-1,0E0,0E0,1.8744773E-1,0E0,0E0,0E0],"parents":[2147483647,0,0,1,1,2,2,5,5],"right_children":[2,4,6,-1,-1,8,-1,-1,-1],"split_conditions":[4.9E0,1.7E0,1.8E0,-3.787435E-2,1.2705223E-2,1.6E0,4.245454E-2,1.7157195E-2,-1.2314348E-2],"split_indices":[2,3,3,0,0,3,0,0,0],"split_type":[0,0,0,0,0,0,0,0,0],"sum_hessian":[2.3509169E1,1.1820359E1,1.1688808E1,1.0325356E1,1.4950032E0,2.8910027E0,8.797806E0,1.452886E0,1.4381167E0],"tree_param":{"num_deleted":"0","num_feature":"4","num_nodes":"9","size_leaf_vector":"1"}},{"base_weights":[-1.3635044E-2,4.143898E-2,-3.807404E-2],"categories":[],"categories_nodes":[],"categories_segments":[],"categories_sizes":[],"default_left":[0,0,0],"id":63,"left_children":[1,-1,-1],"loss_changes":[6.294106E0,0E0,0E0],"parents":[2147483647,0,0],"right_children":[2,-1,-1],"split_conditions":[3E0,4.143898E-2,-3.807404E-2],"split_indices":[2,0,0],"split_type":[0,0,0],"sum_hessian":[2.0500927E1,9.497825E0,1.1003103E1],"tree_param":{"num_deleted":"0","num_feature":"4","num_nodes":"3","size_leaf_vector":"1"}},{"base_weights":[-5.0805206E-3,-3.483462E-2,1.5503366E-1,3.739163E-1,-3.549373E-2,5.4750705E-1,-1.2388474E-1,4.4396862E-2,1.754434E-2,-3.0845888E-2,1.8852027E-2],"categories":[],"categories_nodes":[],"categories_segments":[],"categories_sizes":[],"default_left":[0,0,0,0,0,0,0,0,0,0,0],"id":64,"left_children":[1,-1,3,5,-1,7,9,-1,-1,-1,-1],"loss_changes":[1.8137668E0,0E0,2.694895E0,1.2895055E0,0E0,1.0211229E-2,5.8552355E-1,0E0,0E0,0E0,0E0],"parents":[2147483647,0,0,2,2,3,3,5,5,6,6],"right_children":[2,-1,4,6,-1,8,10,-1,-1,-1,-1],"split_conditions":[3E0,-3.483462E-2,5.3E0,1.7E0,-3.549373E-2,6.3E0,2.9E0,4.4396862E-2,1.754434E-2,-3.0845888E-2,1.8852027E-2],"split_indices":[2,0,2,3,0,0,1,0,0,0,0],"split_type":[0,0,0,0,0,0,0,0,0,0,0],"sum_hessian":[2.2680199E1,5.3706207E0,1.7309578E1,1.3137551E1,4.1720266E0,9.666756E0,3.4707956E0,7.689082E0,1.9776739E0,1.9110947E0,1.5597008E0],"tree_param":{"num_deleted":"0","num_feature":"4","num_nodes":"11","size_leaf_vector":"1"}},{"base_weights":[1.7590776E-2,-4.0460607E-1,4.3711412E-1,-3.7421003E-2,1.2292639E-2,3.9445028E-2,4.1596264E-2,1.6865488E-2,-1.2209111E-2],"categories":[],"categories_nodes":[],"categories_segments":[],"categories_sizes":[],"default_left":[0,0,0,0,0,0,0,0,0],"id":65,"left_children":[1,3,5,-1,-1,7,-1,-1,-1],"loss_changes":[4.3401093E0,7.3795676E-1,5.5149126E-1,0E0,0E0,1.8192887E-1,0E0,0E0,0E0],"parents":[2147483647,0,0,1,1,2,2,5,5],"right_children":[2,4,6,-1,-1,8,-1,-1,-1],"split_conditions":[4.9E0,1.7E0,1.8E0,-3.7421003E-2,1.2292639E-2,1.6E0,4.1596264E-2,1.6865488E-2,-1.2209111E-2],"split_indices":[2,3,3,0,0,3,0,0,0],"split_type":[0,0,0,0,0,0,0,0,0],"sum_hessian":[2.2505062E1,1.1234512E1,1.127055E1,9.740492E0,1.494021E0,2.875288E0,8.395262E0,1.4415642E0,1.4337239E0],"tree_param":{"num_deleted":"0","num_feature":"4","num_nodes":"9","size_leaf_vector":"1"}},{"base_weights":[-1.4478051E-2,4.0678646E-2,-3.767287E-2],"categories":[],"categories_nodes":[],"categories_segments":[],"categories_sizes":[],"default_left":[0,0,0],"id":66,"left_children":[1,-1,-1],"loss_changes":[5.828688E0,0E0,0E0],"parents":[2147483647,0,0],"right_children":[2,-1,-1],"split_conditions":[3E0,4.0678646E-2,-3.767287E-2],"split_indices":[2,0,0],"split_type":[0,0,0],"sum_hessian":[1.9453604E1,9.031831E0,1.0421772E1],"tree_param":{"num_deleted":"0","num_feature":"4","num_nodes":"3","size_leaf_vector":"1"}},{"base_weights":[-5.0298674E-3,-3.4307424E-2,1.5103474E-1,3.6499968E-1,-3.4988206E-2,5.359082E-1,-1.17140725E-1,4.3584097E-2,1.6917858E-2,-3.022658E-2,1.842425E-2],"categories":[],"categories_nodes":[],"categories_segments":[],"categories_sizes":[],"default_left":[0,0,0,0,0,0,0,0,0,0,0],"id":67,"left_children":[1,-1,3,5,-1,7,9,-1,-1,-1,-1],"loss_changes":[1.6732163E0,0E0,2.501682E0,1.1888132E0,0E0,1.2992144E-2,5.550385E-1,0E0,0E0,0E0,0E0],"parents":[2147483647,0,0,2,2,3,3,5,5,6,6],"right_children":[2,-1,4,6,-1,8,10,-1,-1,-1,-1],"split_conditions":[3E0,-3.4307424E-2,5.3E0,1.7E0,-3.4988206E-2,6.3E0,2.9E0,4.3584097E-2,1.6917858E-2,-3.022658E-2,1.842425E-2],"split_indices":[2,0,2,3,0,0,1,0,0,0,0],"split_type":[0,0,0,0,0,0,0,0,0,0,0],"sum_hessian":[2.1720072E1,5.0756516E0,1.6644419E1,1.2665175E1,3.9792445E0,9.268256E0,3.3969193E0,7.3280773E0,1.9401789E0,1.8378459E0,1.5590732E0],"tree_param":{"num_deleted":"0","num_feature":"4","num_nodes":"11","size_leaf_vector":"1"}},{"base_weights":[1.8200805E-2,-3.963509E-1,4.2448702E-1,-3.697872E-2,1.1840026E-2,3.67176E-2,4.0791456E-2,1.6348751E-2,-1.2011592E-2],"categories":[],"categories_nodes":[],"categories_segments":[],"categories_sizes":[],"default_left":[0,0,0,0,0,0,0,0,0],"id":68,"left_children":[1,3,5,-1,-1,7,-1,-1,-1],"loss_changes":[3.966061E0,7.0368516E-1,5.2963877E-1,0E0,0E0,1.7291124E-1,0E0,0E0,0E0],"parents":[2147483647,0,0,1,1,2,2,5,5],"right_children":[2,4,6,-1,-1,8,-1,-1,-1],"split_conditions":[4.9E0,1.7E0,1.8E0,-3.697872E-2,1.1840026E-2,1.6E0,4.0791456E-2,1.6348751E-2,-1.2011592E-2],"split_indices":[2,3,3,0,0,3,0,0,0],"split_type":[0,0,0,0,0,0,0,0,0],"sum_hessian":[2.154878E1,1.0678E1,1.087078E1,9.185674E0,1.4923272E0,2.8670497E0,8.00373E0,1.4368595E0,1.4301902E0],"tree_param":{"num_deleted":"0","num_feature":"4","num_nodes":"9","size_leaf_vector":"1"}},{"base_weights":[-1.5325565E-2,3.9961502E-2,-3.728264E-2],"categories":[],"categories_nodes":[],"categories_segments":[],"categories_sizes":[],"default_left":[0,0,0],"id":69,"left_children":[1,-1,-1],"loss_changes":[5.401545E0,0E0,0E0],"parents":[2147483647,0,0],"right_children":[2,-1,-1],"split_conditions":[3E0,3.9961502E-2,-3.728264E-2],"split_indices":[2,0,0],"split_type":[0,0,0],"sum_hessian":[1.8450966E1,8.581422E0,9.869543E0],"tree_param":{"num_deleted":"0","num_feature":"4","num_nodes":"3","size_leaf_vector":"1"}},{"base_weights":[-4.9893786E-3,-3.3786815E-2,1.4716576E-1,3.5645348E-1,-3.4493227E-2,5.248483E-1,-1.1067526E-1,4.2818505E-2,1.6316816E-2,-2.9622924E-2,1.8012522E-2],"categories":[],"categories_nodes":[],"categories_segments":[],"categories_sizes":[],"default_left":[0,0,0,0,0,0,0,0,0,0,0],"id":70,"left_children":[1,-1,3,5,-1,7,9,-1,-1,-1,-1],"loss_changes":[1.5439513E0,0E0,2.3242333E0,1.0970104E0,0E0,1.567626E-2,5.262918E-1,0E0,0E0,0E0,0E0],"parents":[2147483647,0,0,2,2,3,3,5,5,6,6],"right_children":[2,-1,4,6,-1,8,10,-1,-1,-1,-1],"split_conditions":[3E0,-3.3786815E-2,5.3E0,1.7E0,-3.4493227E-2,6.3E0,2.9E0,4.2818505E-2,1.6316816E-2,-2.9622924E-2,1.8012522E-2],"split_indices":[2,0,2,3,0,0,1,0,0,0,0],"split_type":[0,0,0,0,0,0,0,0,0,0,0],"sum_hessian":[2.0799028E1,4.7959704E0,1.6003057E1,1.2207417E1,3.7956414E0,8.881992E0,3.325424E0,6.978042E0,1.9039509E0,1.7674377E0,1.5579864E0],"tree_param":{"num_deleted":"0","num_feature":"4","num_nodes":"11","size_leaf_vector":"1"}},{"base_weights":[1.8808354E-2,-3.8817656E-1,4.1240734E-1,-3.654581E-2,1.1410055E-2,3.4205806E-2,4.0033065E-2,1.5853293E-2,-1.180915E-2],"categories":[],"categories_nodes":[],"categories_segments":[],"categories_sizes":[],"default_left":[0,0,0,0,0,0,0,0,0],"id":71,"left_children":[1,3,5,-1,-1,7,-1,-1,-1],"loss_changes":[3.6252637E0,6.711718E-1,5.087609E-1,0E0,0E0,1.6428316E-1,0E0,0E0,0E0],"parents":[2147483647,0,0,1,1,2,2,5,5],"right_children":[2,4,6,-1,-1,8,-1,-1,-1],"split_conditions":[4.9E0,1.7E0,1.8E0,-3.654581E-2,1.1410055E-2,1.6E0,4.0033065E-2,1.5853293E-2,-1.180915E-2],"split_indices":[2,3,3,0,0,3,0,0,0],"split_type":[0,0,0,0,0,0,0,0,0],"sum_hessian":[2.063182E1,1.0150199E1,1.0481621E1,8.659985E0,1.4902146E0,2.8578546E0,7.6237664E0,1.4316076E0,1.4262469E0],"tree_param":{"num_deleted":"0","num_feature":"4","num_nodes":"9","size_leaf_vector":"1"}},{"base_weights":[-1.6176395E-2,3.928198E-2,-3.6901694E-2],"categories":[],"categories_nodes":[],"categories_segments":[],"categories_sizes":[],"default_left":[0,0,0],"id":72,"left_children":[1,-1,-1],"loss_changes":[5.009106E0,0E0,0E0],"parents":[2147483647,0,0],"right_children":[2,-1,-1],"split_conditions":[3E0,3.928198E-2,-3.6901694E-2],"split_indices":[2,0,0],"split_type":[0,0,0],"sum_hessian":[1.749324E1,8.147591E0,9.345651E0],"tree_param":{"num_deleted":"0","num_feature":"4","num_nodes":"3","size_leaf_vector":"1"}},{"base_weights":[-4.959187E-3,-3.327143E-2,1.4341138E-1,3.482333E-1,-3.400761E-2,5.1425266E-1,-1.04481526E-1,4.2093467E-2,1.573999E-2,-2.9034056E-2,1.761587E-2],"categories":[],"categories_nodes":[],"categories_segments":[],"categories_sizes":[],"default_left":[0,0,0,0,0,0,0,0,0,0,0],"id":73,"left_children":[1,-1,3,5,-1,7,9,-1,-1,-1,-1],"loss_changes":[1.425018E0,0E0,2.161085E0,1.0131645E0,0E0,1.8232107E-2,4.9917918E-1,0E0,0E0,0E0,0E0],"parents":[2147483647,0,0,2,2,3,3,5,5,6,6],"right_children":[2,-1,4,6,-1,8,10,-1,-1,-1,-1],"split_conditions":[3E0,-3.327143E-2,5.3E0,1.7E0,-3.400761E-2,6.3E0,2.9E0,4.2093467E-2,1.573999E-2,-2.9034056E-2,1.761587E-2],"split_indices":[2,0,2,3,0,0,1,0,0,0,0],"split_type":[0,0,0,0,0,0,0,0,0,0,0],"sum_hessian":[1.9917486E1,4.5311456E0,1.538634E1,1.1765331E1,3.6210086E0,8.508989E0,3.2563424E0,6.639991E0,1.8689979E0,1.6998593E0,1.5564831E0],"tree_param":{"num_deleted":"0","num_feature":"4","num_nodes":"11","size_leaf_vector":"1"}},{"base_weights":[1.9412007E-2,-3.800687E-1,4.008185E-1,-3.6120493E-2,1.1001496E-2,3.1895407E-2,3.9315213E-2,1.5377851E-2,-1.1602648E-2],"categories":[],"categories_nodes":[],"categories_segments":[],"categories_sizes":[],"default_left":[0,0,0,0,0,0,0,0,0],"id":74,"left_children":[1,3,5,-1,-1,7,-1,-1,-1],"loss_changes":[3.3145897E0,6.4028585E-1,4.8873413E-1,0E0,0E0,1.5603313E-1,0E0,0E0,0E0],"parents":[2147483647,0,0,1,1,2,2,5,5],"right_children":[2,4,6,-1,-1,8,-1,-1,-1],"split_conditions":[4.9E0,1.7E0,1.8E0,-3.6120493E-2,1.1001496E-2,1.6E0,3.9315213E-2,1.5377851E-2,-1.1602648E-2],"split_indices":[2,3,3,0,0,3,0,0,0],"split_type":[0,0,0,0,0,0,0,0,0],"sum_hessian":[1.975451E1,9.6503525E0,1.0104158E1,8.162627E0,1.4877248E0,2.847762E0,7.256397E0,1.4258751E0,1.4218869E0],"tree_param":{"num_deleted":"0","num_feature":"4","num_nodes":"9","size_leaf_vector":"1"}},{"base_weights":[-1.7029842E-2,3.8635198E-2,-3.652853E-2],"categories":[],"categories_nodes":[],"categories_segments":[],"categories_sizes":[],"default_left":[0,0,0],"id":75,"left_children":[1,-1,-1],"loss_changes":[4.6481867E0,0E0,0E0],"parents":[2147483647,0,0],"right_children":[2,-1,-1],"split_conditions":[3E0,3.8635198E-2,-3.652853E-2],"split_indices":[2,0,0],"split_type":[0,0,0],"sum_hessian":[1.6580227E1,7.7309966E0,8.84923E0],"tree_param":{"num_deleted":"0","num_feature":"4","num_nodes":"3","size_leaf_vector":"1"}},{"base_weights":[-4.9391575E-3,-3.2760072E-2,1.3975897E-1,3.4030163E-1,-3.3530347E-2,5.040572E-1,-9.855265E-2,4.1403238E-2,1.5186263E-2,-2.845924E-2,1.7233422E-2],"categories":[],"categories_nodes":[],"categories_segments":[],"categories_sizes":[],"default_left":[0,0,0,0,0,0,0,0,0,0,0],"id":76,"left_children":[1,-1,3,5,-1,7,9,-1,-1,-1,-1],"loss_changes":[1.3155541E0,0E0,2.0109372E0,9.3646395E-1,0E0,2.0632029E-2,4.7360417E-1,0E0,0E0,0E0,0E0],"parents":[2147483647,0,0,2,2,3,3,5,5,6,6],"right_children":[2,-1,4,6,-1,8,10,-1,-1,-1,-1],"split_conditions":[3E0,-3.2760072E-2,5.3E0,1.7E0,-3.3530347E-2,6.3E0,2.9E0,4.1403238E-2,1.5186263E-2,-2.845924E-2,1.7233422E-2],"split_indices":[2,0,2,3,0,0,1,0,0,0,0],"split_type":[0,0,0,0,0,0,0,0,0,0,0],"sum_hessian":[1.9075459E1,4.2807007E0,1.4794759E1,1.1339659E1,3.455099E0,8.149974E0,3.1896853E0,6.3146563E0,1.8353176E0,1.6350813E0,1.554604E0],"tree_param":{"num_deleted":"0","num_feature":"4","num_nodes":"11","size_leaf_vector":"1"}},{"base_weights":[2.001056E-2,-3.720154E-1,3.8967246E-1,-3.570116E-2,1.0613209E-2,2.9773071E-2,3.863275E-2,1.4921287E-2,-1.1392898E-2],"categories":[],"categories_nodes":[],"categories_segments":[],"categories_sizes":[],"default_left":[0,0,0,0,0,0,0,0,0],"id":77,"left_children":[1,3,5,-1,-1,7,-1,-1,-1],"loss_changes":[3.0312464E0,6.109117E-1,4.694575E-1,0E0,0E0,1.4814997E-1,0E0,0E0,0E0],"parents":[2147483647,0,0,1,1,2,2,5,5],"right_children":[2,4,6,-1,-1,8,-1,-1,-1],"split_conditions":[4.9E0,1.7E0,1.8E0,-3.570116E-2,1.0613209E-2,1.6E0,3.863275E-2,1.4921287E-2,-1.1392898E-2],"split_indices":[2,3,3,0,0,3,0,0,0],"split_type":[0,0,0,0,0,0,0,0,0],"sum_hessian":[1.8916786E1,9.177594E0,9.739193E0,7.6926966E0,1.4848971E0,2.83683E0,6.9023633E0,1.4197243E0,1.4171056E0],"tree_param":{"num_deleted":"0","num_feature":"4","num_nodes":"9","size_leaf_vector":"1"}},{"base_weights":[-1.7885003E-2,3.8016856E-2,-3.6161803E-2],"categories":[],"categories_nodes":[],"categories_segments":[],"categories_sizes":[],"default_left":[0,0,0],"id":78,"left_children":[1,-1,-1],"loss_changes":[4.3159475E0,0E0,0E0],"parents":[2147483647,0,0],"right_children":[2,-1,-1],"split_conditions":[3E0,3.8016856E-2,-3.6161803E-2],"split_indices":[2,0,0],"split_type":[0,0,0],"sum_hessian":[1.5711377E1,7.332034E0,8.379343E0],"tree_param":{"num_deleted":"0","num_feature":"4","num_nodes":"3","size_leaf_vector":"1"}},{"base_weights":[-4.929386E-3,-3.225175E-2,1.3619767E-1,3.3262628E-1,-3.3060577E-2,4.94207E-1,-9.2882E-2,4.0742777E-2,1.4654615E-2,-2.7897853E-2,1.686436E-2],"categories":[],"categories_nodes":[],"categories_segments":[],"categories_sizes":[],"default_left":[0,0,0,0,0,0,0,0,0,0,0],"id":79,"left_children":[1,-1,3,5,-1,7,9,-1,-1,-1,-1],"loss_changes":[1.2147759E0,0E0,1.8726275E0,8.661963E-1,0E0,2.2860289E-2,4.4947654E-1,0E0,0E0,0E0,0E0],"parents":[2147483647,0,0,2,2,3,3,5,5,6,6],"right_children":[2,-1,4,6,-1,8,10,-1,-1,-1,-1],"split_conditions":[3E0,-3.225175E-2,5.3E0,1.7E0,-3.3060577E-2,6.3E0,2.9E0,4.0742777E-2,1.4654615E-2,-2.7897853E-2,1.686436E-2],"split_indices":[2,0,2,3,0,0,1,0,0,0,0],"split_type":[0,0,0,0,0,0,0,0,0,0,0],"sum_hessian":[1.8272615E1,4.0441175E0,1.42284975E1,1.093086E1,3.2976375E0,7.805414E0,3.1254458E0,6.002514E0,1.8029001E0,1.5730596E0,1.5523865E0],"tree_param":{"num_deleted":"0","num_feature":"4","num_nodes":"11","size_leaf_vector":"1"}},{"base_weights":[2.0602621E-2,-2.9463255E-1,4.593776E-1,-3.5742383E-2,1.7544109E-1,2.2641963E-3,4.100288E-2,3.160544E-2,-1.2125288E-2],"categories":[],"categories_nodes":[],"categories_segments":[],"categories_sizes":[],"default_left":[0,0,0,0,0,0,0,0,0],"id":80,"left_children":[1,3,5,-1,7,-1,-1,-1,-1],"loss_changes":[2.7797341E0,1.0871702E0,2.9771507E-1,0E0,4.0023696E-1,0E0,0E0,0E0,0E0],"parents":[2147483647,0,0,1,1,2,2,4,4],"right_children":[2,4,6,-1,8,-1,-1,-1,-1],"split_conditions":[5.1E0,1.7E0,6.1E0,-3.5742383E-2,2.9E0,2.2641963E-3,4.100288E-2,3.160544E-2,-1.2125288E-2],"split_indices":[2,3,0,0,1,0,0,0,0],"split_type":[0,0,0,0,0,0,0,0,0],"sum_hessian":[1.8118261E1,1.073458E1,7.383682E0,7.7293005E0,3.0052795E0,1.4758797E0,5.907802E0,1.5929651E0,1.4123144E0],"tree_param":{"num_deleted":"0","num_feature":"4","num_nodes":"9","size_leaf_vector":"1"}},{"base_weights":[-1.8784141E-2,3.7421383E-2,-3.579392E-2],"categories":[],"categories_nodes":[],"categories_segments":[],"categories_sizes":[],"default_left":[0,0,0],"id":81,"left_children":[1,-1,-1],"loss_changes":[4.008949E0,0E0,0E0],"parents":[2147483647,0,0],"right_children":[2,-1,-1],"split_conditions":[3E0,3.7421383E-2,-3.579392E-2],"split_indices":[2,0,0],"split_type":[0,0,0],"sum_hessian":[1.4886154E1,6.949719E0,7.936435E0],"tree_param":{"num_deleted":"0","num_feature":"4","num_nodes":"3","size_leaf_vector":"1"}},{"base_weights":[-5.1688454E-3,-3.1745847E-2,1.3256964E-1,3.2335362E-1,-3.244013E-2,4.8524505E-1,-9.098791E-2,4.0142015E-2,1.4059956E-2,-2.7357621E-2,1.6104883E-2],"categories":[],"categories_nodes":[],"categories_segments":[],"categories_sizes":[],"default_left":[0,0,0,0,0,0,0,0,0,0,0],"id":82,"left_children":[1,-1,3,5,-1,7,9,-1,-1,-1,-1],"loss_changes":[1.1210978E0,0E0,1.7216561E0,8.1828904E-1,0E0,2.5523186E-2,4.2019692E-1,0E0,0E0,0E0,0E0],"parents":[2147483647,0,0,2,2,3,3,5,5,6,6],"right_children":[2,-1,4,6,-1,8,10,-1,-1,-1,-1],"split_conditions":[3E0,-3.1745847E-2,5.3E0,1.7E0,-3.244013E-2,6.3E0,2.9E0,4.0142015E-2,1.4059956E-2,-2.7357621E-2,1.6104883E-2],"split_indices":[2,0,2,3,0,0,1,0,0,0,0],"split_type":[0,0,0,0,0,0,0,0,0,0,0],"sum_hessian":[1.7492609E1,3.8209505E0,1.36716585E1,1.0540797E1,3.1308613E0,7.456336E0,3.0844615E0,5.701887E0,1.754449E0,1.5253356E0,1.5591259E0],"tree_param":{"num_deleted":"0","num_feature":"4","num_nodes":"11","size_leaf_vector":"1"}},{"base_weights":[2.147403E-2,-2.8815293E-1,4.4855618E-1,-3.5343792E-2,1.6888253E-1,2.0477385E-3,4.026031E-2,3.078918E-2,-1.1711994E-2],"categories":[],"categories_nodes":[],"categories_segments":[],"categories_sizes":[],"default_left":[0,0,0,0,0,0,0,0,0],"id":83,"left_children":[1,3,5,-1,7,-1,-1,-1,-1],"loss_changes":[2.5554442E0,1.0206044E0,2.8654253E-1,0E0,3.7455967E-1,0E0,0E0,0E0,0E0],"parents":[2147483647,0,0,1,1,2,2,4,4],"right_children":[2,4,6,-1,8,-1,-1,-1,-1],"split_conditions":[5.1E0,1.7E0,6.1E0,-3.5343792E-2,2.9E0,2.0477385E-3,4.026031E-2,3.078918E-2,-1.1711994E-2],"split_indices":[2,3,0,0,1,0,0,0,0],"split_type":[0,0,0,0,0,0,0,0,0],"sum_hessian":[1.7347412E1,1.0245155E1,7.1022573E0,7.2925215E0,2.9526339E0,1.4569371E0,5.64532E0,1.542754E0,1.4098798E0],"tree_param":{"num_deleted":"0","num_feature":"4","num_nodes":"9","size_leaf_vector":"1"}},{"base_weights":[-1.9672196E-2,3.6847305E-2,-3.543012E-2],"categories":[],"categories_nodes":[],"categories_segments":[],"categories_sizes":[],"default_left":[0,0,0],"id":84,"left_children":[1,-1,-1],"loss_changes":[3.7258408E0,0E0,0E0],"parents":[2147483647,0,0],"right_children":[2,-1,-1],"split_conditions":[3E0,3.6847305E-2,-3.543012E-2],"split_indices":[2,0,0],"split_type":[0,0,0],"sum_hessian":[1.4102826E1,6.585247E0,7.5175796E0],"tree_param":{"num_deleted":"0","num_feature":"4","num_nodes":"3","size_leaf_vector":"1"}},{"base_weights":[-5.425751E-3,-3.1241441E-2,1.2901805E-1,3.143296E-1,-3.1826213E-2,4.7658744E-1,-8.92605E-2,3.9563976E-2,1.3490117E-2,-2.6831733E-2,1.5378802E-2],"categories":[],"categories_nodes":[],"categories_segments":[],"categories_sizes":[],"default_left":[0,0,0,0,0,0,0,0,0,0,0],"id":85,"left_children":[1,-1,3,5,-1,7,9,-1,-1,-1,-1],"loss_changes":[1.0348351E0,0E0,1.5833021E0,7.73795E-1,0E0,2.786529E-2,3.929447E-1,0E0,0E0,0E0,0E0],"parents":[2147483647,0,0,2,2,3,3,5,5,6,6],"right_children":[2,-1,4,6,-1,8,10,-1,-1,-1,-1],"split_conditions":[3E0,-3.1241441E-2,5.3E0,1.7E0,-3.1826213E-2,6.3E0,2.9E0,3.9563976E-2,1.3490117E-2,-2.6831733E-2,1.5378802E-2],"split_indices":[2,0,2,3,0,0,1,0,0,0,0],"split_type":[0,0,0,0,0,0,0,0,0,0,0],"sum_hessian":[1.6749794E1,3.6105268E0,1.3139267E1,1.0166636E1,2.9726305E0,7.1223316E0,3.0443053E0,5.414999E0,1.7073321E0,1.4792421E0,1.5650634E0],"tree_param":{"num_deleted":"0","num_feature":"4","num_nodes":"11","size_leaf_vector":"1"}},{"base_weights":[2.2336451E-2,-2.8175268E-1,4.381422E-1,-3.494821E-2,1.626503E-1,1.8525324E-3,3.9548784E-2,3.0004367E-2,-1.1312037E-2],"categories":[],"categories_nodes":[],"categories_segments":[],"categories_sizes":[],"default_left":[0,0,0,0,0,0,0,0,0],"id":86,"left_children":[1,3,5,-1,7,-1,-1,-1,-1],"loss_changes":[2.350463E0,9.584844E-1,2.7570152E-1,0E0,3.5065398E-1,0E0,0E0,0E0,0E0],"parents":[2147483647,0,0,1,1,2,2,4,4],"right_children":[2,4,6,-1,8,-1,-1,-1,-1],"split_conditions":[5.1E0,1.7E0,6.1E0,-3.494821E-2,2.9E0,1.8525324E-3,3.9548784E-2,3.0004367E-2,-1.1312037E-2],"split_indices":[2,3,0,0,1,0,0,0,0],"split_type":[0,0,0,0,0,0,0,0,0],"sum_hessian":[1.6612938E1,9.781717E0,6.8312206E0,6.8807974E0,2.9009194E0,1.4385693E0,5.392651E0,1.4935813E0,1.4073381E0],"tree_param":{"num_deleted":"0","num_feature":"4","num_nodes":"9","size_leaf_vector":"1"}},{"base_weights":[-2.0548329E-2,3.6291692E-2,-3.5069443E-2],"categories":[],"categories_nodes":[],"categories_segments":[],"categories_sizes":[],"default_left":[0,0,0],"id":87,"left_children":[1,-1,-1],"loss_changes":[3.4645805E0,0E0,0E0],"parents":[2147483647,0,0],"right_children":[2,-1,-1],"split_conditions":[3E0,3.6291692E-2,-3.5069443E-2],"split_indices":[2,0,0],"split_type":[0,0,0],"sum_hessian":[1.3360233E1,6.2384486E0,7.1217847E0],"tree_param":{"num_deleted":"0","num_feature":"4","num_nodes":"3","size_leaf_vector":"1"}},{"base_weights":[-5.6999144E-3,-3.0737996E-2,1.2553589E-1,3.0553424E-1,-3.1218417E-2,4.681977E-1,-8.768761E-2,3.900525E-2,1.2943998E-2,-2.6319725E-2,1.4684366E-2],"categories":[],"categories_nodes":[],"categories_segments":[],"categories_sizes":[],"default_left":[0,0,0,0,0,0,0,0,0,0,0],"id":88,"left_children":[1,-1,3,5,-1,7,9,-1,-1,-1,-1],"loss_changes":[9.5538557E-1,0E0,1.4564705E0,7.3239017E-1,0E0,2.9899955E-2,3.675776E-1,0E0,0E0,0E0,0E0],"parents":[2147483647,0,0,2,2,3,3,5,5,6,6],"right_children":[2,-1,4,6,-1,8,10,-1,-1,-1,-1],"split_conditions":[3E0,-3.0737996E-2,5.3E0,1.7E0,-3.1218417E-2,6.3E0,2.9E0,3.900525E-2,1.2943998E-2,-2.6319725E-2,1.4684366E-2],"split_indices":[2,0,2,3,0,0,1,0,0,0,0],"split_type":[0,0,0,0,0,0,0,0,0,0,0],"sum_hessian":[1.604329E1,3.4122758E0,1.2631014E1,9.808388E0,2.822626E0,6.8033757E0,3.0050123E0,5.141813E0,1.661563E0,1.4347492E0,1.570263E0],"tree_param":{"num_deleted":"0","num_feature":"4","num_nodes":"11","size_leaf_vector":"1"}},{"base_weights":[2.3189455E-2,-2.7542675E-1,4.2810348E-1,-3.4554586E-2,1.5672508E-1,1.677327E-3,3.8864907E-2,2.9248806E-2,-1.0925204E-2],"categories":[],"categories_nodes":[],"categories_segments":[],"categories_sizes":[],"default_left":[0,0,0,0,0,0,0,0,0],"id":89,"left_children":[1,3,5,-1,7,-1,-1,-1,-1],"loss_changes":[2.1630447E0,9.00478E-1,2.6515877E-1,0E0,3.2839072E-1,0E0,0E0,0E0,0E0],"parents":[2147483647,0,0,1,1,2,2,4,4],"right_children":[2,4,6,-1,8,-1,-1,-1,-1],"split_conditions":[5.1E0,1.7E0,6.1E0,-3.4554586E-2,2.9E0,1.677327E-3,3.8864907E-2,2.9248806E-2,-1.0925204E-2],"split_indices":[2,3,0,0,1,0,0,0,0],"split_type":[0,0,0,0,0,0,0,0,0],"sum_hessian":[1.5913964E1,9.343272E0,6.5706916E0,6.493024E0,2.8502483E0,1.4207321E0,5.1499596E0,1.4455422E0,1.4047062E0],"tree_param":{"num_deleted":"0","num_feature":"4","num_nodes":"9","size_leaf_vector":"1"}},{"base_weights":[-2.141176E-2,3.5751957E-2,-3.471105E-2],"categories":[],"categories_nodes":[],"categories_segments":[],"categories_sizes":[],"default_left":[0,0,0],"id":90,"left_children":[1,-1,-1],"loss_changes":[3.223324E0,0E0,0E0],"parents":[2147483647,0,0],"right_children":[2,-1,-1],"split_conditions":[3E0,3.5751957E-2,-3.471105E-2],"split_indices":[2,0,0],"split_type":[0,0,0],"sum_hessian":[1.2657069E1,5.9090247E0,6.748045E0],"tree_param":{"num_deleted":"0","num_feature":"4","num_nodes":"3","size_leaf_vector":"1"}},{"base_weights":[-5.9915762E-3,-3.0235128E-2,1.2211704E-1,2.96951E-1,-3.061644E-2,4.600445E-1,-8.625779E-2,3.8462844E-2,1.242057E-2,-2.5821159E-2,1.40199475E-2],"categories":[],"categories_nodes":[],"categories_segments":[],"categories_sizes":[],"default_left":[0,0,0,0,0,0,0,0,0,0,0],"id":91,"left_children":[1,-1,3,5,-1,7,9,-1,-1,-1,-1],"loss_changes":[8.8219947E-1,0E0,1.3401691E0,6.937904E-1,0E0,3.164184E-2,3.4396285E-1,0E0,0E0,0E0,0E0],"parents":[2147483647,0,0,2,2,3,3,5,5,6,6],"right_children":[2,-1,4,6,-1,8,10,-1,-1,-1,-1],"split_conditions":[3E0,-3.0235128E-2,5.3E0,1.7E0,-3.061644E-2,6.3E0,2.9E0,3.8462844E-2,1.242057E-2,-2.5821159E-2,1.40199475E-2],"split_indices":[2,0,2,3,0,0,1,0,0,0,0],"split_type":[0,0,0,0,0,0,0,0,0,0,0],"sum_hessian":[1.53720665E1,3.2256281E0,1.2146439E1,9.465916E0,2.6805227E0,6.499307E0,2.9666085E0,4.8821626E0,1.6171446E0,1.391824E0,1.5747845E0],"tree_param":{"num_deleted":"0","num_feature":"4","num_nodes":"11","size_leaf_vector":"1"}},{"base_weights":[2.4032576E-2,-2.6917174E-1,4.1841277E-1,-3.4162015E-2,1.5108913E-1,1.5208884E-3,3.820573E-2,2.8520549E-2,-1.0551256E-2],"categories":[],"categories_nodes":[],"categories_segments":[],"categories_sizes":[],"default_left":[0,0,0,0,0,0,0,0,0],"id":92,"left_children":[1,3,5,-1,7,-1,-1,-1,-1],"loss_changes":[1.9916184E0,8.4628254E-1,2.5489128E-1,0E0,3.0765122E-1,0E0,0E0,0E0,0E0],"parents":[2147483647,0,0,1,1,2,2,4,4],"right_children":[2,4,6,-1,8,-1,-1,-1,-1],"split_conditions":[5.1E0,1.7E0,6.1E0,-3.4162015E-2,2.9E0,1.5208884E-3,3.820573E-2,2.8520549E-2,-1.0551256E-2],"split_indices":[2,3,0,0,1,0,0,0,0],"split_type":[0,0,0,0,0,0,0,0,0],"sum_hessian":[1.5249493E1,8.9288025E0,6.32069E0,6.128091E0,2.8007114E0,1.403384E0,4.917306E0,1.3987118E0,1.4019996E0],"tree_param":{"num_deleted":"0","num_feature":"4","num_nodes":"9","size_leaf_vector":"1"}},{"base_weights":[-2.2261629E-2,3.522582E-2,-3.43542E-2],"categories":[],"categories_nodes":[],"categories_segments":[],"categories_sizes":[],"default_left":[0,0,0],"id":93,"left_children":[1,-1,-1],"loss_changes":[3.0004034E0,0E0,0E0],"parents":[2147483647,0,0],"right_children":[2,-1,-1],"split_conditions":[3E0,3.522582E-2,-3.43542E-2],"split_indices":[2,0,0],"split_type":[0,0,0],"sum_hessian":[1.1991923E1,5.5965734E0,6.3953505E0],"tree_param":{"num_deleted":"0","num_feature":"4","num_nodes":"3","size_leaf_vector":"1"}},{"base_weights":[-6.3003977E-3,-2.9732568E-2,1.1875678E-1,2.8856668E-1,-3.002008E-2,4.5210135E-1,-8.496016E-2,3.7934177E-2,1.19189015E-2,-2.5335614E-2,1.3384041E-2],"categories":[],"categories_nodes":[],"categories_segments":[],"categories_sizes":[],"default_left":[0,0,0,0,0,0,0,0,0,0,0],"id":94,"left_children":[1,-1,3,5,-1,7,9,-1,-1,-1,-1],"loss_changes":[8.147739E-1,0E0,1.2335002E0,6.577461E-1,0E0,3.310597E-2,3.219768E-1,0E0,0E0,0E0,0E0],"parents":[2147483647,0,0,2,2,3,3,5,5,6,6],"right_children":[2,-1,4,6,-1,8,10,-1,-1,-1,-1],"split_conditions":[3E0,-2.9732568E-2,5.3E0,1.7E0,-3.002008E-2,6.3E0,2.9E0,3.7934177E-2,1.19189015E-2,-2.5335614E-2,1.3384041E-2],"split_indices":[2,0,2,3,0,0,1,0,0,0,0],"split_type":[0,0,0,0,0,0,0,0,0,0,0],"sum_hessian":[1.4734984E1,3.0500116E0,1.1684973E1,9.138982E0,2.545991E0,6.209867E0,2.9291148E0,4.635793E0,1.5740736E0,1.35043E0,1.5786847E0],"tree_param":{"num_deleted":"0","num_feature":"4","num_nodes":"11","size_leaf_vector":"1"}},{"base_weights":[2.4865378E-2,-2.6298535E-1,4.090466E-1,-3.37697E-2,1.4572603E-1,1.3820647E-3,3.756865E-2,2.7817858E-2,-1.0189945E-2],"categories":[],"categories_nodes":[],"categories_segments":[],"categories_sizes":[],"default_left":[0,0,0,0,0,0,0,0,0],"id":95,"left_children":[1,3,5,-1,7,-1,-1,-1,-1],"loss_changes":[1.8347638E0,7.956199E-1,2.4488115E-1,0E0,2.883262E-1,0E0,0E0,0E0,0E0],"parents":[2147483647,0,0,1,1,2,2,4,4],"right_children":[2,4,6,-1,8,-1,-1,-1,-1],"split_conditions":[5.1E0,1.7E0,6.1E0,-3.37697E-2,2.9E0,1.3820647E-3,3.756865E-2,2.7817858E-2,-1.0189945E-2],"split_indices":[2,3,0,0,1,0,0,0,0],"split_type":[0,0,0,0,0,0,0,0,0],"sum_hessian":[1.4618411E1,8.537265E0,6.081146E0,5.784885E0,2.7523801E0,1.3864882E0,4.694658E0,1.3531469E0,1.3992331E0],"tree_param":{"num_deleted":"0","num_feature":"4","num_nodes":"9","size_leaf_vector":"1"}},{"base_weights":[-2.3096588E-2,3.4711316E-2,-3.399824E-2],"categories":[],"categories_nodes":[],"categories_segments":[],"categories_sizes":[],"default_left":[0,0,0],"id":96,"left_children":[1,-1,-1],"loss_changes":[2.7943106E0,0E0,0E0],"parents":[2147483647,0,0],"right_children":[2,-1,-1],"split_conditions":[3E0,3.4711316E-2,-3.399824E-2],"split_indices":[2,0,0],"split_type":[0,0,0],"sum_hessian":[1.1363317E1,5.300622E0,6.0626945E0],"tree_param":{"num_deleted":"0","num_feature":"4","num_nodes":"3","size_leaf_vector":"1"}},{"base_weights":[-6.6260337E-3,-2.923017E-2,1.1545138E-1,2.8037068E-1,-2.9429216E-2,4.4434568E-1,-8.3784305E-2,3.7417E-2,1.1438099E-2,-2.4862695E-2,1.2775253E-2],"categories":[],"categories_nodes":[],"categories_segments":[],"categories_sizes":[],"default_left":[0,0,0,0,0,0,0,0,0,0,0],"id":97,"left_children":[1,-1,3,5,-1,7,9,-1,-1,-1,-1],"loss_changes":[7.526491E-1,0E0,1.1356472E0,6.240374E-1,0E0,3.4308672E-2,3.0150443E-1,0E0,0E0,0E0,0E0],"parents":[2147483647,0,0,2,2,3,3,5,5,6,6],"right_children":[2,-1,4,6,-1,8,10,-1,-1,-1,-1],"split_conditions":[3E0,-2.923017E-2,5.3E0,1.7E0,-2.9429216E-2,6.3E0,2.9E0,3.7417E-2,1.1438099E-2,-2.4862695E-2,1.2775253E-2],"split_indices":[2,0,2,3,0,0,1,0,0,0,0],"split_type":[0,0,0,0,0,0,0,0,0,0,0],"sum_hessian":[1.4130818E1,2.8848639E0,1.12459545E1,8.827255E0,2.4186993E0,5.93471E0,2.8925455E0,4.402371E0,1.532339E0,1.310529E0,1.5820163E0],"tree_param":{"num_deleted":"0","num_feature":"4","num_nodes":"11","size_leaf_vector":"1"}},{"base_weights":[2.5687104E-2,-2.5686648E-1,3.999848E-1,-3.3376973E-2,1.4062063E-1,1.259695E-3,3.6951415E-2,2.7139196E-2,-9.8410025E-3],"categories":[],"categories_nodes":[],"categories_segments":[],"categories_sizes":[],"default_left":[0,0,0,0,0,0,0,0,0],"id":98,"left_children":[1,3,5,-1,7,-1,-1,-1,-1],"loss_changes":[1.6911958E0,7.4823594E-1,2.3511767E-1,0E0,2.70315E-1,0E0,0E0,0E0,0E0],"parents":[2147483647,0,0,1,1,2,2,4,4],"right_children":[2,4,6,-1,8,-1,-1,-1,-1],"split_conditions":[5.1E0,1.7E0,6.1E0,-3.3376973E-2,2.9E0,1.259695E-3,3.6951415E-2,2.7139196E-2,-9.8410025E-3],"split_indices":[2,3,0,0,1,0,0,0,0],"split_type":[0,0,0,0,0,0,0,0,0],"sum_hessian":[1.4019532E1,8.167618E0,5.851915E0,5.4623075E0,2.7053099E0,1.3700092E0,4.481906E0,1.3088896E0,1.3964202E0],"tree_param":{"num_deleted":"0","num_feature":"4","num_nodes":"9","size_leaf_vector":"1"}},{"base_weights":[-2.3916002E-2,3.4206707E-2,-3.3642624E-2],"categories":[],"categories_nodes":[],"categories_segments":[],"categories_sizes":[],"default_left":[0,0,0],"id":99,"left_children":[1,-1,-1],"loss_changes":[2.6036696E0,0E0,0E0],"parents":[2147483647,0,0],"right_children":[2,-1,-1],"split_conditions":[3E0,3.4206707E-2,-3.3642624E-2],"split_indices":[2,0,0],"split_type":[0,0,0],"sum_hessian":[1.0769705E1,5.0206203E0,5.749085E0],"tree_param":{"num_deleted":"0","num_feature":"4","num_nodes":"3","size_leaf_vector":"1"}},{"base_weights":[-6.968194E-3,-2.8727913E-2,1.1219786E-1,2.7235466E-1,-2.884381E-2,4.367588E-1,-8.272054E-2,3.6909405E-2,1.0977333E-2,-2.4402019E-2,1.219227E-2],"categories":[],"categories_nodes":[],"categories_segments":[],"categories_sizes":[],"default_left":[0,0,0,0,0,0,0,0,0,0,0],"id":100,"left_children":[1,-1,3,5,-1,7,9,-1,-1,-1,-1],"loss_changes":[6.954036E-1,0E0,1.0458667E0,5.924699E-1,0E0,3.5266638E-2,2.8243825E-1,0E0,0E0,0E0,0E0],"parents":[2147483647,0,0,2,2,3,3,5,5,6,6],"right_children":[2,-1,4,6,-1,8,10,-1,-1,-1,-1],"split_conditions":[3E0,-2.8727913E-2,5.3E0,1.7E0,-2.884381E-2,6.3E0,2.9E0,3.6909405E-2,1.0977333E-2,-2.4402019E-2,1.219227E-2],"split_indices":[2,0,2,3,0,0,1,0,0,0,0],"split_type":[0,0,0,0,0,0,0,0,0,0,0],"sum_hessian":[1.3558288E1,2.729634E0,1.0828653E1,8.5303335E0,2.2983196E0,5.6734242E0,2.8569095E0,4.1815E0,1.4919244E0,1.2720807E0,1.5848287E0],"tree_param":{"num_deleted":"0","num_feature":"4","num_nodes":"11","size_leaf_vector":"1"}},{"base_weights":[2.6497228E-2,-2.8614E-1,3.5060707E-1,-3.2983266E-2,1.2183758E-2,4.2687884E-1,4.916736E-3,3.7368223E-2,1.0174384E-2],"categories":[],"categories_nodes":[],"categories_segments":[],"categories_sizes":[],"default_left":[0,0,0,0,0,0,0,0,0],"id":101,"left_children":[1,3,5,-1,-1,7,-1,-1,-1],"loss_changes":[1.5646887E0,6.163663E-1,1.360535E-1,0E0,0E0,5.2343488E-2,0E0,0E0,0E0],"parents":[2147483647,0,0,1,1,2,2,5,5],"right_children":[2,4,6,-1,-1,8,-1,-1,-1],"split_conditions":[1.7E0,5E0,3.2E0,-3.2983266E-2,1.2183758E-2,6.7E0,4.916736E-3,3.7368223E-2,1.0174384E-2],"split_indices":[3,2,1,0,0,0,0,0,0],"split_type":[0,0,0,0,0,0,0,0,0],"sum_hessian":[1.3451626E1,6.906626E0,6.544999E0,5.15928E0,1.7473466E0,4.7708855E0,1.7741135E0,3.2609134E0,1.5099723E0],"tree_param":{"num_deleted":"0","num_feature":"4","num_nodes":"9","size_leaf_vector":"1"}},{"base_weights":[-2.5392016E-2,3.3710517E-2,-3.330284E-2],"categories":[],"categories_nodes":[],"categories_segments":[],"categories_sizes":[],"default_left":[0,0,0],"id":102,"left_children":[1,-1,-1],"loss_changes":[2.4309812E0,0E0,0E0],"parents":[2147483647,0,0],"right_children":[2,-1,-1],"split_conditions":[3E0,3.3710517E-2,-3.330284E-2],"split_indices":[2,0,0],"split_type":[0,0,0],"sum_hessian":[1.0224308E1,4.7559958E0,5.4683127E0],"tree_param":{"num_deleted":"0","num_feature":"4","num_nodes":"3","size_leaf_vector":"1"}},{"base_weights":[-7.0420518E-3,-2.8225863E-2,1.0914099E-1,2.6810136E-1,-2.8472763E-2,4.2876494E-1,-7.442185E-2,3.644694E-2,1.0386706E-2,-2.378408E-2,1.223457E-2],"categories":[],"categories_nodes":[],"categories_segments":[],"categories_sizes":[],"default_left":[0,0,0,0,0,0,0,0,0,0,0],"id":103,"left_children":[1,-1,3,5,-1,7,9,-1,-1,-1,-1],"loss_changes":[6.4330953E-1,0E0,9.915692E-1,5.3972316E-1,0E0,3.9440036E-2,2.7072373E-1,0E0,0E0,0E0,0E0],"parents":[2147483647,0,0,2,2,3,3,5,5,6,6],"right_children":[2,-1,4,6,-1,8,10,-1,-1,-1,-1],"split_conditions":[3E0,-2.8225863E-2,5.3E0,1.7E0,-2.8472763E-2,6.3E0,2.9E0,3.644694E-2,1.0386706E-2,-2.378408E-2,1.223457E-2],"split_indices":[2,0,2,3,0,0,1,0,0,0,0],"split_type":[0,0,0,0,0,0,0,0,0,0,0],"sum_hessian":[1.3035911E1,2.583783E0,1.0452127E1,8.227776E0,2.2243521E0,5.4293213E0,2.7984545E0,3.9724765E0,1.4568446E0,1.218535E0,1.5799197E0],"tree_param":{"num_deleted":"0","num_feature":"4","num_nodes":"11","size_leaf_vector":"1"}},{"base_weights":[2.7511887E-2,-2.4804229E-1,3.846897E-1,-3.258813E-2,1.2418709E-1,4.9375434E-4,3.5998136E-2,2.5720695E-2,-9.770352E-3],"categories":[],"categories_nodes":[],"categories_segments":[],"categories_sizes":[],"default_left":[0,0,0,0,0,0,0,0,0],"id":104,"left_children":[1,3,5,-1,7,-1,-1,-1,-1],"loss_changes":[1.4686236E0,6.428212E-1,2.2987664E-1,0E0,2.4558364E-1,0E0,0E0,0E0,0E0],"parents":[2147483647,0,0,1,1,2,2,4,4],"right_children":[2,4,6,-1,8,-1,-1,-1,-1],"split_conditions":[5.1E0,1.7E0,6.1E0,-3.258813E-2,2.9E0,4.9375434E-4,3.5998136E-2,2.5720695E-2,-9.770352E-3],"split_indices":[2,3,0,0,1,0,0,0,0],"split_type":[0,0,0,0,0,0,0,0,0],"sum_hessian":[1.2952233E1,7.4840307E0,5.468202E0,4.8747435E0,2.6092875E0,1.3158419E0,4.15236E0,1.2160907E0,1.3931968E0],"tree_param":{"num_deleted":"0","num_feature":"4","num_nodes":"9","size_leaf_vector":"1"}},{"base_weights":[-2.6144829E-2,3.3221435E-2,-3.2945953E-2],"categories":[],"categories_nodes":[],"categories_segments":[],"categories_sizes":[],"default_left":[0,0,0],"id":105,"left_children":[1,-1,-1],"loss_changes":[2.2672355E0,0E0,0E0],"parents":[2147483647,0,0],"right_children":[2,-1,-1],"split_conditions":[3E0,3.3221435E-2,-3.2945953E-2],"split_indices":[2,0,0],"split_type":[0,0,0],"sum_hessian":[9.694801E0,4.5061164E0,5.1886845E0],"tree_param":{"num_deleted":"0","num_feature":"4","num_nodes":"3","size_leaf_vector":"1"}},{"base_weights":[-7.385366E-3,-2.7724182E-2,1.0602983E-1,2.6034126E-1,-2.7895998E-2,4.214445E-1,-7.379236E-2,3.5952605E-2,9.966582E-3,-2.33502E-2,1.1673231E-2],"categories":[],"categories_nodes":[],"categories_segments":[],"categories_sizes":[],"default_left":[0,0,0,0,0,0,0,0,0,0,0],"id":106,"left_children":[1,-1,3,5,-1,7,9,-1,-1,-1,-1],"loss_changes":[5.9475696E-1,0E0,9.1368216E-1,5.134296E-1,0E0,3.983307E-2,2.5369763E-1,0E0,0E0,0E0,0E0],"parents":[2147483647,0,0,2,2,3,3,5,5,6,6],"right_children":[2,-1,4,6,-1,8,10,-1,-1,-1,-1],"split_conditions":[3E0,-2.7724182E-2,5.3E0,1.7E0,-2.7895998E-2,6.3E0,2.9E0,3.5952605E-2,9.966582E-3,-2.33502E-2,1.1673231E-2],"split_indices":[2,0,2,3,0,0,1,0,0,0,0],"split_type":[0,0,0,0,0,0,0,0,0,0,0],"sum_hessian":[1.2521623E1,2.4467878E0,1.0074835E1,7.9602494E0,2.1145856E0,5.1944356E0,2.7658138E0,3.7753322E0,1.4191033E0,1.1835116E0,1.5823021E0],"tree_param":{"num_deleted":"0","num_feature":"4","num_nodes":"11","size_leaf_vector":"1"}},{"base_weights":[2.823357E-2,-2.4209589E-1,3.763668E-1,-3.2191295E-2,1.1999539E-1,4.3265196E-4,3.5424516E-2,2.5110722E-2,-9.432566E-3],"categories":[],"categories_nodes":[],"categories_segments":[],"categories_sizes":[],"default_left":[0,0,0,0,0,0,0,0,0],"id":107,"left_children":[1,3,5,-1,7,-1,-1,-1,-1],"loss_changes":[1.3560146E0,6.0534996E-1,2.2012097E-1,0E0,2.303982E-1,0E0,0E0,0E0,0E0],"parents":[2147483647,0,0,1,1,2,2,4,4],"right_children":[2,4,6,-1,8,-1,-1,-1,-1],"split_conditions":[5.1E0,1.7E0,6.1E0,-3.2191295E-2,2.9E0,4.3265196E-4,3.5424516E-2,2.5110722E-2,-9.432566E-3],"split_indices":[2,3,0,0,1,0,0,0,0],"split_type":[0,0,0,0,0,0,0,0,0],"sum_hessian":[1.2440536E1,7.1742425E0,5.266293E0,4.6076956E0,2.566547E0,1.3011936E0,3.9650998E0,1.1761665E0,1.3903803E0],"tree_param":{"num_deleted":"0","num_feature":"4","num_nodes":"9","size_leaf_vector":"1"}},{"base_weights":[-2.6877692E-2,3.2738414E-2,-3.2588273E-2],"categories":[],"categories_nodes":[],"categories_segments":[],"categories_sizes":[],"default_left":[0,0,0],"id":108,"left_children":[1,-1,-1],"loss_changes":[2.1155622E0,0E0,0E0],"parents":[2147483647,0,0],"right_children":[2,-1,-1],"split_conditions":[3E0,3.2738414E-2,-3.2588273E-2],"split_indices":[2,0,0],"split_type":[0,0,0],"sum_hessian":[9.195694E0,4.2703667E0,4.925328E0],"tree_param":{"num_deleted":"0","num_feature":"4","num_nodes":"3","size_leaf_vector":"1"}},{"base_weights":[-7.745032E-3,-2.7223112E-2,1.02963455E-1,3.0304816E-1,-2.5409484E-1,3.2815393E-2,-1.8391453E-3,7.621971E-3,-2.9626453E-2,7.828167E-3,-7.784104E-3],"categories":[],"categories_nodes":[],"categories_segments":[],"categories_sizes":[],"default_left":[0,0,0,0,0,0,0,0,0,0,0],"id":109,"left_children":[1,-1,3,5,7,-1,9,-1,-1,-1,-1],"loss_changes":[5.5000067E-1,0E0,8.4263676E-1,3.0113035E-1,2.6034677E-1,0E0,4.5892365E-2,0E0,0E0,0E0,0E0],"parents":[2147483647,0,0,2,2,3,3,4,4,6,6],"right_children":[2,-1,4,6,8,-1,10,-1,-1,-1,-1],"split_conditions":[3E0,-2.7223112E-2,5.1E0,1.7E0,2.8E0,3.2815393E-2,6E0,7.621971E-3,-2.9626453E-2,7.828167E-3,-7.784104E-3],"split_indices":[2,0,2,3,1,0,0,0,0,0,0],"split_type":[0,0,0,0,0,0,0,0,0,0,0],"sum_hessian":[1.2035016E1,2.318144E0,9.716872E0,6.324229E0,3.3926432E0,4.0865207E0,2.237708E0,1.0417988E0,2.3508444E0,1.0842686E0,1.1534396E0],"tree_param":{"num_deleted":"0","num_feature":"4","num_nodes":"11","size_leaf_vector":"1"}},{"base_weights":[2.894361E-2,-2.362193E-1,3.682969E-1,-3.1792425E-2,1.1600565E-1,3.8331226E-4,3.4864586E-2,2.4519842E-2,-9.106993E-3],"categories":[],"categories_nodes":[],"categories_segments":[],"categories_sizes":[],"default_left":[0,0,0,0,0,0,0,0,0],"id":110,"left_children":[1,3,5,-1,7,-1,-1,-1,-1],"loss_changes":[1.2528297E0,5.702352E-1,2.1063459E-1,0E0,2.1623896E-1,0E0,0E0,0E0,0E0],"parents":[2147483647,0,0,1,1,2,2,4,4],"right_children":[2,4,6,-1,8,-1,-1,-1,-1],"split_conditions":[5.1E0,1.7E0,6.1E0,-3.1792425E-2,2.9E0,3.8331226E-4,3.4864586E-2,2.4519842E-2,-9.106993E-3],"split_indices":[2,3,0,0,1,0,0,0,0],"split_type":[0,0,0,0,0,0,0,0,0],"sum_hessian":[1.1955992E1,6.882262E0,5.0737295E0,4.3571224E0,2.5251398E0,1.2868198E0,3.7869096E0,1.1375973E0,1.3875425E0],"tree_param":{"num_deleted":"0","num_feature":"4","num_nodes":"9","size_leaf_vector":"1"}},{"base_weights":[-2.7521608E-2,3.2260507E-2,-3.2227967E-2],"categories":[],"categories_nodes":[],"categories_segments":[],"categories_sizes":[],"default_left":[0,0,0],"id":111,"left_children":[1,-1,-1],"loss_changes":[1.9746907E0,0E0,0E0],"parents":[2147483647,0,0],"right_children":[2,-1,-1],"split_conditions":[3E0,3.2260507E-2,-3.2227967E-2],"split_indices":[2,0,0],"split_type":[0,0,0],"sum_hessian":[8.724075E0,4.0480876E0,4.6759877E0],"tree_param":{"num_deleted":"0","num_feature":"4","num_nodes":"3","size_leaf_vector":"1"}},{"base_weights":[-7.891669E-3,-2.6722973E-2,1.0018869E-1,2.4617086E-1,-2.6808169E-2,4.0969923E-1,-7.2590925E-2,3.5110377E-2,9.1565335E-3,-2.278066E-2,1.1020688E-2],"categories":[],"categories_nodes":[],"categories_segments":[],"categories_sizes":[],"default_left":[0,0,0,0,0,0,0,0,0,0,0],"id":112,"left_children":[1,-1,3,5,-1,7,9,-1,-1,-1,-1],"loss_changes":[5.093303E-1,0E0,7.8145427E-1,4.7083485E-1,0E0,3.937894E-2,2.3333764E-1,0E0,0E0,0E0,0E0],"parents":[2147483647,0,0,2,2,3,3,5,5,6,6],"right_children":[2,-1,4,6,-1,8,10,-1,-1,-1,-1],"split_conditions":[3E0,-2.6722973E-2,5.3E0,1.7E0,-2.6808169E-2,6.3E0,2.9E0,3.5110377E-2,9.1565335E-3,-2.278066E-2,1.1020688E-2],"split_indices":[2,0,2,3,0,0,1,0,0,0,0],"split_type":[0,0,0,0,0,0,0,0,0,0,0],"sum_hessian":[1.1577615E1,2.1973667E0,9.380248E0,7.4619846E0,1.9182636E0,4.7433233E0,2.718661E0,3.4206235E0,1.3226999E0,1.1374435E0,1.5812176E0],"tree_param":{"num_deleted":"0","num_feature":"4","num_nodes":"11","size_leaf_vector":"1"}},{"base_weights":[2.9339256E-2,-2.334668E-1,3.5832065E-1,-3.5660785E-1,9.822598E-3,3.5353046E-2,1.660651E-3,-1.3622427E-3,-3.1958926E-2],"categories":[],"categories_nodes":[],"categories_segments":[],"categories_sizes":[],"default_left":[0,0,0,0,0,0,0,0,0],"id":113,"left_children":[1,3,5,7,-1,-1,-1,-1,-1],"loss_changes":[1.1647929E0,3.85839E-1,2.1561223E-1,1.3146263E-1,0E0,0E0,0E0,0E0,0E0],"parents":[2147483647,0,0,1,1,2,2,3,3],"right_children":[2,4,6,8,-1,-1,-1,-1,-1],"split_conditions":[1.8E0,5.1E0,3.2E0,5E0,9.822598E-3,3.5353046E-2,1.660651E-3,-1.3622427E-3,-3.1958926E-2],"split_indices":[3,2,1,0,0,0,0,0,0],"split_type":[0,0,0,0,0,0,0,0,0],"sum_hessian":[1.150472E1,6.5570054E0,4.947715E0,4.9170356E0,1.6399698E0,3.4016297E0,1.5460851E0,1.0527198E0,3.8643155E0],"tree_param":{"num_deleted":"0","num_feature":"4","num_nodes":"9","size_leaf_vector":"1"}},{"base_weights":[-2.7699355E-2,3.1817023E-2,-3.187717E-2],"categories":[],"categories_nodes":[],"categories_segments":[],"categories_sizes":[],"default_left":[0,0,0],"id":114,"left_children":[1,-1,-1],"loss_changes":[1.8502656E0,0E0,0E0],"parents":[2147483647,0,0],"right_children":[2,-1,-1],"split_conditions":[3E0,3.1817023E-2,-3.187717E-2],"split_indices":[2,0,0],"split_type":[0,0,0],"sum_hessian":[8.300081E0,3.851572E0,4.448509E0],"tree_param":{"num_deleted":"0","num_feature":"4","num_nodes":"3","size_leaf_vector":"1"}},{"base_weights":[-8.402877E-3,-2.6221866E-2,9.695707E-2,2.4089208E-1,-2.6410373E-2,4.0211162E-1,-6.872607E-2,3.466974E-2,8.632043E-3,-2.2347353E-2,1.0873163E-2],"categories":[],"categories_nodes":[],"categories_segments":[],"categories_sizes":[],"default_left":[0,0,0,0,0,0,0,0,0,0,0],"id":115,"left_children":[1,-1,3,5,-1,7,9,-1,-1,-1,-1],"loss_changes":[4.7068813E-1,0E0,7.355019E-1,4.3778425E-1,0E0,4.2600513E-2,2.2286417E-1,0E0,0E0,0E0,0E0],"parents":[2147483647,0,0,2,2,3,3,5,5,6,6],"right_children":[2,-1,4,6,-1,8,10,-1,-1,-1,-1],"split_conditions":[3E0,-2.6221866E-2,5.3E0,1.7E0,-2.6410373E-2,6.3E0,2.9E0,3.466974E-2,8.632043E-3,-2.2347353E-2,1.0873163E-2],"split_indices":[2,0,2,3,0,0,1,0,0,0,0],"split_type":[0,0,0,0,0,0,0,0,0,0,0],"sum_hessian":[1.1149536E1,2.0834913E0,9.066045E0,7.216699E0,1.8493453E0,4.549185E0,2.6675146E0,3.2561963E0,1.2929883E0,1.096737E0,1.5707775E0],"tree_param":{"num_deleted":"0","num_feature":"4","num_nodes":"11","size_leaf_vector":"1"}},{"base_weights":[2.9729078E-2,-2.2551309E-1,3.5226625E-1,-3.0994471E-2,1.0658506E-1,-4.334402E-4,3.3921286E-2,2.3676148E-2,-9.039129E-3],"categories":[],"categories_nodes":[],"categories_segments":[],"categories_sizes":[],"default_left":[0,0,0,0,0,0,0,0,0],"id":116,"left_children":[1,3,5,-1,7,-1,-1,-1,-1],"loss_changes":[1.075504E0,5.031864E-1,2.0799893E-1,0E0,2.0209119E-1,0E0,0E0,0E0,0E0],"parents":[2147483647,0,0,1,1,2,2,4,4],"right_children":[2,4,6,-1,8,-1,-1,-1,-1],"split_conditions":[5.1E0,1.7E0,6.1E0,-3.0994471E-2,2.9E0,-4.334402E-4,3.3921286E-2,2.3676148E-2,-9.039129E-3],"split_indices":[2,3,0,0,1,0,0,0,0],"split_type":[0,0,0,0,0,0,0,0,0],"sum_hessian":[1.1099146E1,6.3638678E0,4.735278E0,3.909374E0,2.4544935E0,1.239675E0,3.495603E0,1.0748577E0,1.3796358E0],"tree_param":{"num_deleted":"0","num_feature":"4","num_nodes":"9","size_leaf_vector":"1"}},{"base_weights":[-2.8351469E-2,3.134716E-2,-3.1515073E-2],"categories":[],"categories_nodes":[],"categories_segments":[],"categories_sizes":[],"default_left":[0,0,0],"id":117,"left_children":[1,-1,-1],"loss_changes":[1.7289249E0,0E0,0E0],"parents":[2147483647,0,0],"right_children":[2,-1,-1],"split_conditions":[3E0,3.134716E-2,-3.1515073E-2],"split_indices":[2,0,0],"split_type":[0,0,0],"sum_hessian":[7.8816776E0,3.6536076E0,4.2280703E0],"tree_param":{"num_deleted":"0","num_feature":"4","num_nodes":"3","size_leaf_vector":"1"}},{"base_weights":[-8.773406E-3,-2.572461E-2,9.407435E-2,2.337502E-1,-2.585448E-2,3.9527372E-1,-6.8465665E-2,3.4190968E-2,8.285958E-3,-2.1949667E-2,1.0370674E-2],"categories":[],"categories_nodes":[],"categories_segments":[],"categories_sizes":[],"default_left":[0,0,0,0,0,0,0,0,0,0,0],"id":118,"left_children":[1,-1,3,5,-1,7,9,-1,-1,-1,-1],"loss_changes":[4.3570969E-1,0E0,6.787573E-1,4.1754246E-1,0E0,4.216057E-2,2.0911641E-1,0E0,0E0,0E0,0E0],"parents":[2147483647,0,0,2,2,3,3,5,5,6,6],"right_children":[2,-1,4,6,-1,8,10,-1,-1,-1,-1],"split_conditions":[3E0,-2.572461E-2,5.3E0,1.7E0,-2.585448E-2,6.3E0,2.9E0,3.4190968E-2,8.285958E-3,-2.1949667E-2,1.0370674E-2],"split_indices":[2,0,2,3,0,0,1,0,0,0,0],"split_type":[0,0,0,0,0,0,0,0,0,0,0],"sum_hessian":[1.0736884E1,1.9770727E0,8.759811E0,6.999181E0,1.7606305E0,4.360651E0,2.6385298E0,3.100182E0,1.260469E0,1.0664464E0,1.5720832E0],"tree_param":{"num_deleted":"0","num_feature":"4","num_nodes":"11","size_leaf_vector":"1"}},{"base_weights":[3.0358514E-2,-2.2322088E-1,3.445448E-1,-3.4517208E-1,9.054441E-3,3.4718238E-2,4.140722E-4,-1.8613945E-3,-3.1029293E-2],"categories":[],"categories_nodes":[],"categories_segments":[],"categories_sizes":[],"default_left":[0,0,0,0,0,0,0,0,0],"id":119,"left_children":[1,3,5,7,-1,-1,-1,-1,-1],"loss_changes":[1.007977E0,3.3837852E-1,2.2267014E-1,1.1010581E-1,0E0,0E0,0E0,0E0,0E0],"parents":[2147483647,0,0,1,1,2,2,3,3],"right_children":[2,4,6,8,-1,-1,-1,-1,-1],"split_conditions":[1.8E0,5.1E0,3.2E0,2.6E0,9.054441E-3,3.4718238E-2,4.140722E-4,-1.8613945E-3,-3.1029293E-2],"split_indices":[3,2,1,1,0,0,0,0,0],"split_type":[0,0,0,0,0,0,0,0,0],"sum_hessian":[1.0686379E1,6.073772E0,4.6126075E0,4.481301E0,1.5924709E0,3.1480825E0,1.4645247E0,1.0299982E0,3.4513028E0],"tree_param":{"num_deleted":"0","num_feature":"4","num_nodes":"9","size_leaf_vector":"1"}},{"base_weights":[-2.9342128E-2,3.0878961E-2,-3.1161215E-2],"categories":[],"categories_nodes":[],"categories_segments":[],"categories_sizes":[],"default_left":[0,0,0],"id":120,"left_children":[1,-1,-1],"loss_changes":[1.6174318E0,0E0,0E0],"parents":[2147483647,0,0],"right_children":[2,-1,-1],"split_conditions":[3E0,3.0878961E-2,-3.1161215E-2],"split_indices":[2,0,0],"split_type":[0,0,0],"sum_hessian":[7.4924774E0,3.4665906E0,4.025887E0],"tree_param":{"num_deleted":"0","num_feature":"4","num_nodes":"3","size_leaf_vector":"1"}},{"base_weights":[-8.607045E-3,-2.5229627E-2,9.167366E-2,2.2932772E-1,-2.546993E-2,3.8832384E-1,-6.4845406E-2,3.3776645E-2,7.854408E-3,-2.1534143E-2,1.0241364E-2],"categories":[],"categories_nodes":[],"categories_segments":[],"categories_sizes":[],"default_left":[0,0,0,0,0,0,0,0,0,0,0],"id":121,"left_children":[1,-1,3,5,-1,7,9,-1,-1,-1,-1],"loss_changes":[4.0450653E-1,0E0,6.4130086E-1,3.8959408E-1,0E0,4.432738E-2,1.9993755E-1,0E0,0E0,0E0,0E0],"parents":[2147483647,0,0,2,2,3,3,5,5,6,6],"right_children":[2,-1,4,6,-1,8,10,-1,-1,-1,-1],"split_conditions":[3E0,-2.5229627E-2,5.3E0,1.7E0,-2.546993E-2,6.3E0,2.9E0,3.3776645E-2,7.854408E-3,-2.1534143E-2,1.0241364E-2],"split_indices":[2,0,2,3,0,0,1,0,0,0,0],"split_type":[0,0,0,0,0,0,0,0,0,0,0],"sum_hessian":[1.0367776E1,1.877207E0,8.490569E0,6.7912006E0,1.6993685E0,4.2007217E0,2.5904784E0,2.9643314E0,1.2363906E0,1.0290697E0,1.5614089E0],"tree_param":{"num_deleted":"0","num_feature":"4","num_nodes":"11","size_leaf_vector":"1"}},{"base_weights":[3.0646766E-2,-2.1622884E-1,3.3865675E-1,-3.0215124E-2,9.797497E-2,-9.445649E-4,3.3058297E-2,2.2667285E-2,-8.722477E-3],"categories":[],"categories_nodes":[],"categories_segments":[],"categories_sizes":[],"default_left":[0,0,0,0,0,0,0,0,0],"id":122,"left_children":[1,3,5,-1,7,-1,-1,-1,-1],"loss_changes":[9.3427056E-1,4.4386432E-1,2.0024121E-1,0E0,1.8282399E-1,0E0,0E0,0E0,0E0],"parents":[2147483647,0,0,1,1,2,2,4,4],"right_children":[2,4,6,-1,8,-1,-1,-1,-1],"split_conditions":[5.1E0,1.7E0,6.1E0,-3.0215124E-2,2.9E0,-9.445649E-4,3.3058297E-2,2.2667285E-2,-8.722477E-3],"split_indices":[2,3,0,0,1,0,0,0,0],"split_type":[0,0,0,0,0,0,0,0,0],"sum_hessian":[1.0323533E1,5.8958683E0,4.4276648E0,3.5217402E0,2.3741283E0,1.1947856E0,3.2328792E0,1.0053272E0,1.3688011E0],"tree_param":{"num_deleted":"0","num_feature":"4","num_nodes":"9","size_leaf_vector":"1"}},{"base_weights":[-2.9924273E-2,3.0415235E-2,-3.0795706E-2],"categories":[],"categories_nodes":[],"categories_segments":[],"categories_sizes":[],"default_left":[0,0,0],"id":123,"left_children":[1,-1,-1],"loss_changes":[1.5127926E0,0E0,0E0],"parents":[2147483647,0,0],"right_children":[2,-1,-1],"split_conditions":[3E0,3.0415235E-2,-3.0795706E-2],"split_indices":[2,0,0],"split_type":[0,0,0],"sum_hessian":[7.1211786E0,3.2911708E0,3.8300076E0],"tree_param":{"num_deleted":"0","num_feature":"4","num_nodes":"3","size_leaf_vector":"1"}},{"base_weights":[-9.003801E-3,-2.4737207E-2,8.888855E-2,2.2243404E-1,-2.4924614E-2,3.8166207E-1,-6.479412E-2,3.330112E-2,7.5395037E-3,-2.1155877E-2,9.765688E-3],"categories":[],"categories_nodes":[],"categories_segments":[],"categories_sizes":[],"default_left":[0,0,0,0,0,0,0,0,0,0,0],"id":124,"left_children":[1,-1,3,5,-1,7,9,-1,-1,-1,-1],"loss_changes":[3.7471628E-1,0E0,5.9223795E-1,3.7209415E-1,0E0,4.3564916E-2,1.877267E-1,0E0,0E0,0E0,0E0],"parents":[2147483647,0,0,2,2,3,3,5,5,6,6],"right_children":[2,-1,4,6,-1,8,10,-1,-1,-1,-1],"split_conditions":[3E0,-2.4737207E-2,5.3E0,1.7E0,-2.4924614E-2,6.3E0,2.9E0,3.330112E-2,7.5395037E-3,-2.1155877E-2,9.765688E-3],"split_indices":[2,0,2,3,0,0,1,0,0,0,0],"split_type":[0,0,0,0,0,0,0,0,0,0,0],"sum_hessian":[9.99771E0,1.7834495E0,8.214261E0,6.595198E0,1.6190629E0,4.0315104E0,2.5636876E0,2.8254845E0,1.206026E0,1.0013703E0,1.5623173E0],"tree_param":{"num_deleted":"0","num_feature":"4","num_nodes":"11","size_leaf_vector":"1"}},{"base_weights":[3.1229842E-2,-2.134904E-1,3.3130533E-1,-3.3397016E-1,8.365793E-3,3.4116868E-2,-7.3878566E-4,-3.9690416E-3,-2.9948011E-2],"categories":[],"categories_nodes":[],"categories_segments":[],"categories_sizes":[],"default_left":[0,0,0,0,0,0,0,0,0],"id":125,"left_children":[1,3,5,7,-1,-1,-1,-1,-1],"loss_changes":[8.75017E-1,2.9730505E-1,2.2843206E-1,7.243228E-2,0E0,0E0,0E0,0E0,0E0],"parents":[2147483647,0,0,1,1,2,2,3,3],"right_children":[2,4,6,8,-1,-1,-1,-1,-1],"split_conditions":[1.8E0,5.1E0,3.2E0,2.7E0,8.365793E-3,3.4116868E-2,-7.3878566E-4,-3.9690416E-3,-2.9948011E-2],"split_indices":[3,2,1,1,0,0,0,0,0],"split_type":[0,0,0,0,0,0,0,0,0],"sum_hessian":[9.952427E0,5.640764E0,4.311662E0,4.0952826E0,1.5454817E0,2.9203575E0,1.3913049E0,1.1138698E0,2.981413E0],"tree_param":{"num_deleted":"0","num_feature":"4","num_nodes":"9","size_leaf_vector":"1"}},{"base_weights":[-3.0832537E-2,2.995364E-2,-3.0439755E-2],"categories":[],"categories_nodes":[],"categories_segments":[],"categories_sizes":[],"default_left":[0,0,0],"id":126,"left_children":[1,-1,-1],"loss_changes":[1.4168234E0,0E0,0E0],"parents":[2147483647,0,0],"right_children":[2,-1,-1],"split_conditions":[3E0,2.995364E-2,-3.0439755E-2],"split_indices":[2,0,0],"split_type":[0,0,0],"sum_hessian":[6.7767467E0,3.1259274E0,3.6508195E0],"tree_param":{"num_deleted":"0","num_feature":"4",