tree
version=v4
num_class=3
num_tree_per_iteration=3
label_index=0
max_feature_idx=3
objective=multiclass num_class:3
feature_names=Column_0 Column_1 Column_2 Column_3
feature_infos=[4.2999999999999998:7.7000000000000002] [2:4.2000000000000002] [1.1000000000000001:6.7000000000000002] [0.10000000000000001:2.5]
tree_sizes=342 435 543 549 427 549 553 444 446 447 429 552 449 427 445 449 444 549 448 428 446 449 429 447 449 445 551 449 427 551 449 445 551 553 444 446 449 444 550 553 429 549 551 428 549 448 445 548 447 429 551 447 427 550 449 426 547 449 442 551 447 425 548 445 427 553 448 445 551 449 427 548 446 429 552 445 443 550 554 443 548 447 441 546 549 543 548 430 444 547 445 444 551 431 443 546 549 442 549 447 445 548 432 445 554 553 444 548 554 546 548 552 548 652 537 445 549 533 444 548 447 445 650 429 446 648 550 547 554 431 547 548 449 549 648 448 448 448 430 550 545 448 548 546 556 547 548 555 550 650 432 551 740 553 548 554 537 547 759 554 549 757 557 544 758 538 548 547 539 551 762 557 550 549 447 549 549

Tree=0
num_leaves=2
num_cat=0
split_feature=2
split_gain=61.0909
threshold=3.1500000000000004
decision_type=2
left_child=-1
right_child=-2
leaf_value=-1.0031577432135643 -1.1486122886681098
leaf_weight=11.000000327825544 21.00000062584877
leaf_count=33 63
internal_value=-1.09861
internal_weight=0
internal_count=96
is_linear=0
shrinkage=1


Tree=1
num_leaves=3
num_cat=0
split_feature=3 3
split_gain=14.5455 30.9845
threshold=0.45000000000000007 1.6500000000000001
decision_type=2 2
left_child=-1 -2
right_child=1 -3
leaf_value=-1.1486122886681098 -1.0200408600966813 -1.138934869313271
leaf_weight=10.000000298023222 11.66666701436043 10.333333641290663
leaf_count=30 35 31
internal_value=-1.09861 -1.07589
internal_weight=0 22
internal_count=96 66
is_linear=0
shrinkage=1


Tree=2
num_leaves=4
num_cat=0
split_feature=3 2 1
split_gain=49.8025 0.87033 1.77636e-15
threshold=1.6500000000000001 4.0500000000000007 3.2500000000000004
decision_type=2 2 2
left_child=1 2 -1
right_child=-2 -3 -4
leaf_value=-1.1486122886681098 -1.0082897080229485 -1.1271837172395383 -1.1486122886681098
leaf_weight=7.0000002086162585 10.333333641290663 7.0000002086162558 7.6666668951511383
leaf_count=21 31 21 23
internal_value=-1.09861 -1.14169 -1.14861
internal_weight=0 21.6667 14.6667
internal_count=96 65 44
is_linear=0
shrinkage=1


Tree=3
num_leaves=4
num_cat=0
split_feature=2 3 3
split_gain=54.1915 1.4757e-05 3.9419e-08
threshold=3.1500000000000004 1.4500000000000002 1.8500000000000003
decision_type=2 2 2
left_child=-1 -2 -3
right_child=1 2 -4
leaf_value=0.08697027690106518 -0.048855670845334966 -0.04876817874537296 -0.048762794363361291
leaf_weight=11.472075194120409 6.8282808661460903 7.1387451589107496 6.4889371395111084
leaf_count=33 21 22 20
internal_value=0 -0.0487957 -0.0487656
internal_weight=0 20.456 13.6277
internal_count=96 63 42
is_linear=0
shrinkage=0.05


Tree=4
num_leaves=3
num_cat=0
split_feature=2 3
split_gain=13.4883 27.3689
threshold=1.8 1.6500000000000001
decision_type=2 2
left_child=-1 -2
right_child=1 -3
leaf_value=-0.048937238721962657 0.072450599153766296 -0.039092033087440164
leaf_weight=9.7685521841049212 12.059028685092928 10.109946012496946
leaf_count=30 35 31
internal_value=0 0.0215827
internal_weight=0 22.169
internal_count=96 66
is_linear=0
shrinkage=0.05


Tree=5
num_leaves=4
num_cat=0
split_feature=3 2 1
split_gain=43.9665 0.840165 1.70059e-05
threshold=1.6500000000000001 4.0500000000000007 3.2500000000000004
decision_type=2 2 2
left_child=1 2 -1
right_child=-2 -3 -4
leaf_value=-0.048820576536217526 0.08226507701909587 -0.027506299513666368 -0.048711319750495814
leaf_weight=6.8220338225364738 10.766018003225325 6.8928868174552909 7.4520754218101501
leaf_count=21 31 21 23
internal_value=0 -0.0418413 -0.0487635
internal_weight=0 21.167 14.2741
internal_count=96 65 44
is_linear=0
shrinkage=0.05


Tree=6
num_leaves=4
num_cat=0
split_feature=2 3 3
split_gain=48.4162 4.55412e-05 1.88456e-07
threshold=3.1500000000000004 1.4500000000000002 1.8500000000000003
decision_type=2 2 2
left_child=-1 -2 -3
right_child=1 2 -4
leaf_value=0.080041671151950641 -0.047798343213839897 -0.047643630711528877 -0.047631685147506708
leaf_weight=11.833519250154497 6.6475779414176968 6.9347609579563123 6.3022273778915405
leaf_count=33 21 22 20
internal_value=0 -0.0476916 -0.0476379
internal_weight=0 19.8846 13.237
internal_count=96 63 42
is_linear=0
shrinkage=0.05


Tree=7
num_leaves=3
num_cat=0
split_feature=3 3
split_gain=12.3901 24.1452
threshold=0.45000000000000007 1.6500000000000001
decision_type=2 2
left_child=-1 -2
right_child=1 -3
leaf_value=-0.047798129146646884 0.066880376106481051 -0.037908509742657033
leaf_weight=9.4924921989440936 12.398661822080614 9.8758364319801313
leaf_count=30 35 31
internal_value=0 0.0204202
internal_weight=0 22.2745
internal_count=96 66
is_linear=0
shrinkage=0.05


Tree=8
num_leaves=3
num_cat=0
split_feature=2 1
split_gain=39.3263 0.0861471
threshold=4.7500000000000009 2.9500000000000006
decision_type=2 2
left_child=1 -1
right_child=-2 -3
leaf_value=-0.040666239437146208 0.068240396414644203 -0.047779993720124592
leaf_weight=6.4134742319583955 12.679580718278883 12.650102972984312
leaf_count=20 36 40
internal_value=0 -0.0453867
internal_weight=0 19.0636
internal_count=96 60
is_linear=0
shrinkage=0.05


Tree=9
num_leaves=3
num_cat=0
split_feature=2 2
split_gain=43.5297 0.000162574
threshold=3.1500000000000004 4.7500000000000009
decision_type=2 2
left_child=-1 -2
right_child=1 -3
leaf_value=0.074305653050707798 -0.046855678308519624 -0.046562603288339111
leaf_weight=12.091556221246721 8.3143436908721942 10.98192051053047
leaf_count=33 27 36
internal_value=0 -0.0466889
internal_weight=0 19.2963
internal_count=96 63
is_linear=0
shrinkage=0.05


Tree=10
num_leaves=3
num_cat=0
split_feature=2 2
split_gain=11.5296 22.0458
threshold=1.8 4.9500000000000011
decision_type=2 2
left_child=-1 -2
right_child=1 -3
leaf_value=-0.046901705030938379 0.062576430425813789 -0.037959869902909282
leaf_weight=9.2334536612033862 12.741060346364977 9.5324023663997632
leaf_count=30 36 30
internal_value=0 0.0195498
internal_weight=0 22.2735
internal_count=96 66
is_linear=0
shrinkage=0.05


Tree=11
num_leaves=4
num_cat=0
split_feature=3 0 1
split_gain=35.2671 0.801223 0.000295473
threshold=1.6500000000000001 5.6500000000000012 3.2500000000000004
decision_type=2 2 2
left_child=1 2 -1
right_child=-2 -3 -4
leaf_value=-0.046935037145564733 0.070599881866481792 -0.025514870680686433 -0.046466706240882047
leaf_weight=6.7845886945724541 11.324091136455534 6.6716028451919547 6.6875001192092896
leaf_count=22 31 21 22
internal_value=0 -0.0396852 -0.0467026
internal_weight=0 20.1437 13.4721
internal_count=96 65 44
is_linear=0
shrinkage=0.05


Tree=12
num_leaves=3
num_cat=0
split_feature=2 2
split_gain=39.3347 0.000138982
threshold=3.1500000000000004 4.5500000000000007
decision_type=2 2
left_child=-1 -2
right_child=1 -3
leaf_value=0.069481609765181362 -0.045946416386681968 -0.045663654829039953
leaf_weight=12.257597833871843 6.8706272840499905 11.825078278779982
leaf_count=33 23 40
internal_value=0 -0.0457676
internal_weight=0 18.6957
internal_count=96 63
is_linear=0
shrinkage=0.05


Tree=13
num_leaves=3
num_cat=0
split_feature=2 2
split_gain=10.6166 19.8395
threshold=1.8 4.9500000000000011
decision_type=2 2
left_child=-1 -2
right_child=1 -3
leaf_value=-0.04592389663873632 0.05867475975381873 -0.037022442551602766
leaf_weight=8.9358414709568041 12.932369798421862 9.3183178901672346
leaf_count=30 36 30
internal_value=0 0.0185979
internal_weight=0 22.2507
internal_count=96 66
is_linear=0
shrinkage=0.05


Tree=14
num_leaves=3
num_cat=0
split_feature=2 1
split_gain=32.3468 0.0785871
threshold=4.7500000000000009 2.9500000000000006
decision_type=2 2
left_child=1 -1
right_child=-2 -3
leaf_value=-0.038858504311406444 0.059828269577171016 -0.045830990467972108
leaf_weight=6.1235924661159578 13.089953690767286 11.884194672107695
leaf_count=20 36 40
internal_value=0 -0.04346
internal_weight=0 18.0078
internal_count=96 60
is_linear=0
shrinkage=0.05


Tree=15
num_leaves=3
num_cat=0
split_feature=2 2
split_gain=35.6963 0.000198717
threshold=3.1500000000000004 4.7500000000000009
decision_type=2 2
left_child=-1 -2
right_child=1 -3
leaf_value=0.065368713530905731 -0.045119760126036093 -0.044785201770962485
leaf_weight=12.339909225702288 7.8155811429023769 10.271810978651045
leaf_count=33 27 36
internal_value=0 -0.0449298
internal_weight=0 18.0874
internal_count=96 63
is_linear=0
shrinkage=0.05


Tree=16
num_leaves=3
num_cat=0
split_feature=3 3
split_gain=9.88077 18.1841
threshold=0.45000000000000007 1.6500000000000001
decision_type=2 2
left_child=-1 -2
right_child=1 -3
leaf_value=-0.045139964028091666 0.056399534132241774 -0.035406420922646849
leaf_weight=8.6537972688674945 12.850903600454332 9.2950242161750776
leaf_count=30 35 31
internal_value=0 0.017867
internal_weight=0 22.1459
internal_count=96 66
is_linear=0
shrinkage=0.05


Tree=17
num_leaves=4
num_cat=0
split_feature=3 0 1
split_gain=29.1846 0.720819 0.000430903
threshold=1.6500000000000001 5.6500000000000012 3.2500000000000004
decision_type=2 2 2
left_child=1 2 -1
right_child=-2 -3 -4
leaf_value=-0.045185582182998979 0.062722630824962058 -0.024405919159719819 -0.04460064542119329
leaf_weight=6.371223330497747 11.564591526985167 6.5103795528411856 6.2244266867637634
leaf_count=22 31 21 22
internal_value=0 -0.0379143 -0.0448965
internal_weight=0 19.106 12.5957
internal_count=96 65 44
is_linear=0
shrinkage=0.05


Tree=18
num_leaves=3
num_cat=0
split_feature=2 2
split_gain=32.5018 0.00019471
threshold=3.1500000000000004 4.7500000000000009
decision_type=2 2
left_child=-1 -2
right_child=1 -3
leaf_value=0.061835590306677984 -0.044335829477133132 -0.043998877464318846
leaf_weight=12.348791599273683 7.5558026432991054 9.9113399982452375
leaf_count=33 27 36
internal_value=0 -0.0441446
internal_weight=0 17.4671
internal_count=96 63
is_linear=0
shrinkage=0.05


Tree=19
num_leaves=3
num_cat=0
split_feature=2 2
split_gain=9.1306 16.9845
threshold=1.8 5.0500000000000007
decision_type=2 2
left_child=-1 -2
right_child=1 -3
leaf_value=-0.044310932071633918 0.050533147632443112 -0.040721274322184836
leaf_weight=8.3460210859775561 13.926514089107515 8.0442914068698865
leaf_count=30 39 27
internal_value=0 0.0171217
internal_weight=0 21.9708
internal_count=96 66
is_linear=0
shrinkage=0.05


Tree=20
num_leaves=3
num_cat=0
split_feature=2 1
split_gain=26.9061 0.0743919
threshold=4.7500000000000009 2.9500000000000006
decision_type=2 2
left_child=1 -1
right_child=-2 -3
leaf_value=-0.037193496114764461 0.053412693154584058 -0.044175276205315472
leaf_weight=5.8178853094577851 13.239880532026289 11.08450800180435
leaf_count=20 36 40
internal_value=0 -0.0417721
internal_weight=0 16.9024
internal_count=96 60
is_linear=0
shrinkage=0.05


Tree=21
num_leaves=3
num_cat=0
split_feature=2 2
split_gain=29.6935 0.000245691
threshold=3.1500000000000004 4.7500000000000009
decision_type=2 2
left_child=-1 -2
right_child=1 -3
leaf_value=0.058755263261702911 -0.043656907674142764 -0.043271715323302713
leaf_weight=12.291997373104097 7.3116369545459774 9.5426761507987958
leaf_count=33 27 36
internal_value=0 -0.0434388
internal_weight=0 16.8543
internal_count=96 63
is_linear=0
shrinkage=0.05


Tree=22
num_leaves=3
num_cat=0
split_feature=2 2
split_gain=8.44056 15.4246
threshold=1.8 5.0500000000000007
decision_type=2 2
left_child=-1 -2
right_child=1 -3
leaf_value=-0.043536553800394784 0.047900862249264778 -0.039783051659234334
leaf_weight=8.0339702367782611 13.969450026750566 7.8248570561408988
leaf_count=30 39 27
internal_value=0 0.0164195
internal_weight=0 21.7943
internal_count=96 66
is_linear=0
shrinkage=0.05


Tree=23
num_leaves=3
num_cat=0
split_feature=2 0
split_gain=24.5128 0.0886825
threshold=4.7500000000000009 5.1500000000000012
decision_type=2 2
left_child=1 -1
right_child=-2 -3
leaf_value=-0.036786884344102801 0.050536301420404023 -0.044211370786485724
leaf_weight=7.1686291098594728 13.270720064640043 9.1630345880985242
leaf_count=27 36 33
internal_value=0 -0.0409525
internal_weight=0 16.3317
internal_count=96 60
is_linear=0
shrinkage=0.05


Tree=24
num_leaves=3
num_cat=0
split_feature=2 2
split_gain=27.2452 0.000295272
threshold=3.1500000000000004 4.7500000000000009
decision_type=2 2
left_child=-1 -2
right_child=1 -3
leaf_value=0.056116381464689162 -0.043038254015338534 -0.042608358167279634
leaf_weight=12.180597722530367 7.0722945630550411 9.1774336546659452
leaf_count=33 27 36
internal_value=0 -0.0427955
internal_weight=0 16.2497
internal_count=96 63
is_linear=0
shrinkage=0.05


Tree=25
num_leaves=3
num_cat=0
split_feature=3 3
split_gain=7.93999 14.1442
threshold=0.45000000000000007 1.6500000000000001
decision_type=2 2
left_child=-1 -2
right_child=1 -3
leaf_value=-0.043039634739204996 0.049325645548893411 -0.033274227546891251
leaf_weight=7.7604961097240475 12.827476143836977 8.6964260041713697
leaf_count=30 35 31
internal_value=0 0.0159523
internal_weight=0 21.5239
internal_count=96 66
is_linear=0
shrinkage=0.05


Tree=26
num_leaves=4
num_cat=0
split_feature=2 0 1
split_gain=22.3723 0.130039 0.00109598
threshold=4.7500000000000009 5.0500000000000007 3.0500000000000003
decision_type=2 2 2
left_child=1 -1 -3
right_child=-2 2 -4
leaf_value=-0.033465418573050153 0.047961216482863715 -0.043726391173272761 -0.042718075884050993
leaf_weight=4.9538999199867275 13.255777597427366 5.6823599040508253 5.1260282099246979
leaf_count=19 36 21 20
internal_value=0 -0.0401736 -0.0432482
internal_weight=0 15.7623 10.8084
internal_count=96 60 41
is_linear=0
shrinkage=0.05


Tree=27
num_leaves=3
num_cat=0
split_feature=2 2
split_gain=25.0398 0.000341938
threshold=3.1500000000000004 4.7500000000000009
decision_type=2 2
left_child=-1 -2
right_child=1 -3
leaf_value=0.053773636118301819 -0.042450685456156767 -0.041979326265237739
leaf_weight=12.024051874876024 6.8277879059314719 8.8147806078195554
leaf_count=33 27 36
internal_value=0 -0.0421851
internal_weight=0 15.6426
internal_count=96 63
is_linear=0
shrinkage=0.05


Tree=28
num_leaves=3
num_cat=0
split_feature=2 2
split_gain=7.27509 13.1979
threshold=1.8 5.0500000000000007
decision_type=2 2
left_child=-1 -2
right_child=1 -3
leaf_value=-0.042244021573521848 0.044156800185641248 -0.038481732035360199
leaf_weight=7.422321408987048 13.815957129001619 7.4296078979969016
leaf_count=30 39 27
internal_value=0 0.015258
internal_weight=0 21.2456
internal_count=96 66
is_linear=0
shrinkage=0.05


Tree=29
num_leaves=4
num_cat=0
split_feature=3 2 1
split_gain=20.5712 0.621062 0.000472084
threshold=1.6500000000000001 4.0500000000000007 3.2500000000000004
decision_type=2 2 2
left_child=1 2 -1
right_child=-2 -3 -4
leaf_value=-0.042436655149570721 0.051869417919474317 -0.022143158332105686 -0.041776341080242391
leaf_weight=5.2809385955333763 11.445462316274641 6.0914310514926902 5.553150475025177
leaf_count=21 31 21 23
internal_value=0 -0.0349165 -0.0420982
internal_weight=0 16.9255 10.8341
internal_count=96 65 44
is_linear=0
shrinkage=0.05


Tree=30
num_leaves=3
num_cat=0
split_feature=2 3
split_gain=23.0358 0.000308611
threshold=3.1500000000000004 1.6500000000000001
decision_type=2 2
left_child=-1 -2
right_child=1 -3
leaf_value=0.051651765510442427 -0.041844752654418726 -0.041391532056459589
leaf_weight=11.821463942527773 7.7647503614425641 7.2753922939300537
leaf_count=33 32 31
internal_value=0 -0.0416255
internal_weight=0 15.0401
internal_count=96 63
is_linear=0
shrinkage=0.05


Tree=31
num_leaves=3
num_cat=0
split_feature=3 2
split_gain=6.87194 12.2315
threshold=0.45000000000000007 5.0500000000000007
decision_type=2 2
left_child=-1 -2
right_child=1 -3
leaf_value=-0.041855794812586958 0.042667646286481314 -0.037806404079409189
leaf_weight=7.1572825908660915 13.689624935388567 7.2079699337482444
leaf_count=30 39 27
internal_value=0 0.0149106
internal_weight=0 20.8976
internal_count=96 66
is_linear=0
shrinkage=0.05


Tree=32
num_leaves=4
num_cat=0
split_feature=3 0 0
split_gain=18.8928 0.781816 0.000653008
threshold=1.6500000000000001 5.7500000000000009 5.1500000000000012
decision_type=2 2 2
left_child=1 2 -1
right_child=-2 -3 -4
leaf_value=-0.041287553458414061 0.04979685649936702 -0.018163310074826657 -0.042053790454357011
leaf_weight=6.0326928943395668 11.320014774799345 5.1909300386905661 5.1579234302043915
leaf_count=26 31 18 21
internal_value=0 -0.0342013 -0.0416407
internal_weight=0 16.3815 11.1906
internal_count=96 65 47
is_linear=0
shrinkage=0.05


Tree=33
num_leaves=4
num_cat=0
split_feature=3 3 3
split_gain=20.2437 0.239452 7.76296e-05
threshold=0.45000000000000007 1.3500000000000003 1.8500000000000003
decision_type=2 2 2
left_child=-1 -2 -3
right_child=1 2 -4
leaf_value=0.053055553762542645 -0.027645956498157181 -0.041149017339105053 -0.040876292028331394
leaf_weight=10.476077169179918 4.8547988682985297 6.1931717693805677 4.5089094638824463
leaf_count=30 19 27 20
internal_value=0 -0.0368561 -0.0410341
internal_weight=0 15.5569 10.7021
internal_count=96 66 47
is_linear=0
shrinkage=0.05


Tree=34
num_leaves=3
num_cat=0
split_feature=3 2
split_gain=6.37063 11.249
threshold=0.45000000000000007 5.0500000000000007
decision_type=2 2
left_child=-1 -2
right_child=1 -3
leaf_value=-0.041271626027660976 0.040926031147335937 -0.037152123234564509
leaf_weight=6.8511439263820675 13.577522575855257 6.9870114028453818
leaf_count=30 39 27
internal_value=0 0.0143982
internal_weight=0 20.5645
internal_count=96 66
is_linear=0
shrinkage=0.05


Tree=35
num_leaves=3
num_cat=0
split_feature=2 1
split_gain=17.4603 0.0818853
threshold=4.7500000000000009 2.9500000000000006
decision_type=2 2
left_child=1 -1
right_child=-2 -3
leaf_value=-0.033112583613858874 0.042230787018776667 -0.04107569606711603
leaf_weight=4.9969805330038097 12.889624059200285 9.1211622506380063
leaf_count=20 36 40
internal_value=0 -0.0382572
internal_weight=0 14.1181
internal_count=96 60
is_linear=0
shrinkage=0.05


Tree=36
num_leaves=3
num_cat=0
split_feature=2 3
split_gain=19.7054 0.000516733
threshold=3.1500000000000004 1.6500000000000001
decision_type=2 2
left_child=-1 -2
right_child=1 -3
leaf_value=0.048207210567968672 -0.040954393782137333 -0.040344142245031307
leaf_weight=11.314982682466509 7.2467409223318082 6.6540130972862244
leaf_count=33 32 31
internal_value=0 -0.0406623
internal_weight=0 13.9008
internal_count=96 63
is_linear=0
shrinkage=0.05


Tree=37
num_leaves=3
num_cat=0
split_feature=3 3
split_gain=5.89374 10.3027
threshold=0.45000000000000007 1.6500000000000001
decision_type=2 2
left_child=-1 -2
right_child=1 -3
leaf_value=-0.04071303545795036 0.042362473814620563 -0.030793940006899959
leaf_weight=6.5396811515092876 12.363246291875841 7.8801708668470374
leaf_count=30 35 31
internal_value=0 0.0138848
internal_weight=0 20.2434
internal_count=96 66
is_linear=0
shrinkage=0.05


Tree=38
num_leaves=4
num_cat=0
split_feature=2 2 1
split_gain=16.0147 1.05407 0.00119106
threshold=4.9500000000000011 4.2500000000000009 3.0500000000000003
decision_type=2 2 2
left_child=1 2 -1
right_child=-2 -3 -4
leaf_value=-0.041249892716601268 0.047659699147400134 -0.012766902093898184 -0.040187010647501825
leaf_weight=4.6156648546457308 10.606248289346693 4.9517422169446936 6.1445184797048569
leaf_count=20 30 17 29
internal_value=0 -0.0318576 -0.0406429
internal_weight=0 15.7119 10.7602
internal_count=96 66 49
is_linear=0
shrinkage=0.05


Tree=39
num_leaves=4
num_cat=0
split_feature=3 3 3
split_gain=17.1573 0.244494 7.86163e-05
threshold=0.45000000000000007 1.3500000000000003 1.8500000000000003
decision_type=2 2 2
left_child=-1 -2 -3
right_child=1 2 -4
leaf_value=0.049771617206896164 -0.026126407761353124 -0.040216969712383942 -0.039930630998895544
leaf_weight=9.9167326390743273 4.5938260853290549 5.7077154666185361 4.1328558623790741
leaf_count=30 19 27 20
internal_value=0 -0.0356506 -0.0400967
internal_weight=0 14.4344 9.84057
internal_count=96 66 47
is_linear=0
shrinkage=0.05


Tree=40
num_leaves=3
num_cat=0
split_feature=2 2
split_gain=5.57388 9.69837
threshold=1.8 5.0500000000000007
decision_type=2 2
left_child=-1 -2
right_child=1 -3
leaf_value=-0.040419847527668508 0.038305485257904434 -0.035971601601716967
leaf_weight=6.2828304320573833 13.228490352630617 6.5810020267963401
leaf_count=30 39 27
internal_value=0 0.0136296
internal_weight=0 19.8095
internal_count=96 66
is_linear=0
shrinkage=0.05


Tree=41
num_leaves=4
num_cat=0
split_feature=3 3 3
split_gain=14.9337 0.816966 0.00105281
threshold=1.6500000000000001 1.3500000000000003 0.45000000000000007
decision_type=2 2 2
left_child=1 2 -1
right_child=-2 -3 -4
leaf_value=-0.0397680688317959 0.044909451802173608 -0.014628832234372932 -0.040796200501083853
leaf_weight=6.0971700549125689 10.795195281505583 4.487944468855857 4.2087456434965134
leaf_count=30 31 16 19
internal_value=0 -0.0324342 -0.0401879
internal_weight=0 14.7939 10.3059
internal_count=96 65 49
is_linear=0
shrinkage=0.05


Tree=42
num_leaves=4
num_cat=0
split_feature=3 3 3
split_gain=15.8729 0.244295 0.00010753
threshold=0.45000000000000007 1.3500000000000003 1.8500000000000003
decision_type=2 2 2
left_child=-1 -2 -3
right_child=1 2 -4
leaf_value=0.048450640358970426 -0.025511136247446969 -0.039831486842439728 -0.039489050334384032
leaf_weight=9.608814090490343 4.4853592664003363 5.4794135838747007 3.9416299164295197
leaf_count=30 19 27 20
internal_value=0 -0.0351156 -0.0396882
internal_weight=0 13.9064 9.42104
internal_count=96 66 47
is_linear=0
shrinkage=0.05


Tree=43
num_leaves=3
num_cat=0
split_feature=2 2
split_gain=5.20395 8.95545
threshold=1.8 5.0500000000000007
decision_type=2 2
left_child=-1 -2
right_child=1 -3
leaf_value=-0.04002794126238754 0.036937988035763585 -0.035377447595317739
leaf_weight=6.0006568878889111 13.064727246761324 6.3679085969924918
leaf_count=30 39 27
internal_value=0 0.0132408
internal_weight=0 19.4326
internal_count=96 66
is_linear=0
shrinkage=0.05


Tree=44
num_leaves=4
num_cat=0
split_feature=3 3 1
split_gain=13.7904 0.79438 0.0010568
threshold=1.6500000000000001 1.3500000000000003 3.0500000000000003
decision_type=2 2 2
left_child=1 2 -1
right_child=-2 -3 -4
leaf_value=-0.040332180635694159 0.043487330328650209 -0.014247263866244239 -0.039286804212773564
leaf_weight=4.2624147683382052 10.581505537033079 4.4310720115900031 5.5858680307865143
leaf_count=20 31 16 29
internal_value=0 -0.0318288 -0.0397393
internal_weight=0 14.2794 9.84828
internal_count=96 65 49
is_linear=0
shrinkage=0.05


Tree=45
num_leaves=3
num_cat=0
split_feature=2 2
split_gain=15.8032 0.00027209
threshold=3.1500000000000004 4.5500000000000007
decision_type=2 2
left_child=-1 -2
right_child=1 -3
leaf_value=0.044315662525176748 -0.039751797086101319 -0.039267077754673113
leaf_weight=10.390118271112444 4.6681704074144346 7.6226236522197723
leaf_count=33 23 40
internal_value=0 -0.0394512
internal_weight=0 12.2908
internal_count=96 63
is_linear=0
shrinkage=0.05


Tree=46
num_leaves=3
num_cat=0
split_feature=3 3
split_gain=4.78698 8.17237
threshold=0.45000000000000007 1.6500000000000001
decision_type=2 2
left_child=-1 -2
right_child=1 -3
leaf_value=-0.039491645052849807 0.038397689270667203 -0.029003888953094643
leaf_weight=5.6958724707365063 11.815302968025209 7.2610222548246375
leaf_count=30 35 31
internal_value=0 0.0127426
internal_weight=0 19.0763
internal_count=96 66
is_linear=0
shrinkage=0.05


Tree=47
num_leaves=4
num_cat=0
split_feature=3 3 3
split_gain=12.7494 0.773176 0.00100047
threshold=1.6500000000000001 1.3500000000000003 0.45000000000000007
decision_type=2 2 2
left_child=1 2 -1
right_child=-2 -3 -4
leaf_value=-0.03889098005494699 0.042181084690783799 -0.013880318144295259 -0.039937862747967567
leaf_weight=5.5043577700853366 10.355045706033705 4.3745104372501364 3.8985394239425659
leaf_count=30 31 16 19
internal_value=0 -0.031246 -0.039325
internal_weight=0 13.7774 9.4029
internal_count=96 65 49
is_linear=0
shrinkage=0.05


Tree=48
num_leaves=3
num_cat=0
split_feature=2 3
split_gain=14.659 0.000626921
threshold=3.1500000000000004 1.6500000000000001
decision_type=2 2
left_child=-1 -2
right_child=1 -3
leaf_value=0.043140833484556225 -0.039422262099168159 -0.038690716749195907
leaf_weight=10.06037348508835 6.2288568317890149 5.5276509374380112
leaf_count=33 32 31
internal_value=0 -0.0390783
internal_weight=0 11.7565
internal_count=96 63
is_linear=0
shrinkage=0.05


Tree=49
num_leaves=3
num_cat=0
split_feature=2 2
split_gain=4.57938 7.94605
threshold=1.8 5.0500000000000007
decision_type=2 2
left_child=-1 -2
right_child=1 -3
leaf_value=-0.039394647556755556 0.035201260191501729 -0.034721180753204642
leaf_weight=5.4746180027723339 12.589581966400148 5.9992928057909003
leaf_count=30 39 27
internal_value=0 0.0126348
internal_weight=0 18.5889
internal_count=96 66
is_linear=0
shrinkage=0.05


Tree=50
num_leaves=4
num_cat=0
split_feature=3 0 3
split_gain=11.623 0.863589 0.00109055
threshold=1.6500000000000001 5.9500000000000011 0.45000000000000007
decision_type=2 2 2
left_child=1 2 -1
right_child=-2 -3 -4
leaf_value=-0.038518997497129837 0.040658718068421196 -0.011335399982746412 -0.039618516946340443
leaf_weight=5.2362527549266833 10.108690828084944 4.0721368044614783 3.9611873924732208
leaf_count=30 31 15 20
internal_value=0 -0.0305052 -0.0389925
internal_weight=0 13.2696 9.19744
internal_count=96 65 50
is_linear=0
shrinkage=0.05


Tree=51
num_leaves=3
num_cat=0
split_feature=2 3
split_gain=13.614 0.00066594
threshold=3.1500000000000004 1.6500000000000001
decision_type=2 2
left_child=-1 -2
right_child=1 -3
leaf_value=0.042031901012584361 -0.039108050861614757 -0.038336894702592356
leaf_weight=9.7271972894668597 5.9897578656673414 5.2563301920890808
leaf_count=33 32 31
internal_value=0 -0.0387476
internal_weight=0 11.2461
internal_count=96 63
is_linear=0
shrinkage=0.05


Tree=52
num_leaves=3
num_cat=0
split_feature=2 2
split_gain=4.26199 7.35843
threshold=1.8 5.0500000000000007
decision_type=2 2
left_child=-1 -2
right_child=1 -3
leaf_value=-0.039004954810730706 0.034072960899090753 -0.0341793839206158
leaf_weight=5.2103697359561947 12.373783618211748 5.8000989705324164
leaf_count=30 39 27
internal_value=0 0.0122906
internal_weight=0 18.1739
internal_count=96 66
is_linear=0
shrinkage=0.05


Tree=53
num_leaves=4
num_cat=0
split_feature=2 2 2
split_gain=11.1408 1.4778 0.00165171
threshold=5.0500000000000007 4.4500000000000011 3.1500000000000004
decision_type=2 2 2
left_child=1 2 -1
right_child=-2 -3 -4
leaf_value=-0.038144509372850438 0.045669837420552251 -0.0049236230347894788 -0.039508844068823157
leaf_weight=5.4398261904716509 8.4714938104152662 5.0013204663991919 3.7459583282470703
leaf_count=33 27 17 19
internal_value=0 -0.0267935 -0.0387009
internal_weight=0 14.1871 9.18578
internal_count=96 69 52
is_linear=0
shrinkage=0.05


Tree=54
num_leaves=3
num_cat=0
split_feature=2 3
split_gain=12.6491 0.000618828
threshold=3.1500000000000004 1.6500000000000001
decision_type=2 2
left_child=-1 -2
right_child=1 -3
leaf_value=0.041006450940700517 -0.038779924624373505 -0.038019394780783172
leaf_weight=9.3907930254936236 5.7402097284793836 5.0084625035524368
leaf_count=33 32 31
internal_value=0 -0.0384255
internal_weight=0 10.7487
internal_count=96 63
is_linear=0
shrinkage=0.05


Tree=55
num_leaves=3
num_cat=0
split_feature=2 2
split_gain=3.96495 6.67166
threshold=1.8 5.0500000000000007
decision_type=2 2
left_child=-1 -2
right_child=1 -3
leaf_value=-0.038641844944934819 0.032668592695926105 -0.03335892518729304
leaf_weight=4.954917564988139 12.186628192663195 5.576467663049697
leaf_count=30 39 27
internal_value=0 0.0119402
internal_weight=0 17.7631
internal_count=96 66
is_linear=0
shrinkage=0.05


Tree=56
num_leaves=4
num_cat=0
split_feature=2 3 2
split_gain=10.1528 1.61267 0.00181248
threshold=5.0500000000000007 1.4500000000000002 3.1500000000000004
decision_type=2 2 2
left_child=1 2 -1
right_child=-2 -3 -4
leaf_value=-0.03782635114690315 0.044244702903122823 -0.0024004217899713559 -0.03926257918561931
leaf_weight=5.1645269542932528 8.2300615310668928 4.7428930699825278 3.8225667625665665
leaf_count=33 27 16 20
internal_value=0 -0.0259887 -0.0384372
internal_weight=0 13.73 8.98709
internal_count=96 69 53
is_linear=0
shrinkage=0.05


Tree=57
num_leaves=3
num_cat=0
split_feature=2 3
split_gain=11.7621 0.000574655
threshold=3.1500000000000004 1.6500000000000001
decision_type=2 2
left_child=-1 -2
right_child=1 -3
leaf_value=0.040051759492996775 -0.038473782653104464 -0.037723773836597536
leaf_weight=9.0537071824073809 5.4993816018104535 4.7684895992279053
leaf_count=33 32 31
internal_value=0 -0.0381255
internal_weight=0 10.2679
internal_count=96 63
is_linear=0
shrinkage=0.05


Tree=58
num_leaves=3
num_cat=0
split_feature=3 3
split_gain=3.70211 6.29055
threshold=0.45000000000000007 1.6500000000000001
decision_type=2 2
left_child=-1 -2
right_child=1 -3
leaf_value=-0.038336270151260336 0.03501185265848613 -0.027151459391679761
leaf_weight=4.7140803486108807 10.82122251391411 6.5227999538183203
leaf_count=30 35 31
internal_value=0 0.0116333
internal_weight=0 17.344
internal_count=96 66
is_linear=0
shrinkage=0.05


Tree=59
num_leaves=4
num_cat=0
split_feature=3 0 3
split_gain=9.53793 0.728458 0.000934798
threshold=1.6500000000000001 5.9500000000000011 0.45000000000000007
decision_type=2 2 2
left_child=1 2 -1
right_child=-2 -3 -4
leaf_value=-0.03754594641314811 0.038090093180221905 -0.011698049460759724 -0.038636552574473654
leaf_weight=4.4750512838363665 9.3722259700298292 3.917962446808815 3.5027227774262428
leaf_count=30 31 15 20
internal_value=0 -0.0293539 -0.0380248
internal_weight=0 11.8957 7.97777
internal_count=96 65 50
is_linear=0
shrinkage=0.05


Tree=60
num_leaves=3
num_cat=0
split_feature=3 1
split_gain=10.3317 0.212924
threshold=0.45000000000000007 2.9500000000000006
decision_type=2 2
left_child=-1 -2
right_child=1 -3
leaf_value=0.042892471434045641 -0.039486178710546715 -0.025451455648088428
leaf_weight=7.6563666760921505 5.8013002276420575 5.0592019259929657
leaf_count=30 35 31
internal_value=0 -0.0329483
internal_weight=0 10.8605
internal_count=96 66
is_linear=0
shrinkage=0.05


Tree=61
num_leaves=3
num_cat=0
split_feature=2 2
split_gain=3.4836 5.83676
threshold=1.8 5.0500000000000007
decision_type=2 2
left_child=-1 -2
right_child=1 -3
leaf_value=-0.038111470821300591 0.03109157192252316 -0.03251492087060133
leaf_weight=4.4923567324876812 11.667620062828066 5.2204250693321219
leaf_count=30 39 27
internal_value=0 0.0114296
internal_weight=0 16.888
internal_count=96 66
is_linear=0
shrinkage=0.05


Tree=62
num_leaves=4
num_cat=0
split_feature=2 1 1
split_gain=8.80452 1.51163 0.0294176
threshold=5.0500000000000007 2.8500000000000001 3.1500000000000008
decision_type=2 2 2
left_child=1 -1 -3
right_child=-2 2 -4
leaf_value=-0.0028172483290613125 0.042426368048331102 -0.035014012890723284 -0.0410938683308801
leaf_weight=4.7770006656646755 7.7521919310092917 3.6381160914897901 4.3907326012849808
leaf_count=22 27 18 29
internal_value=0 -0.0250882 -0.0383389
internal_weight=0 12.8058 8.02885
internal_count=96 69 47
is_linear=0
shrinkage=0.05


Tree=63
num_leaves=3
num_cat=0
split_feature=2 1
split_gain=10.2602 0.000102774
threshold=3.1500000000000004 2.8500000000000001
decision_type=2 2
left_child=-1 -2
right_child=1 -3
leaf_value=0.038525072368655669 -0.037774635687461228 -0.03744331345711651
leaf_weight=8.3735446482896823 4.4409985542297346 4.9487444013357162
leaf_count=33 29 34
internal_value=0 -0.0376
internal_weight=0 9.38974
internal_count=96 63
is_linear=0
shrinkage=0.05


Tree=64
num_leaves=3
num_cat=0
split_feature=2 3
split_gain=3.26136 5.47386
threshold=1.8 1.6500000000000001
decision_type=2 2
left_child=-1 -2
right_child=1 -3
leaf_value=-0.0379039354284572 0.033353466843031435 -0.026142771032627177
leaf_weight=4.2714804559946087 10.341105580329897 6.1740633547306052
leaf_count=30 35 31
internal_value=0 0.0111113
internal_weight=0 16.5152
internal_count=96 66
is_linear=0
shrinkage=0.05


Tree=65
num_leaves=4
num_cat=0
split_feature=3 3 3
split_gain=8.28328 0.642244 0.000837988
threshold=1.6500000000000001 1.3500000000000003 0.45000000000000007
decision_type=2 2 2
left_child=1 2 -1
right_child=-2 -3 -4
leaf_value=-0.036989724272006405 0.036401203397504536 -0.012371470912882271 -0.038087176468332151
leaf_weight=4.0019312426447886 8.8836117684841138 3.9846643656492233 3.0767117366194725
leaf_count=30 31 16 19
internal_value=0 -0.0284282 -0.0374667
internal_weight=0 11.0633 7.07864
internal_count=96 65 49
is_linear=0
shrinkage=0.05


Tree=66
num_leaves=3
num_cat=0
split_feature=2 3
split_gain=9.55999 0.000391155
threshold=3.1500000000000004 1.6500000000000001
decision_type=2 2
left_child=-1 -2
right_child=1 -3
leaf_value=0.037735125126478558 -0.037660708316946671 -0.03699792110283364
leaf_weight=8.0479163676500338 4.8165047168731672 4.1390649676322937
leaf_count=33 32 31
internal_value=0 -0.0373544
internal_weight=0 8.95557
internal_count=96 63
is_linear=0
shrinkage=0.05


Tree=67
num_leaves=3
num_cat=0
split_feature=3 3
split_gain=3.05544 4.95847
threshold=0.45000000000000007 1.6500000000000001
decision_type=2 2
left_child=-1 -2
right_child=1 -3
leaf_value=-0.037659209850920888 0.032242932048025086 -0.025211904719754232
leaf_weight=4.0586714297533062 10.104427367448809 5.9762135148048392
leaf_count=30 35 31
internal_value=0 0.0108904
internal_weight=0 16.0806
internal_count=96 66
is_linear=0
shrinkage=0.05


Tree=68
num_leaves=4
num_cat=0
split_feature=2 3 2
split_gain=7.66627 1.38384 0.00146327
threshold=5.0500000000000007 1.4500000000000002 3.1500000000000004
decision_type=2 2 2
left_child=1 2 -1
right_child=-2 -3 -4
leaf_value=-0.036757307266635141 0.040884747800683255 -0.0023330124682636312 -0.038167592443689467
leaf_weight=4.1663794517517108 7.2876205146312705 4.5253252983093262 3.2930457442998886
leaf_count=33 27 16 20
internal_value=0 -0.0241465 -0.0373799
internal_weight=0 11.9848 7.45943
internal_count=96 69 53
is_linear=0
shrinkage=0.05


Tree=69
num_leaves=3
num_cat=0
split_feature=2 3
split_gain=8.90727 0.000306935
threshold=3.1500000000000004 1.6500000000000001
decision_type=2 2
left_child=-1 -2
right_child=1 -3
leaf_value=0.036989872582826842 -0.037391968477298691 -0.036790551880464643
leaf_weight=7.7269439101219204 4.5861011743545514 3.9475263133645058
leaf_count=33 32 31
internal_value=0 -0.0371138
internal_weight=0 8.53363
internal_count=96 63
is_linear=0
shrinkage=0.05


Tree=70
num_leaves=3
num_cat=0
split_feature=2 2
split_gain=2.87653 4.81635
threshold=1.8 5.0500000000000007
decision_type=2 2
left_child=-1 -2
right_child=1 -3
leaf_value=-0.03748283156981369 0.028970941556922914 -0.031410702930572673
leaf_weight=3.8631559610366848 10.911224037408827 4.7360065132379523
leaf_count=30 39 27
internal_value=0 0.010695
internal_weight=0 15.6472
internal_count=96 66
is_linear=0
shrinkage=0.05


Tree=71
num_leaves=4
num_cat=0
split_feature=2 1 1
split_gain=7.1515 1.48862 0.0330281
threshold=5.0500000000000007 2.8500000000000001 3.1500000000000008
decision_type=2 2 2
left_child=1 -1 -3
right_child=-2 2 -4
leaf_value=-0.0011255122295147464 0.040140253574749436 -0.034317856224145404 -0.041152612456105804
leaf_weight=4.4664871543645877 7.0510348826646796 3.3119608536362648 3.7905881330370903
leaf_count=22 27 18 29
internal_value=0 -0.0237426 -0.0379655
internal_weight=0 11.569 7.10255
internal_count=96 69 47
is_linear=0
shrinkage=0.05


Tree=72
num_leaves=3
num_cat=0
split_feature=2 1
split_gain=8.30217 7.86586e-05
threshold=3.1500000000000004 2.8500000000000001
decision_type=2 2
left_child=-1 -2
right_child=1 -3
leaf_value=0.036256721140445806 -0.03706426994725464 -0.036753016781022656
leaf_weight=7.4076994210481653 3.8702081367373449 4.2685917392373085
leaf_count=33 29 34
internal_value=0 -0.036901
internal_weight=0 8.1388
internal_count=96 63
is_linear=0
shrinkage=0.05


Tree=73
num_leaves=3
num_cat=0
split_feature=2 3
split_gain=2.68554 4.42901
threshold=1.8 1.6500000000000001
decision_type=2 2
left_child=-1 -2
right_child=1 -3
leaf_value=-0.037232542324320321 0.031134999743824672 -0.024540337217048833
leaf_weight=3.6635308712720898 9.6049617975950223 5.6871189028024665
leaf_count=30 35 31
internal_value=0 0.0104294
internal_weight=0 15.2921
internal_count=96 66
is_linear=0
shrinkage=0.05


Tree=74
num_leaves=4
num_cat=0
split_feature=3 0 3
split_gain=6.67956 0.658561 0.000879234
threshold=1.6500000000000001 5.9500000000000011 0.45000000000000007
decision_type=2 2 2
left_child=1 2 -1
right_child=-2 -3 -4
leaf_value=-0.036313247398714631 0.034026412755116926 -0.010060086707481802 -0.037498115750354152
leaf_weight=3.3838487640023249 8.1426413506269437 3.6035047918558121 2.9139515832066536
leaf_count=30 31 15 20
internal_value=0 -0.0271073 -0.0368615
internal_weight=0 9.90131 6.2978
internal_count=96 65 50
is_linear=0
shrinkage=0.05


Tree=75
num_leaves=3
num_cat=0
split_feature=2 3
split_gain=7.7473 0.000240734
threshold=3.1500000000000004 1.6500000000000001
decision_type=2 2
left_child=-1 -2
right_child=1 -3
leaf_value=0.0355715129386577 -0.036958374386789866 -0.036399515955034378
leaf_weight=7.1048972755670547 4.1827721893787384 3.5730280801653862
leaf_count=33 32 31
internal_value=0 -0.0367009
internal_weight=0 7.7558
internal_count=96 63
is_linear=0
shrinkage=0.05


Tree=76
num_leaves=3
num_cat=0
split_feature=1 3
split_gain=2.33608 3.0779
threshold=3.2500000000000004 1.6500000000000001
decision_type=2 2
left_child=1 -1
right_child=-2 -3
leaf_value=0.027129775926386691 -0.032685880108431202 -0.021795308196208243
leaf_weight=9.5423623472452181 3.9676281586289397 4.8477479964494696
leaf_count=41 29 26
internal_value=0 0.0106479
internal_weight=0 14.3901
internal_count=96 67
is_linear=0
shrinkage=0.05


Tree=77
num_leaves=4
num_cat=0
split_feature=2 1 1
split_gain=6.23759 1.45563 0.036553
threshold=5.0500000000000007 2.8500000000000001 3.1500000000000008
decision_type=2 2 2
left_child=1 -1 -3
right_child=-2 2 -4
leaf_value=-0.00025699376976451055 0.038812632599452813 -0.033795614492709132 -0.041283518075546421
leaf_weight=4.2967452779412287 6.5961158424615851 3.1065626218914986 3.4286261275410652
leaf_count=22 27 18 29
internal_value=0 -0.0228619 -0.0377241
internal_weight=0 10.8319 6.53519
internal_count=96 69 47
is_linear=0
shrinkage=0.05


Tree=78
num_leaves=4
num_cat=0
split_feature=2 0 1
split_gain=7.24927 6.3752e-05 1.45796e-05
threshold=3.1500000000000004 6.3500000000000005 2.7500000000000004
decision_type=2 2 2
left_child=-1 2 -2
right_child=1 -3 -4
leaf_value=0.034905104652874455 -0.036698996674098032 -0.036304917863764684 -0.036527230390246024
leaf_weight=6.8351507484912872 2.5817381218075752 2.4489962682127953 2.3690171465277672
leaf_count=33 21 22 20
internal_value=0 -0.0365136 -0.0366168
internal_weight=0 7.39975 4.95076
internal_count=96 63 41
is_linear=0
shrinkage=0.05


Tree=79
num_leaves=3
num_cat=0
split_feature=2 2
split_gain=2.27717 3.84794
threshold=5.0500000000000007 3.1500000000000004
decision_type=2 2
left_child=1 -1
right_child=-2 -3
leaf_value=-0.02816588395206749 -0.030336319789478219 0.029311030088693974
leaf_weight=4.2304268181324032 4.3054052740335456 9.3430260270833951
leaf_count=33 27 36
internal_value=0 0.0113972
internal_weight=0 13.5735
internal_count=96 69
is_linear=0
shrinkage=0.05


Tree=80
num_leaves=4
num_cat=0
split_feature=2 1 1
split_gain=5.82645 1.41034 0.039457
threshold=5.0500000000000007 2.8500000000000001 3.1500000000000008
decision_type=2 2 2
left_child=1 -1 -3
right_child=-2 2 -4
leaf_value=-0.00017871198153173817 0.038164914645606229 -0.033370405401911919 -0.041313049730245854
leaf_weight=4.2460542693734187 6.3733847737312308 3.0045280233025551 3.2604373544454575
leaf_count=22 27 18 29
internal_value=0 -0.022426 -0.0375039
internal_weight=0 10.511 6.26497
internal_count=96 69 47
is_linear=0
shrinkage=0.05


Tree=81
num_leaves=3
num_cat=0
split_feature=2 3
split_gain=6.7401 0.000161473
threshold=3.1500000000000004 1.6500000000000001
decision_type=2 2
left_child=-1 -2
right_child=1 -3
leaf_value=0.034118744261816193 -0.036558653420049263 -0.036078475956636234
leaf_weight=6.5485233664512634 3.8030432090163231 3.244449757039547
leaf_count=33 32 31
internal_value=0 -0.0363376
internal_weight=0 7.04749
internal_count=96 63
is_linear=0
shrinkage=0.05


Tree=82
num_leaves=3
num_cat=0
split_feature=2 2
split_gain=2.07917 3.46962
threshold=5.0500000000000007 3.1500000000000004
decision_type=2 2
left_child=1 -1
right_child=-2 -3
leaf_value=-0.027400964540806035 -0.029515052232240907 0.028116059694979045
leaf_weight=4.0595812499523189 4.139546424150466 9.1744436025619489
leaf_count=33 27 36
internal_value=0 0.011086
internal_weight=0 13.234
internal_count=96 69
is_linear=0
shrinkage=0.05


Tree=83
num_leaves=4
num_cat=0
split_feature=2 1 1
split_gain=5.29704 1.389 0.0444719
threshold=5.0500000000000007 2.8500000000000001 3.1500000000000008
decision_type=2 2 2
left_child=1 -1 -3
right_child=-2 2 -4
leaf_value=0.00046462961709941924 0.037194076520763557 -0.03255341167033126 -0.04116033485495163
leaf_weight=4.2095041349530238 6.1418557912111273 2.9120065793395042 3.0969873368740082
leaf_count=22 27 18 29
internal_value=0 -0.0215602 -0.0369894
internal_weight=0 10.2185 6.00899
internal_count=96 69 47
is_linear=0
shrinkage=0.05


Tree=84
num_leaves=4
num_cat=0
split_feature=3 3 3
split_gain=6.30416 0.0159506 0.00011586
threshold=1.0500000000000003 1.4500000000000002 1.8500000000000003
decision_type=2 2 2
left_child=-1 -2 -3
right_child=1 2 -4
leaf_value=0.031866277958914967 -0.041442427719633357 -0.036333412244225483 -0.03581455847756828
leaf_weight=6.5647142305970192 2.05989108979702 2.4278238490223885 1.9322222247719762
leaf_count=38 16 22 20
internal_value=0 -0.0378165 -0.0361035
internal_weight=0 6.41994 4.36005
internal_count=96 58 42
is_linear=0
shrinkage=0.05


Tree=85
num_leaves=4
num_cat=0
split_feature=1 2 0
split_gain=1.93774 2.19403 0.302712
threshold=3.2500000000000004 4.9500000000000011 5.6500000000000012
decision_type=2 2 2
left_child=1 2 -1
right_child=-2 -3 -4
leaf_value=0.014826774015203971 -0.031826307772829465 -0.019415912829782642 0.033035819921638801
leaf_weight=4.5584210157394427 3.4707541391253462 4.2875756174325934 4.571273997426033
leaf_count=24 29 25 18
internal_value=0 0.0100881 0.0239441
internal_weight=0 13.4173 9.1297
internal_count=96 67 42
is_linear=0
shrinkage=0.05


Tree=86
num_leaves=4
num_cat=0
split_feature=3 0 1
split_gain=5.24405 1.23917 0.030489
threshold=1.6500000000000001 6.0500000000000007 2.7500000000000004
decision_type=2 2 2
left_child=1 2 -1
right_child=-2 -3 -4
leaf_value=-0.043542547912728845 0.031860471389305665 0.0022782322437526641 -0.036016938380431185
leaf_weight=2.0716282203793508 7.2544652074575433 2.6903190910816193 3.8416139483451843
leaf_count=14 31 12 39
internal_value=0 -0.0258542 -0.0386534
internal_weight=0 8.60356 5.91324
internal_count=96 65 53
is_linear=0
shrinkage=0.05


Tree=87
num_leaves=3
num_cat=0
split_feature=2 1
split_gain=5.94721 0.178434
threshold=1.8 2.9500000000000006
decision_type=2 2
left_child=-1 -2
right_child=1 -3
leaf_value=0.038720005657151529 -0.038688571420147283 -0.023068006649194076
leaf_weight=5.1142513006925583 3.9622571170330048 3.394380509853363
leaf_count=30 35 31
internal_value=0 -0.0314812
internal_weight=0 7.35664
internal_count=96 66
is_linear=0
shrinkage=0.05


Tree=88
num_leaves=3
num_cat=0
split_feature=2 2
split_gain=1.80933 2.94923
threshold=5.0500000000000007 3.1500000000000004
decision_type=2 2
left_child=1 -1
right_child=-2 -3
leaf_value=-0.026276403407177931 -0.028345644348912392 0.026580489774605465
leaf_weight=3.7683037817478207 3.8726518824696532 8.8063528537750226
leaf_count=33 27 36
internal_value=0 0.0107406
internal_weight=0 12.5747
internal_count=96 69
is_linear=0
shrinkage=0.05


Tree=89
num_leaves=4
num_cat=0
split_feature=3 0 1
split_gain=4.88191 1.21498 0.029909
threshold=1.6500000000000001 6.0500000000000007 2.7500000000000004
decision_type=2 2 2
left_child=1 2 -1
right_child=-2 -3 -4
leaf_value=-0.043492684570119733 0.031145309646151399 0.002422449946181098 -0.035876856336093985
leaf_weight=1.9927441254258136 7.0478409379720697 2.6600860059261322 3.6512784212827682
leaf_count=14 31 12 39
internal_value=0 -0.0254359 -0.0385658
internal_weight=0 8.30411 5.64402
internal_count=96 65 53
is_linear=0
shrinkage=0.05


Tree=90
num_leaves=3
num_cat=0
split_feature=3 1
split_gain=5.60222 0.17655
threshold=0.45000000000000007 2.9500000000000006
decision_type=2 2
left_child=-1 -2
right_child=1 -3
leaf_value=0.038410721903398261 -0.038640045184099685 -0.022789909147258373
leaf_weight=4.8681726157665253 3.7922883480787277 3.2733566537499428
leaf_count=30 35 31
internal_value=0 -0.031297
internal_weight=0 7.06565
internal_count=96 66
is_linear=0
shrinkage=0.05


Tree=91
num_leaves=3
num_cat=0
split_feature=2 0
split_gain=1.69743 1.91279
threshold=5.0500000000000007 5.4500000000000011
decision_type=2 2
left_child=1 -1
right_child=-2 -3
leaf_value=-0.013770684742254414 -0.027874065002669115 0.026658993468945215
leaf_weight=4.8567220196127874 3.7503630444407472 7.3574408143758774
leaf_count=37 27 32
internal_value=0 0.0105829
internal_weight=0 12.2142
internal_count=96 69
is_linear=0
shrinkage=0.05


Tree=92
num_leaves=4
num_cat=0
split_feature=3 2 2
split_gain=4.57111 0.811315 0.00108078
threshold=1.6500000000000001 4.5500000000000007 3.1500000000000004
decision_type=2 2 2
left_child=1 2 -1
right_child=-2 -3 -4
leaf_value=-0.035341279105261462 0.030582149164706786 -0.0020429316622326025 -0.036755101345097185
leaf_weight=2.6468304991722089 6.8600585609674463 2.5923021584749222 2.762531042098999
leaf_count=33 31 10 22
internal_value=0 -0.0250417 -0.0360633
internal_weight=0 8.00166 5.40936
internal_count=96 65 55
is_linear=0
shrinkage=0.05


Tree=93
num_leaves=3
num_cat=0
split_feature=2 1
split_gain=5.30939 0.174684
threshold=1.8 2.9500000000000006
decision_type=2 2
left_child=-1 -2
right_child=1 -3
leaf_value=0.038170850756407526 -0.038565988945847125 -0.022502335585834931
leaf_weight=4.6615998446941376 3.6412493735551834 3.1621057465672493
leaf_count=30 35 31
internal_value=0 -0.0310998
internal_weight=0 6.80336
internal_count=96 66
is_linear=0
shrinkage=0.05


Tree=94
num_leaves=3
num_cat=0
split_feature=2 3
split_gain=1.58349 1.8425
threshold=5.0500000000000007 1.0500000000000003
decision_type=2 2
left_child=1 -1
right_child=-2 -3
leaf_value=-0.015554572925474198 -0.027350346146772328 0.025274806720237922
leaf_weight=4.3530315160751325 3.6315671652555475 7.5652397274971008
leaf_count=38 27 31
internal_value=0 0.0103623
internal_weight=0 11.9183
internal_count=96 69
is_linear=0
shrinkage=0.05


Tree=95
num_leaves=4
num_cat=0
split_feature=3 0 1
split_gain=4.28481 1.17213 0.0320957
threshold=1.6500000000000001 6.0500000000000007 2.7500000000000004
decision_type=2 2 2
left_child=1 2 -1
right_child=-2 -3 -4
leaf_value=-0.043817885805455072 0.029979731292719327 0.0026812418024440019 -0.03558752944150953
leaf_weight=1.8577370420098303 6.6794910579919815 2.5930638164281845 3.2688347324728966
leaf_count=14 31 12 39
internal_value=0 -0.0247135 -0.03857
internal_weight=0 7.71964 5.12657
internal_count=96 65 53
is_linear=0
shrinkage=0.05


Tree=96
num_leaves=4
num_cat=0
split_feature=3 3 2
split_gain=5.04083 0.0133515 3.73214e-05
threshold=1.0500000000000003 1.4500000000000002 5.2000000000000002
decision_type=2 2 2
left_child=-1 -2 -3
right_child=1 2 -4
leaf_value=0.030308177667942846 -0.04092576418453276 -0.035779429573203007 -0.03545806171228711
leaf_weight=5.5859865769743919 1.7706957608461378 2.0174093320965771 1.6360931396484373
leaf_count=38 16 22 20
internal_value=0 -0.0373625 -0.0356355
internal_weight=0 5.4242 3.6535
internal_count=96 58 42
is_linear=0
shrinkage=0.05


Tree=97
num_leaves=3
num_cat=0
split_feature=2 2
split_gain=1.4842 2.42316
threshold=5.0500000000000007 3.1500000000000004
decision_type=2 2
left_child=1 -1
right_child=-2 -3
leaf_value=-0.02527077993932246 -0.026885809855249018 0.024853123711892897
leaf_weight=3.4107236042618743 3.5207820460200319 8.2278544604778272
leaf_count=33 27 36
internal_value=0 0.0101641
internal_weight=0 11.6386
internal_count=96 69
is_linear=0
shrinkage=0.05


Tree=98
num_leaves=4
num_cat=0
split_feature=3 0 3
split_gain=4.02686 1.14104 0.0299365
threshold=1.6500000000000001 6.0500000000000007 1.0500000000000003
decision_type=2 2 2
left_child=1 2 -1
right_child=-2 -3 -4
leaf_value=-0.035383490479604776 0.029446769047505636 0.0026146698680141159 -0.043385555287790527
leaf_weight=2.9622137844562531 6.5059002041816711 2.5681923255324364 1.9305034428834913
leaf_count=38 31 12 15
internal_value=0 -0.0243743 -0.0385408
internal_weight=0 7.46091 4.89272
internal_count=96 65 53
is_linear=0
shrinkage=0.05


Tree=99
num_leaves=3
num_cat=0
split_feature=3 1
split_gain=4.76273 0.168085
threshold=0.45000000000000007 2.9500000000000006
decision_type=2 2
left_child=-1 -2
right_child=1 -3
leaf_value=0.037677489918906487 -0.038366120523748583 -0.021985229145602865
leaf_weight=4.2526855915784836 3.3916249349713326 2.9093207567930222
leaf_count=30 35 31
internal_value=0 -0.0308026
internal_weight=0 6.30095
internal_count=96 66
is_linear=0
shrinkage=0.05


Tree=100
num_leaves=3
num_cat=0
split_feature=3 3
split_gain=1.41429 1.97895
threshold=1.6500000000000001 1.0500000000000003
decision_type=2 2
left_child=1 -1
right_child=-2 -3
leaf_value=-0.014853287665216975 -0.021270955061274237 0.030241114384008217
leaf_weight=4.0708680078387243 4.6281067803502092 6.0467319488525391
leaf_count=38 31 27
internal_value=0 0.0120972
internal_weight=0 10.1176
internal_count=96 65
is_linear=0
shrinkage=0.05


Tree=101
num_leaves=4
num_cat=0
split_feature=3 0 3
split_gain=3.77285 1.10821 0.0297718
threshold=1.6500000000000001 6.0500000000000007 1.0500000000000003
decision_type=2 2 2
left_child=1 2 -1
right_child=-2 -3 -4
leaf_value=-0.03526281676973974 0.028897522236912273 0.0025249478974395168 -0.043429594922118703
leaf_weight=2.8049508556723595 6.3285689651966095 2.5434939190745354 1.8532641828060148
leaf_count=38 31 12 15
internal_value=0 -0.0240186 -0.038512
internal_weight=0 7.20171 4.65822
internal_count=96 65 53
is_linear=0
shrinkage=0.05


Tree=102
num_leaves=3
num_cat=0
split_feature=2 1
split_gain=4.50084 0.164472
threshold=1.8 2.9500000000000006
decision_type=2 2
left_child=-1 -2
right_child=1 -3
leaf_value=0.037471730421101898 -0.038181635003760539 -0.021669986301085031
leaf_weight=4.0613516867160797 3.2582630962133408 2.8078839480876923
leaf_count=30 35 31
internal_value=0 -0.0305388
internal_weight=0 6.06615
internal_count=96 66
is_linear=0
shrinkage=0.05


Tree=103
num_leaves=3
num_cat=0
split_feature=2 2
split_gain=1.38969 2.16718
threshold=5.0500000000000007 3.1500000000000004
decision_type=2 2
left_child=1 -1
right_child=-2 -3
leaf_value=-0.024579137490080605 -0.026562096033851214 0.024366350168207492
leaf_weight=3.1811462342739087 3.3501315936446199 7.8235761523246765
leaf_count=33 27 36
internal_value=0 0.0102176
internal_weight=0 11.0047
internal_count=96 69
is_linear=0
shrinkage=0.05


Tree=104
num_leaves=4
num_cat=0
split_feature=3 2 2
split_gain=3.43673 0.735838 0.000696628
threshold=1.6500000000000001 4.5500000000000007 3.1500000000000004
decision_type=2 2 2
left_child=1 2 -1
right_child=-2 -3 -4
leaf_value=-0.034896503122188706 0.027972706186925718 -0.0017257474545709101 -0.036150161312771156
leaf_weight=2.1046385280787945 6.1489374339580536 2.5177136659622192 2.3402901142835617
leaf_count=33 31 10 22
internal_value=0 -0.0233232 -0.0355566
internal_weight=0 6.96264 4.44493
internal_count=96 65 55
is_linear=0
shrinkage=0.05


Tree=105
num_leaves=4
num_cat=0
split_feature=3 3 0
split_gain=4.25591 0.0120919 1.76329e-05
threshold=1.0500000000000003 1.4500000000000002 6.3500000000000005
decision_type=2 2 2
left_child=-1 -2 -3
right_child=1 2 -4
leaf_value=0.029160792278935352 -0.040699476315658005 -0.035456784498000084 -0.035221651227354302
leaf_weight=4.9250247105956078 1.5729944854974744 1.6637093722820284 1.5310957506299017
leaf_count=38 16 21 21
internal_value=0 -0.0371109 -0.0353441
internal_weight=0 4.7678 3.19481
internal_count=96 58 42
is_linear=0
shrinkage=0.05


Tree=106
num_leaves=3
num_cat=0
split_feature=2 2
split_gain=1.3001 2.00189
threshold=5.0500000000000007 3.1500000000000004
decision_type=2 2
left_child=1 -1
right_child=-2 -3
leaf_value=-0.024094803549152485 -0.026045816502127391 0.023765472355700628
leaf_weight=3.0617728307843191 3.2518996745347986 7.6288890391588211
leaf_count=33 27 36
internal_value=0 0.0100584
internal_weight=0 10.6907
internal_count=96 69
is_linear=0
shrinkage=0.05


Tree=107
num_leaves=4
num_cat=0
split_feature=3 0 3
split_gain=3.22603 1.10153 0.0292735
threshold=1.6500000000000001 6.0500000000000007 1.0500000000000003
decision_type=2 2 2
left_child=1 2 -1
right_child=-2 -3 -4
leaf_value=-0.035074696893290618 0.027478854267095228 0.0034614604837900037 -0.043551695674985541
leaf_weight=2.5233452990651131 5.9963115304708481 2.4819203689694405 1.7076324000954626
leaf_count=38 31 12 15
internal_value=0 -0.0229833 -0.038496
internal_weight=0 6.7129 4.23098
internal_count=96 65 53
is_linear=0
shrinkage=0.05


Tree=108
num_leaves=4
num_cat=0
split_feature=3 2 3
split_gain=4.04503 0.115621 0.000151308
threshold=0.45000000000000007 4.0500000000000007 1.6500000000000001
decision_type=2 2 2
left_child=-1 -2 -3
right_child=1 2 -4
leaf_value=0.037052754601969183 -0.019856297336049693 -0.035615097831054716 -0.034983935379912311
leaf_weight=3.6877265498042107 1.7831387147307394 1.7562420070171358 2.0672881864011288
leaf_count=30 14 21 31
internal_value=0 -0.0303705 -0.0352738
internal_weight=0 5.60667 3.82353
internal_count=96 66 52
is_linear=0
shrinkage=0.05


Tree=109
num_leaves=4
num_cat=0
split_feature=3 1 3
split_gain=1.16057 1.64872 1.16087
threshold=1.6500000000000001 2.9500000000000006 0.45000000000000007
decision_type=2 2 2
left_child=1 -1 -3
right_child=-2 2 -4
leaf_value=0.032478397280929612 -0.019664345392020891 -0.03577418027307902 0.014769213711449795
leaf_weight=4.6979344487190229 4.3293589651584634 2.2067708410322666 2.3413684815168381
leaf_count=23 31 30 12
internal_value=0 0.011704 -0.00975459
internal_weight=0 9.24607 4.54814
internal_count=96 65 42
is_linear=0
shrinkage=0.05


Tree=110
num_leaves=4
num_cat=0
split_feature=3 0 1
split_gain=3.02513 1.0689 0.031279
threshold=1.6500000000000001 6.0500000000000007 2.7500000000000004
decision_type=2 2 2
left_child=1 2 -1
right_child=-2 -3 -4
leaf_value=-0.044022384013710614 0.026962536452688753 0.0033381832007041952 -0.034984683026549349
leaf_weight=1.5661860406398771 5.8398023843765259 2.4583798944950104 2.4628085941076279
leaf_count=14 31 12 39
internal_value=0 -0.0226442 -0.0384979
internal_weight=0 6.48737 4.02899
internal_count=96 65 53
is_linear=0
shrinkage=0.05


Tree=111
num_leaves=4
num_cat=0
split_feature=3 1 0
split_gain=3.78027 0.0110981 8.60395e-07
threshold=1.0500000000000003 2.7500000000000004 6.4500000000000011
decision_type=2 2 2
left_child=-1 -2 -3
right_child=1 2 -4
leaf_value=0.028328030711159292 -0.040380537680869771 -0.03512544076257984 -0.03506994408757684
leaf_weight=4.5121400058269501 1.5377707146108148 1.5477325916290285 1.2726888395845888
leaf_count=38 17 22 19
internal_value=0 -0.0369635 -0.0351004
internal_weight=0 4.35819 2.82042
internal_count=96 58 41
is_linear=0
shrinkage=0.05


Tree=112
num_leaves=4
num_cat=0
split_feature=3 1 3
split_gain=1.04122 1.50999 1.06999
threshold=1.6500000000000001 2.9500000000000006 0.45000000000000007
decision_type=2 2 2
left_child=1 -1 -3
right_child=-2 2 -4
leaf_value=0.031492391514882645 -0.018741279868819179 -0.035620271196528462 0.013843222002699711
leaf_weight=4.5723906457424146 4.2176636606454858 2.0761926732957363 2.3095374554395676
leaf_count=23 31 30 12
internal_value=0 0.0113877 -0.00957266
internal_weight=0 8.95812 4.38573
internal_count=96 65 42
is_linear=0
shrinkage=0.05


Tree=113
num_leaves=5
num_cat=0
split_feature=2 3 2 2
split_gain=2.90861 1.69799 0.00313029 0.00029177
threshold=5.0500000000000007 1.6500000000000001 4.2500000000000009 3.1500000000000004
decision_type=2 2 2 2
left_child=1 2 3 -1
right_child=-2 -3 -4 -5
leaf_value=-0.034638161324253215 0.032779470572617729 0.013794916499662781 -0.037764674106911533 -0.035601461271730327
leaf_weight=1.7744003869593146 4.4669484943151474 2.6637511551380157 1.619498625397682 1.411254860460758
leaf_count=33 27 8 12 16
internal_value=0 -0.0182247 -0.0359748 -0.0350649
internal_weight=0 7.46891 4.80515 3.18566
internal_count=96 69 61 49
is_linear=0
shrinkage=0.05


Tree=114
num_leaves=4
num_cat=0
split_feature=2 2 3
split_gain=3.60918 0.105846 0.000114196
threshold=1.8 4.0500000000000007 1.6500000000000001
decision_type=2 2 2
left_child=-1 -2 -3
right_child=1 2 -4
leaf_value=0.036734971093706201 -0.019804488700371027 -0.035386872213592421 -0.034810681720052104
leaf_weight=3.3294137567281723 1.6879989653825758 1.5974124222993853 1.8625991046428678
leaf_count=30 14 21 31
internal_value=0 -0.030069 -0.0350767
internal_weight=0 5.14801 3.46001
internal_count=96 66 52
is_linear=0
shrinkage=0.05


Tree=115
num_leaves=3
num_cat=0
split_feature=2 0
split_gain=1.18808 1.26765
threshold=5.0500000000000007 5.4500000000000011
decision_type=2 2
left_child=1 -1
right_child=-2 -3
leaf_value=-0.012469277835358878 -0.025544171669293837 0.024593680143797939
leaf_weight=3.7565395906567556 3.0332698300480851 5.9791216962039471
leaf_count=37 27 32
internal_value=0 0.0102928
internal_weight=0 9.73566
internal_count=96 69
is_linear=0
shrinkage=0.05


Tree=116
num_leaves=4
num_cat=0
split_feature=2 1 1
split_gain=2.74914 1.55215 0.119404
threshold=5.2000000000000002 2.8500000000000001 3.0500000000000003
decision_type=2 2 2
left_child=1 -1 -3
right_child=-2 2 -4
leaf_value=0.0068293216606840415 0.041149469642974654 -0.026028789398123687 -0.043368734853466137
leaf_weight=4.3486417308449727 3.0948685109615335 1.7079667933285234 2.3710458092391491
leaf_count=27 21 14 34
internal_value=0 -0.0139526 -0.0361081
internal_weight=0 8.42765 4.07901
internal_count=96 75 48
is_linear=0
shrinkage=0.05


Tree=117
num_leaves=4
num_cat=0
split_feature=2 3 3
split_gain=3.40333 0.12724 9.30913e-05
threshold=1.8 1.2500000000000002 1.6500000000000001
decision_type=2 2 2
left_child=-1 -2 -3
right_child=1 2 -4
leaf_value=0.03654925553605113 -0.017456590893593148 -0.035251784489785845 -0.03473528639476945
leaf_weight=3.1675408035516739 1.4707746282219885 1.7214937433600428 1.7687116861343382
leaf_count=30 11 24 31
internal_value=0 -0.0297919 -0.03499
internal_weight=0 4.96098 3.49021
internal_count=96 66 55
is_linear=0
shrinkage=0.05


Tree=118
num_leaves=3
num_cat=0
split_feature=2 0
split_gain=1.07908 1.14515
threshold=5.0500000000000007 5.4500000000000011
decision_type=2 2
left_child=1 -1
right_child=-2 -3
leaf_value=-0.011936286789816657 -0.024747753463136984 0.023608380352746733
leaf_weight=3.6837674677371961 2.9305042177438745 5.8874806687235832
leaf_count=37 27 32
internal_value=0 0.009928
internal_weight=0 9.57125
internal_count=96 69
is_linear=0
shrinkage=0.05


Tree=119
num_leaves=4
num_cat=0
split_feature=3 0 1
split_gain=2.41748 1.05504 0.0321573
threshold=1.6500000000000001 6.0500000000000007 2.7500000000000004
decision_type=2 2 2
left_child=1 2 -1
right_child=-2 -3 -4
leaf_value=-0.044465473523501421 0.025060570259903554 0.004711007299455252 -0.034732729940484992
leaf_weight=1.4319592341780665 5.3713633716106415 2.3259437456727028 2.0835769660770893
leaf_count=14 31 12 39
internal_value=0 -0.021413 -0.0386971
internal_weight=0 5.84148 3.51554
internal_count=96 65 53
is_linear=0
shrinkage=0.05


Tree=120
num_leaves=3
num_cat=0
split_feature=3 1
split_gain=3.23013 0.156263
threshold=0.45000000000000007 2.9500000000000006
decision_type=2 2
left_child=-1 -2
right_child=1 -3
leaf_value=0.036402905074308829 -0.037842065341681635 -0.019693940418832743
leaf_weight=3.0250070989131927 2.613372690975666 2.1718747243285179
leaf_count=30 35 31
internal_value=0 -0.0296052
internal_weight=0 4.78525
internal_count=96 66
is_linear=0
shrinkage=0.05


Tree=121
num_leaves=3
num_cat=0
split_feature=2 0
split_gain=1.01903 1.06862
threshold=5.0500000000000007 5.4500000000000011
decision_type=2 2
left_child=1 -1
right_child=-2 -3
leaf_value=-0.011577772279671166 -0.024321624303932532 0.023150084264674808
leaf_weight=3.598228491842745 2.8551542833447465 5.7631433717906475
leaf_count=37 27 32
internal_value=0 0.00980175
internal_weight=0 9.36137
internal_count=96 69
is_linear=0
shrinkage=0.05


Tree=122
num_leaves=5
num_cat=0
split_feature=2 3 0 3
split_gain=2.43596 1.77031 0.201959 0.0296196
threshold=5.2000000000000002 1.6500000000000001 6.0500000000000007 1.0500000000000003
decision_type=2 2 2 2
left_child=1 2 3 -1
right_child=-2 -3 -4 -5
leaf_value=-0.034652484420997491 0.040604766519786013 0.016410929328138993 -0.017131029596124586 -0.044143927094616293
leaf_weight=1.9107545055448993 2.8464582338929185 3.1015566512942314 1.5968400463461874 1.4425073862075803
leaf_count=38 21 12 10 15
internal_value=0 -0.013208 -0.0317662 -0.0387355
internal_weight=0 8.05166 4.9501 3.35326
internal_count=96 75 63 53
is_linear=0
shrinkage=0.05


Tree=123
num_leaves=3
num_cat=0
split_feature=2 1
split_gain=3.08018 0.153055
threshold=1.8 2.9500000000000006
decision_type=2 2
left_child=-1 -2
right_child=1 -3
leaf_value=0.036307228269361398 -0.03780468766389479 -0.0194960013561611
leaf_weight=2.8972163572907448 2.5151905566453934 2.0900241620838642
leaf_count=30 35 31
internal_value=0 -0.0294955
internal_weight=0 4.60521
internal_count=96 66
is_linear=0
shrinkage=0.05


Tree=124
num_leaves=3
num_cat=0
split_feature=2 3
split_gain=0.935454 0.970905
threshold=5.0500000000000007 1.0500000000000003
decision_type=2 2
left_child=1 -1
right_child=-2 -3
leaf_value=-0.013450494607512046 -0.0237125635728032 0.021063240946390199
leaf_weight=3.0653484091162664 2.7617924436926851 6.0779039561748505
leaf_count=38 27 31
internal_value=0 0.00949224
internal_weight=0 9.14325
internal_count=96 69
is_linear=0
shrinkage=0.05


Tree=125
num_leaves=5
num_cat=0
split_feature=2 3 1 1
split_gain=2.27344 1.7023 0.144401 0.139745
threshold=5.2000000000000002 1.6500000000000001 2.7500000000000004 3.0500000000000003
decision_type=2 2 2 2
left_child=1 2 -1 -4
right_child=-2 -3 3 -5
leaf_value=-0.043996651375224557 0.040259139241572234 0.016169753028714189 -0.014247409751080126 -0.035189155432447904
leaf_weight=1.5594817996025083 2.7216247841715813 3.0827896595001221 1.4901099093258383 1.7117075510323045
leaf_count=15 21 12 15 33
internal_value=0 -0.0127775 -0.0315199 -0.025443
internal_weight=0 7.84409 4.7613 3.20182
internal_count=96 75 63 48
is_linear=0
shrinkage=0.05


Tree=126
num_leaves=4
num_cat=0
split_feature=3 3 3
split_gain=2.9136 0.121526 8.99597e-05
threshold=0.45000000000000007 1.2500000000000002 1.6500000000000001
decision_type=2 2 2
left_child=-1 -2 -3
right_child=1 2 -4
leaf_value=0.036174717105869482 -0.01696946213929169 -0.03506862359143692 -0.034525554321544957
leaf_weight=2.7634984850883484 1.3917794637382028 1.5355155654251578 1.5148880816996095
leaf_count=30 11 24 31
internal_value=0 -0.0292128 -0.0347989
internal_weight=0 4.44218 3.0504
internal_count=96 66 55
is_linear=0
shrinkage=0.05


Tree=127
num_leaves=4
num_cat=0
split_feature=3 1 0
split_gain=0.817991 1.24774 0.856545
threshold=1.6500000000000001 2.9500000000000006 5.4500000000000011
decision_type=2 2 2
left_child=1 -1 -3
right_child=-2 2 -4
leaf_value=0.03027911783012718 -0.017093680302127049 -0.030935804191961028 0.01755607005473496
leaf_weight=4.0502161607146263 3.8512733355164528 2.0960624180734162 1.6102274209260938
leaf_count=23 31 31 11
internal_value=0 0.0110956 -0.00986812
internal_weight=0 7.75651 3.70629
internal_count=96 65 42
is_linear=0
shrinkage=0.05


Tree=128
num_leaves=4
num_cat=0
split_feature=3 3 1
split_gain=2.14831 0.730578 0.000214316
threshold=1.8500000000000003 1.3500000000000003 2.9500000000000006
decision_type=2 2 2
left_child=1 2 -1
right_child=-2 -3 -4
leaf_value=-0.035218665758166103 0.039722601428491135 -0.0017338625076368935 -0.034291085544107119
leaf_weight=1.1829399280250075 2.6477853357791901 5.1080771908164024 1.3148997128009794
leaf_count=16 20 27 33
internal_value=0 -0.0125702 -0.0347304
internal_weight=0 7.60592 2.49784
internal_count=96 76 49
is_linear=0
shrinkage=0.05


Tree=129
num_leaves=3
num_cat=0
split_feature=2 1
split_gain=2.75568 0.146298
threshold=1.8 2.9500000000000006
decision_type=2 2
left_child=-1 -2
right_child=1 -3
leaf_value=0.036054059146676913 -0.037555786901613458 -0.018934465917315957
leaf_weight=2.6217218041419983 2.3258381187915802 1.9300460591912267
leaf_count=30 35 31
internal_value=0 -0.029111
internal_weight=0 4.25588
internal_count=96 66
is_linear=0
shrinkage=0.05


Tree=130
num_leaves=4
num_cat=0
split_feature=3 1 3
split_gain=0.743172 1.16169 1.33221
threshold=1.6500000000000001 2.7500000000000004 1.2500000000000002
decision_type=2 2 2
left_child=1 -1 -3
right_child=-2 2 -4
leaf_value=0.036286764238774714 -0.016368202645642451 -0.035793083104948449 0.018104642502700774
leaf_weight=2.8100953698158264 3.7664930522441864 1.9633980207145212 2.7555737644433975
leaf_count=16 31 32 17
internal_value=0 0.0108356 -0.0043203
internal_weight=0 7.52907 4.71897
internal_count=96 65 49
is_linear=0
shrinkage=0.05


Tree=131
num_leaves=4
num_cat=0
split_feature=2 1 1
split_gain=2.06206 1.44678 0.129134
threshold=5.2000000000000002 2.8500000000000001 3.0500000000000003
decision_type=2 2 2
left_child=1 -1 -3
right_child=-2 2 -4
leaf_value=0.0081698193269808018 0.040051081097420331 -0.025295607378584328 -0.044764745133486085
leaf_weight=3.9994833469390869 2.5189276710152626 1.5431541651487353 1.9007727541029451
leaf_count=27 21 14 34
internal_value=0 -0.0122857 -0.036041
internal_weight=0 7.44341 3.44393
internal_count=96 75 48
is_linear=0
shrinkage=0.05


Tree=132
num_leaves=3
num_cat=0
split_feature=3 3
split_gain=2.58763 0.00721602
threshold=1.0500000000000003 1.4500000000000002
decision_type=2 2
left_child=-1 -2
right_child=1 -3
leaf_value=0.026496414691946208 -0.039662704832041595 -0.034685531427473847
leaf_weight=3.3211055174469948 1.1126420311629774 2.1078409999608994
leaf_count=38 16 42
internal_value=0 -0.0364051
internal_weight=0 3.22048
internal_count=96 58
is_linear=0
shrinkage=0.05


Tree=133
num_leaves=4
num_cat=0
split_feature=2 0 1
split_gain=0.83336 0.876407 0.692067
threshold=5.0500000000000007 5.7500000000000009 2.7500000000000004
decision_type=2 2 2
left_child=1 2 -1
right_child=-2 -3 -4
leaf_value=0.016469271887054424 -0.023110957984373296 0.028400497099845559 -0.021345732953788873
leaf_weight=2.2011486887931806 2.5779675915837297 3.5215072967112064 2.6868233904242516
leaf_count=13 27 19 37
internal_value=0 0.00938366 -0.0043169
internal_weight=0 8.40948 4.88797
internal_count=96 69 50
is_linear=0
shrinkage=0.05


Tree=134
num_leaves=5
num_cat=0
split_feature=2 3 1 2
split_gain=1.96001 1.45955 0.152899 0.169466
threshold=5.2000000000000002 1.6500000000000001 2.7500000000000004 4.4500000000000011
decision_type=2 2 2 2
left_child=1 2 -1 -4
right_child=-2 -3 3 -5
leaf_value=-0.04396107539815191 0.039973288772137315 0.014818951418645174 -0.034517243751708504 -0.0098348829855819386
leaf_weight=1.439244858920574 2.4228517413139343 2.9957906156778336 1.6254934668540957 1.2153974846005438
leaf_count=15 21 12 39 9
internal_value=0 -0.0119486 -0.030684 -0.0239576
internal_weight=0 7.27593 4.28014 2.84089
internal_count=96 75 63 48
is_linear=0
shrinkage=0.05


Tree=135
num_leaves=3
num_cat=0
split_feature=3 1
split_gain=2.45435 0.134994
threshold=0.45000000000000007 2.9500000000000006
decision_type=2 2
left_child=-1 -2
right_child=1 -3
leaf_value=0.035773936034811812 -0.037218631797432143 -0.018587412939755642
leaf_weight=2.3555837273597717 2.1487684063613419 1.7756568193435667
leaf_count=30 35 31
internal_value=0 -0.0287887
internal_weight=0 3.92443
internal_count=96 66
is_linear=0
shrinkage=0.05


Tree=136
num_leaves=3
num_cat=0
split_feature=2 3
split_gain=0.768181 0.729699
threshold=5.0500000000000007 1.0500000000000003
decision_type=2 2
left_child=1 -1
right_child=-2 -3
leaf_value=-0.012662436424438143 -0.022509594752191782 0.019328274383476465
leaf_weight=2.6140459142625314 2.4980881139636049 5.6037149205803871
leaf_count=38 27 31
internal_value=0 0.00915212
internal_weight=0 8.21776
internal_count=96 69
is_linear=0
shrinkage=0.05


Tree=137
num_leaves=3
num_cat=0
split_feature=3 1
split_gain=1.83722 0.708837
threshold=1.8500000000000003 3.0500000000000003
decision_type=2 2
left_child=1 -1
right_child=-2 -3
leaf_value=-0.0020469364261957706 0.039249029850465106 -0.037662127415761824
leaf_weight=5.1352684274315834 2.3573459386825562 1.9191796425729988
leaf_count=40 20 36
internal_value=0 -0.0117361
internal_weight=0 7.05445
internal_count=96 76
is_linear=0
shrinkage=0.05


Tree=138
num_leaves=3
num_cat=0
split_feature=2 1
split_gain=2.3397 0.129594
threshold=1.8 2.9500000000000006
decision_type=2 2
left_child=-1 -2
right_child=1 -3
leaf_value=0.035699957596516639 -0.037080714573308873 -0.018517905266638313
leaf_weight=2.2515245750546455 2.0689747463911776 1.723462466150522
leaf_count=30 35 31
internal_value=0 -0.0286449
internal_weight=0 3.79244
internal_count=96 66
is_linear=0
shrinkage=0.05


Tree=139
num_leaves=4
num_cat=0
split_feature=2 0 1
split_gain=0.716731 0.780139 0.600814
threshold=5.0500000000000007 5.7500000000000009 2.7500000000000004
decision_type=2 2 2
left_child=1 2 -1
right_child=-2 -3 -4
leaf_value=0.015179136182765299 -0.022002836870344093 0.027092578759038671 -0.020838571229359039
leaf_weight=2.1335627213120443 2.4395712949335584 3.4118028357625008 2.531779021024704
leaf_count=13 27 19 37
internal_value=0 0.00892166 -0.00436689
internal_weight=0 8.07714 4.66534
internal_count=96 69 50
is_linear=0
shrinkage=0.05


Tree=140
num_leaves=4
num_cat=0
split_feature=2 1 1
split_gain=1.75363 1.33463 0.135242
threshold=5.2000000000000002 2.8500000000000001 3.0500000000000003
decision_type=2 2 2
left_child=1 -1 -3
right_child=-2 2 -4
leaf_value=0.0085239754080478659 0.039589788326023057 -0.024418267217524981 -0.045185986620288263
leaf_weight=3.8361100032925606 2.2376703396439552 1.4811406545341017 1.665345888584852
leaf_count=27 21 14 34
internal_value=0 -0.0112735 -0.03541
internal_weight=0 6.9826 3.14649
internal_count=96 75 48
is_linear=0
shrinkage=0.05


Tree=141
num_leaves=3
num_cat=0
split_feature=3 1
split_gain=2.20972 0.125628
threshold=0.45000000000000007 2.9500000000000006
decision_type=2 2
left_child=-1 -2
right_child=1 -3
leaf_value=0.035591972076678531 -0.036950062441184088 -0.018344606934554628
leaf_weight=2.1339841596782207 1.9832663144916298 1.6723391264677046
leaf_count=30 35 31
internal_value=0 -0.0284386
internal_weight=0 3.65561
internal_count=96 66
is_linear=0
shrinkage=0.05


Tree=142
num_leaves=4
num_cat=0
split_feature=3 1 0
split_gain=0.680965 1.0217 0.794961
threshold=1.6500000000000001 2.7500000000000004 5.5500000000000007
decision_type=2 2 2
left_child=1 -1 -3
right_child=-2 2 -4
leaf_value=0.035773501001739642 -0.015931723246185171 -0.029859960894929788 0.014453616000516431
leaf_weight=2.5829404816031456 3.5680497214198112 1.7537421584129331 2.3931414447724819
leaf_count=16 31 32 17
internal_value=0 0.0110885 -0.00428686
internal_weight=0 6.72982 4.14688
internal_count=96 65 49
is_linear=0
shrinkage=0.05


Tree=143
num_leaves=4
num_cat=0
split_feature=2 1 1
split_gain=1.63459 1.25141 0.143281
threshold=5.2000000000000002 2.8500000000000001 3.0500000000000003
decision_type=2 2 2
left_child=1 -1 -3
right_child=-2 2 -4
leaf_value=0.008341359097799839 0.039301587283565725 -0.023354039110667447 -0.04502693580357002
leaf_weight=3.8169061653316021 2.1393155753612518 1.4698844533413651 1.5848279278725383
leaf_count=27 21 14 34
internal_value=0 -0.010747 -0.0345982
internal_weight=0 6.87162 3.05471
internal_count=96 75 48
is_linear=0
shrinkage=0.05


Tree=144
num_leaves=4
num_cat=0
split_feature=3 0 3
split_gain=2.09245 0.0049154 5.54739e-05
threshold=1.0500000000000003 5.7500000000000009 1.6500000000000001
decision_type=2 2 2
left_child=-1 -2 -3
right_child=1 2 -4
leaf_value=0.025607085358666133 -0.038998064537162577 -0.034789903308388673 -0.034238823179659005
leaf_weight=2.7772219590842724 0.89698359370231662 0.82866158708930004 1.0172784104943273
leaf_count=38 14 16 28
internal_value=0 -0.0359617 -0.0344862
internal_weight=0 2.74292 1.84594
internal_count=96 58 44
is_linear=0
shrinkage=0.05


Tree=145
num_leaves=4
num_cat=0
split_feature=3 1 2
split_gain=0.643368 0.965108 1.02194
threshold=1.6500000000000001 2.7500000000000004 3.6000000000000005
decision_type=2 2 2
left_child=1 -1 -3
right_child=-2 2 -4
leaf_value=0.035251966962083339 -0.015546304515330039 -0.035449528357816708 0.016148695504031266
leaf_weight=2.5190720558166504 3.5110212862491608 1.5858602076768873 2.4300405010581017
leaf_count=16 31 32 17
internal_value=0 0.0109911 -0.0042272
internal_weight=0 6.53497 4.0159
internal_count=96 65 49
is_linear=0
shrinkage=0.05


Tree=146
num_leaves=4
num_cat=0
split_feature=2 1 1
split_gain=1.55851 1.20468 0.145898
threshold=5.2000000000000002 2.8500000000000001 3.0500000000000003
decision_type=2 2 2
left_child=1 -1 -3
right_child=-2 2 -4
leaf_value=0.0082715646407018947 0.039240329317510377 -0.023004125114790108 -0.04519915412771941
leaf_weight=3.7725589647889137 2.0588318854570389 1.4511444214731457 1.5117801818996666
leaf_count=27 21 14 34
internal_value=0 -0.0104682 -0.0343287
internal_weight=0 6.73548 2.96292
internal_count=96 75 48
is_linear=0
shrinkage=0.05


Tree=147
num_leaves=4
num_cat=0
split_feature=3 1 3
split_gain=1.94974 0.00368136 1.8281e-05
threshold=1.0500000000000003 2.7500000000000004 1.6500000000000001
decision_type=2 2 2
left_child=-1 -2 -3
right_child=1 2 -4
leaf_value=0.025055151984169233 -0.038275220737480881 -0.034558048021288083 -0.034224823813757917
leaf_weight=2.6475205756723881 0.965951677411795 0.80396946892142274 0.84333589114248753
leaf_count=38 17 17 24
internal_value=0 -0.0358245 -0.0343875
internal_weight=0 2.61326 1.64731
internal_count=96 58 41
is_linear=0
shrinkage=0.05


Tree=148
num_leaves=4
num_cat=0
split_feature=3 1 2
split_gain=0.612754 0.920702 0.744075
threshold=1.6500000000000001 2.7500000000000004 4.0500000000000007
decision_type=2 2 2
left_child=1 -1 -3
right_child=-2 2 -4
leaf_value=0.034789198850198842 -0.015184635855365784 -0.030040060149930194 0.014389076363807589
leaf_weight=2.4758971333503723 3.4569807462394238 1.6238196939229967 2.2455587834119797
leaf_count=16 31 33 16
internal_value=0 0.0109792 -0.00425601
internal_weight=0 6.34528 3.86938
internal_count=96 65 49
is_linear=0
shrinkage=0.05


Tree=149
num_leaves=5
num_cat=0
split_feature=3 2 1 1
split_gain=1.53861 1.10279 0.603799 0.08216
threshold=1.8500000000000003 5.0500000000000007 2.7500000000000004 3.0500000000000003
decision_type=2 2 2 2
left_child=1 2 -1 -4
right_child=-2 -3 3 -5
leaf_value=0.00091669190373222477 0.038952200885456624 0.022132951008563315 -0.028922609599754196 -0.04535738587944628
leaf_weight=1.6389591321349142 2.0512238293886185 1.8381637111306188 1.6044923327863219 1.4456018917262552
leaf_count=16 20 10 16 34
internal_value=0 -0.0106919 -0.0235596 -0.0367119
internal_weight=0 6.52722 4.68905 3.05009
internal_count=96 76 66 50
is_linear=0
shrinkage=0.05


Tree=150
num_leaves=3
num_cat=0
split_feature=2 1
split_gain=1.85973 0.103595
threshold=1.8 2.9500000000000006
decision_type=2 2
left_child=-1 -2
right_child=1 -3
leaf_value=0.035260892113628019 -0.036405767115703778 -0.018390002897692444
leaf_weight=1.8062376827001569 1.7407284416258337 1.4732978474348781
leaf_count=30 35 31
internal_value=0 -0.0281474
internal_weight=0 3.21403
internal_count=96 66
is_linear=0
shrinkage=0.05


Tree=151
num_leaves=4
num_cat=0
split_feature=2 0 2
split_gain=0.590274 0.620365 0.281404
threshold=5.0500000000000007 5.7500000000000009 3.1500000000000004
decision_type=2 2 2
left_child=1 2 -1
right_child=-2 -3 -4
leaf_value=-0.019651631504845741 -0.020720715247419811 0.025206547946795263 0.0068356591926662276
leaf_weight=1.7126819435507057 2.2330474257469177 3.1906932592391968 2.4191254898905754
leaf_count=32 27 19 18
internal_value=0 0.00864536 -0.00414363
internal_weight=0 7.3225 4.13181
internal_count=96 69 50
is_linear=0
shrinkage=0.05


Tree=152
num_leaves=6
num_cat=0
split_feature=3 2 3 0 2
split_gain=1.44466 1.054 0.41979 0.000915882 0.000129465
threshold=1.8500000000000003 5.0500000000000007 1.6500000000000001 6.0500000000000007 1.8
decision_type=2 2 2 2 2
left_child=1 2 3 4 -1
right_child=-2 -3 -4 -5 -6
leaf_value=-0.033882337877591984 0.038699274733328855 0.021856045618343384 -0.0038271774563151048 -0.03635613427361524 -0.03473714933057833
leaf_weight=0.69210310839116607 1.9613643027842043 1.8162868991494177 1.7376498579978941 0.90816686302423466 1.230406643822789
leaf_count=30 20 10 5 9 22
internal_value=0 -0.0103627 -0.0231723 -0.0350476 -0.0344294
internal_weight=0 6.38461 4.56833 2.83068 1.92251
internal_count=96 76 66 61 52
is_linear=0
shrinkage=0.05


Tree=153
num_leaves=4
num_cat=0
split_feature=3 0 3
split_gain=1.7653 0.128056 3.26851e-05
threshold=0.45000000000000007 5.1500000000000012 1.6500000000000001
decision_type=2 2 2
left_child=-1 -2 -3
right_child=1 2 -4
leaf_value=0.035184899630199988 -0.011737053140107773 -0.034521830675973635 -0.034134040769490573
leaf_weight=1.7181546688079832 0.8698552027344707 1.2884331103414299 0.93965285085141648
leaf_count=30 7 29 30
internal_value=0 -0.0280066 -0.0343583
internal_weight=0 3.09794 2.22809
internal_count=96 66 59
is_linear=0
shrinkage=0.05


Tree=154
num_leaves=4
num_cat=0
split_feature=3 1 3
split_gain=0.562466 0.874997 0.838532
threshold=1.6500000000000001 2.7500000000000004 1.2500000000000002
decision_type=2 2 2
left_child=1 -1 -3
right_child=-2 2 -4
leaf_value=0.034562724875113138 -0.014665752927853833 -0.035200308128239537 0.014447222044579912
leaf_weight=2.3654131963849068 3.348446749150753 1.3793602976948025 2.2181215807795525
leaf_count=16 31 32 17
internal_value=0 0.0109422 -0.00458882
internal_weight=0 5.9629 3.59748
internal_count=96 65 49
is_linear=0
shrinkage=0.05


Tree=155
num_leaves=4
num_cat=0
split_feature=3 3 1
split_gain=1.37141 0.543568 0.00012765
threshold=1.8500000000000003 1.3500000000000003 2.9500000000000006
decision_type=2 2 2
left_child=1 2 -1
right_child=-2 -3 -4
leaf_value=-0.034771906112145687 0.03859106354937164 -0.0010877273823178353 -0.033895366840862445
leaf_weight=0.92491188272833802 1.8872798010706899 4.5476806610822678 0.75391745939850807
leaf_count=16 20 27 33
internal_value=0 -0.0100637 -0.0343783
internal_weight=0 6.22651 1.67883
internal_count=96 76 49
is_linear=0
shrinkage=0.05


Tree=156
num_leaves=4
num_cat=0
split_feature=2 0 0
split_gain=1.6632 0.121831 1.12082e-05
threshold=1.8 5.1500000000000012 6.0500000000000007
decision_type=2 2 2
left_child=-1 -2 -3
right_child=1 2 -4
leaf_value=0.035097195289397809 -0.011850603569602637 -0.034429907817527819 -0.034199851396967774
leaf_weight=1.6193562000989912 0.84416731074452434 1.0254441276192667 1.0945135820657013
leaf_count=30 7 25 34
internal_value=0 -0.0279145 -0.0343111
internal_weight=0 2.96413 2.11996
internal_count=96 66 59
is_linear=0
shrinkage=0.05


Tree=157
num_leaves=4
num_cat=0
split_feature=2 3 2
split_gain=0.532658 0.328619 1.27964
threshold=5.0500000000000007 1.6500000000000001 3.1500000000000004
decision_type=2 2 2
left_child=1 2 -1
right_child=-2 -3 -4
leaf_value=-0.019227039128699483 -0.020030197552210888 -0.006478942929778098 0.036258923067910891
leaf_weight=1.6174876950681207 2.1450313366949558 2.3974598348140717 2.905996561050415
leaf_count=33 27 8 28
internal_value=0 0.00848667 0.0164185
internal_weight=0 6.92094 4.52348
internal_count=96 69 61
is_linear=0
shrinkage=0.05


Tree=158
num_leaves=6
num_cat=0
split_feature=2 3 0 2 3
split_gain=1.327 1.12543 0.268236 0.045248 7.97853e-05
threshold=5.2000000000000002 1.6500000000000001 6.0500000000000007 4.0500000000000007 0.45000000000000007
decision_type=2 2 2 2 2
left_child=1 2 3 4 -1
right_child=-2 -3 -4 -5 -6
leaf_value=-0.033795675737409908 0.039245063445392019 0.013429285374409738 -0.010581706288254987 -0.049113935057867604 -0.034592727176543867
leaf_weight=0.59645874239504404 1.7830689884722231 2.8221386224031448 1.1914266012609003 0.85599656403064717 0.66293613612651825
leaf_count=30 21 12 10 10 13
internal_value=0 -0.00976347 -0.0295569 -0.040244 -0.0342152
internal_weight=0 6.12896 3.30682 2.11539 1.25939
internal_count=96 75 63 53 43
is_linear=0
shrinkage=0.05


Tree=159
num_leaves=4
num_cat=0
split_feature=3 0 3
split_gain=1.57505 0.114594 2.39127e-05
threshold=0.45000000000000007 5.1500000000000012 1.6500000000000001
decision_type=2 2 2
left_child=-1 -2 -3
right_child=1 2 -4
leaf_value=0.035030065658955216 -0.012163349158465677 -0.034412850581369399 -0.03406309144370049
leaf_weight=1.5393642596900461 0.82896216213703189 1.1604251749813559 0.84420657157897938
leaf_count=30 7 29 30
internal_value=0 -0.0277996 -0.0342656
internal_weight=0 2.83359 2.00463
internal_count=96 66 59
is_linear=0
shrinkage=0.05


Tree=160
num_leaves=4
num_cat=0
split_feature=3 1 0
split_gain=0.463441 0.805176 0.298933
threshold=1.6500000000000001 2.7500000000000004 5.6500000000000012
decision_type=2 2 2
left_child=1 -1 -3
right_child=-2 2 -4
leaf_value=0.033828778794843757 -0.013336419262795586 -0.021538561463418794 0.0085279877130830517
leaf_weight=2.2198180258274078 3.2247937172651291 1.5052011739462616 1.8339503444731233
leaf_count=16 31 34 15
internal_value=0 0.01049 -0.00502522
internal_weight=0 5.55897 3.33915
internal_count=96 65 49
is_linear=0
shrinkage=0.05


Tree=161
num_leaves=6
num_cat=0
split_feature=2 3 0 0 2
split_gain=1.24489 1.04523 0.271863 0.0522652 6.42243e-05
threshold=5.2000000000000002 1.6500000000000001 6.0500000000000007 5.6500000000000012 3.1500000000000004
decision_type=2 2 2 2 2
left_child=1 2 3 4 -1
right_child=-2 -3 -4 -5 -6
leaf_value=-0.033872035680584819 0.03898279745696262 0.012769493764864779 -0.0099159522235353938 -0.05097281070768999 -0.034583044657358258
leaf_weight=0.66236204467713899 1.700198099017143 2.7926237732172012 1.1583902724087236 0.73317505232989777 0.61020094156265259
leaf_count=32 21 12 10 9 12
internal_value=0 -0.0095247 -0.0292013 -0.0403393 -0.034213
internal_weight=0 5.95675 3.16413 2.00574 1.27256
internal_count=96 75 63 53 44
is_linear=0
shrinkage=0.05


Tree=162
num_leaves=4
num_cat=0
split_feature=3 1 3
split_gain=1.49758 0.0027127 9.01539e-06
threshold=1.0500000000000003 2.7500000000000004 1.6500000000000001
decision_type=2 2 2
left_child=-1 -2 -3
right_child=1 2 -4
leaf_value=0.024265437603114389 -0.037890109683608668 -0.034316311363235555 -0.034052665596178908
leaf_weight=2.0847942046821117 0.79752859100699458 0.64811753854155518 0.64889235235750675
leaf_count=38 17 17 24
internal_value=0 -0.0355954 -0.0341844
internal_weight=0 2.09454 1.29701
internal_count=96 58 41
is_linear=0
shrinkage=0.05


Tree=163
num_leaves=4
num_cat=0
split_feature=3 1 0
split_gain=0.4117 0.749191 0.273269
threshold=1.6500000000000001 2.7500000000000004 5.6500000000000012
decision_type=2 2 2
left_child=1 -1 -3
right_child=-2 2 -4
leaf_value=0.033023761072334318 -0.0125863294936298 -0.021160989292051 0.0080024825800908261
leaf_weight=2.1497761607170105 3.1653043739497662 1.4515609927475455 1.7984836213290689
leaf_count=16 31 34 15
internal_value=0 0.0101243 -0.00502274
internal_weight=0 5.39982 3.25004
internal_count=96 65 49
is_linear=0
shrinkage=0.05


Tree=164
num_leaves=6
num_cat=0
split_feature=2 3 0 0 2
split_gain=1.19065 0.955731 0.270301 0.045627 5.56448e-05
threshold=5.2000000000000002 1.6500000000000001 6.0500000000000007 5.6500000000000012 3.1500000000000004
decision_type=2 2 2 2 2
left_child=1 2 3 4 -1
right_child=-2 -3 -4 -5 -6
leaf_value=-0.03384364131121835 0.038937638884587886 0.011973425837416894 -0.0093836977533354113 -0.050149664951364525 -0.034523561841520577
leaf_weight=0.62383417040109657 1.6341328024864195 2.7594422101974487 1.1446314379572866 0.71003871969878662 0.5813371054828167
leaf_count=32 21 12 10 9 12
internal_value=0 -0.009364 -0.0286066 -0.0400953 -0.0341716
internal_weight=0 5.81928 3.05984 1.91521 1.20517
internal_count=96 75 63 53 44
is_linear=0
shrinkage=0.05


Tree=165
num_leaves=4
num_cat=0
split_feature=2 0 3
split_gain=1.42058 0.107282 2.04392e-05
threshold=1.8 5.1500000000000012 1.6500000000000001
decision_type=2 2 2
left_child=-1 -2 -3
right_child=1 2 -4
leaf_value=0.034894970011263009 -0.012078009158908054 -0.034336406081634172 -0.03399682720717713
leaf_weight=1.3982718847692011 0.78331125900149379 1.0712557919323442 0.75572148710489262
leaf_count=30 7 29 30
internal_value=0 -0.0275587 -0.0341959
internal_weight=0 2.61029 1.82698
internal_count=96 66 59
is_linear=0
shrinkage=0.05


Tree=166
num_leaves=4
num_cat=0
split_feature=2 3 2
split_gain=0.49905 0.252803 1.09591
threshold=5.0500000000000007 1.6500000000000001 3.1500000000000004
decision_type=2 2 2
left_child=1 2 -1
right_child=-2 -3 -4
leaf_value=-0.018464289282590383 -0.019916841984430569 -0.0044645219348098657 0.035897771297726255
leaf_weight=1.4526996407657859 2.0189387034624815 2.3337927460670471 2.5623559206724167
leaf_count=33 27 8 28
internal_value=0 0.00862212 0.0162289
internal_weight=0 6.34885 4.01506
internal_count=96 69 61
is_linear=0
shrinkage=0.05


Tree=167
num_leaves=4
num_cat=0
split_feature=2 1 1
split_gain=1.14041 1.15275 0.150729
threshold=5.2000000000000002 2.8500000000000001 3.0500000000000003
decision_type=2 2 2
left_child=1 -1 -3
right_child=-2 2 -4
leaf_value=0.010190830104376722 0.038893152542118913 -0.023410063018287797 -0.048348199052121045
leaf_weight=3.2625176794826984 1.5713439136743543 1.2702964358031752 1.158488276414573
leaf_count=27 21 14 34
internal_value=0 -0.00922474 -0.0353051
internal_weight=0 5.6913 2.42878
internal_count=96 75 48
is_linear=0
shrinkage=0.05


Tree=168
num_leaves=4
num_cat=0
split_feature=2 2 0
split_gain=1.33456 0.104864 9.66315e-06
threshold=1.8 3.6000000000000005 6.0500000000000007
decision_type=2 2 2
left_child=-1 -2 -3
right_child=1 2 -4
leaf_value=0.034808613698387308 -0.011998064603878858 -0.034276495486323368 -0.034040237899163377
leaf_weight=1.3199727050960066 0.77191464975476298 0.8605337683111427 0.87072523217648268
leaf_count=30 7 25 34
internal_value=0 -0.0273242 -0.0341577
internal_weight=0 2.50317 1.73126
internal_count=96 66 59
is_linear=0
shrinkage=0.05


Tree=169
num_leaves=4
num_cat=0
split_feature=2 0 2
split_gain=0.447083 0.557688 0.157373
threshold=5.0500000000000007 5.8500000000000005 3.1500000000000004
decision_type=2 2 2
left_child=1 2 -1
right_child=-2 -3 -4
leaf_value=-0.01783215110376855 -0.019029935898373582 0.025269125904126583 0.0038628548981534602
leaf_weight=1.4092118479311468 1.9640045762062071 2.7257447466254234 2.0546307079493999
leaf_count=33 27 17 19
internal_value=0 0.00835026 -0.00496343
internal_weight=0 6.18959 3.46384
internal_count=96 69 52
is_linear=0
shrinkage=0.05


Tree=170
num_leaves=6
num_cat=0
split_feature=3 2 3 0 2
split_gain=1.1028 0.809975 0.314302 0.000502587 4.72375e-05
threshold=1.8500000000000003 5.0500000000000007 1.6500000000000001 6.0500000000000007 3.1500000000000004
decision_type=2 2 2 2 2
left_child=1 2 3 4 -1
right_child=-2 -3 -4 -5 -6
leaf_value=-0.033795881765434924 0.03811632143615501 0.019879428896673629 -0.0059558684268413587 -0.035751554142143711 -0.034388366827693598
leaf_weight=0.56830453872680686 1.5698998719453809 1.6534501947462557 1.7076209783554079 0.75070857629179943 0.82445527985692024
leaf_count=33 20 10 5 9 19
internal_value=0 -0.00939184 -0.0219593 -0.0347087 -0.0341466
internal_weight=0 5.50454 3.85109 2.14347 1.39276
internal_count=96 76 66 61 52
is_linear=0
shrinkage=0.05


Tree=171
num_leaves=4
num_cat=0
split_feature=3 2 3
split_gain=1.29085 0.0905699 1.11923e-05
threshold=0.45000000000000007 3.6000000000000005 1.6500000000000001
decision_type=2 2 2
left_child=-1 -2 -3
right_child=1 2 -4
leaf_value=0.034815165625309945 -0.013193481305436468 -0.034239188083379571 -0.033976829502165927
leaf_weight=1.2665100730955603 0.75270505622029338 0.92344325780868508 0.72617250308394432
leaf_count=30 7 28 31
internal_value=0 -0.0275658 -0.0341237
internal_weight=0 2.40232 1.64962
internal_count=96 66 59
is_linear=0
shrinkage=0.05


Tree=172
num_leaves=4
num_cat=0
split_feature=2 3 2
split_gain=0.397968 0.258053 0.967728
threshold=5.0500000000000007 1.6500000000000001 3.1500000000000004
decision_type=2 2 2
left_child=1 2 -1
right_child=-2 -3 -4
leaf_value=-0.017249783723464349 -0.018146747402164827 -0.0050069642590256846 0.035653572708388225
leaf_weight=1.3672893904149535 1.9133682269603012 2.3369282633066177 2.3503667488694191
leaf_count=33 27 8 28
internal_value=0 0.00801254 0.0161966
internal_weight=0 6.05458 3.71766
internal_count=96 69 61
is_linear=0
shrinkage=0.05


Tree=173
num_leaves=4
num_cat=0
split_feature=2 1 1
split_gain=1.01159 1.05229 0.159579
threshold=5.2000000000000002 2.8500000000000001 3.0500000000000003
decision_type=2 2 2
left_child=1 -1 -3
right_child=-2 2 -4
leaf_value=0.010048410755010676 0.038506245474927502 -0.022155409131221968 -0.048622131998627693
leaf_weight=3.1660699211061001 1.4386439360678194 1.2263166178017857 1.0633917981758712
leaf_count=27 21 14 34
internal_value=0 -0.00862571 -0.0344471
internal_weight=0 5.45578 2.28971
internal_count=96 75 48
is_linear=0
shrinkage=0.05


Tree=174
num_leaves=3
num_cat=0
split_feature=3 3
split_gain=1.22576 0.00265124
threshold=1.0500000000000003 1.4500000000000002
decision_type=2 2
left_child=-1 -2
right_child=1 -3
leaf_value=0.023549574023522868 -0.038152754321716068 -0.03412730882968177
leaf_weight=1.7457945421338084 0.6485743112862109 1.1075062137097118
leaf_count=38 16 42
internal_value=0 -0.035614
internal_weight=0 1.75608
internal_count=96 58
is_linear=0
shrinkage=0.05


Tree=175
num_leaves=4
num_cat=0
split_feature=2 3 2
split_gain=0.354453 0.256292 0.908329
threshold=5.0500000000000007 1.6500000000000001 3.1500000000000004
decision_type=2 2 2
left_child=1 2 -1
right_child=-2 -3 -4
leaf_value=-0.016621394925089523 -0.017266294243943249 -0.0051400615294909715 0.035542218365010682
leaf_weight=1.3279147166758778 1.8631566781550644 2.334355354309082 2.2461690194904804
leaf_count=33 27 8 28
internal_value=0 0.00774541 0.0161614
internal_weight=0 5.90844 3.57408
internal_count=96 69 61
is_linear=0
shrinkage=0.05


Tree=176
num_leaves=4
num_cat=0
split_feature=2 1 1
split_gain=0.95007 0.996768 0.16227
threshold=5.2000000000000002 2.8500000000000001 3.0500000000000003
decision_type=2 2 2
left_child=1 -1 -3
right_child=-2 2 -4
leaf_value=0.0098247057800664797 0.038278380460971699 -0.021571761823859614 -0.048703302493053671
leaf_weight=3.1297351941466331 1.3724011369049547 1.2056070920079949 1.0151274697855113
leaf_count=27 21 14 34
internal_value=0 -0.00835411 -0.033974
internal_weight=0 5.35047 2.22073
internal_count=96 75 48
is_linear=0
shrinkage=0.05


end of trees

feature_importances:
Column_2=167
Column_3=164
Column_1=84
Column_0=48

parameters:
[boosting: gbdt]
[objective: multiclass]
[metric: multi_logloss]
[tree_learner: serial]
[device_type: cpu]
[data_sample_strategy: bagging]
[data: ]
[valid: ]
[num_iterations: 10000]
[learning_rate: 0.05]
[num_leaves: 63]
[num_threads: 0]
[seed: 1237]
[deterministic: 0]
[force_col_wise: 0]
[force_row_wise: 0]
[histogram_pool_size: -1]
[max_depth: -1]
[min_data_in_leaf: 20]
[min_sum_hessian_in_leaf: 0.001]
[bagging_fraction: 0.9]
[pos_bagging_fraction: 1]
[neg_bagging_fraction: 1]
[bagging_freq: 0]
[bagging_seed: 32458]
[feature_fraction: 0.8]
[feature_fraction_bynode: 1]
[feature_fraction_seed: 15412]
[extra_trees: 0]
[extra_seed: 19498]
[early_stopping_round: 0]
[early_stopping_min_delta: 0]
[first_metric_only: 0]
[max_delta_step: 0]
[lambda_l1: 0]
[lambda_l2: 0]
[linear_lambda: 0]
[min_gain_to_split: 0]
[drop_rate: 0.1]
[max_drop: 50]
[skip_drop: 0.5]
[xgboost_dart_mode: 0]
[uniform_drop: 0]
[drop_seed: 818]
[top_rate: 0.2]
[other_rate: 0.1]
[min_data_per_group: 100]
[max_cat_threshold: 32]
[cat_l2: 10]
[cat_smooth: 10]
[max_cat_to_onehot: 4]
[top_k: 20]
[monotone_constraints: ]
[monotone_constraints_method: basic]
[monotone_penalty: 0]
[feature_contri: ]
[forcedsplits_filename: ]
[refit_decay_rate: 0.9]
[cegb_tradeoff: 1]
[cegb_penalty_split: 0]
[cegb_penalty_feature_lazy: ]
[cegb_penalty_feature_coupled: ]
[path_smooth: 0]
[interaction_constraints: ]
[verbosity: -1]
[saved_feature_importance_type: 0]
[use_quantized_grad: 0]
[num_grad_quant_bins: 4]
[quant_train_renew_leaf: 0]
[stochastic_rounding: 1]
[linear_tree: 0]
[max_bin: 255]
[max_bin_by_feature: ]
[min_data_in_bin: 3]
[bin_construct_sample_cnt: 200000]
[data_random_seed: 4078]
[is_enable_sparse: 1]
[enable_bundle: 1]
[use_missing: 1]
[zero_as_missing: 0]
[feature_pre_filter: 1]
[pre_partition: 0]
[two_round: 0]
[header: 0]
[label_column: ]
[weight_column: ]
[group_column: ]
[ignore_column: ]
[categorical_feature: ]
[forcedbins_filename: ]
[precise_float_parser: 0]
[parser_config_file: ]
[objective_seed: 21231]
[num_class: 3]
[is_unbalance: 0]
[scale_pos_weight: 1]
[sigmoid: 1]
[boost_from_average: 1]
[reg_sqrt: 0]
[alpha: 0.9]
[fair_c: 1]
[poisson_max_delta_step: 0.7]
[tweedie_variance_power: 1.5]
[lambdarank_truncation_level: 30]
[lambdarank_norm: 1]
[label_gain: ]
[lambdarank_position_bias_regularization: 0]
[eval_at: ]
[multi_error_top_k: 1]
[auc_mu_weights: ]
[num_machines: 1]
[local_listen_port: 12400]
[time_out: 120]
[machine_list_filename: ]
[machines: ]
[gpu_platform_id: -1]
[gpu_device_id: -1]
[gpu_use_dp: 0]
[num_gpu: 1]

end of parameters

pandas_categorical:null
