tree
version=v4
num_class=3
num_tree_per_iteration=3
label_index=0
max_feature_idx=3
objective=multiclass num_class:3
feature_names=Column_0 Column_1 Column_2 Column_3
feature_infos=[4.2999999999999998:7.7000000000000002] [2:4.4000000000000004] [1:6.7000000000000002] [0.10000000000000001:2.5]
tree_sizes=426 443 445 549 428 433 550 444 431 536 428 552 537 445 552 535 429 551 551 443 434 551 428 430 447 428 554 535 427 449 554 444 449 551 445 446 449 445 449 550 427 448 551 429 447 448 445 449 448 428 550 447 427 449 448 531 448 446 445 551 550 527 450 448 444 450 537 445 448 449 444 450 537 443 551 536 445 447 448 444 549 536 444 449 549 443 550 534 441 550 551 443 548 536 543 544 548 443 550 552 446 550 538 443 656 553 445 450 536 447 548 553 446 655 536 447 449 536 447 549 553 442 553 538 446 655 552 552 551 538 549 435 551 446 655 538 448 548 552 550 432 450 552 548 553 445 549 556 447 548

Tree=0
num_leaves=3
num_cat=0
split_feature=2 0
split_gain=61.0462 0.0902098
threshold=1.8 5.8500000000000005
decision_type=2 2
left_child=-1 -2
right_child=1 -3
leaf_value=-0.9986122886681098 -1.141794106849928 -1.1486122886681098
leaf_weight=10.333333641290663 7.3333335518837002 14.333333760499952
leaf_count=31 22 43
internal_value=-1.09861 -1.1463
internal_weight=0 21.6667
internal_count=96 65
is_linear=0
shrinkage=1


Tree=1
num_leaves=3
num_cat=0
split_feature=3 3
split_gain=15.9883 29.5735
threshold=0.45000000000000007 1.5500000000000003
decision_type=2 2
left_child=-1 -2
right_child=1 -3
leaf_value=-1.1186342807950069 -0.98825485629793541 -1.1043346019791991
leaf_weight=10.489746093749998 11.504882812500002 10.489746093749998
leaf_count=31 34 31
internal_value=-1.06784 -1.04362
internal_weight=0 21.9946
internal_count=96 65
is_linear=0
shrinkage=1


Tree=2
num_leaves=3
num_cat=0
split_feature=2 1
split_gain=53.1974 3.55271e-15
threshold=4.7500000000000009 3.1500000000000008
decision_type=2 2
left_child=1 -1
right_child=-2 -3
leaf_value=-1.1795917532077194 -1.0445587942892507 -1.1795917532077194
leaf_weight=10.494791984558111 11.478678733110426 9.5109052360057813
leaf_count=32 35 29
internal_value=-1.13036 -1.17959
internal_weight=0 20.0057
internal_count=96 61
is_linear=0
shrinkage=1


Tree=3
num_leaves=4
num_cat=0
split_feature=3 2 3
split_gain=54.0187 0.0837565 2.33179e-05
threshold=0.45000000000000007 4.4500000000000011 1.8500000000000003
decision_type=2 2 2
left_child=-1 -2 -3
right_child=1 2 -4
leaf_value=0.090985173717941362 -0.042114351832010774 -0.0486986254878174 -0.048828228805089385
leaf_weight=10.793634593486788 7.186210215091708 7.4477414190769178 6.4989760518074036
leaf_count=31 22 23 20
internal_value=0 -0.0464995 -0.048759
internal_weight=0 21.1329 13.9467
internal_count=96 65 43
is_linear=0
shrinkage=0.05


Tree=4
num_leaves=3
num_cat=0
split_feature=2 2
split_gain=14.6725 30.8677
threshold=1.8 4.7500000000000009
decision_type=2 2
left_child=-1 -2
right_child=1 -3
leaf_value=-0.049524338778600574 0.085078871529593078 -0.033032978931429056
leaf_weight=10.229618072509764 10.500136613845827 11.690439134836195
leaf_count=31 30 35
internal_value=0 0.0228552
internal_weight=0 22.1906
internal_count=96 65
is_linear=0
shrinkage=0.05


Tree=5
num_leaves=3
num_cat=0
split_feature=2 2
split_gain=47.5547 7.32369e-05
threshold=4.7500000000000009 1.8
decision_type=2 2
left_child=1 -1
right_child=-2 -3
leaf_value=-0.048045972794359848 0.078589756785155437 -0.048239860564360866
leaf_weight=9.8783112168312126 11.936945766210554 9.6072663068771345
leaf_count=31 35 30
internal_value=0 -0.0481416
internal_weight=0 19.4856
internal_count=96 61
is_linear=0
shrinkage=0.05


Tree=6
num_leaves=4
num_cat=0
split_feature=3 0 2
split_gain=48.0863 0.083386 9.60568e-06
threshold=0.45000000000000007 5.8500000000000005 5.0500000000000007
decision_type=2 2 2
left_child=-1 -2 -3
right_child=1 2 -4
leaf_value=0.083591963426679017 -0.04094159211649212 -0.047699937501054279 -0.047615737463702679
leaf_weight=11.145985424518587 7.0084830820560482 6.943342983722685 6.6135671138763428
leaf_count=31 22 22 21
internal_value=0 -0.0453697 -0.0476589
internal_weight=0 20.5654 13.5569
internal_count=96 65 43
is_linear=0
shrinkage=0.05


Tree=7
num_leaves=3
num_cat=0
split_feature=3 3
split_gain=13.4666 23.2987
threshold=0.45000000000000007 1.5500000000000003
decision_type=2 2
left_child=-1 -2
right_child=1 -3
leaf_value=-0.048338664653678108 0.068314853186669772 -0.034345443132090522
leaf_weight=9.9464421868324262 12.152534276247026 10.136592090129851
leaf_count=31 34 31
internal_value=0 0.0216273
internal_weight=0 22.2891
internal_count=96 65
is_linear=0
shrinkage=0.05


Tree=8
num_leaves=3
num_cat=0
split_feature=2 2
split_gain=42.436 2.50677e-05
threshold=4.7500000000000009 1.8
decision_type=2 2
left_child=1 -1
right_child=-2 -3
leaf_value=-0.04700772471200329 0.072158579100328232 -0.047122885580724333
leaf_weight=9.5918097198009544 12.332195043563841 9.3141398131847364
leaf_count=31 35 30
internal_value=0 -0.0470645
internal_weight=0 18.9059
internal_count=96 61
is_linear=0
shrinkage=0.05


Tree=9
num_leaves=4
num_cat=0
split_feature=2 2 3
split_gain=43.2387 0.0780566 3.9291e-05
threshold=1.8 4.4500000000000011 1.8500000000000003
decision_type=2 2 2
left_child=-1 -2 -3
right_child=1 2 -4
leaf_value=0.077709189609256657 -0.040052750327146967 -0.046555197550933743 -0.046728502583359373
leaf_weight=11.380894064903261 6.8496780991554287 7.0051110088825208 6.1344674229621887
leaf_count=31 22 23 20
internal_value=0 -0.0443802 -0.0466361
internal_weight=0 19.9893 13.1396
internal_count=96 65 43
is_linear=0
shrinkage=0.05


Tree=10
num_leaves=3
num_cat=0
split_feature=2 2
split_gain=12.4355 24.5005
threshold=1.8 4.9500000000000011
decision_type=2 2
left_child=-1 -2
right_child=1 -3
leaf_value=-0.04732874586314964 0.063784645815783594 -0.043008565372697205
leaf_weight=9.6573967933654803 13.279397219419481 9.0177659988403303
leaf_count=31 37 28
internal_value=0 0.0205937
internal_weight=0 22.2972
internal_count=96 65
is_linear=0
shrinkage=0.05


Tree=11
num_leaves=4
num_cat=0
split_feature=3 0 3
split_gain=33.6918 0.805518 1.82275e-05
threshold=1.5500000000000003 5.7500000000000009 0.35000000000000003
decision_type=2 2 2
left_child=1 2 -1
right_child=-2 -3 -4
leaf_value=-0.046011740324618078 0.06943879290229131 -0.024391315132519333 -0.046128640000609011
leaf_weight=7.4857860803604179 11.170726627111433 6.2829895615577689 6.0131425559520721
leaf_count=25 31 20 20
internal_value=0 -0.0391804 -0.0460638
internal_weight=0 19.7819 13.4989
internal_count=96 65 45
is_linear=0
shrinkage=0.05


Tree=12
num_leaves=4
num_cat=0
split_feature=2 0 2
split_gain=38.8881 0.0798054 4.55461e-06
threshold=1.8 5.8500000000000005 5.0500000000000007
decision_type=2 2 2
left_child=-1 -2 -3
right_child=1 2 -4
leaf_value=0.072543801927585513 -0.038954891401371872 -0.045680832346152028 -0.045740663005791167
leaf_weight=11.537580430507662 6.6594542264938381 6.503230154514311 6.2262243330478668
leaf_count=31 22 22 21
internal_value=0 -0.0433899 -0.0457101
internal_weight=0 19.3889 12.7295
internal_count=96 65 43
is_linear=0
shrinkage=0.05


Tree=13
num_leaves=3
num_cat=0
split_feature=3 2
split_gain=11.4036 22.1218
threshold=0.45000000000000007 4.7500000000000009
decision_type=2 2
left_child=-1 -2
right_child=1 -3
leaf_value=-0.046276108678145966 0.069410601787227105 -0.030273658971991625
leaf_weight=9.3391135632991809 11.127229869365694 11.134917378425596
leaf_count=31 30 35
internal_value=0 0.0195513
internal_weight=0 22.2621
internal_count=96 65
is_linear=0
shrinkage=0.05


Tree=14
num_leaves=4
num_cat=0
split_feature=2 3 1
split_gain=35.0721 0.000407677 9.37973e-06
threshold=4.7500000000000009 1.2500000000000002 3.3500000000000001
decision_type=2 2 2
left_child=1 2 -1
right_child=-2 -3 -4
leaf_value=-0.045219649787284426 0.063171541168185907 -0.045684521431484458 -0.04513081890344154
leaf_weight=6.1029774546623283 12.798533916473387 5.9080882072448722 5.7918879687786102
leaf_count=21 35 20 20
internal_value=0 -0.045345 -0.0451764
internal_weight=0 17.803 11.8949
internal_count=96 61 41
is_linear=0
shrinkage=0.05


Tree=15
num_leaves=4
num_cat=0
split_feature=2 2 0
split_gain=35.19 0.0812086 3.77662e-07
threshold=1.8 4.4500000000000011 6.3500000000000005
decision_type=2 2 2
left_child=-1 -2 -3
right_child=1 2 -4
leaf_value=0.06828242172610835 -0.037944848311301481 -0.044856954406518455 -0.044874473271996312
leaf_weight=11.600903391838076 6.4645542502403286 6.2948287725448591 6.0167276859283447
leaf_count=31 22 22 21
internal_value=0 -0.0424828 -0.0448655
internal_weight=0 18.7761 12.3116
internal_count=96 65 43
is_linear=0
shrinkage=0.05


Tree=16
num_leaves=3
num_cat=0
split_feature=2 2
split_gain=10.5407 20.2646
threshold=1.8 4.9500000000000011
decision_type=2 2
left_child=-1 -2
right_child=1 -3
leaf_value=-0.045404502793734744 0.056985394833550966 -0.041168201597128105
leaf_weight=9.0240271091461199 13.489126265048982 8.6182448267936689
leaf_count=31 37 28
internal_value=0 0.0187216
internal_weight=0 22.1074
internal_count=96 65
is_linear=0
shrinkage=0.05


Tree=17
num_leaves=4
num_cat=0
split_feature=3 0 3
split_gain=27.5755 0.728211 4.43238e-05
threshold=1.5500000000000003 5.7500000000000009 0.35000000000000003
decision_type=2 2 2
left_child=1 2 -1
right_child=-2 -3 -4
leaf_value=-0.044244036630360653 0.061022359445697533 -0.023245269033750026 -0.044432771119636373
leaf_weight=6.9671204388141685 11.4789582490921 6.0711861550807944 5.6202707886695862
leaf_count=25 31 20 20
internal_value=0 -0.0374682 -0.0443283
internal_weight=0 18.6586 12.5874
internal_count=96 65 45
is_linear=0
shrinkage=0.05


Tree=18
num_leaves=4
num_cat=0
split_feature=3 2 3
split_gain=32.1489 0.0769906 2.92889e-05
threshold=0.45000000000000007 4.4500000000000011 1.8500000000000003
decision_type=2 2 2
left_child=-1 -2 -3
right_child=1 2 -4
leaf_value=0.064882791364601566 -0.03724934516102274 -0.044016375118022741 -0.04417366610139379
leaf_weight=11.57488536834717 6.2892446517944363 6.3350563049316388 5.5546328723430634
leaf_count=31 22 23 20
internal_value=0 -0.0417233 -0.0440899
internal_weight=0 18.1789 11.8897
internal_count=96 65 43
is_linear=0
shrinkage=0.05


Tree=19
num_leaves=3
num_cat=0
split_feature=3 2
split_gain=9.75506 18.4512
threshold=0.45000000000000007 4.9500000000000011
decision_type=2 2
left_child=-1 -2
right_child=1 -3
leaf_value=-0.044617714339372679 0.054080746859779066 -0.040275454430594139
leaf_weight=8.7018183469772357 13.53090161085129 8.3960701525211316
leaf_count=31 37 28
internal_value=0 0.0179508
internal_weight=0 21.927
internal_count=96 65
is_linear=0
shrinkage=0.05


Tree=20
num_leaves=3
num_cat=0
split_feature=2 2
split_gain=29.1453 0.000767099
threshold=4.7500000000000009 1.8
decision_type=2 2
left_child=1 -1
right_child=-2 -3
leaf_value=-0.043478190251907682 0.056075526537671061 -0.044157579221743591
leaf_weight=8.3179946243763023 13.024301886558531 8.3013977110385877
leaf_count=31 35 30
internal_value=0 -0.0438175
internal_weight=0 16.6194
internal_count=96 61
is_linear=0
shrinkage=0.05


Tree=21
num_leaves=4
num_cat=0
split_feature=3 0 2
split_gain=29.2424 0.0801731 5.20727e-05
threshold=0.45000000000000007 5.8500000000000005 5.0500000000000007
decision_type=2 2 2
left_child=-1 -2 -3
right_child=1 2 -4
leaf_value=0.061653445650750399 -0.036279912744162035 -0.043273148929136272 -0.043486295315480164
leaf_weight=11.501151919364931 6.0921776294708279 5.827844023704527 5.6371689140796661
leaf_count=31 22 22 21
internal_value=0 -0.040915 -0.0433779
internal_weight=0 17.5572 11.465
internal_count=96 65 43
is_linear=0
shrinkage=0.05


Tree=22
num_leaves=3
num_cat=0
split_feature=2 2
split_gain=9.00434 16.7209
threshold=1.8 4.9500000000000011
decision_type=2 2
left_child=-1 -2
right_child=1 -3
leaf_value=-0.043834598645202477 0.051325677427479337 -0.039317057448677403
leaf_weight=8.3698133230209368 13.522645682096483 8.156794995069502
leaf_count=31 37 28
internal_value=0 0.0172217
internal_weight=0 21.6794
internal_count=96 65
is_linear=0
shrinkage=0.05


Tree=23
num_leaves=3
num_cat=0
split_feature=2 2
split_gain=26.5835 0.000770692
threshold=4.7500000000000009 1.8
decision_type=2 2
left_child=1 -1
right_child=-2 -3
leaf_value=-0.04275753125963179 0.05303270937466547 -0.043451531327616137
leaf_weight=7.989583343267447 13.058820992708204 8.0119927823543531
leaf_count=31 35 30
internal_value=0 -0.043105
internal_weight=0 16.0016
internal_count=96 61
is_linear=0
shrinkage=0.05


Tree=24
num_leaves=3
num_cat=0
split_feature=2 2
split_gain=26.7431 0.000455673
threshold=3.4000000000000004 4.5500000000000007
decision_type=2 2
left_child=-1 -2
right_child=1 -3
leaf_value=0.055224924819184909 -0.04320202229678221 -0.042652798247958867
leaf_weight=12.255784809589388 6.0789819657802608 9.970942556858061
leaf_count=34 23 39
internal_value=0 -0.0428608
internal_weight=0 16.0499
internal_count=96 62
is_linear=0
shrinkage=0.05


Tree=25
num_leaves=3
num_cat=0
split_feature=2 2
split_gain=8.3311 15.1878
threshold=1.8 4.9500000000000011
decision_type=2 2
left_child=-1 -2
right_child=1 -3
leaf_value=-0.043137092139384596 0.048884402988378518 -0.038397672620866019
leaf_weight=8.0386722087860125 13.463199138641359 7.9137182235717765
leaf_count=31 37 28
internal_value=0 0.0165726
internal_weight=0 21.3769
internal_count=96 65
is_linear=0
shrinkage=0.05


Tree=26
num_leaves=4
num_cat=0
split_feature=2 0 1
split_gain=24.3105 0.000708018 1.34055e-06
threshold=4.7500000000000009 5.6500000000000012 3.2500000000000004
decision_type=2 2 2
left_child=1 2 -1
right_child=-2 -3 -4
leaf_value=-0.042213734958739646 0.050344647439792126 -0.04290501830589262 -0.042177029003193922
leaf_weight=4.9824629127979296 13.042579799890516 5.4355124831199637 4.9672524034976959
leaf_count=20 35 21 20
internal_value=0 -0.0424461 -0.0421954
internal_weight=0 15.3852 9.94972
internal_count=96 61 40
is_linear=0
shrinkage=0.05


Tree=27
num_leaves=4
num_cat=0
split_feature=2 0 2
split_gain=24.5252 0.0799894 8.97211e-05
threshold=1.8 5.8500000000000005 5.0500000000000007
decision_type=2 2 2
left_child=-1 -2 -3
right_child=1 2 -4
leaf_value=0.056564177811961269 -0.034765236240738372 -0.041952284940496416 -0.042243146953206093
leaf_weight=11.18775323033333 5.7320341020822552 5.364618703722952 5.2420407235622406
leaf_count=31 22 22 21
internal_value=0 -0.0395242 -0.042096
internal_weight=0 16.3387 10.6067
internal_count=96 65 43
is_linear=0
shrinkage=0.05


Tree=28
num_leaves=3
num_cat=0
split_feature=2 2
split_gain=7.71694 13.833
threshold=1.8 4.9500000000000011
decision_type=2 2
left_child=-1 -2
right_child=1 -3
leaf_value=-0.042462557333587253 0.046718451443037948 -0.037520826397384938
leaf_weight=7.7152640372514751 13.363660395145418 7.670578032732009
leaf_count=31 37 28
internal_value=0 0.0159988
internal_weight=0 21.0342
internal_count=96 65
is_linear=0
shrinkage=0.05


Tree=29
num_leaves=3
num_cat=0
split_feature=2 2
split_gain=22.2712 0.000673856
threshold=4.7500000000000009 3.8500000000000001
decision_type=2 2
left_child=1 -1
right_child=-2 -3
leaf_value=-0.041559486056815448 0.047926022280033009 -0.042247648629408413
leaf_weight=8.8062458187341708 12.981709212064741 5.9682403355836859
leaf_count=37 35 24
internal_value=0 -0.0418375
internal_weight=0 14.7745
internal_count=96 61
is_linear=0
shrinkage=0.05


Tree=30
num_leaves=4
num_cat=0
split_feature=3 3 2
split_gain=22.6763 0.0941796 0.000130715
threshold=0.45000000000000007 1.3500000000000003 5.0500000000000007
decision_type=2 2 2
left_child=-1 -2 -3
right_child=1 2 -4
leaf_value=0.054712575456779981 -0.033168774930377967 -0.041369474929050021 -0.041716184799597308
leaf_weight=10.949048995971681 4.8326391428709021 5.1330361962318403 5.7793753892183304
leaf_count=31 19 22 24
internal_value=0 -0.0389797 -0.0415531
internal_weight=0 15.7451 10.9124
internal_count=96 65 46
is_linear=0
shrinkage=0.05


Tree=31
num_leaves=3
num_cat=0
split_feature=3 2
split_gain=7.24283 12.6695
threshold=0.45000000000000007 4.9500000000000011
decision_type=2 2
left_child=-1 -2
right_child=1 -3
leaf_value=-0.042075602162587711 0.044949017029943909 -0.03667590489002092
leaf_weight=7.4027206003665951 13.209755778312685 7.4267002642154685
leaf_count=31 37 28
internal_value=0 0.0155736
internal_weight=0 20.6365
internal_count=96 65
is_linear=0
shrinkage=0.05


Tree=32
num_leaves=3
num_cat=0
split_feature=2 2
split_gain=20.4425 0.000652581
threshold=4.7500000000000009 1.5500000000000003
decision_type=2 2
left_child=1 -1
right_child=-2 -3
leaf_value=-0.040894844956188309 0.045758315907915084 -0.041577416231945996
leaf_weight=6.3296767771244067 12.882774382829664 7.8375969529151917
leaf_count=28 35 33
internal_value=0 -0.0412725
internal_weight=0 14.1673
internal_count=96 61
is_linear=0
shrinkage=0.05


Tree=33
num_leaves=4
num_cat=0
split_feature=3 1 3
split_gain=20.8167 0.126137 0.000468214
threshold=0.45000000000000007 3.0500000000000003 1.4500000000000002
decision_type=2 2 2
left_child=-1 2 -2
right_child=1 -3 -4
leaf_value=0.052791324635771665 -0.041635670490298704 -0.031277281893473008 -0.040972460880944001
leaf_weight=10.689800530672075 5.0233203470706922 4.4652111232280722 5.659490555524826
leaf_count=31 21 19 25
internal_value=0 -0.0383345 -0.0412843
internal_weight=0 15.148 10.6828
internal_count=96 65 46
is_linear=0
shrinkage=0.05


Tree=34
num_leaves=3
num_cat=0
split_feature=3 2
split_gain=6.69614 11.5509
threshold=0.45000000000000007 4.9500000000000011
decision_type=2 2
left_child=-1 -2
right_child=1 -3
leaf_value=-0.041471756235323252 0.043076463813748814 -0.035865962779824283
leaf_weight=7.0736386775970486 13.048752427101137 7.1854309141635886
leaf_count=31 37 28
internal_value=0 0.0150429
internal_weight=0 20.2342
internal_count=96 65
is_linear=0
shrinkage=0.05


Tree=35
num_leaves=3
num_cat=0
split_feature=2 2
split_gain=18.7856 0.000655928
threshold=4.7500000000000009 1.5500000000000003
decision_type=2 2
left_child=1 -1
right_child=-2 -3
leaf_value=-0.04035982545236378 0.043779638853806493 -0.041059363424437806
leaf_weight=6.038785248994829 12.750022590160368 7.5288322269916534
leaf_count=28 35 33
internal_value=0 -0.040748
internal_weight=0 13.5676
internal_count=96 61
is_linear=0
shrinkage=0.05


Tree=36
num_leaves=3
num_cat=0
split_feature=2 2
split_gain=19.4245 0.000343541
threshold=3.4000000000000004 4.5500000000000007
decision_type=2 2
left_child=-1 -2
right_child=1 -3
leaf_value=0.047952387133006626 -0.041002526694586823 -0.040487501495830219
leaf_weight=11.256367295980455 5.2435427308082572 8.4650394320487958
leaf_count=34 23 39
internal_value=0 -0.0406845
internal_weight=0 13.7086
internal_count=96 62
is_linear=0
shrinkage=0.05


Tree=37
num_leaves=3
num_cat=0
split_feature=3 3
split_gain=6.19076 9.41892
threshold=0.45000000000000007 1.5500000000000003
decision_type=2 2
left_child=-1 -2
right_child=1 -3
leaf_value=-0.040913569006834571 0.043305045166985252 -0.026806268216328567
leaf_weight=6.7500260472297695 11.674049288034441 8.1238688379526121
leaf_count=31 34 31
internal_value=0 0.0145356
internal_weight=0 19.7979
internal_count=96 65
is_linear=0
shrinkage=0.05


Tree=38
num_leaves=3
num_cat=0
split_feature=2 2
split_gain=17.3101 0.000660461
threshold=4.7500000000000009 1.5500000000000003
decision_type=2 2
left_child=1 -1
right_child=-2 -3
leaf_value=-0.039864784146258554 0.042013491542719668 -0.040582685883033889
leaf_weight=5.7536038011312503 12.593334972858427 7.2290353029966354
leaf_count=28 35 33
internal_value=0 -0.0402645
internal_weight=0 12.9826
internal_count=96 61
is_linear=0
shrinkage=0.05


Tree=39
num_leaves=4
num_cat=0
split_feature=3 1 3
split_gain=17.685 0.130881 0.00043342
threshold=0.45000000000000007 3.0500000000000003 1.4500000000000002
decision_type=2 2 2
left_child=-1 2 -2
right_child=1 -3 -4
leaf_value=0.049618141246748154 -0.040684873823606971 -0.029756128808317767 -0.040020131297888499
leaf_weight=10.10023093223572 4.6495390683412534 4.1608162373304358 5.1884748339653015
leaf_count=31 21 19 25
internal_value=0 -0.0371902 -0.0403343
internal_weight=0 13.9988 9.83801
internal_count=96 65 46
is_linear=0
shrinkage=0.05


Tree=40
num_leaves=3
num_cat=0
split_feature=2 2
split_gain=5.81209 9.90612
threshold=1.8 4.9500000000000011
decision_type=2 2
left_child=-1 -2
right_child=1 -3
leaf_value=-0.04058372943787824 0.040424360441365409 -0.034576282227238256
leaf_weight=6.4557320624589947 12.591299563646318 6.7697296142578116
leaf_count=31 37 28
internal_value=0 0.0141998
internal_weight=0 19.361
internal_count=96 65
is_linear=0
shrinkage=0.05


Tree=41
num_leaves=3
num_cat=0
split_feature=2 2
split_gain=15.948 0.000629651
threshold=4.7500000000000009 1.5500000000000003
decision_type=2 2
left_child=1 -1
right_child=-2 -3
leaf_value=-0.039421975015706441 0.040314322424832121 -0.040139087995672111
leaf_weight=5.4846937060356158 12.422316551208494 6.9269349724054337
leaf_count=28 35 33
internal_value=0 -0.0398222
internal_weight=0 12.4116
internal_count=96 61
is_linear=0
shrinkage=0.05


Tree=42
num_leaves=4
num_cat=0
split_feature=3 1 3
split_gain=16.3493 0.131258 0.000362911
threshold=0.45000000000000007 3.0500000000000003 1.4500000000000002
decision_type=2 2 2
left_child=-1 2 -2
right_child=1 -3 -4
leaf_value=0.048327161552353476 -0.040222684059725129 -0.029108452146444919 -0.039601092884458039
leaf_weight=9.769451707601549 4.4576959908008558 4.0254019051790229 4.9620086252689362
leaf_count=31 21 19 25
internal_value=0 -0.0366657 -0.0398952
internal_weight=0 13.4451 9.4197
internal_count=96 65 46
is_linear=0
shrinkage=0.05


Tree=43
num_leaves=3
num_cat=0
split_feature=2 2
split_gain=5.40721 9.06322
threshold=1.8 4.9500000000000011
decision_type=2 2
left_child=-1 -2
right_child=1 -3
leaf_value=-0.040179289615011403 0.038987224813825501 -0.033824591502057792
leaf_weight=6.1514874845743206 12.352550178766252 6.5348176956176749
leaf_count=31 37 28
internal_value=0 0.0137952
internal_weight=0 18.8874
internal_count=96 65
is_linear=0
shrinkage=0.05


Tree=44
num_leaves=3
num_cat=0
split_feature=2 2
split_gain=14.7254 0.000619329
threshold=4.7500000000000009 1.5500000000000003
decision_type=2 2
left_child=1 -1
right_child=-2 -3
leaf_value=-0.03899667717617257 0.038807313028244569 -0.039724838609837491
leaf_weight=5.2134586274623889 12.226426243782042 6.6385187953710556
leaf_count=28 35 33
internal_value=0 -0.0394045
internal_weight=0 11.852
internal_count=96 61
is_linear=0
shrinkage=0.05


Tree=45
num_leaves=3
num_cat=0
split_feature=2 2
split_gain=15.5473 0.000191357
threshold=3.4000000000000004 4.5500000000000007
decision_type=2 2
left_child=-1 -2
right_child=1 -3
leaf_value=0.044292372936090479 -0.039676583548794379 -0.039267249776454738
leaf_weight=10.252989888191225 4.6287480592727643 7.451355054974556
leaf_count=34 23 39
internal_value=0 -0.0394241
internal_weight=0 12.0801
internal_count=96 62
is_linear=0
shrinkage=0.05


Tree=46
num_leaves=3
num_cat=0
split_feature=3 3
split_gain=4.99416 7.38895
threshold=0.45000000000000007 1.5500000000000003
decision_type=2 2
left_child=-1 -2
right_child=1 -3
leaf_value=-0.039684773428931175 0.039621158459189454 -0.024841093297656065
leaf_weight=5.8477830737829235 10.909713119268419 7.5024510324001303
leaf_count=31 34 31
internal_value=0 0.0133546
internal_weight=0 18.4122
internal_count=96 65
is_linear=0
shrinkage=0.05


Tree=47
num_leaves=3
num_cat=0
split_feature=2 3
split_gain=13.6107 0.00062043
threshold=4.7500000000000009 0.45000000000000007
decision_type=2 2
left_child=1 -1
right_child=-2 -3
leaf_value=-0.038637185568469762 0.037408705333468663 -0.039378181444157258
leaf_weight=5.5023234337568301 12.015860736370085 5.8053488731384277
leaf_count=31 35 30
internal_value=0 -0.0390176
internal_weight=0 11.3077
internal_count=96 61
is_linear=0
shrinkage=0.05


Tree=48
num_leaves=3
num_cat=0
split_feature=2 2
split_gain=14.4121 0.000173862
threshold=3.4000000000000004 4.5500000000000007
decision_type=2 2
left_child=-1 -2
right_child=1 -3
leaf_value=0.043116902828031704 -0.039294274813151751 -0.038895359959809889
leaf_weight=9.9203726351261157 4.431491941213606 7.1196726858615875
leaf_count=34 23 39
internal_value=0 -0.0390484
internal_weight=0 11.5512
internal_count=96 62
is_linear=0
shrinkage=0.05


Tree=49
num_leaves=3
num_cat=0
split_feature=2 2
split_gain=4.72226 7.8287
threshold=1.8 4.9500000000000011
decision_type=2 2
left_child=-1 -2
right_child=1 -3
leaf_value=-0.039531197198205824 0.036960607231723314 -0.032641220815426801
leaf_weight=5.5809108167886761 11.800207912921907 6.1433947831392279
leaf_count=31 37 28
internal_value=0 0.0131309
internal_weight=0 17.9436
internal_count=96 65
is_linear=0
shrinkage=0.05


Tree=50
num_leaves=4
num_cat=0
split_feature=3 1 3
split_gain=11.114 0.613981 0.00514399
threshold=1.5500000000000003 2.8500000000000001 0.35000000000000003
decision_type=2 2 2
left_child=1 -1 -3
right_child=-2 2 -4
leaf_value=-0.015864774096422073 0.03891560690507892 -0.038248932034987859 -0.040753006093510229
leaf_weight=4.1453216224908855 10.229221865534781 4.1997605860233289 4.0083310455083847
leaf_count=19 31 25 21
internal_value=0 -0.0315502 -0.0394718
internal_weight=0 12.3534 8.20809
internal_count=96 65 46
is_linear=0
shrinkage=0.05


Tree=51
num_leaves=3
num_cat=0
split_feature=2 2
split_gain=13.3764 0.00012001
threshold=3.4000000000000004 4.5500000000000007
decision_type=2 2
left_child=-1 -2
right_child=1 -3
leaf_value=0.042027621818048387 -0.038911044966570635 -0.038571969083685542
leaf_weight=9.5847487449646014 4.2293303906917554 6.813557505607605
leaf_count=34 23 39
internal_value=0 -0.0387018
internal_weight=0 11.0429
internal_count=96 62
is_linear=0
shrinkage=0.05


Tree=52
num_leaves=3
num_cat=0
split_feature=2 2
split_gain=4.39751 7.22079
threshold=1.8 4.9500000000000011
decision_type=2 2
left_child=-1 -2
right_child=1 -3
leaf_value=-0.03915595655620166 0.035815224816705925 -0.032024653321823651
leaf_weight=5.3083969652652767 11.561244785785677 5.9365286827087393
leaf_count=31 37 28
internal_value=0 0.012799
internal_weight=0 17.4978
internal_count=96 65
is_linear=0
shrinkage=0.05


Tree=53
num_leaves=3
num_cat=0
split_feature=2 2
split_gain=11.7365 0.000636222
threshold=4.7500000000000009 1.5500000000000003
decision_type=2 2
left_child=1 -1
right_child=-2 -3
leaf_value=-0.037922838423911392 0.034983540400492195 -0.038715179225364355
leaf_weight=4.4675091952085513 11.561328202486036 5.8524255007505417
leaf_count=28 35 33
internal_value=0 -0.0383722
internal_weight=0 10.3199
internal_count=96 61
is_linear=0
shrinkage=0.05


Tree=54
num_leaves=3
num_cat=0
split_feature=2 2
split_gain=12.4196 9.78827e-05
threshold=3.4000000000000004 4.5500000000000007
decision_type=2 2
left_child=-1 -2
right_child=1 -3
leaf_value=0.041004276743084288 -0.03857140235102708 -0.038258089018751058
leaf_weight=9.2472398877143878 4.0414538830518705 6.5053724646568298
leaf_count=34 23 39
internal_value=0 -0.0383781
internal_weight=0 10.5468
internal_count=96 62
is_linear=0
shrinkage=0.05


Tree=55
num_leaves=4
num_cat=0
split_feature=2 2 0
split_gain=4.13524 7.45453 0.0172503
threshold=5.0500000000000007 1.8 5.9500000000000011
decision_type=2 2 2
left_child=1 -1 -3
right_child=-2 2 -4
leaf_value=-0.038805676528491005 -0.039936215548195785 0.035333040156015898 0.031565239631157045
leaf_weight=5.0457874238491121 4.8629014790058127 6.2057396769523603 5.9508323520421982
leaf_count=31 24 21 20
internal_value=0 0.0122833 0.0334886
internal_weight=0 17.2024 12.1566
internal_count=96 72 41
is_linear=0
shrinkage=0.05


Tree=56
num_leaves=3
num_cat=0
split_feature=2 3
split_gain=10.8591 0.000610165
threshold=4.7500000000000009 0.45000000000000007
decision_type=2 2
left_child=1 -1
right_child=-2 -3
leaf_value=-0.037645910999118716 0.033787741885783942 -0.038434605304392244
leaf_weight=4.7123578339815158 11.31820487976074 5.113109290599823
leaf_count=31 35 30
internal_value=0 -0.0380563
internal_weight=0 9.82547
internal_count=96 61
is_linear=0
shrinkage=0.05


Tree=57
num_leaves=3
num_cat=0
split_feature=2 2
split_gain=11.5428 8.13731e-05
threshold=3.4000000000000004 4.5500000000000007
decision_type=2 2
left_child=-1 -2
right_child=1 -3
leaf_value=0.040051129572369094 -0.03825794156206145 -0.03796563058513365
leaf_weight=8.910254895687105 3.8615227639675123 6.2090965807437897
leaf_count=34 23 39
internal_value=0 -0.0380777
internal_weight=0 10.0706
internal_count=96 62
is_linear=0
shrinkage=0.05


Tree=58
num_leaves=3
num_cat=0
split_feature=3 3
split_gain=3.84031 5.47807
threshold=0.45000000000000007 1.5500000000000003
decision_type=2 2
left_child=-1 -2
right_child=1 -3
leaf_value=-0.038546486509750233 0.036094471278946931 -0.022457328837394624
leaf_weight=4.7974013388156918 9.8135573863983172 6.7371754944324485
leaf_count=31 34 31
internal_value=0 0.0122603
internal_weight=0 16.5507
internal_count=96 65
is_linear=0
shrinkage=0.05


Tree=59
num_leaves=4
num_cat=0
split_feature=3 1 3
split_gain=8.89218 0.559574 0.00527797
threshold=1.5500000000000003 2.8500000000000001 0.35000000000000003
decision_type=2 2 2
left_child=1 -1 -3
right_child=-2 2 -4
leaf_value=-0.014894725026801276 0.035715238566180509 -0.037333130855840876 -0.04005735116695297
leaf_weight=3.7889667451381701 9.5246200114488584 3.5870284736156464 3.5253520309925079
leaf_count=19 31 25 21
internal_value=0 -0.0304152 -0.0386834
internal_weight=0 10.9013 7.11238
internal_count=96 65 46
is_linear=0
shrinkage=0.05


Tree=60
num_leaves=4
num_cat=0
split_feature=3 1 3
split_gain=10.5917 0.134392 0.000451171
threshold=0.45000000000000007 3.0500000000000003 1.4500000000000002
decision_type=2 2 2
left_child=-1 2 -2
right_child=1 -3 -4
leaf_value=0.042924173178389376 -0.038435158974341743 -0.025722888914521364 -0.0376471794174809
leaf_weight=7.7194463461637524 3.5088834464550001 3.1932308375835419 3.7665079087018967
leaf_count=31 21 19 25
internal_value=0 -0.034274 -0.0380272
internal_weight=0 10.4686 7.27539
internal_count=96 65 46
is_linear=0
shrinkage=0.05


Tree=61
num_leaves=4
num_cat=0
split_feature=2 2 1
split_gain=3.77977 6.4861 0.629056
threshold=5.0500000000000007 1.8 2.8500000000000001
decision_type=2 2 2
left_child=1 -1 -3
right_child=-2 2 -4
leaf_value=-0.038291902878483441 -0.039402713509455095 0.02072806468686348 0.044027091756561831
leaf_weight=4.5579375028610292 4.5382578969001761 5.9313616007566434 5.662987157702446
leaf_count=31 24 21 20
internal_value=0 0.0122421 0.0321079
internal_weight=0 16.1523 11.5943
internal_count=96 72 41
is_linear=0
shrinkage=0.05


Tree=62
num_leaves=3
num_cat=0
split_feature=2 3
split_gain=9.41282 0.000628908
threshold=4.7500000000000009 0.45000000000000007
decision_type=2 2
left_child=1 -1
right_child=-2 -3
leaf_value=-0.037100412559464266 0.031767632538882797 -0.037940246642749476
leaf_weight=4.2374094426631945 10.834747105836867 4.7035065889358521
leaf_count=31 35 30
internal_value=0 -0.0375422
internal_weight=0 8.94092
internal_count=96 61
is_linear=0
shrinkage=0.05


Tree=63
num_leaves=3
num_cat=0
split_feature=2 2
split_gain=10.0621 4.59287e-05
threshold=3.4000000000000004 4.5500000000000007
decision_type=2 2
left_child=-1 -2
right_child=1 -3
leaf_value=0.038609769125657063 -0.037689383334798925 -0.037459414167134678
leaf_weight=8.211245074868204 3.5155632793903333 5.6772543638944626
leaf_count=34 23 39
internal_value=0 -0.0375474
internal_weight=0 9.19282
internal_count=96 62
is_linear=0
shrinkage=0.05


Tree=64
num_leaves=3
num_cat=0
split_feature=2 2
split_gain=3.55083 5.34548
threshold=5.0500000000000007 3.4000000000000004
decision_type=2 2
left_child=1 -1
right_child=-2 -3
leaf_value=-0.028876341459858623 -0.039045060351463948 0.032934541399940842
leaf_weight=5.2819948792457607 4.3438275605440131 10.355166986584662
leaf_count=34 24 38
internal_value=0 0.0120558
internal_weight=0 15.6372
internal_count=96 72
is_linear=0
shrinkage=0.05


Tree=65
num_leaves=3
num_cat=0
split_feature=2 3
split_gain=8.73671 0.000595422
threshold=4.7500000000000009 0.45000000000000007
decision_type=2 2
left_child=1 -1
right_child=-2 -3
leaf_value=-0.036840964930981539 0.030776456948546735 -0.037679480500563189
leaf_weight=4.0016979575157183 10.593484312295912 4.4954101294279099
leaf_count=31 35 30
internal_value=0 -0.0372846
internal_weight=0 8.49711
internal_count=96 61
is_linear=0
shrinkage=0.05


Tree=66
num_leaves=4
num_cat=0
split_feature=2 1 3
split_gain=9.34209 0.124553 0.000556878
threshold=1.8 3.0500000000000003 1.4500000000000002
decision_type=2 2 2
left_child=-1 2 -2
right_child=1 -3 -4
leaf_value=0.041914910822360853 -0.038062800555645843 -0.025262472340485301 -0.037148215355114998
leaf_weight=7.0664570629596737 3.2452674210071546 2.9565330296754837 3.4166469573974609
leaf_count=31 21 19 25
internal_value=0 -0.0338033 -0.0375937
internal_weight=0 9.61845 6.66191
internal_count=96 65 46
is_linear=0
shrinkage=0.05


Tree=67
num_leaves=3
num_cat=0
split_feature=3 3
split_gain=3.16495 4.34834
threshold=0.45000000000000007 1.5500000000000003
decision_type=2 2
left_child=-1 -2
right_child=1 -3
leaf_value=-0.037827605181839259 0.033735063613041349 -0.020641599562289576
leaf_weight=4.1251109689474132 9.0104496479034406 6.2106642276048651
leaf_count=31 34 31
internal_value=0 0.0115478
internal_weight=0 15.2211
internal_count=96 65
is_linear=0
shrinkage=0.05


Tree=68
num_leaves=3
num_cat=0
split_feature=2 3
split_gain=8.11749 0.000542176
threshold=4.7500000000000009 0.45000000000000007
decision_type=2 2
left_child=1 -1
right_child=-2 -3
leaf_value=-0.03661233298722856 0.02982785986940208 -0.037433028675382535
leaf_weight=3.7868349403142947 10.346960633993147 4.2947125136852264
leaf_count=31 35 30
internal_value=0 -0.0370485
internal_weight=0 8.08155
internal_count=96 61
is_linear=0
shrinkage=0.05


Tree=69
num_leaves=3
num_cat=0
split_feature=2 2
split_gain=8.76594 2.93043e-05
threshold=3.4000000000000004 4.5500000000000007
decision_type=2 2
left_child=-1 -2
right_child=1 -3
leaf_value=0.037161062078723731 -0.037201746815358171 -0.037009248991754437
leaf_weight=7.5675317049026498 3.1980248391628248 5.1784497424960136
leaf_count=34 23 39
internal_value=0 -0.0370827
internal_weight=0 8.37647
internal_count=96 62
is_linear=0
shrinkage=0.05


Tree=70
num_leaves=3
num_cat=0
split_feature=2 2
split_gain=3.24327 4.61644
threshold=5.0500000000000007 3.4000000000000004
decision_type=2 2
left_child=1 -1
right_child=-2 -3
leaf_value=-0.027857369924982958 -0.038573846870490799 0.031770363358808257
leaf_weight=4.8561022132635143 4.0457336008548728 9.7901179790496808
leaf_count=34 24 38
internal_value=0 0.0120002
internal_weight=0 14.6462
internal_count=96 72
is_linear=0
shrinkage=0.05


Tree=71
num_leaves=3
num_cat=0
split_feature=2 3
split_gain=7.53568 0.000498266
threshold=4.7500000000000009 0.45000000000000007
decision_type=2 2
left_child=1 -1
right_child=-2 -3
leaf_value=-0.036399476210439617 0.028868175582288214 -0.037207177565543308
leaf_weight=3.5789501816034344 10.124451249837874 4.0931690782308578
leaf_count=31 35 30
internal_value=0 -0.0368304
internal_weight=0 7.67212
internal_count=96 61
is_linear=0
shrinkage=0.05


Tree=72
num_leaves=4
num_cat=0
split_feature=2 1 2
split_gain=8.18797 0.124128 0.000609028
threshold=1.8 3.0500000000000003 4.4500000000000011
decision_type=2 2 2
left_child=-1 2 -2
right_child=1 -3 -4
leaf_value=0.040901730098511876 -0.037745707054640365 -0.024406756173797173 -0.036743164289400478
leaf_weight=6.4413095861673364 2.8423224687576276 2.7469509020447731 3.2435501962900162
leaf_count=31 20 19 26
internal_value=0 -0.0332292 -0.0372114
internal_weight=0 8.83282 6.08587
internal_count=96 65 46
is_linear=0
shrinkage=0.05


Tree=73
num_leaves=3
num_cat=0
split_feature=2 2
split_gain=3.05922 4.21784
threshold=5.0500000000000007 3.4000000000000004
decision_type=2 2
left_child=1 -1
right_child=-2 -3
leaf_value=-0.026990848172640199 -0.038277472678766654 0.030942513888294922
leaf_weight=4.6853500083088901 3.871196821331977 9.5363770276308042
leaf_count=34 24 38
internal_value=0 0.0118564
internal_weight=0 14.2217
internal_count=96 72
is_linear=0
shrinkage=0.05


Tree=74
num_leaves=4
num_cat=0
split_feature=3 1 3
split_gain=6.11465 0.509934 0.00563863
threshold=1.5500000000000003 2.8500000000000001 0.35000000000000003
decision_type=2 2 2
left_child=1 -1 -3
right_child=-2 2 -4
leaf_value=-0.012919742427303489 0.031175655321707643 -0.036164857415255082 -0.03936091685652298
leaf_weight=3.2863852530717867 8.3648875653743726 2.7060174643993378 2.8162433579564095
leaf_count=19 31 25 21
internal_value=0 -0.0285142 -0.0377948
internal_weight=0 8.80865 5.52226
internal_count=96 65 46
is_linear=0
shrinkage=0.05


Tree=75
num_leaves=4
num_cat=0
split_feature=2 1 3
split_gain=7.66024 0.126589 0.000623038
threshold=1.8 3.0500000000000003 1.4500000000000002
decision_type=2 2 2
left_child=-1 2 -2
right_child=1 -3 -4
leaf_value=0.040419619906619075 -0.037563311349742091 -0.023866248575227594 -0.036528234098808239
leaf_weight=6.1439800262451181 2.8618942871689779 2.6577524915337563 2.9548507630825043
leaf_count=31 21 19 25
internal_value=0 -0.0329068 -0.0370375
internal_weight=0 8.4745 5.81675
internal_count=96 65 46
is_linear=0
shrinkage=0.05


Tree=76
num_leaves=3
num_cat=0
split_feature=3 3
split_gain=2.64566 3.47386
threshold=0.45000000000000007 1.5500000000000003
decision_type=2 2
left_child=-1 -2
right_child=1 -3
leaf_value=-0.037332874066275439 0.031781971047014211 -0.018899377477741904
leaf_weight=3.5583657100796726 8.2299226224422437 5.7387023568153372
leaf_count=31 34 31
internal_value=0 0.0109607
internal_weight=0 13.9686
internal_count=96 65
is_linear=0
shrinkage=0.05


Tree=77
num_leaves=3
num_cat=0
split_feature=2 2
split_gain=6.59797 0.000478347
threshold=4.7500000000000009 1.5500000000000003
decision_type=2 2
left_child=1 -1
right_child=-2 -3
leaf_value=-0.035974771584039826 0.02738853688313635 -0.036817242760361663
leaf_weight=2.8568264618515995 9.6486334651708585 4.1072754710912704
leaf_count=28 35 33
internal_value=0 -0.0364716
internal_weight=0 6.9641
internal_count=96 61
is_linear=0
shrinkage=0.05


Tree=78
num_leaves=3
num_cat=0
split_feature=2 2
split_gain=7.17677 3.0948e-05
threshold=3.4000000000000004 5.0500000000000007
decision_type=2 2
left_child=-1 -2
right_child=1 -3
leaf_value=0.035289389189905644 -0.036415825540475975 -0.036625872993120333
leaf_weight=6.6654727309942245 4.3489110618829727 2.9385592415928841
leaf_count=34 38 24
internal_value=0 -0.0365005
internal_weight=0 7.28747
internal_count=96 62
is_linear=0
shrinkage=0.05


Tree=79
num_leaves=3
num_cat=0
split_feature=2 2
split_gain=2.80763 3.67642
threshold=5.0500000000000007 3.4000000000000004
decision_type=2 2
left_child=1 -1
right_child=-2 -3
leaf_value=-0.026287090921247154 -0.037937631287202289 0.029902402696816474
leaf_weight=4.2964328452944782 3.6078044623136512 9.0282538533210737
leaf_count=34 24 38
internal_value=0 0.0117846
internal_weight=0 13.3247
internal_count=96 72
is_linear=0
shrinkage=0.05


Tree=80
num_leaves=4
num_cat=0
split_feature=2 1 3
split_gain=6.25432 1.77729 0.0547185
threshold=5.0500000000000007 2.8500000000000001 1.3500000000000003
decision_type=2 2 2
left_child=1 -1 -3
right_child=-2 2 -4
leaf_value=0.0027600092288811362 0.042132494387254547 -0.035969705724057874 -0.045602736151665484
leaf_weight=4.0793443098664302 5.8030946999788275 3.7184571027755737 2.4424906149506569
leaf_count=22 24 37 13
internal_value=0 -0.0228389 -0.0397887
internal_weight=0 10.2403 6.16095
internal_count=96 72 50
is_linear=0
shrinkage=0.05


Tree=81
num_leaves=4
num_cat=0
split_feature=2 1 3
split_gain=6.73761 0.126966 0.000681824
threshold=1.8 3.0500000000000003 1.4500000000000002
decision_type=2 2 2
left_child=-1 2 -2
right_child=1 -3 -4
leaf_value=0.03963825889486336 -0.037306893273396216 -0.022998329476962131 -0.036173628997790003
leaf_weight=5.5780522674322128 2.6268463358283043 2.4625958949327469 2.6827081888914108
leaf_count=31 21 19 25
internal_value=0 -0.0323821 -0.0367343
internal_weight=0 7.77215 5.30955
internal_count=96 65 46
is_linear=0
shrinkage=0.05


Tree=82
num_leaves=3
num_cat=0
split_feature=2 2
split_gain=2.60038 3.29348
threshold=5.0500000000000007 3.4000000000000004
decision_type=2 2
left_child=1 -1
right_child=-2 -3
leaf_value=-0.025327672791688689 -0.037626752465977194 0.028635215277774646
leaf_weight=4.1534609273076084 3.4130093008279792 8.8570640683174116
leaf_count=34 24 38
internal_value=0 0.0114082
internal_weight=0 13.0105
internal_count=96 72
is_linear=0
shrinkage=0.05


Tree=83
num_leaves=3
num_cat=0
split_feature=2 2
split_gain=5.79282 0.000449059
threshold=4.7500000000000009 1.5500000000000003
decision_type=2 2
left_child=1 -1
right_child=-2 -3
leaf_value=-0.035641361746263762 0.026032996550528171 -0.036500777385818847
leaf_weight=2.5425671339035043 9.1858255267143232 3.7792595028877258
leaf_count=28 35 33
internal_value=0 -0.0361551
internal_weight=0 6.32183
internal_count=96 61
is_linear=0
shrinkage=0.05


Tree=84
num_leaves=4
num_cat=0
split_feature=3 3 2
split_gain=6.33822 0.0932243 1.87884e-05
threshold=0.45000000000000007 1.3500000000000003 5.0500000000000007
decision_type=2 2 2
left_child=-1 -2 -3
right_child=1 2 -4
leaf_value=0.039316311741362159 -0.024377422558124751 -0.0360658487839563 -0.03626206757769701
leaf_weight=5.3125926554203033 2.5415980964899063 2.2499540746212006 2.6649476289749146
leaf_count=31 19 22 24
internal_value=0 -0.0321519 -0.0361722
internal_weight=0 7.4565 4.9149
internal_count=96 65 46
is_linear=0
shrinkage=0.05


Tree=85
num_leaves=3
num_cat=0
split_feature=1 2
split_gain=1.90632 2.06983
threshold=3.2500000000000004 4.7500000000000009
decision_type=2 2
left_child=1 -1
right_child=-2 -3
leaf_value=0.029641868544933878 -0.031204186653356548 -0.01135879877353531
leaf_weight=6.5902199074625951 3.5220805034041414 5.7760823518037796
leaf_count=38 29 29
internal_value=0 0.0104912
internal_weight=0 12.3663
internal_count=96 67
is_linear=0
shrinkage=0.05


Tree=86
num_leaves=4
num_cat=0
split_feature=3 1 0
split_gain=4.63474 0.456284 0.00606994
threshold=1.5500000000000003 2.8500000000000001 5.4500000000000011
decision_type=2 2 2
left_child=1 -1 -3
right_child=-2 2 -4
leaf_value=-0.012015724908692434 0.028533019708821879 -0.035621469221245337 -0.039341657180861543
leaf_weight=3.0000158473849297 7.4921135902404785 2.5632587149739265 1.916100241243839
leaf_count=19 31 29 17
internal_value=0 -0.0271061 -0.0372128
internal_weight=0 7.47937 4.47936
internal_count=96 65 46
is_linear=0
shrinkage=0.05


Tree=87
num_leaves=4
num_cat=0
split_feature=2 1 1
split_gain=5.97644 0.125564 0.000637799
threshold=1.8 3.0500000000000003 2.7500000000000004
decision_type=2 2 2
left_child=-1 2 -2
right_child=1 -3 -4
leaf_value=0.039024868228305865 -0.037047531304862075 -0.02224141848535096 -0.035899731634158195
leaf_weight=5.0839762985706329 2.2878071814775467 2.2915577441453934 2.569741927087307
leaf_count=31 20 19 26
internal_value=0 -0.031889 -0.0364403
internal_weight=0 7.14911 4.85755
internal_count=96 65 46
is_linear=0
shrinkage=0.05


Tree=88
num_leaves=3
num_cat=0
split_feature=2 2
split_gain=2.38037 2.92411
threshold=5.0500000000000007 3.4000000000000004
decision_type=2 2
left_child=1 -1
right_child=-2 -3
leaf_value=-0.024679548166373497 -0.037299290936180403 0.027850427132420436
leaf_weight=3.86916759610176 3.1725205332040796 8.402303531765936
leaf_count=34 24 38
internal_value=0 0.0112878
internal_weight=0 12.2715
internal_count=96 72
is_linear=0
shrinkage=0.05


Tree=89
num_leaves=4
num_cat=0
split_feature=3 1 0
split_gain=4.26156 0.451893 0.00592776
threshold=1.5500000000000003 2.8500000000000001 5.4500000000000011
decision_type=2 2 2
left_child=1 -1 -3
right_child=-2 2 -4
leaf_value=-0.011622400513618555 0.02757290521033038 -0.035483927433296418 -0.039257389201629495
leaf_weight=2.9465169236063957 7.2953492552042007 2.4167972281575203 1.8279345408082006
leaf_count=19 31 29 17
internal_value=0 -0.0266662 -0.0371089
internal_weight=0 7.19125 4.24473
internal_count=96 65 46
is_linear=0
shrinkage=0.05


Tree=90
num_leaves=4
num_cat=0
split_feature=3 1 1
split_gain=5.62849 0.12426 0.000652433
threshold=0.45000000000000007 3.0500000000000003 2.7500000000000004
decision_type=2 2 2
left_child=-1 2 -2
right_child=1 -3 -4
leaf_value=0.038749009386166919 -0.036946950143820108 -0.021934947667098616 -0.035759857389281134
leaf_weight=4.8386731147766113 2.197339192032814 2.2177937179803848 2.4458010122179985
leaf_count=31 20 19 26
internal_value=0 -0.0316711 -0.0363216
internal_weight=0 6.86093 4.64314
internal_count=96 65 46
is_linear=0
shrinkage=0.05


Tree=91
num_leaves=3
num_cat=0
split_feature=1 2
split_gain=1.66242 1.82973
threshold=3.2500000000000004 4.7500000000000009
decision_type=2 2
left_child=1 -1
right_child=-2 -3
leaf_value=0.02896802352749361 -0.030314895826909962 -0.010582063703116616
leaf_weight=6.1309692487120611 3.2492250502109536 5.5913366451859474
leaf_count=38 29 29
internal_value=0 0.0101033
internal_weight=0 11.7223
internal_count=96 67
is_linear=0
shrinkage=0.05


Tree=92
num_leaves=4
num_cat=0
split_feature=2 1 2
split_gain=4.83482 1.72326 0.0623194
threshold=5.0500000000000007 2.8500000000000001 4.4500000000000011
decision_type=2 2 2
left_child=1 -1 -3
right_child=-2 2 -4
leaf_value=0.0042847114019390125 0.040320686932133948 -0.035396461839374893 -0.04658615590174979
leaf_weight=3.8533443212509138 4.9710343182086953 3.1347120031714439 2.0633309781551361
leaf_count=22 24 39 11
internal_value=0 -0.0210542 -0.0398381
internal_weight=0 9.05139 5.19804
internal_count=96 72 50
is_linear=0
shrinkage=0.05


Tree=93
num_leaves=4
num_cat=0
split_feature=2 1 1
split_gain=5.30741 0.121897 0.000554305
threshold=1.8 3.0500000000000003 2.7500000000000004
decision_type=2 2 2
left_child=-1 2 -2
right_child=1 -3 -4
leaf_value=0.038500174884919053 -0.036741369976590714 -0.02162890066613387 -0.035619863225827116
leaf_weight=4.6301533877849579 2.0937160328030586 2.1470114439725876 2.3254526183009148
leaf_count=31 20 19 26
internal_value=0 -0.0314027 -0.0361512
internal_weight=0 6.56618 4.41917
internal_count=96 65 46
is_linear=0
shrinkage=0.05


Tree=94
num_leaves=4
num_cat=0
split_feature=1 3 2
split_gain=1.53976 1.79576 0.00977829
threshold=3.2500000000000004 1.5500000000000003 4.2500000000000009
decision_type=2 2 2
left_child=1 2 -1
right_child=-2 -3 -4
leaf_value=0.02257114341209232 -0.029880944659343218 -0.017117454898505646 0.026201387371307491
leaf_weight=3.7328909561038 3.1104240417480478 4.020597793161869 3.6871781647205353
leaf_count=25 29 24 18
internal_value=0 0.00979335 0.0243751
internal_weight=0 11.4407 7.42007
internal_count=96 67 43
is_linear=0
shrinkage=0.05


Tree=95
num_leaves=4
num_cat=0
split_feature=3 0 1
split_gain=3.7377 1.36853 0.0807172
threshold=1.8500000000000003 5.9500000000000011 3.1500000000000008
decision_type=2 2 2
left_child=1 2 -1
right_child=-2 -3 -4
leaf_value=-0.02960474282565605 0.040675342570710434 0.001734797711875972 -0.042894763865519631
leaf_weight=2.284070357680319 4.0800973325967798 4.9272134602069855 2.2859123200178146
leaf_count=24 20 25 27
internal_value=0 -0.0165444 -0.0362524
internal_weight=0 9.4972 4.56998
internal_count=96 76 51
is_linear=0
shrinkage=0.05


Tree=96
num_leaves=4
num_cat=0
split_feature=3 1 1
split_gain=5.00992 0.118767 0.000478626
threshold=0.45000000000000007 3.0500000000000003 2.7500000000000004
decision_type=2 2 2
left_child=-1 2 -2
right_child=1 -3 -4
leaf_value=0.038268715235361669 -0.036568941462586615 -0.02140658741368447 -0.035502201369417646
leaf_weight=4.4178823530673981 1.997820697724819 2.0793955624103546 2.219979964196682
leaf_count=31 20 19 26
internal_value=0 -0.0311861 -0.0360075
internal_weight=0 6.2972 4.2178
internal_count=96 65 46
is_linear=0
shrinkage=0.05


Tree=97
num_leaves=3
num_cat=0
split_feature=2 2
split_gain=2.06944 2.44647
threshold=5.0500000000000007 3.4000000000000004
decision_type=2 2
left_child=1 -1
right_child=-2 -3
leaf_value=-0.023954382062527452 -0.03691290839777308 0.026379007179842668
leaf_weight=3.4868443235754949 2.8284664824604997 7.8475468158721924
leaf_count=34 24 38
internal_value=0 0.0108947
internal_weight=0 11.3344
internal_count=96 72
is_linear=0
shrinkage=0.05


Tree=98
num_leaves=4
num_cat=0
split_feature=2 2 2
split_gain=4.33507 1.11081 0.00054139
threshold=5.0500000000000007 4.7500000000000009 1.5500000000000003
decision_type=2 2 2
left_child=1 2 -1
right_child=-2 -3 -4
leaf_value=-0.034950440354286211 0.039681146850049004 0.00096715728097728892 -0.036027786392051724
leaf_weight=1.8505481779575328 4.6138717383146295 3.540868416428566 3.1528650000691414
leaf_count=28 24 11 33
internal_value=0 -0.0204632 -0.0356293
internal_weight=0 8.54428 5.00341
internal_count=96 72 61
is_linear=0
shrinkage=0.05


Tree=99
num_leaves=4
num_cat=0
split_feature=3 1 1
split_gain=4.69648 0.121819 0.000497162
threshold=0.45000000000000007 3.0500000000000003 2.7500000000000004
decision_type=2 2 2
left_child=-1 2 -2
right_child=1 -3 -4
leaf_value=0.03798805116212145 -0.036489306619603007 -0.020826496269594756 -0.035376683280461861
leaf_weight=4.1969529688358307 1.9181179851293562 2.0068495348095894 2.1067963987588882
leaf_count=31 20 19 26
internal_value=0 -0.0308895 -0.0359069
internal_weight=0 6.03176 4.02491
internal_count=96 65 46
is_linear=0
shrinkage=0.05


Tree=100
num_leaves=3
num_cat=0
split_feature=3 3
split_gain=0.902969 2.02124
threshold=1.0500000000000003 1.5500000000000003
decision_type=2 2
left_child=-1 -2
right_child=1 -3
leaf_value=-0.02029248444368997 0.029878896003743272 -0.014888974770745765
leaf_weight=3.5715652629733095 5.3924132436513883 4.7354292646050453
leaf_count=36 29 31
internal_value=0 0.00894699
internal_weight=0 10.1278
internal_count=96 60
is_linear=0
shrinkage=0.05


Tree=101
num_leaves=4
num_cat=0
split_feature=2 2 2
split_gain=3.98597 1.11146 0.000491175
threshold=5.0500000000000007 4.7500000000000009 1.5500000000000003
decision_type=2 2 2
left_child=1 2 -1
right_child=-2 -3 -4
leaf_value=-0.03484151425151806 0.039241818107724598 0.0014766426582168367 -0.035897361036620022
leaf_weight=1.7366769574582557 4.3860862404108056 3.549202486872673 3.0114840269088745
leaf_count=28 24 11 33
internal_value=0 -0.0196896 -0.0355112
internal_weight=0 8.29736 4.74816
internal_count=96 72 61
is_linear=0
shrinkage=0.05


Tree=102
num_leaves=4
num_cat=0
split_feature=2 1 1
split_gain=4.45677 0.114837 0.000475692
threshold=1.8 3.0500000000000003 2.7500000000000004
decision_type=2 2 2
left_child=-1 2 -2
right_child=1 -3 -4
leaf_value=0.037886991853887629 -0.036369335797456631 -0.020842090205549918 -0.035255305090821865
leaf_weight=4.0003276392817497 1.8423984721302988 1.9312241449952123 1.9967442378401754
leaf_count=31 20 19 26
internal_value=0 -0.0307872 -0.0357899
internal_weight=0 5.77037 3.83914
internal_count=96 65 46
is_linear=0
shrinkage=0.05


Tree=103
num_leaves=3
num_cat=0
split_feature=2 2
split_gain=1.14998 2.1312
threshold=4.9500000000000011 3.4000000000000004
decision_type=2 2
left_child=1 -1
right_child=-2 -3
leaf_value=-0.023245556705219494 -0.023539599121308249 0.026299538226349523
leaf_weight=3.2330930605530721 3.4482428431510934 6.6042113602161407
leaf_count=34 28 34
internal_value=0 0.0100162
internal_weight=0 9.8373
internal_count=96 68
is_linear=0
shrinkage=0.05


Tree=104
num_leaves=5
num_cat=0
split_feature=2 1 3 1
split_gain=3.75627 1.67728 0.0590303 1.59369e-05
threshold=5.0500000000000007 2.8500000000000001 1.4500000000000002 3.3500000000000001
decision_type=2 2 2 2
left_child=1 -1 3 -3
right_child=-2 2 -4 -5
leaf_value=0.0060244045161878326 0.038960526708843118 -0.035086189701995979 -0.046643390057490193 -0.034836287921473037
leaf_weight=3.6012015268206579 4.2121409773826608 1.3620702959597113 1.8754074200987814 1.2000849507749078
leaf_count=22 24 20 10 20
internal_value=0 -0.0193284 -0.0399029 -0.0349691
internal_weight=0 8.03876 4.43756 2.56216
internal_count=96 72 50 40
is_linear=0
shrinkage=0.05


Tree=105
num_leaves=4
num_cat=0
split_feature=3 1 1
split_gain=4.16873 0.120394 0.000477587
threshold=0.45000000000000007 3.0500000000000003 2.7500000000000004
decision_type=2 2 2
left_child=-1 2 -2
right_child=1 -3 -4
leaf_value=0.037592672420351074 -0.036292637575750991 -0.020109216580076764 -0.035150258351413409
leaf_weight=3.7976417168974876 1.7665993086993697 1.8698909655213354 1.8976771533489225
leaf_count=31 20 19 26
internal_value=0 -0.0304328 -0.035701
internal_weight=0 5.53417 3.66428
internal_count=96 65 46
is_linear=0
shrinkage=0.05


Tree=106
num_leaves=3
num_cat=0
split_feature=2 2
split_gain=1.0416 1.93029
threshold=4.9500000000000011 3.4000000000000004
decision_type=2 2
left_child=1 -1
right_child=-2 -3
leaf_value=-0.022655401287792282 -0.022851084602864752 0.025244509706023661
leaf_weight=3.1186704486608487 3.3198053538799295 6.4598448872566223
leaf_count=34 28 34
internal_value=0 0.00964877
internal_weight=0 9.57852
internal_count=96 68
is_linear=0
shrinkage=0.05


Tree=107
num_leaves=3
num_cat=0
split_feature=2 2
split_gain=3.54534 0.000449902
threshold=4.7500000000000009 1.5500000000000003
decision_type=2 2
left_child=1 -1
right_child=-2 -3
leaf_value=-0.034648498635858747 0.021455006856516017 -0.035715199721520971
leaf_weight=1.5301301851868627 7.5436123758554459 2.7924899719655514
leaf_count=28 35 33
internal_value=0 -0.0353376
internal_weight=0 4.32262
internal_count=96 61
is_linear=0
shrinkage=0.05


Tree=108
num_leaves=4
num_cat=0
split_feature=2 0 0
split_gain=3.96687 0.103698 3.06681e-06
threshold=1.8 5.7500000000000009 6.3500000000000005
decision_type=2 2 2
left_child=-1 -2 -3
right_child=1 2 -4
leaf_value=0.037514924629810431 -0.020324908929028211 -0.035285778248181569 -0.035193269364589101
leaf_weight=3.6146820485591888 1.72705777361989 1.7962025888264181 1.7874197065830228
leaf_count=31 17 24 24
internal_value=0 -0.0303893 -0.0352396
internal_weight=0 5.31068 3.58362
internal_count=96 65 48
is_linear=0
shrinkage=0.05


Tree=109
num_leaves=3
num_cat=0
split_feature=3 3
split_gain=0.726839 1.69719
threshold=1.0500000000000003 1.5500000000000003
decision_type=2 2
left_child=-1 -2
right_child=1 -3
leaf_value=-0.019284674675843334 0.028739191523530001 -0.013993812004735449
leaf_weight=3.1890085451304921 4.8749761283397657 4.4393935576081276
leaf_count=36 29 31
internal_value=0 0.00837189
internal_weight=0 9.31437
internal_count=96 60
is_linear=0
shrinkage=0.05


Tree=110
num_leaves=4
num_cat=0
split_feature=3 0 1
split_gain=2.85215 1.17719 0.0794171
threshold=1.8500000000000003 5.9500000000000011 3.1500000000000008
decision_type=2 2 2
left_child=1 2 -1
right_child=-2 -3 -4
leaf_value=-0.029127447847908286 0.03946866469806104 0.0018996285627035073 -0.043914302682864469
leaf_weight=1.8461160697042927 3.3707542717456827 4.4804163053631783 1.7869844138622282
leaf_count=24 20 25 27
internal_value=0 -0.0152506 -0.0364005
internal_weight=0 8.11352 3.6331
internal_count=96 76 51
is_linear=0
shrinkage=0.05


Tree=111
num_leaves=4
num_cat=0
split_feature=3 1 3
split_gain=3.71151 0.120077 0.000525974
threshold=0.45000000000000007 3.0500000000000003 1.3500000000000003
decision_type=2 2 2
left_child=-1 2 -2
right_child=1 -3 -4
leaf_value=0.037245528516621731 -0.036249516245694773 -0.019364947237582735 -0.034991716371135552
leaf_weight=3.4256298169493675 1.4989587664604189 1.7371985241770742 1.865606792271137
leaf_count=31 18 19 28
internal_value=0 -0.0300402 -0.0355521
internal_weight=0 5.10176 3.36457
internal_count=96 65 46
is_linear=0
shrinkage=0.05


Tree=112
num_leaves=3
num_cat=0
split_feature=3 3
split_gain=0.670445 1.55638
threshold=1.0500000000000003 1.5500000000000003
decision_type=2 2
left_child=-1 -2
right_child=1 -3
leaf_value=-0.018753004567038382 0.027991753083989976 -0.013400299535498589
leaf_weight=3.0885308980941781 4.751256622374056 4.3504890874028206
leaf_count=36 29 31
internal_value=0 0.00820701
internal_weight=0 9.10175
internal_count=96 60
is_linear=0
shrinkage=0.05


Tree=113
num_leaves=5
num_cat=0
split_feature=2 1 3 1
split_gain=3.17262 1.58665 0.0490556 1.32382e-05
threshold=5.0500000000000007 2.8500000000000001 1.4500000000000002 3.3500000000000001
decision_type=2 2 2 2
left_child=1 -1 3 -3
right_child=-2 2 -4 -5
leaf_value=0.0066421104506635331 0.038234388726547587 -0.034827767864535529 -0.045894772669916289 -0.034579041453536262
leaf_weight=3.4357561506330967 3.753281757235527 1.1628716215491297 1.8014285750687125 0.99074347317218769
leaf_count=22 24 20 10 20
internal_value=0 -0.0182138 -0.0398062 -0.0347133
internal_weight=0 7.3908 3.95504 2.15362
internal_count=96 72 50 40
is_linear=0
shrinkage=0.05


Tree=114
num_leaves=4
num_cat=0
split_feature=2 2 3
split_gain=3.53468 0.106743 1.39477e-05
threshold=1.8 4.2500000000000009 1.8500000000000003
decision_type=2 2 2
left_child=-1 -2 -3
right_child=1 2 -4
leaf_value=0.037203437511332656 -0.019228076616109434 -0.035140084429335812 -0.03492998223122179
leaf_weight=3.2674915790557861 1.5684610866010187 2.0202130675315861 1.2970855832099912
leaf_count=31 16 29 20
internal_value=0 -0.0299761 -0.0350579
internal_weight=0 4.88576 3.3173
internal_count=96 65 49
is_linear=0
shrinkage=0.05


Tree=115
num_leaves=3
num_cat=0
split_feature=2 2
split_gain=0.868372 1.56624
threshold=4.9500000000000011 3.4000000000000004
decision_type=2 2
left_child=1 -1
right_child=-2 -3
leaf_value=-0.021545168849046295 -0.021552344465560307 0.023733759860902308
leaf_weight=2.8006493523716909 3.0692252442240724 6.0047856345772743
leaf_count=34 28 34
internal_value=0 0.00933238
internal_weight=0 8.80543
internal_count=96 68
is_linear=0
shrinkage=0.05


Tree=116
num_leaves=3
num_cat=0
split_feature=2 2
split_gain=2.99442 0.000416391
threshold=4.7500000000000009 1.5500000000000003
decision_type=2 2
left_child=1 -1
right_child=-2 -3
leaf_value=-0.034398081327957179 0.020048128472867743 -0.035512985958213485
leaf_weight=1.2550988197326662 7.0539685040712357 2.5167793408036232
leaf_count=28 35 33
internal_value=0 -0.035142
internal_weight=0 3.77188
internal_count=96 61
is_linear=0
shrinkage=0.05


Tree=117
num_leaves=4
num_cat=0
split_feature=2 2 3
split_gain=3.32763 0.106302 1.19841e-05
threshold=1.8 4.2500000000000009 1.8500000000000003
decision_type=2 2 2
left_child=-1 -2 -3
right_child=1 2 -4
leaf_value=0.037003718682061343 -0.01894421250720861 -0.035048112616338049 -0.034848631162329773
leaf_weight=3.1011951640248299 1.5382295399904249 1.9247956424951556 1.236630894243717
leaf_count=31 16 29 20
internal_value=0 -0.0297247 -0.0349701
internal_weight=0 4.69966 3.16143
internal_count=96 65 49
is_linear=0
shrinkage=0.05


Tree=118
num_leaves=3
num_cat=0
split_feature=2 2
split_gain=0.799845 1.43991
threshold=4.9500000000000011 3.4000000000000004
decision_type=2 2
left_child=1 -1
right_child=-2 -3
leaf_value=-0.020985664963431835 -0.020907920601015595 0.023125175471470673
leaf_weight=2.7054979763925058 2.9779660925269136 5.8511693403124809
leaf_count=34 28 34
internal_value=0 0.00917795
internal_weight=0 8.55667
internal_count=96 68
is_linear=0
shrinkage=0.05


Tree=119
num_leaves=4
num_cat=0
split_feature=3 0 1
split_gain=2.43654 1.08384 0.0803383
threshold=1.8500000000000003 5.9500000000000011 3.1500000000000008
decision_type=2 2 2
left_child=1 2 -1
right_child=-2 -3 -4
leaf_value=-0.028813920715024199 0.038836328926936489 0.0020059382346350307 -0.044670025171574992
leaf_weight=1.653736110776663 3.0068597197532654 4.2760402001440525 1.5453689135611055
leaf_count=24 20 25 27
internal_value=0 -0.0144619 -0.0364734
internal_weight=0 7.47515 3.19911
internal_count=96 76 51
is_linear=0
shrinkage=0.05


Tree=120
num_leaves=4
num_cat=0
split_feature=3 1 3
split_gain=3.14362 0.117684 0.000559141
threshold=0.45000000000000007 3.0500000000000003 1.3500000000000003
decision_type=2 2 2
left_child=-1 2 -2
right_child=1 -3 -4
leaf_value=0.036872732707147506 -0.036134116249535109 -0.018357084274286253 -0.034757105093570301
leaf_weight=2.9401181936264038 1.3559560365974905 1.5407247766852377 1.6155283302068708
leaf_count=31 18 19 28
internal_value=0 -0.029571 -0.0353855
internal_weight=0 4.51221 2.97148
internal_count=96 65 46
is_linear=0
shrinkage=0.05


Tree=121
num_leaves=3
num_cat=0
split_feature=2 2
split_gain=0.73245 1.31492
threshold=4.9500000000000011 3.4000000000000004
decision_type=2 2
left_child=1 -1
right_child=-2 -3
leaf_value=-0.020413919202101578 -0.020266003353671652 0.02235640445303809
leaf_weight=2.6163106560707075 2.8828483149409303 5.738689586520195
leaf_count=34 28 34
internal_value=0 0.00896317
internal_weight=0 8.355
internal_count=96 68
is_linear=0
shrinkage=0.05


Tree=122
num_leaves=4
num_cat=0
split_feature=2 2 3
split_gain=2.69111 0.876872 0.000350616
threshold=5.0500000000000007 4.7500000000000009 0.45000000000000007
decision_type=2 2 2
left_child=1 2 -1
right_child=-2 -3 -4
leaf_value=-0.034342297079178283 0.037633670765326727 0.00082960900102052159 -0.035391735679202112
leaf_weight=1.257903650403023 3.3381442129611969 3.4032618403434753 2.1669977568089962
leaf_count=31 24 11 30
internal_value=0 -0.0171451 -0.0350063
internal_weight=0 6.82816 3.4249
internal_count=96 72 61
is_linear=0
shrinkage=0.05


Tree=123
num_leaves=4
num_cat=0
split_feature=2 1 3
split_gain=2.96772 0.117465 0.000559765
threshold=1.8 3.0500000000000003 1.3500000000000003
decision_type=2 2 2
left_child=-1 2 -2
right_child=1 -3 -4
leaf_value=0.036741590200683072 -0.036091945269403167 -0.017986571474015622 -0.034683218746854219
leaf_weight=2.7935639619827271 1.3040146306157114 1.4878001399338243 1.5355311743915079
leaf_count=31 18 19 28
internal_value=0 -0.0293672 -0.0353302
internal_weight=0 4.32735 2.83955
internal_count=96 65 46
is_linear=0
shrinkage=0.05


Tree=124
num_leaves=3
num_cat=0
split_feature=2 2
split_gain=0.654192 1.19651
threshold=4.9500000000000011 3.4000000000000004
decision_type=2 2
left_child=1 -1
right_child=-2 -3
leaf_value=-0.01996143657057222 -0.019512567710307963 0.021487465488404685
leaf_weight=2.5271615386009199 2.7777893319725999 5.5978642776608467
leaf_count=34 28 34
internal_value=0 0.00859544
internal_weight=0 8.12503
internal_count=96 68
is_linear=0
shrinkage=0.05


Tree=125
num_leaves=5
num_cat=0
split_feature=2 1 2 2
split_gain=2.50881 1.51295 0.0570135 0.000228889
threshold=5.0500000000000007 2.8500000000000001 4.7500000000000009 1.5500000000000003
decision_type=2 2 2 2
left_child=1 -1 3 -3
right_child=-2 2 -4 -5
leaf_value=0.0079579953031795828 0.037388943831507482 -0.034178837373868481 -0.048062013015986706 -0.035219611017902296
leaf_weight=3.2285756506025791 3.1841630339622498 0.97681414335966188 1.2907560169696806 1.1504124365746973
leaf_count=22 24 27 4 19
internal_value=0 -0.016587 -0.0397719 -0.0347417
internal_weight=0 6.64656 3.41798 2.12723
internal_count=96 72 50 46
is_linear=0
shrinkage=0.05


Tree=126
num_leaves=4
num_cat=0
split_feature=3 2 0
split_gain=2.80979 0.118714 7.4842e-06
threshold=0.45000000000000007 4.1500000000000012 6.2500000000000009
decision_type=2 2 2
left_child=-1 -2 -3
right_child=1 2 -4
leaf_value=0.036638756179873666 -0.016307088793773464 -0.034841538396935094 -0.034677433714057501
leaf_weight=2.6573647707700729 1.2486573606729505 1.1504424512386324 1.754118353128433
leaf_count=31 13 20 32
internal_value=0 -0.0291999 -0.0347424
internal_weight=0 4.15322 2.90456
internal_count=96 65 52
is_linear=0
shrinkage=0.05


Tree=127
num_leaves=4
num_cat=0
split_feature=0 1 3
split_gain=0.604176 0.640741 0.385676
threshold=6.3500000000000005 2.6500000000000008 1.0500000000000003
decision_type=2 2 2
left_child=1 -1 -3
right_child=-2 2 -4
leaf_value=0.015800390655073313 0.023794217300967591 -0.032012610103623086 -0.0047558325976354808
leaf_weight=2.5659264177083951 2.3459227681159982 1.9949465766549108 3.7138996049761772
leaf_count=15 24 32 25
internal_value=0 -0.00495282 -0.0142807
internal_weight=0 8.27477 5.70885
internal_count=96 72 57
is_linear=0
shrinkage=0.05


Tree=128
num_leaves=4
num_cat=0
split_feature=3 0 1
split_gain=2.07462 0.992977 0.0714483
threshold=1.8500000000000003 5.9500000000000011 3.1500000000000008
decision_type=2 2 2
left_child=1 2 -1
right_child=-2 -3 -4
leaf_value=-0.028679640206720886 0.038497148322129221 0.0023173350508630701 -0.044585354215080905
leaf_weight=1.4840127453207972 2.6561955735087395 4.0678410157561302 1.3467769287526605
leaf_count=24 20 25 27
internal_value=0 -0.0135072 -0.0362469
internal_weight=0 6.89863 2.83079
internal_count=96 76 51
is_linear=0
shrinkage=0.05


Tree=129
num_leaves=4
num_cat=0
split_feature=2 1 3
split_gain=2.64704 0.115641 0.000521669
threshold=1.8 3.0500000000000003 1.3500000000000003
decision_type=2 2 2
left_child=-1 2 -2
right_child=1 -3 -4
leaf_value=0.036491970893326668 -0.035975721027127032 -0.017325792121305427 -0.034561643133692553
leaf_weight=2.5054320693016052 1.2224277816712863 1.3771446049213407 1.3982077464461324
leaf_count=31 18 19 28
internal_value=0 -0.0290567 -0.0352213
internal_weight=0 3.99778 2.62064
internal_count=96 65 46
is_linear=0
shrinkage=0.05


Tree=130
num_leaves=4
num_cat=0
split_feature=0 1 3
split_gain=0.579313 0.595652 0.361241
threshold=6.3500000000000005 2.6500000000000008 1.0500000000000003
decision_type=2 2 2
left_child=1 -1 -3
right_child=-2 2 -4
leaf_value=0.01527836047798552 0.023499158332231474 -0.031661635930872789 -0.0048290646655107855
leaf_weight=2.5269372500479204 2.314495489001275 1.9036139696836469 3.6775296032428741
leaf_count=15 24 32 25
internal_value=0 -0.0048622 -0.0139811
internal_weight=0 8.10808 5.58114
internal_count=96 72 57
is_linear=0
shrinkage=0.05


Tree=131
num_leaves=3
num_cat=0
split_feature=2 2
split_gain=2.29886 0.000294142
threshold=4.7500000000000009 1.8
decision_type=2 2
left_child=1 -1
right_child=-2 -3
leaf_value=-0.034185496731658466 0.018171519092981838 -0.035224311423877601
leaf_weight=1.0396340768784287 6.3271186277270317 1.9777390994131563
leaf_count=31 35 30
internal_value=0 -0.0348664
internal_weight=0 3.01737
internal_count=96 61
is_linear=0
shrinkage=0.05


Tree=132
num_leaves=4
num_cat=0
split_feature=3 2 1
split_gain=2.50589 0.111337 2.90871e-05
threshold=0.45000000000000007 4.1500000000000012 3.0500000000000003
decision_type=2 2 2
left_child=-1 -2 -3
right_child=1 2 -4
leaf_value=0.036384791488001215 -0.01623397312022818 -0.034495260301182162 -0.03483351335113221
leaf_weight=2.3695111498236656 1.1899105086922648 1.6194539777934553 1.0461132936179636
leaf_count=31 13 34 18
internal_value=0 -0.0289511 -0.034628
internal_weight=0 3.85548 2.66557
internal_count=96 65 52
is_linear=0
shrinkage=0.05


Tree=133
num_leaves=3
num_cat=0
split_feature=2 2
split_gain=0.583734 0.948362
threshold=4.9500000000000011 3.4000000000000004
decision_type=2 2
left_child=1 -1
right_child=-2 -3
leaf_value=-0.018728718374031585 -0.018688166711077602 0.020076401452377865
leaf_weight=2.2398412749171257 2.6614723056554794 5.3002198487520218
leaf_count=34 28 34
internal_value=0 0.008549
internal_weight=0 7.54006
internal_count=96 68
is_linear=0
shrinkage=0.05


Tree=134
num_leaves=5
num_cat=0
split_feature=2 1 2 2
split_gain=2.19514 1.42218 0.0415925 0.000196885
threshold=5.0500000000000007 2.8500000000000001 4.7500000000000009 1.5500000000000003
decision_type=2 2 2 2
left_child=1 -1 3 -3
right_child=-2 2 -4 -5
leaf_value=0.0083213098502873516 0.037008022247145438 -0.034016338501221509 -0.046337338814901791 -0.035062125787778363
leaf_weight=3.1144799999892712 2.9119198396801949 0.79644231311976943 1.2867041081190107 1.0348004158586261
leaf_count=22 24 27 4 19
internal_value=0 -0.0155766 -0.039448 -0.0346073
internal_weight=0 6.23243 3.11795 1.83124
internal_count=96 72 50 46
is_linear=0
shrinkage=0.05


Tree=135
num_leaves=4
num_cat=0
split_feature=2 1 3
split_gain=2.37081 0.113175 0.000484875
threshold=1.8 3.0500000000000003 1.3500000000000003
decision_type=2 2 2
left_child=-1 2 -2
right_child=1 -3 -4
leaf_value=0.036281016404172604 -0.035867557331037067 -0.016743724322601652 -0.034450730420210622
leaf_weight=2.2533420287072659 1.1478438116610057 1.2805523015558717 1.2741843760013578
leaf_count=31 18 19 28
internal_value=0 -0.0287659 -0.0351222
internal_weight=0 3.70258 2.42203
internal_count=96 65 46
is_linear=0
shrinkage=0.05


Tree=136
num_leaves=3
num_cat=0
split_feature=2 2
split_gain=0.521825 0.846939
threshold=4.9500000000000011 3.4000000000000004
decision_type=2 2
left_child=1 -1
right_child=-2 -3
leaf_value=-0.018016565059402578 -0.017961494648691696 0.019132661187465178
leaf_weight=2.1747919395565987 2.5717470683157444 5.2089967504143715
leaf_count=34 28 34
internal_value=0 0.00819087
internal_weight=0 7.38379
internal_count=96 68
is_linear=0
shrinkage=0.05


Tree=137
num_leaves=4
num_cat=0
split_feature=3 0 1
split_gain=1.82808 0.922074 0.0700309
threshold=1.8500000000000003 5.9500000000000011 3.1500000000000008
decision_type=2 2 2
left_child=1 2 -1
right_child=-2 -3 -4
leaf_value=-0.028468067632846566 0.038160996780869282 0.0024635598237158179 -0.045123282077351667
leaf_weight=1.356766549870372 2.428524486720562 3.9242293164134026 1.180114187300205
leaf_count=24 20 25 27
internal_value=0 -0.0127234 -0.0362158
internal_weight=0 6.46111 2.53688
internal_count=96 76 51
is_linear=0
shrinkage=0.05


Tree=138
num_leaves=4
num_cat=0
split_feature=3 1 3
split_gain=2.24781 0.110528 0.000474058
threshold=0.45000000000000007 3.0500000000000003 1.3500000000000003
decision_type=2 2 2
left_child=-1 2 -2
right_child=1 -3 -4
leaf_value=0.036208406047791408 -0.035831582350470174 -0.016594479235729803 -0.034400719253680871
leaf_weight=2.1386424340307713 1.1052760109305388 1.2406224124133585 1.215401269495487
leaf_count=31 18 19 28
internal_value=0 -0.0286418 -0.0350822
internal_weight=0 3.5613 2.32068
internal_count=96 65 46
is_linear=0
shrinkage=0.05


Tree=139
num_leaves=4
num_cat=0
split_feature=0 2 1
split_gain=0.588563 0.686473 1.36199
threshold=6.3500000000000005 4.7500000000000009 3.0500000000000003
decision_type=2 2 2
left_child=1 2 -1
right_child=-2 -3 -4
leaf_value=0.032475289229761999 0.024615224128199647 -0.021454522748224462 -0.026206133077845445
leaf_weight=2.4455131553113461 2.1375570967793465 3.4726983644068241 1.6600078903138635
leaf_count=24 24 19 29
internal_value=0 -0.00509206 0.00874831
internal_weight=0 7.57822 4.10552
internal_count=96 72 53
is_linear=0
shrinkage=0.05


Tree=140
num_leaves=3
num_cat=0
split_feature=2 2
split_gain=1.9979 0.000254258
threshold=4.7500000000000009 1.8
decision_type=2 2
left_child=1 -1
right_child=-2 -3
leaf_value=-0.034040823443696321 0.017264509849133192 -0.035087142623882295
leaf_weight=0.85350042209029231 5.9838446751236916 1.8159612827003
leaf_count=31 35 30
internal_value=0 -0.0347526
internal_weight=0 2.66946
internal_count=96 61
is_linear=0
shrinkage=0.05


Tree=141
num_leaves=3
num_cat=0
split_feature=3 2
split_gain=2.12439 0.000113178
threshold=1.0500000000000003 4.5500000000000007
decision_type=2 2
left_child=-1 -2
right_child=1 -3
leaf_value=0.027797363869252547 -0.035070102798688184 -0.034418090111259521
leaf_weight=2.6444959416985512 1.0866676382720473 1.7175146564841268
leaf_count=36 21 39
internal_value=0 -0.0346708
internal_weight=0 2.80418
internal_count=96 60
is_linear=0
shrinkage=0.05


Tree=142
num_leaves=4
num_cat=0
split_feature=0 1 0
split_gain=0.556959 0.536611 0.212552
threshold=6.3500000000000005 2.6500000000000008 5.6500000000000012
decision_type=2 2 2
left_child=1 -1 -3
right_child=-2 2 -4
leaf_value=0.014878444632313907 0.024104650910280051 -0.026534570318857489 -0.0056337932252452259
leaf_weight=2.3149641789495945 2.1103656813502312 2.0635918416082859 2.9629677012562752
leaf_count=15 24 34 23
internal_value=0 -0.00504067 -0.0142143
internal_weight=0 7.34152 5.02656
internal_count=96 72 57
is_linear=0
shrinkage=0.05


Tree=143
num_leaves=4
num_cat=0
split_feature=2 1 1
split_gain=1.90311 1.3237 0.0350788
threshold=5.0500000000000007 2.8500000000000001 3.0500000000000003
decision_type=2 2 2
left_child=1 -1 -3
right_child=-2 2 -4
leaf_value=0.0085675311596616049 0.036585552663265984 -0.032154529701353067 -0.04357075392945664
leaf_weight=2.9698728919029236 2.6156624853610992 1.0946414843201639 1.7464140448719261
leaf_count=22 24 15 35
internal_value=0 -0.0147732 -0.0391722
internal_weight=0 5.81093 2.84106
internal_count=96 72 50
is_linear=0
shrinkage=0.05


Tree=144
num_leaves=4
num_cat=0
split_feature=3 0 1
split_gain=2.00973 0.114515 1.95265e-05
threshold=0.45000000000000007 5.6500000000000012 3.0500000000000003
decision_type=2 2 2
left_child=-1 -2 -3
right_child=1 2 -4
leaf_value=0.035937318436518505 -0.01410731907515524 -0.034324639922208675 -0.03462411706501111
leaf_weight=1.9310492500662801 0.99086171761155162 1.4154775179922583 0.8843696080148219
leaf_count=31 12 35 18
internal_value=0 -0.0283175 -0.0344398
internal_weight=0 3.29071 2.29985
internal_count=96 65 53
is_linear=0
shrinkage=0.05


Tree=145
num_leaves=3
num_cat=0
split_feature=2 2
split_gain=0.460362 1.25097
threshold=4.7500000000000009 3.4000000000000004
decision_type=2 2
left_child=1 -1
right_child=-2 -3
leaf_value=-0.01709647935831007 -0.0092977864093055484 0.03608925867837777
leaf_weight=1.9557494856417177 4.7946123220026493 2.5434052795171738
leaf_count=34 35 27
internal_value=0 0.0129698
internal_weight=0 4.49915
internal_count=96 61
is_linear=0
shrinkage=0.05


Tree=146
num_leaves=4
num_cat=0
split_feature=2 1 1
split_gain=1.81066 1.2633 0.0391358
threshold=5.0500000000000007 2.8500000000000001 3.0500000000000003
decision_type=2 2 2
left_child=1 -1 -3
right_child=-2 2 -4
leaf_value=0.0083377697400552047 0.036460059284592554 -0.031286487670610194 -0.043469600222761744
leaf_weight=2.9605127573013306 2.5274664461612701 1.0868432577699425 1.6751499306410549
leaf_count=22 24 15 35
internal_value=0 -0.0143534 -0.0386756
internal_weight=0 5.72251 2.76199
internal_count=96 72 50
is_linear=0
shrinkage=0.05


Tree=147
num_leaves=4
num_cat=0
split_feature=3 3 1
split_gain=1.88755 0.123681 1.86664e-05
threshold=0.45000000000000007 1.2500000000000002 3.0500000000000003
decision_type=2 2 2
left_child=-1 -2 -3
right_child=1 2 -4
leaf_value=0.035814604979983927 -0.012531914206375019 -0.034255785025514254 -0.034554367727460143
leaf_weight=1.8301943466067312 0.91343523934483561 1.3999110721051695 0.83606120944023121
leaf_count=31 10 37 18
internal_value=0 -0.0280344 -0.0343674
internal_weight=0 3.14941 2.23597
internal_count=96 65 55
is_linear=0
shrinkage=0.05


Tree=148
num_leaves=3
num_cat=0
split_feature=2 2
split_gain=0.433185 1.16723
threshold=4.7500000000000009 3.4000000000000004
decision_type=2 2
left_child=1 -1
right_child=-2 -3
leaf_value=-0.016380700909482657 -0.0089718110682323014 0.035936111285848338
leaf_weight=1.9030665196478365 4.7218815721571445 2.4242508113384247
leaf_count=34 35 27
internal_value=0 0.0129282
internal_weight=0 4.32732
internal_count=96 61
is_linear=0
shrinkage=0.05


Tree=149
num_leaves=4
num_cat=0
split_feature=2 1 1
split_gain=1.70867 1.20907 0.0416411
threshold=5.0500000000000007 2.8500000000000001 3.0500000000000003
decision_type=2 2 2
left_child=1 -1 -3
right_child=-2 2 -4
leaf_value=0.0081254314057133594 0.036302311140167381 -0.03072033968290588 -0.043487182724075354
leaf_weight=2.9338161535561085 2.4144177958369255 1.0617697183042767 1.6029152255505321
leaf_count=22 24 15 35
internal_value=0 -0.0140191 -0.0384001
internal_weight=0 5.5985 2.66468
internal_count=96 72 50
is_linear=0
shrinkage=0.05


end of trees

feature_importances:
Column_2=185
Column_3=98
Column_1=66
Column_0=26

parameters:
[boosting: gbdt]
[objective: multiclass]
[metric: multi_logloss]
[tree_learner: serial]
[device_type: cpu]
[data_sample_strategy: bagging]
[data: ]
[valid: ]
[num_iterations: 10000]
[learning_rate: 0.05]
[num_leaves: 63]
[num_threads: 0]
[seed: 1237]
[deterministic: 0]
[force_col_wise: 0]
[force_row_wise: 0]
[histogram_pool_size: -1]
[max_depth: -1]
[min_data_in_leaf: 20]
[min_sum_hessian_in_leaf: 0.001]
[bagging_fraction: 0.9]
[pos_bagging_fraction: 1]
[neg_bagging_fraction: 1]
[bagging_freq: 0]
[bagging_seed: 32458]
[feature_fraction: 0.8]
[feature_fraction_bynode: 1]
[feature_fraction_seed: 15412]
[extra_trees: 0]
[extra_seed: 19498]
[early_stopping_round: 0]
[early_stopping_min_delta: 0]
[first_metric_only: 0]
[max_delta_step: 0]
[lambda_l1: 0]
[lambda_l2: 0]
[linear_lambda: 0]
[min_gain_to_split: 0]
[drop_rate: 0.1]
[max_drop: 50]
[skip_drop: 0.5]
[xgboost_dart_mode: 0]
[uniform_drop: 0]
[drop_seed: 818]
[top_rate: 0.2]
[other_rate: 0.1]
[min_data_per_group: 100]
[max_cat_threshold: 32]
[cat_l2: 10]
[cat_smooth: 10]
[max_cat_to_onehot: 4]
[top_k: 20]
[monotone_constraints: ]
[monotone_constraints_method: basic]
[monotone_penalty: 0]
[feature_contri: ]
[forcedsplits_filename: ]
[refit_decay_rate: 0.9]
[cegb_tradeoff: 1]
[cegb_penalty_split: 0]
[cegb_penalty_feature_lazy: ]
[cegb_penalty_feature_coupled: ]
[path_smooth: 0]
[interaction_constraints: ]
[verbosity: -1]
[saved_feature_importance_type: 0]
[use_quantized_grad: 0]
[num_grad_quant_bins: 4]
[quant_train_renew_leaf: 0]
[stochastic_rounding: 1]
[linear_tree: 0]
[max_bin: 255]
[max_bin_by_feature: ]
[min_data_in_bin: 3]
[bin_construct_sample_cnt: 200000]
[data_random_seed: 4078]
[is_enable_sparse: 1]
[enable_bundle: 1]
[use_missing: 1]
[zero_as_missing: 0]
[feature_pre_filter: 1]
[pre_partition: 0]
[two_round: 0]
[header: 0]
[label_column: ]
[weight_column: ]
[group_column: ]
[ignore_column: ]
[categorical_feature: ]
[forcedbins_filename: ]
[precise_float_parser: 0]
[parser_config_file: ]
[objective_seed: 21231]
[num_class: 3]
[is_unbalance: 0]
[scale_pos_weight: 1]
[sigmoid: 1]
[boost_from_average: 1]
[reg_sqrt: 0]
[alpha: 0.9]
[fair_c: 1]
[poisson_max_delta_step: 0.7]
[tweedie_variance_power: 1.5]
[lambdarank_truncation_level: 30]
[lambdarank_norm: 1]
[label_gain: ]
[lambdarank_position_bias_regularization: 0]
[eval_at: ]
[multi_error_top_k: 1]
[auc_mu_weights: ]
[num_machines: 1]
[local_listen_port: 12400]
[time_out: 120]
[machine_list_filename: ]
[machines: ]
[gpu_platform_id: -1]
[gpu_device_id: -1]
[gpu_use_dp: 0]
[num_gpu: 1]

end of parameters

pandas_categorical:null
