tree
version=v4
num_class=3
num_tree_per_iteration=3
label_index=0
max_feature_idx=3
objective=multiclass num_class:3
feature_names=Column_0 Column_1 Column_2 Column_3
feature_infos=[4.2999999999999998:7.7000000000000002] [2:4.4000000000000004] [1:6.7000000000000002] [0.10000000000000001:2.5]
tree_sizes=541 629 640 852 945 949 952 844 847 855 843 849 749 848 953 855 841 849 958 841 954 857 1049 1050 955 952 855 859 851 954 959 951 954 963 951 1056 964 953 1168 863 953 1064 863 1059 1058 863 957 1168 973 1159 959 864 1267 1071 971 1168 1064 972 958 1175 871 1480 1171 764 861 868 982 758 1175 981 1067 873

Tree=0
num_leaves=4
num_cat=0
split_feature=3 0 3
split_gain=61.0462 0.226573 3.55271e-15
threshold=0.50000000000000011 5.5500000000000007 1.4500000000000002
decision_type=2 2 2
left_child=-1 -2 -3
right_child=1 2 -4
leaf_value=-0.69861228866810976 -1.2440668341226551 -1.2986122886681097 -1.2986122886681097
leaf_weight=10.333333641290663 3.6666667759418514 5.6666668355464962 12.333333700895308
leaf_count=31 11 17 37
internal_value=-1.09861 -1.28938 -1.29861
internal_weight=0 21.6667 18
internal_count=96 65 54
is_linear=0
shrinkage=1


Tree=1
num_leaves=5
num_cat=0
split_feature=2 3 2 2
split_gain=16.7619 38.8185 0.637411 0.147763
threshold=2.6000000000000001 1.5500000000000003 4.4500000000000011 5.3500000000000005
decision_type=2 2 2 2
left_child=-1 2 -2 -3
right_child=1 3 -4 -5
leaf_value=-1.2710152331759592 -0.67996184212256838 -1.2217607839215101 -0.77847074063146682 -1.2710152331759592
leaf_weight=10.828124999999998 7.4443359375000018 4.0605468749999982 4.060546875 6.0908203125
leaf_count=32 22 12 12 18
internal_value=-1.06784 -0.966253 -0.71473 -1.25131
internal_weight=0 21.6562 11.5049 10.1514
internal_count=96 64 34 30
is_linear=0
shrinkage=1


Tree=2
num_leaves=5
num_cat=0
split_feature=0 0 1 1
split_gain=21.9936 5.37726 1.42963 1.28064
threshold=5.7500000000000009 6.6500000000000012 2.8500000000000001 2.8500000000000001
decision_type=2 2 2 2
left_child=3 2 -2 -1
right_child=1 -3 -4 -5
leaf_value=-1.2053187986661269 -0.97881189983514716 -0.81374614360204456 -1.1396452007802216 -1.3272840518828084
leaf_weight=4.9194337427616182 4.5914714932441694 6.2312827408313742 4.2635092437267303 11.478678733110426
leaf_count=15 14 19 13 35
internal_value=-1.13036 -0.956085 -1.05625 -1.29069
internal_weight=0 15.0863 8.85498 16.3981
internal_count=96 46 27 50
is_linear=0
shrinkage=1


Tree=3
num_leaves=7
num_cat=0
split_feature=2 1 2 2 1 1
split_gain=39.7112 0.00472264 0.00394825 0.000710206 0.000403432 4.92789e-05
threshold=2.6000000000000001 3.4500000000000006 4.7500000000000009 5.5500000000000007 2.5500000000000003 2.9500000000000006
decision_type=2 2 2 2 2 2
left_child=1 -1 4 -4 -2 -6
right_child=2 -3 3 -5 5 -7
leaf_value=0.28014609909489047 -0.18172900271427592 0.28825231394908774 -0.18703310040508503 -0.18361100289471502 -0.17830473050076823 -0.17945579062093245
leaf_weight=7.1082059442996997 2.9080660641193408 4.827016681432724 5.7885963022708875 4.1757627129554749 3.108157753944397 2.8536387383937836
leaf_count=19 10 13 19 14 11 10
internal_value=0 0.283425 -0.182867 -0.185599 -0.179798 -0.178856
internal_weight=0 11.9352 18.8342 9.96436 8.86986 5.9618
internal_count=96 32 64 33 31 21
is_linear=0
shrinkage=0.2


Tree=4
num_leaves=8
num_cat=0
split_feature=2 2 2 0 0 0 2
split_gain=11.3899 24.0891 1.05363 0.173456 0.0183593 0.00123528 0.000201992
threshold=2.6000000000000001 4.7500000000000009 5.1500000000000012 5.5500000000000007 6.0500000000000007 6.9500000000000011 1.4500000000000002
decision_type=2 2 2 2 2 2 2
left_child=6 3 -3 -2 -5 -4 -1
right_child=1 2 5 4 -6 -7 -8
leaf_value=-0.18211522104248565 0.24447966401889684 -0.05859064239231479 -0.19109706838147622 0.28793474966570493 0.30740010034043697 -0.18556900538010443 -0.18399441455956189
leaf_weight=5.5882656276226061 3.6888834834098834 4.0554208755493146 3.4619718790054321 4.0981258153915405 3.6773066222667694 3.0337953567504883 3.8741564750671387
leaf_count=19 10 12 11 11 10 10 13
internal_value=0 0.0794937 -0.138578 0.280196 0.297141 -0.188515 -0.182885
internal_weight=0 22.0155 10.5512 11.4643 7.77543 6.49577 9.46242
internal_count=96 64 33 31 21 21 32
is_linear=0
shrinkage=0.2


Tree=5
num_leaves=8
num_cat=0
split_feature=2 2 1 2 2 1 1
split_gain=37.3314 0.65091 0.209407 0.0339412 0.00995653 0.000308242 0.000199547
threshold=4.7500000000000009 5.1500000000000012 2.5500000000000003 5.7500000000000009 3.6000000000000005 2.9500000000000006 3.4500000000000006
decision_type=2 2 2 2 2 2 2
left_child=2 -2 -1 -3 6 -6 -4
right_child=1 3 4 -5 5 -7 -8
leaf_value=-0.12911774310841459 0.21564212312896927 0.32645645903454612 -0.17911399221154112 0.29983861808549134 -0.18884843359667869 -0.19166752891589026 -0.18100960963422097
leaf_weight=3.3833358883857789 4.1962882876396161 3.9699221849441528 5.4203281104564649 3.7041014432907104 3.0961957871913901 3.1095598936080933 3.7636555731296539
leaf_count=11 12 11 19 10 10 10 13
internal_value=0 0.278976 -0.174168 0.313609 -0.184073 -0.190261 -0.179891
internal_weight=0 11.8703 18.7731 7.67402 15.3897 6.20576 9.18398
internal_count=96 33 63 21 52 20 32
is_linear=0
shrinkage=0.2


Tree=6
num_leaves=8
num_cat=0
split_feature=0 1 1 1 1 1 0
split_gain=19.2276 1.41747 0.499626 0.00154929 0.000165107 0.000479159 1.36778e-05
threshold=5.4500000000000011 3.0500000000000003 3.1500000000000008 3.4500000000000006 2.6500000000000008 2.8500000000000001 6.4500000000000011
decision_type=2 2 2 2 2 2 2
left_child=1 -1 4 -3 -2 -6 -7
right_child=2 3 -4 -5 5 6 -8
leaf_value=0.077154742532477061 -0.16809963681051515 0.22559337726032519 -0.081423972794168978 0.2309479623318679 -0.17162238251043027 -0.16832100683984905 -0.16894739776588602
leaf_weight=3.4878732413053539 2.9280767887830725 4.7133998274803144 3.2727066129446021 3.9920825660228729 3.6137566268444044 2.4549463987350464 3.2277057021856308
leaf_count=11 12 13 12 11 14 10 13
internal_value=0 0.184886 -0.150829 0.228049 -0.169409 -0.169822 -0.168677
internal_weight=0 12.1934 15.4972 8.70548 12.2245 9.29641 5.68265
internal_count=96 35 61 24 49 37 23
is_linear=0
shrinkage=0.2


Tree=7
num_leaves=7
num_cat=0
split_feature=3 2 3 2 2 2
split_gain=8.06052 17.2815 0.758507 0.0101271 0.000826465 0.000119314
threshold=1.7500000000000002 2.6000000000000001 1.4500000000000002 5.3500000000000005 4.0500000000000007 1.4500000000000002
decision_type=2 2 2 2 2 2
left_child=1 5 4 -2 -3 -1
right_child=3 2 -4 -5 -6 -7
leaf_value=-0.1685293869623265 -0.18675676799870025 0.23710693914016445 0.13207724095827642 -0.17176721129455755 0.23323698080679153 -0.17010061096469717
leaf_weight=4.7082940489053788 3.0472098886966696 3.6902196109294874 4.1868780255317679 4.4150559902191162 5.4931544661521912 3.2798887491226196
leaf_count=19 10 10 12 17 15 13
internal_value=0 0.063571 0.202627 -0.177888 0.234792 -0.169175
internal_weight=0 21.3584 13.3703 7.46227 9.18337 7.98818
internal_count=96 69 37 27 25 32
is_linear=0
shrinkage=0.2


Tree=8
num_leaves=7
num_cat=0
split_feature=3 3 3 0 3 0
split_gain=26.2816 0.684487 0.0399301 0.00528216 0.00148453 2.20681e-05
threshold=1.5500000000000003 1.4500000000000002 1.9500000000000002 5.7500000000000009 0.50000000000000011 4.8500000000000005
decision_type=2 2 2 2 2 2
left_child=1 3 -2 4 5 -1
right_child=2 -3 -4 -5 -6 -7
leaf_value=-0.16707536216120553 0.2276869375326146 -0.062448996521035915 0.25223287350904983 -0.17740019388696626 -0.17147641858019536 -0.16634927433886204
leaf_weight=2.6547778993845039 4.4100490510463697 2.8065956532955161 6.6458953022956848 3.3332580029964438 3.868668720126152 4.5337871015071869
leaf_count=11 12 9 18 12 15 19
internal_value=0 -0.1528 0.242442 -0.170421 -0.168317 -0.166617
internal_weight=0 17.1971 11.0559 14.3905 11.0572 7.18857
internal_count=96 66 30 57 45 30
is_linear=0
shrinkage=0.2


Tree=9
num_leaves=7
num_cat=0
split_feature=2 2 1 2 2 1
split_gain=19.6701 0.00115065 0.000855592 0.000626302 0.000338424 0.000212004
threshold=2.6000000000000001 4.4500000000000011 3.4500000000000006 5.5500000000000007 4.0500000000000007 2.8500000000000001
decision_type=2 2 2 2 2 2
left_child=2 4 -1 5 -2 -3
right_child=1 3 -4 -5 -6 -7
leaf_value=0.19921380359038518 -0.16105773550294977 -0.16547280967005185 0.20286798575536344 -0.16073498521538862 -0.15756312341265319 -0.16315194122236212
leaf_weight=6.2904491126537341 2.1068179458379737 3.0100073516368848 4.3252861499786377 2.965348556637764 2.3392035663127899 3.3008224964141846
leaf_count=19 10 13 13 14 12 15
internal_value=0 -0.161864 0.200703 -0.163132 -0.159219 -0.164259
internal_weight=0 13.7222 10.6157 9.27618 4.44602 6.31083
internal_count=96 64 32 42 22 28
is_linear=0
shrinkage=0.2


Tree=10
num_leaves=7
num_cat=0
split_feature=1 0 0 1 1 1
split_gain=4.57143 2.11027 1.59328 0.555721 1.12075 4.4469e-05
threshold=3.2500000000000004 4.9500000000000011 6.7500000000000009 2.6500000000000008 2.8500000000000001 3.4500000000000006
decision_type=2 2 2 2 2 2
left_child=1 -1 3 -3 -5 -2
right_child=5 2 -4 4 -6 -7
leaf_value=-0.12130861754508222 -0.16009102811465475 0.15450335277597013 -0.059845897279113658 -0.019082372235568308 0.1226861088745342 -0.16124705450162025
leaf_weight=2.6374742686748567 2.2874239087104788 4.7580680251121548 3.0831379592418662 3.5123536735773069 6.1119236499071121 3.1833511590957642
leaf_count=11 11 14 13 12 20 15
internal_value=0 0.0454411 0.0706221 0.0985904 0.0709481 -0.160764
internal_weight=0 20.103 17.4655 14.3823 9.62428 5.47078
internal_count=96 70 59 46 32 26
is_linear=0
shrinkage=0.2


Tree=11
num_leaves=7
num_cat=0
split_feature=3 3 3 3 2 2
split_gain=18.0787 0.68624 0.0366109 0.00104819 4.36618e-05 2.27278e-05
threshold=1.5500000000000003 1.4500000000000002 1.9500000000000002 0.50000000000000011 1.4500000000000002 4.0500000000000007
decision_type=2 2 2 2 2 2
left_child=1 3 -2 4 -1 -5
right_child=2 -3 -4 5 -6 -7
leaf_value=-0.15970107553945026 0.18892417847501738 -0.049212060718704556 0.21301947542389585 -0.1634836065566333 -0.15861656025378504 -0.16267950661316793
leaf_weight=3.888327509164812 4.2444480955600721 2.6831428557634345 6.2168556153774261 2.4635149091482162 2.4022506475448608 3.2755426466464996
leaf_count=19 12 9 18 11 12 15
internal_value=0 -0.140671 0.203243 -0.16107 -0.159287 -0.163025
internal_weight=0 14.7128 10.4613 12.0296 6.29058 5.73906
internal_count=96 66 30 57 31 26
is_linear=0
shrinkage=0.2


Tree=12
num_leaves=6
num_cat=0
split_feature=2 0 0 2 0
split_gain=14.5017 0.00105671 0.000329856 0.000250728 0.000360251
threshold=2.6000000000000001 5.5500000000000007 5.0500000000000007 4.4500000000000011 6.6500000000000012
decision_type=2 2 2 2 2
left_child=2 -2 -1 -3 -5
right_child=1 3 -4 4 -6
leaf_value=0.1821726701235433 -0.15958946575903429 -0.15270844216510468 0.17969531567644059 -0.15638533959752934 -0.15353955043171691
leaf_weight=5.8211003243923205 1.9857217371463765 2.318955183029173 3.4087805449962616 3.9402886182069778 3.2444788068532944
leaf_count=20 10 14 12 21 19
internal_value=0 -0.155393 0.181258 -0.154517 -0.1551
internal_weight=0 11.4894 9.22988 9.50372 7.18477
internal_count=96 64 32 54 40
is_linear=0
shrinkage=0.2


Tree=13
num_leaves=7
num_cat=0
split_feature=3 2 3 2 3 2
split_gain=5.01697 9.12236 0.509797 0.00591757 0.000170759 1.71705e-05
threshold=1.7500000000000002 2.6000000000000001 1.4500000000000002 5.3500000000000005 1.2500000000000002 1.4500000000000002
decision_type=2 2 2 2 2 2
left_child=1 5 4 -2 -3 -1
right_child=3 2 -4 -5 -6 -7
leaf_value=-0.15419656534513382 -0.16940743679051862 0.18791366491681516 0.098902384740492899 -0.1563554026314769 0.18600354439992711 -0.15490919555525895
leaf_weight=3.3112275600433412 2.4869077503681174 3.3649960160255414 4.0409035980701447 3.1486443728208542 4.2195965945720673 2.2862013131380081
leaf_count=19 10 11 12 17 14 13
internal_value=0 0.0552816 0.156281 -0.162115 0.186851 -0.154488
internal_weight=0 17.2229 11.6255 5.63555 7.58459 5.59743
internal_count=96 69 37 27 25 32
is_linear=0
shrinkage=0.2


Tree=14
num_leaves=8
num_cat=0
split_feature=0 1 0 0 0 1 1
split_gain=4.45369 0.939265 0.659504 0.147161 0.0191562 0.000216571 4.84803e-05
threshold=5.7500000000000009 2.8500000000000001 6.9500000000000011 6.2500000000000009 6.4500000000000011 3.0500000000000003 3.4500000000000006
decision_type=2 2 2 2 2 2 2
left_child=1 -1 3 -2 -5 -3 -7
right_child=2 5 -4 4 -6 6 -8
leaf_value=-0.019322299289430134 0.022879222116515954 -0.15475162388519573 0.15606842612222493 0.084939722546621493 0.061914263793552138 -0.15141152887755246 -0.15280137472199901
leaf_weight=3.3122517913579959 4.0447211414575559 1.7619941830635069 3.2495893239974967 2.6871120184659958 3.1273522973060608 2.0500369071960449 1.9672816693782804
leaf_count=15 15 10 11 9 11 13 12
internal_value=0 -0.104237 0.0779301 0.0521757 0.0725553 -0.152903 -0.152092
internal_weight=0 9.09156 13.1088 9.85919 5.81446 5.77931 4.01732
internal_count=96 50 46 35 20 35 25
is_linear=0
shrinkage=0.2


Tree=15
num_leaves=7
num_cat=0
split_feature=2 3 2 2 2 2
split_gain=10.8748 0.00055402 0.000617492 5.99857e-05 4.56048e-05 5.68383e-06
threshold=2.6000000000000001 1.4500000000000002 5.5500000000000007 4.0500000000000007 4.9500000000000011 1.4500000000000002
decision_type=2 2 2 2 2 2
left_child=5 3 4 -2 -3 -1
right_child=1 2 -4 -5 -6 -7
leaf_value=0.16789166816391657 -0.1497801965760393 -0.15407983854430649 -0.14904577945217498 -0.14808273955272808 -0.15274761716721003 0.16824064719765844
leaf_weight=4.5993142127990749 1.4219252243638023 1.8551249951124189 1.9731987267732618 2.0097200646996498 2.3047626167535782 3.1422131508588791
leaf_count=19 10 11 14 15 14 13
internal_value=0 -0.150821 -0.15196 -0.148786 -0.153342 0.168033
internal_weight=0 9.56473 6.13309 3.43165 4.15989 7.74153
internal_count=96 64 39 25 25 32
is_linear=0
shrinkage=0.2


Tree=16
num_leaves=7
num_cat=0
split_feature=3 3 3 0 0 0
split_gain=4.19039 6.24103 0.427037 0.0212608 0.00494428 2.28438e-05
threshold=1.7500000000000002 0.50000000000000011 1.4500000000000002 5.6500000000000012 6.6500000000000012 5.0500000000000007
decision_type=2 2 2 2 2 2
left_child=1 5 3 -3 -2 -1
right_child=4 2 -4 -5 -6 -7
leaf_value=-0.14919083430537772 -0.16323477099739908 0.15301938181857516 0.0838393789117583 0.17557559318437524 -0.15049321057946771 -0.14823831474820773
leaf_weight=2.6748810410499599 2.641746759414672 2.856166943907736 3.966936469078064 4.0299025028944016 2.2606694549322128 1.6152864545583723
leaf_count=19 12 11 12 15 15 12
internal_value=0 0.0553828 0.136109 0.16622 -0.157359 -0.148832
internal_weight=0 15.1432 10.853 6.88607 4.90242 4.29017
internal_count=96 69 38 26 27 31
is_linear=0
shrinkage=0.2


Tree=17
num_leaves=7
num_cat=0
split_feature=3 2 3 3 2 2
split_gain=10.5429 0.634636 0.0541345 0.00227074 0.00010976 3.57252e-05
threshold=1.5500000000000003 4.5500000000000007 1.9500000000000002 0.50000000000000011 4.1500000000000012 1.4500000000000002
decision_type=2 2 2 2 2 2
left_child=1 3 -2 5 -5 -1
right_child=2 -3 -4 4 -6 -7
leaf_value=-0.14858095114768274 0.14980478144867046 -0.037128981256193141 0.18169158471372548 -0.15370153458944064 -0.15568246973025676 -0.14736136567160191
leaf_weight=2.5489784926176089 3.6902134716510755 2.5061683654785147 5.0360314100980759 2.3736462444067001 2.1163938939571381 1.5419248342514036
leaf_count=19 12 9 18 14 12 12
internal_value=0 -0.12567 0.168207 -0.15153 -0.154635 -0.148121
internal_weight=0 11.0871 8.72624 8.58094 4.49004 4.0909
internal_count=96 66 30 57 26 31
is_linear=0
shrinkage=0.2


Tree=18
num_leaves=8
num_cat=0
split_feature=2 2 0 0 0 0 2
split_gain=8.17309 0.000246644 0.000492326 0.000119755 0.000115971 7.43014e-05 2.25748e-05
threshold=2.6000000000000001 4.4500000000000011 6.4500000000000011 4.9500000000000011 6.0500000000000007 5.6500000000000012 5.7500000000000009
decision_type=2 2 2 2 2 2 2
left_child=3 5 4 -1 -3 -2 -4
right_child=1 2 6 -5 -6 -7 -8
leaf_value=0.15804510613497325 -0.14633255335500842 -0.15060875288781655 -0.14606642478380288 0.15979791012015074 -0.14809873097842016 -0.14411682748053622 -0.14483369836190085
leaf_weight=2.748472735285759 1.1846529468894007 1.4858376085758211 1.3020106106996538 3.6030968725681305 1.459602043032646 1.2380263432860372 1.0931119397282598
leaf_count=14 10 10 11 18 11 12 10
internal_value=0 -0.146874 -0.147633 0.159039 -0.149365 -0.1452 -0.145504
internal_weight=0 7.76324 5.34056 6.35157 2.94544 2.42268 2.39512
internal_count=96 64 42 32 21 22 21
is_linear=0
shrinkage=0.2


Tree=19
num_leaves=7
num_cat=0
split_feature=3 2 3 2 2 3
split_gain=3.11434 4.7722 0.523607 0.00213149 0.000419562 5.53489e-05
threshold=1.7500000000000002 2.6000000000000001 1.4500000000000002 5.3500000000000005 4.2500000000000009 0.25000000000000006
decision_type=2 2 2 2 2 2
left_child=1 5 4 -2 -3 -1
right_child=3 2 -4 -5 -6 -7
leaf_value=-0.14509519272354374 -0.15646467097852912 0.16304357818541088 0.068310508528630853 -0.1471788367010492 0.16661915003819516 -0.14682314773089417
leaf_weight=2.5367092266678841 1.8552813827991479 3.5186813175678235 3.81002177298069 2.1171046569943428 2.0938369631767273 1.0477472767233846
leaf_count=23 10 16 12 17 9 9
internal_value=0 0.0508141 0.125533 -0.151516 0.164378 -0.1456
internal_weight=0 13.007 9.42254 3.97239 5.61252 3.58446
internal_count=96 69 37 27 25 32
is_linear=0
shrinkage=0.2


Tree=20
num_leaves=8
num_cat=0
split_feature=2 2 2 0 0 2 0
split_gain=7.40125 0.684303 0.00429918 0.000985677 0.000831802 0.000246642 1.03743e-05
threshold=4.9500000000000011 4.4500000000000011 5.1500000000000012 5.7500000000000009 6.9500000000000011 2.6000000000000001 5.0500000000000007
decision_type=2 2 2 2 2 2 2
left_child=1 3 -2 5 -4 6 -1
right_child=2 -3 4 -5 -6 -7 -8
leaf_value=-0.14453883506858706 0.15456155190467091 -0.035864794957629301 0.16765074697748084 -0.1513454202394334 0.16234218170769299 -0.14722398918054017 -0.14378210624156093
leaf_weight=2.1074336245656036 2.1930264532566062 3.4349373877048492 2.6222106516361237 1.3902992904186247 2.1476523876190186 1.7606118991971014 1.1044455245137212
leaf_count=20 7 14 11 9 10 14 11
internal_value=0 -0.107802 0.161891 -0.146638 0.165261 -0.145321 -0.144279
internal_weight=0 9.79773 6.96289 6.36279 4.76986 4.97249 3.21188
internal_count=96 68 28 54 21 45 31
is_linear=0
shrinkage=0.2


Tree=21
num_leaves=7
num_cat=0
split_feature=2 3 2 2 2 2
split_gain=6.18563 0.000262511 0.000336738 4.25044e-05 2.55542e-05 1.80097e-05
threshold=2.6000000000000001 1.4500000000000002 5.1500000000000012 5.7500000000000009 1.4500000000000002 4.0500000000000007
decision_type=2 2 2 2 2 2
left_child=4 5 -3 -4 -1 -2
right_child=1 2 3 -5 -6 -7
leaf_value=0.15198368618649438 -0.14291683521940299 -0.14667795074464357 -0.1438819257293715 -0.14200331704668687 0.15289356286567651 -0.14174496571538328
leaf_weight=3.0192286223173141 0.90419612079858813 2.1680925264954567 1.100149020552635 0.85704504698514927 2.088950127363205 1.2494623214006422
leaf_count=19 10 18 11 10 13 15
internal_value=0 -0.144027 -0.144961 -0.143059 0.152356 -0.142237
internal_weight=0 6.27895 4.12529 1.95719 5.10818 2.15366
internal_count=96 64 39 21 32 25
is_linear=0
shrinkage=0.2


Tree=22
num_leaves=9
num_cat=0
split_feature=2 2 0 0 0 2 0 0
split_gain=2.30124 3.724 0.265027 0.205216 0.0432438 0.0282211 2.59137e-05 4.86356e-05
threshold=4.9500000000000011 2.6000000000000001 6.2500000000000009 5.6500000000000012 6.2500000000000009 5.5500000000000007 5.0500000000000007 4.8500000000000005
decision_type=2 2 2 2 2 2 2 2
left_child=1 6 -2 -3 -5 -4 7 -1
right_child=2 3 5 4 -6 -7 -8 -9
leaf_value=-0.14207421573269008 -0.056391111804163785 0.084699902319733733 -0.18807971266828089 0.13206999064024191 0.17059754230950946 -0.14561788103268133 -0.14179850262092972 -0.14414463502242281
leaf_weight=0.94731578230857694 1.4192412942647945 2.8730879873037338 1.1171930059790613 2.186801940202713 2.4946800023317337 1.4242707341909406 0.99974913895130146 0.87120704352855682
leaf_count=11 7 14 7 12 10 14 12 9
internal_value=0 0.0535837 -0.125622 0.126777 0.152601 -0.164284 -0.142616 -0.143066
internal_weight=0 10.3728 3.96071 7.55457 4.68148 2.54146 2.81827 1.81852
internal_count=96 68 28 36 22 21 32 20
is_linear=0
shrinkage=0.2


Tree=23
num_leaves=9
num_cat=0
split_feature=3 2 3 3 2 3 2 2
split_gain=5.45719 1.32835 0.114735 0.00449827 0.00428719 0.000289137 7.84146e-06 2.78889e-07
threshold=1.5500000000000003 4.7500000000000009 1.8500000000000003 1.3500000000000003 5.5500000000000007 0.50000000000000011 1.4500000000000002 4.0500000000000007
decision_type=2 2 2 2 2 2 2 2
left_child=1 3 -2 5 -4 6 -1 -7
right_child=2 -3 4 -5 -6 7 -8 -9
leaf_value=-0.14204609886532985 0.10301414601919417 0.068491480939215865 0.16571020591467922 -0.15575801519978846 0.1529765586819829 -0.14478391398220325 -0.14132024655171357 -0.1449217118035869
leaf_weight=1.5860365331172945 2.0683154463768005 1.4063576757907865 2.4825844317674637 1.5048519521951673 1.8425737321376798 1.1911685690283778 0.95308143645524968 1.159256726503372
leaf_count=19 8 4 11 9 11 11 12 11
internal_value=0 -0.107491 0.141758 -0.146196 0.160286 -0.143253 -0.141774 -0.144852
internal_weight=0 7.80075 6.39347 6.3944 4.32516 4.88954 2.53912 2.35043
internal_count=96 66 30 62 22 53 31 22
is_linear=0
shrinkage=0.2


Tree=24
num_leaves=8
num_cat=0
split_feature=0 1 1 0 1 1 0
split_gain=3.04411 0.306325 0.151372 5.00459e-05 3.24131e-05 3.00684e-05 1.22173e-06
threshold=5.4500000000000011 3.0500000000000003 3.1500000000000008 5.0500000000000007 2.8500000000000001 2.6500000000000008 6.4500000000000011
decision_type=2 2 2 2 2 2 2
left_child=1 -1 4 -3 5 -2 -6
right_child=2 3 -4 -5 6 -7 -8
leaf_value=0.032423538067210891 -0.14086038587305655 0.14734505735993983 -0.057103057861461276 0.14564937661555685 -0.14075738751750574 -0.14240084185969551 -0.14040949523253679
leaf_weight=1.3882526084780691 0.87465632334351617 1.7389414831995966 1.1113653555512426 1.1610568687319753 0.72391295805573441 1.2052552625536916 0.91305990517139435
leaf_count=11 12 14 12 10 10 14 13
internal_value=0 0.109682 -0.121865 0.146666 -0.141229 -0.141753 -0.140563
internal_weight=0 4.28825 4.82825 2.9 3.71688 2.07991 1.63697
internal_count=96 35 61 24 49 26 23
is_linear=0
shrinkage=0.2


Tree=25
num_leaves=8
num_cat=0
split_feature=2 2 1 2 2 1 2
split_gain=1.64098 2.66533 0.40175 0.650807 0.0799631 5.39371e-05 1.00634e-05
threshold=4.9500000000000011 2.6000000000000001 2.8500000000000001 4.1500000000000012 5.1500000000000012 3.0500000000000003 1.4500000000000002
decision_type=2 2 2 2 2 2 2
left_child=1 6 3 -3 -2 -6 -1
right_child=4 2 -4 -5 5 -7 -8
leaf_value=-0.14001705715613558 -0.081385679279334572 0.15116043627760437 0.16824702802640321 -0.019896237510360265 -0.14426362248242405 -0.14207321435910786 -0.14088399156157305
leaf_weight=1.2825434431433662 1.5693201646208774 1.8456733971834185 2.9766480848193169 1.7176335602998731 0.89435755461454369 0.90439208596944809 0.91962955892086018
leaf_count=19 7 12 16 8 10 11 13
internal_value=0 0.0499297 0.114012 0.0687054 -0.114378 -0.143162 -0.140379
internal_weight=0 8.74213 6.53996 3.56331 3.36807 1.79875 2.20217
internal_count=96 68 36 20 28 21 32
is_linear=0
shrinkage=0.2


Tree=26
num_leaves=7
num_cat=0
split_feature=3 3 0 0 3 0
split_gain=4.08837 0.825576 0.00565286 0.000453769 9.55344e-05 2.39571e-06
threshold=1.7500000000000002 1.4500000000000002 6.3500000000000005 5.7500000000000009 0.50000000000000011 4.8500000000000005
decision_type=2 2 2 2 2 2
left_child=1 3 -2 4 5 -1
right_child=2 -3 -4 -5 -6 -7
leaf_value=-0.13978334300275261 0.16442987858337865 -0.0064104396796198122 0.14995395782605858 -0.1449108373713047 -0.14176252861211289 -0.13931767790821928
leaf_weight=0.7122139856219295 1.7824638634920118 3.0832716152071953 2.7342372089624405 1.2453425377607343 1.2294649593532083 1.1644670777022836
leaf_count=11 8 12 19 12 15 19
internal_value=0 -0.0855855 0.155667 -0.141685 -0.140392 -0.139494
internal_weight=0 7.43476 4.5167 4.35149 3.10615 1.87668
internal_count=96 69 27 57 45 30
is_linear=0
shrinkage=0.2


Tree=27
num_leaves=7
num_cat=0
split_feature=2 1 2 2 1 1
split_gain=3.73938 8.35787e-05 3.50864e-05 5.33405e-05 2.48838e-05 4.89423e-06
threshold=2.6000000000000001 2.5500000000000003 4.4500000000000011 5.5500000000000007 3.4500000000000006 2.8500000000000001
decision_type=2 2 2 2 2 2
left_child=4 -2 -3 5 -1 -4
right_child=1 2 3 -5 -6 -7
leaf_value=0.14421401432297662 -0.14192700266950306 -0.13854260053946885 -0.14119038661553704 -0.13878919271877455 0.14532823675916848 -0.1405011893035116
leaf_weight=1.9441037625074389 0.96737558767199505 0.69038452953100238 0.69176583364605937 0.78566330671310414 1.3644214719533918 1.0196640416979788
leaf_count=19 13 13 9 14 13 15
internal_value=0 -0.140299 -0.139805 -0.140153 0.144674 -0.14078
internal_weight=0 4.15485 3.18748 2.49709 3.30853 1.71143
internal_count=96 64 51 38 32 24
is_linear=0
shrinkage=0.2


Tree=28
num_leaves=7
num_cat=0
split_feature=1 0 1 1 0 1
split_gain=0.830785 0.74872 0.194433 0.306827 0.036901 4.01613e-06
threshold=3.2500000000000004 4.9500000000000011 2.7500000000000004 2.9500000000000006 6.4500000000000011 3.4500000000000006
decision_type=2 2 2 2 2 2
left_child=1 -1 -3 -4 -5 -2
right_child=5 2 3 4 -6 -7
leaf_value=-0.13044419399185841 -0.13841468707517784 0.086524205899914677 -0.046966870016312216 0.084544611512746295 0.039963182396390379 -0.13910497327777446
leaf_weight=1.0619277358055095 0.56924396753311224 3.1901119649410248 1.6461653262376783 1.3807664737105372 1.6070017814636228 0.82684241235256195
leaf_count=11 11 21 13 11 14 15
internal_value=0 0.0271373 0.0485253 0.0223659 0.060566 -0.138824
internal_weight=0 8.88597 7.82405 4.63393 2.98777 1.39609
internal_count=96 70 59 38 25 26
is_linear=0
shrinkage=0.2


Tree=29
num_leaves=8
num_cat=0
split_feature=2 2 0 2 0 2 0
split_gain=2.86408 0.523367 0.223285 0.0277794 0.000128185 3.26858e-05 1.52441e-06
threshold=4.9500000000000011 4.4500000000000011 6.2500000000000009 5.5500000000000007 5.7500000000000009 2.6000000000000001 5.0500000000000007
decision_type=2 2 2 2 2 2 2
left_child=1 4 -2 -4 5 6 -1
right_child=2 -3 3 -5 -6 -7 -8
leaf_value=-0.13849608652990694 0.068013878417418613 -0.019487094242411421 0.18724334998927383 0.14666730902844322 -0.14192564570477884 -0.13986342237875091 -0.13808041336645704
leaf_weight=1.0420911721885211 1.5071215480566023 2.6506175026297569 1.1608680486679079 1.6122234240174291 0.72684306651353825 0.90502618998289097 0.53361444547772396
leaf_count=20 7 14 7 14 9 14 11
internal_value=0 -0.0852478 0.129977 0.163653 -0.13959 -0.138906 -0.138355
internal_weight=0 5.85819 4.28021 2.77309 3.20757 2.48073 1.57571
internal_count=96 68 28 21 54 45 31
is_linear=0
shrinkage=0.2


Tree=30
num_leaves=8
num_cat=0
split_feature=0 1 1 1 0 1 0
split_gain=1.70177 0.254214 0.114437 1.9585e-05 1.29738e-05 8.50472e-06 3.70121e-07
threshold=5.4500000000000011 3.0500000000000003 3.1500000000000008 2.8500000000000001 5.0500000000000007 2.6500000000000008 6.4500000000000011
decision_type=2 2 2 2 2 2 2
left_child=1 -1 3 5 -3 -2 -5
right_child=2 4 -4 6 -6 -7 -8
leaf_value=0.017094238265810132 -0.13833521239368154 0.14140626990191607 -0.049817876231098408 -0.13790033825305634 0.14030493414160011 -0.1393311901534913 -0.13766091142321082
leaf_weight=1.0525268539786341 0.59181443229317732 1.0806864276528356 0.7650422416627406 0.47020503133535363 0.70823754370212544 0.81550996378064156 0.57295712828636169
leaf_count=11 12 14 12 10 10 14 13
internal_value=0 0.0950842 -0.117344 -0.138426 0.14097 -0.138912 -0.137769
internal_weight=0 2.84145 3.21553 2.45049 1.78892 1.40732 1.04316
internal_count=96 35 61 49 24 26 23
is_linear=0
shrinkage=0.2


Tree=31
num_leaves=8
num_cat=0
split_feature=2 2 1 1 2 1 1
split_gain=1.07759 1.55922 0.39022 0.324499 0.0105681 4.97673e-06 1.84947e-07
threshold=4.9500000000000011 2.6000000000000001 2.8500000000000001 2.7500000000000004 5.5500000000000007 3.2500000000000004 3.5500000000000003
decision_type=2 2 2 2 2 2 2
left_child=1 5 -3 -2 -5 -1 -7
right_child=3 2 -4 4 -6 6 -8
leaf_value=-0.13826960156196264 -0.015804580675632132 0.050119663415074268 0.161126556018168 -0.17272860753621119 -0.14055334721972462 -0.13758440203673564 -0.13739907287213329
leaf_weight=0.54138484597206094 1.0744143426418307 2.8148394227027893 2.3030823618173599 0.85045696049928643 0.78545806184411049 0.45226095616817474 0.41123541817069054
leaf_count=11 6 20 16 8 14 11 10
internal_value=0 0.0488413 0.100073 -0.101197 -0.15728 -0.137794 -0.137496
internal_weight=0 6.5228 5.11792 2.71033 1.63592 1.40488 0.863496
internal_count=96 68 36 28 22 32 21
is_linear=0
shrinkage=0.2


Tree=32
num_leaves=8
num_cat=0
split_feature=2 2 0 2 0 2 0
split_gain=2.22672 0.468564 0.209314 0.0176577 7.09476e-05 3.40321e-05 6.95556e-07
threshold=4.9500000000000011 4.4500000000000011 6.2500000000000009 5.5500000000000007 5.7500000000000009 2.6000000000000001 5.0500000000000007
decision_type=2 2 2 2 2 2 2
left_child=1 4 -2 -4 5 6 -1
right_child=2 -3 3 -5 -6 -7 -8
leaf_value=-0.1372670046546817 0.062857667871438899 -0.018146112602414988 0.17915643112534022 0.14435210570525855 -0.14028323607446966 -0.13885895726462125 -0.13694776128790609
leaf_weight=0.80708667635917686 1.4419876635074618 2.5888059213757515 1.0309458002448084 1.3421914801001547 0.60886060446500767 0.76752138137817372 0.41252395883202553
leaf_count=20 7 14 7 14 9 14 11
internal_value=0 -0.0783536 0.122955 0.159472 -0.138394 -0.137816 -0.137159
internal_weight=0 5.1848 3.81512 2.37314 2.59599 1.98713 1.21961
internal_count=96 68 28 21 54 45 31
is_linear=0
shrinkage=0.2


Tree=33
num_leaves=8
num_cat=0
split_feature=2 1 2 2 2 2 2
split_gain=2.38034 0.000133103 2.14463e-05 1.65197e-05 2.22167e-05 1.11413e-05 7.13785e-06
threshold=2.6000000000000001 2.5500000000000003 1.3500000000000003 5.5500000000000007 4.4500000000000011 1.4500000000000002 4.9500000000000011
decision_type=2 2 2 2 2 2 2
left_child=2 -2 -1 4 -3 -4 -6
right_child=1 3 5 -5 6 -7 -8
leaf_value=0.14139908681154387 -0.14075888795716945 -0.13681229097894979 0.13937152727683513 -0.13664623950775645 -0.13889876386851421 0.14049368702534526 -0.13790684985682028
leaf_weight=0.66728984192013774 0.75539384782314334 0.47063478454947505 0.60269727930426575 0.48763197101652611 0.62746488116681554 0.85732946544885635 0.5398614015430212
leaf_count=9 13 13 10 14 12 13 12
internal_value=0 -0.138479 0.14046 -0.137668 -0.137972 0.14003 -0.13844
internal_weight=0 2.88099 2.12732 2.12559 1.63796 1.46003 1.16733
internal_count=96 64 32 51 37 23 24
is_linear=0
shrinkage=0.2


Tree=34
num_leaves=8
num_cat=0
split_feature=3 0 0 0 0 3 0
split_gain=1.27192 1.15069 0.0793071 0.0574733 0.0320485 0.0424584 0.00152544
threshold=1.7500000000000002 5.1500000000000012 4.9500000000000011 6.3500000000000005 6.0500000000000007 1.2500000000000002 6.3500000000000005
decision_type=2 2 2 2 2 2 2
left_child=1 2 -1 4 5 -3 -2
right_child=6 3 -4 -5 -6 -7 -8
leaf_value=-0.13200677361486179 -0.14928220605740453 0.062755689163834769 -0.040781926917037109 0.13545920898450123 0.055204740730378024 0.11777557336769494 -0.13749649602496045
leaf_weight=1.0091424975544212 0.99080038443207719 0.88935732468962747 0.61259634979069222 1.2168673351407049 1.0225525125861166 1.519671745598316 0.78917126730084419
leaf_count=16 8 15 13 8 6 11 19
internal_value=0 0.0475076 -0.0975475 0.098114 0.0848711 0.0974635 -0.144057
internal_weight=0 6.27019 1.62174 4.64845 3.43158 2.40903 1.77997
internal_count=96 69 29 40 32 26 27
is_linear=0
shrinkage=0.2


Tree=35
num_leaves=9
num_cat=0
split_feature=2 2 0 0 0 2 2 0
split_gain=1.52178 0.478934 0.236969 0.0101297 3.56798e-05 2.07228e-05 6.2779e-07 2.44828e-08
threshold=4.4500000000000011 4.9500000000000011 6.0500000000000007 6.6500000000000012 5.7500000000000009 2.6000000000000001 1.3500000000000003 5.0500000000000007
decision_type=2 2 2 2 2 2 2 2
left_child=4 -2 -3 -4 5 6 -1 -8
right_child=1 2 3 -5 -6 -7 7 -9
leaf_value=-0.13670375503472879 -0.0057676282500117816 0.042448180205550363 0.17027025439448151 0.14153788444477819 -0.1389561338275091 -0.1379091658913536 -0.13637658786471124 -0.13630136987578312
leaf_weight=0.26873291283845924 2.4495334029197693 1.2429348826408388 0.83460115641355548 1.1915219910442827 0.49919908121228207 0.63714597187936306 0.40970306098461151 0.2997171264141798
leaf_count=8 14 6 6 16 9 14 13 10
internal_value=0 0.0610964 0.111198 0.153373 -0.137478 -0.137022 -0.136443 -0.136345
internal_weight=0 5.71859 3.26906 2.02612 2.1145 1.6153 0.978153 0.70942
internal_count=96 42 28 22 54 45 31 23
is_linear=0
shrinkage=0.2


Tree=36
num_leaves=8
num_cat=0
split_feature=3 3 0 0 3 0 3
split_gain=1.75247 0.0263916 0.000156695 1.93026e-05 1.30155e-05 6.28415e-06 1.33045e-06
threshold=0.50000000000000011 1.0500000000000003 5.5500000000000007 6.3500000000000005 1.7500000000000002 4.9500000000000011 1.8500000000000003
decision_type=2 2 2 2 2 2 2
left_child=5 -2 -3 4 -4 -1 -5
right_child=1 2 3 6 -6 -7 -8
leaf_value=0.1384414217274442 -0.082142664256524042 -0.1416061925761673 -0.13679299498568728 -0.136366019144431 -0.13829244635426013 0.13923184867114047 -0.13583646967630988
leaf_weight=0.71262942999601342 0.41285834647715125 0.32547730207443271 0.55158051103353478 0.34410192631185055 0.39910003170371056 0.92398727312684059 0.42315459810197353
leaf_count=14 8 6 16 11 8 17 16
internal_value=0 -0.128264 -0.137583 -0.13682 -0.137422 0.138888 -0.136074
internal_weight=0 2.45627 2.04341 1.71794 0.950681 1.63662 0.767257
internal_count=96 65 57 51 24 31 27
is_linear=0
shrinkage=0.2


Tree=37
num_leaves=8
num_cat=0
split_feature=2 2 1 2 1 1 2
split_gain=0.570186 0.929994 0.36905 0.734525 0.283194 0.0073565 1.65443e-06
threshold=4.9500000000000011 2.6000000000000001 2.8500000000000001 4.4500000000000011 2.7500000000000004 2.9500000000000006 1.4500000000000002
decision_type=2 2 2 2 2 2 2
left_child=1 6 3 -3 -2 -6 -1
right_child=4 2 -4 -5 5 -7 -8
leaf_value=-0.13617760103299867 -0.0045832270645296746 0.1422276139610841 0.15457690023248383 -0.081041713839873422 -0.17160867817759495 -0.13845689440901535 -0.13671192176295291
leaf_weight=0.54498783871531475 0.98175434023141894 1.197708744555712 1.7010676264762876 1.160471051931381 0.46176917292177655 0.63720798119902611 0.40334684401750565
leaf_count=19 6 15 16 5 5 17 13
internal_value=0 0.0419142 0.0835737 0.0323558 -0.0826484 -0.152387 -0.136405
internal_weight=0 5.00758 4.05925 2.35818 2.08073 1.09898 0.948335
internal_count=96 68 36 20 28 22 32
is_linear=0
shrinkage=0.2


Tree=38
num_leaves=10
num_cat=0
split_feature=2 0 2 2 2 0 2 0 0
split_gain=1.17046 0.397997 0.743575 0.156926 2.47957e-05 1.46811e-05 3.13003e-06 2.38525e-07 1.39428e-08
threshold=4.4500000000000011 5.8500000000000005 4.9500000000000011 5.1500000000000012 2.6000000000000001 6.9500000000000011 1.3500000000000003 5.6500000000000012 5.0500000000000007
decision_type=2 2 2 2 2 2 2 2 2
left_child=4 -2 -3 -4 6 -5 -1 -6 -8
right_child=1 2 3 5 7 -7 8 -9 -10
leaf_value=-0.13647082080782263 0.15344921012310853 -0.083267711555206902 0.035164919415042926 0.13976287069520393 -0.13754449057097012 0.14109676761644444 -0.13565720306915358 -0.13733668530762841 -0.13559249276311899
leaf_weight=0.26199397444725014 1.243744760751724 1.5608214139938357 0.99123793840408359 0.69811042025685288 0.41471686959266663 0.62600304558873177 0.31586351990699768 0.47286728955805302 0.23029348440468311
leaf_count=9 8 10 3 11 10 10 13 12 10
internal_value=0 0.0550086 0.023422 0.0953435 -0.136704 0.140393 -0.135903 -0.137434 -0.13563
internal_weight=0 5.11992 3.87617 2.31535 1.69574 1.32411 0.808151 0.887584 0.546157
internal_count=96 42 34 24 54 21 32 22 23
is_linear=0
shrinkage=0.2


Tree=39
num_leaves=7
num_cat=0
split_feature=2 0 0 2 0 2
split_gain=1.48724 0.000182468 1.31521e-05 2.01728e-05 7.45365e-06 7.53723e-07
threshold=2.6000000000000001 5.1500000000000012 6.3500000000000005 4.4500000000000011 4.9500000000000011 5.3500000000000005
decision_type=2 2 2 2 2 2
left_child=4 -2 3 -3 -1 -4
right_child=1 2 5 -5 -6 -7
leaf_value=0.1372182704362945 -0.14165455155707068 -0.13550170776487866 -0.13570329309884968 -0.13732856555836279 0.13817507436501492 -0.13524486324249979
leaf_weight=0.55122262984514259 0.28742232918739308 0.39505347795784451 0.24436650425195683 0.62316390685737133 0.79592027142643929 0.34740914776921272
leaf_count=14 4 17 10 16 18 17
internal_value=0 -0.137013 -0.136184 -0.13662 0.137784 -0.135434
internal_weight=0 1.89742 1.60999 1.01822 1.34714 0.591776
internal_count=96 64 60 33 32 27
is_linear=0
shrinkage=0.2


Tree=40
num_leaves=8
num_cat=0
split_feature=3 0 0 0 0 0 3
split_gain=0.864045 0.758832 0.0563691 0.0379579 0.016334 0.00376341 0.000223821
threshold=1.7500000000000002 5.1500000000000012 4.9500000000000011 6.3500000000000005 6.0500000000000007 5.6500000000000012 1.9500000000000002
decision_type=2 2 2 2 2 2 2
left_child=1 2 -1 4 5 -3 -2
right_child=6 3 -4 -5 -6 -7 -8
leaf_value=-0.12589507404105679 -0.14509345888523281 0.10051836186474179 -0.035322400824052573 0.12550566547726844 0.055558168166991696 0.081855273104969845 -0.1397362692512196
leaf_weight=0.76980850286781766 0.6116663012653587 0.69689182378351766 0.42749133706092834 0.91063247248530377 0.86136286705732334 1.1378436386585233 0.63663692772388458
leaf_count=16 9 14 13 8 6 12 18
internal_value=0 0.0444042 -0.0935564 0.090202 0.0782778 0.0889441 -0.142361
internal_weight=0 4.80403 1.1973 3.60673 2.6961 1.83474 1.2483
internal_count=96 69 29 40 32 26 27
is_linear=0
shrinkage=0.2


Tree=41
num_leaves=9
num_cat=0
split_feature=2 1 2 1 2 1 2 1
split_gain=0.858316 0.370208 0.577984 1.05036e-05 1.02252e-05 1.40723e-06 1.2114e-06 1.82608e-07
threshold=4.4500000000000011 2.6500000000000008 5.1500000000000012 3.0500000000000003 2.6000000000000001 2.4500000000000006 1.3500000000000003 3.4500000000000006
decision_type=2 2 2 2 2 2 2 2
left_child=4 -2 -3 -4 6 -6 -1 -8
right_child=1 2 3 -5 5 -7 7 -9
leaf_value=-0.13573690911416844 0.14404005413362805 -0.04116372553210379 0.1393795953452695 0.13810159975860589 -0.13679599293762085 -0.13621222261701924 -0.13502417042757098 -0.13528719563014577
leaf_weight=0.20231080241501309 1.1817510724067686 2.333606887608767 0.50098653882741906 0.52872686833143234 0.28004747629165649 0.40267416462302208 0.23435699567198753 0.19214446656405926
leaf_count=9 4 17 10 11 8 14 13 10
internal_value=0 0.0477451 0.0139105 0.138723 -0.135916 -0.136452 -0.135334 -0.135143
internal_weight=0 4.54507 3.36332 1.02971 1.31153 0.682722 0.628812 0.426501
internal_count=96 42 38 21 54 22 32 23
is_linear=0
shrinkage=0.2


Tree=42
num_leaves=7
num_cat=0
split_feature=2 0 0 2 0 2
split_gain=1.2097 0.000132571 1.07922e-05 1.52047e-05 7.47838e-06 4.24657e-07
threshold=2.6000000000000001 5.1500000000000012 6.3500000000000005 4.7500000000000009 4.9500000000000011 5.3500000000000005
decision_type=2 2 2 2 2 2
left_child=4 -2 3 -3 -1 -4
right_child=1 2 5 -5 -6 -7
leaf_value=0.13630759617950025 -0.14067016804196361 -0.13529596982978317 -0.1351831914722855 -0.13698157402079911 0.13737844338744468 -0.13479272969500306
leaf_weight=0.42741377465426944 0.2614651471376418 0.41843859292566754 0.19123166706413031 0.43823937140405178 0.66944429650902748 0.26693423930555582
leaf_count=14 4 21 10 12 18 17
internal_value=0 -0.136557 -0.135739 -0.136158 0.136961 -0.134956
internal_weight=0 1.57631 1.31484 0.856678 1.09686 0.458166
internal_count=96 64 60 33 32 27
is_linear=0
shrinkage=0.2


Tree=43
num_leaves=9
num_cat=0
split_feature=1 2 2 1 2 2 1 1
split_gain=0.473975 0.461852 0.249183 0.10922 0.70633 0.00793784 2.77482e-05 1.40837e-06
threshold=2.2500000000000004 2.6000000000000001 4.4500000000000011 2.7500000000000004 4.9500000000000011 5.1500000000000012 3.0500000000000003 3.4500000000000006
decision_type=2 2 2 2 2 2 2 2
left_child=-1 7 -3 -4 -5 -6 -7 -2
right_child=1 2 3 4 5 6 -8 -9
leaf_value=-0.18157452379909444 -0.13516803693646459 0.13891372133696656 0.066710659648626783 0.088064578956919881 -0.17737660672365096 -0.13835245136238394 -0.13520276717195934 -0.13577036627057895
leaf_weight=0.48919805884361256 0.34702776465564955 0.94459102861583222 1.350384768098593 1.229136757552624 0.34019437059760083 0.24064667150378227 0.20909601822495461 0.28102135565131903
leaf_count=3 19 20 8 11 2 9 11 13
internal_value=0 0.0248026 0.0481307 0.0226807 -0.00676723 -0.154325 -0.136888 -0.135438
internal_weight=0 4.9421 4.31405 3.36946 2.01907 0.789937 0.449743 0.628049
internal_count=96 93 61 41 33 22 20 32
is_linear=0
shrinkage=0.2


Tree=44
num_leaves=9
num_cat=0
split_feature=1 0 1 0 1 1 1 1
split_gain=0.363351 0.184009 0.717461 1.07297 0.322222 0.0897303 3.18478e-05 7.32369e-07
threshold=2.3500000000000001 6.0500000000000007 2.5500000000000003 5.8500000000000005 2.8500000000000001 3.0500000000000003 3.0500000000000003 3.4500000000000006
decision_type=2 2 2 2 2 2 2 2
left_child=-1 2 -2 4 -4 -3 -6 -8
right_child=1 5 3 -5 6 -7 7 -9
leaf_value=0.16164023805195366 0.13285441592538913 0.053109571058072957 0.069440983302879941 -0.44021713381569366 -0.13762661865558154 -0.02533629400400186 -0.1344666313156839 -0.13503461721938986
leaf_weight=0.53808587230741967 0.59131900966167483 1.6122933868318798 0.58115661703050114 0.33975704386830319 0.27549093030393124 0.91384409926831711 0.16295979917049408 0.2050859285518527
leaf_count=7 6 20 10 2 10 15 13 13
internal_value=0 -0.0118964 -0.0548169 -0.125752 -0.0385118 0.0247313 -0.136 -0.134783
internal_weight=0 4.68191 2.15577 1.56445 1.22469 2.52614 0.643537 0.368046
internal_count=96 89 54 48 46 35 36 26
is_linear=0
shrinkage=0.2


Tree=45
num_leaves=7
num_cat=0
split_feature=2 2 3 3 3 3
split_gain=0.956505 1.54816e-05 1.82244e-05 1.16194e-05 4.66828e-06 2.09375e-06
threshold=2.6000000000000001 5.1500000000000012 1.5500000000000003 1.0500000000000003 1.4500000000000002 0.25000000000000006
decision_type=2 2 2 2 2 2
left_child=5 2 3 -2 -5 -1
right_child=1 -3 -4 4 -6 -7
leaf_value=0.1359182060497961 -0.13702978613824712 -0.13472487023420254 -0.13757093606751494 -0.13462597079798908 -0.13588000599370931 0.13659168654744805
leaf_weight=0.58151983655989203 0.20224867481738307 0.30403693299740542 0.33044386096298695 0.25050763227045536 0.22574089467525482 0.27054840512573719
leaf_count=23 7 21 9 18 9 9
internal_value=0 -0.135976 -0.136353 -0.13576 -0.13522 0.136132
internal_weight=0 1.31298 1.00894 0.678497 0.476249 0.852068
internal_count=96 64 43 34 27 32
is_linear=0
shrinkage=0.2


Tree=46
num_leaves=8
num_cat=0
split_feature=0 1 1 1 1 0 1
split_gain=0.264569 0.185062 0.413057 0.363209 0.306693 0.018998 2.03604e-08
threshold=4.9500000000000011 2.3500000000000001 2.7500000000000004 2.8500000000000001 3.2500000000000004 6.3500000000000005 3.5500000000000003
decision_type=2 2 2 2 2 2 2
left_child=-1 -2 -3 -4 5 -5 -6
right_child=1 2 3 4 6 -7 -8
leaf_value=-0.11696047387985926 -0.074478568746824722 0.12758050203546054 -0.13926057756054452 0.11090837519721015 -0.13497173116917838 0.061724295320308965 -0.13507057359559535
leaf_weight=0.60892430320382107 0.65455728769302357 1.3846035059541466 0.63547493331134353 0.47336289286613442 0.17035688180476416 0.93388967867940664 0.16323628462851048
leaf_count=16 6 15 7 11 11 20 10
internal_value=0 0.0236674 0.0407489 -0.00984497 0.0373967 0.0782685 -0.13502
internal_weight=0 4.41548 3.76092 2.37632 1.74085 1.40725 0.333593
internal_count=96 80 74 59 52 31 21
is_linear=0
shrinkage=0.2


Tree=47
num_leaves=10
num_cat=0
split_feature=2 0 2 0 0 2 2 2 2
split_gain=0.572723 0.299376 0.375602 0.381649 0.0037171 1.22107e-05 3.38748e-06 4.89967e-07 3.57428e-08
threshold=4.4500000000000011 5.8500000000000005 4.9500000000000011 6.0500000000000007 6.6500000000000012 2.6000000000000001 4.0500000000000007 1.3500000000000003 1.4500000000000002
decision_type=2 2 2 2 2 2 2 2 2
left_child=5 -2 -3 -4 -5 7 -7 -1 -9
right_child=1 2 3 4 -6 6 -8 8 -10
leaf_value=-0.1348737764441022 0.13620082033105513 -0.073944615764665253 -0.041143585243438724 0.16164809946212499 0.13723871418876463 -0.13648320085295304 -0.13548776957303466 -0.13430105021908217 -0.13445410087668822
leaf_weight=0.12607997842133034 0.96129649877548251 1.2835030145943167 0.7288163900375364 0.48971066996455193 0.50883886031806469 0.29929032735526562 0.25178747996687889 0.10419698059558868 0.14734296593815088
leaf_count=9 8 10 2 6 16 10 12 10 13
internal_value=0 0.0390287 0.00800398 0.0688951 0.14921 -0.135428 -0.136028 -0.134552 -0.134391
internal_weight=0 3.97217 3.01087 1.72737 0.99855 0.928698 0.551078 0.37762 0.25154
internal_count=96 42 34 24 22 54 22 32 23
is_linear=0
shrinkage=0.2


Tree=48
num_leaves=8
num_cat=0
split_feature=3 3 0 3 3 0 3
split_gain=0.689576 0.00992351 1.09948e-05 1.27674e-05 1.92395e-06 9.07318e-07 1.18465e-07
threshold=0.50000000000000011 1.0500000000000003 6.3500000000000005 1.5500000000000003 1.3500000000000003 4.9500000000000011 1.8500000000000003
decision_type=2 2 2 2 2 2 2
left_child=5 -2 3 4 -3 -1 -4
right_child=1 2 6 -5 -6 -7 -8
leaf_value=0.13514660786112512 -0.088484434947579169 -0.13443798254511066 -0.13455194041308066 -0.13682379298350875 -0.13545123418082056 0.1356345050343972 -0.13430150311421496
leaf_weight=0.26009536348283302 0.22549412585794903 0.14161486551165581 0.1387532651424408 0.29636991582810879 0.15925191901624203 0.36842627637088299 0.16587249003350735
leaf_count=14 8 12 11 10 8 17 16
internal_value=0 -0.126011 -0.135393 -0.135892 -0.134974 0.135433 -0.134416
internal_weight=0 1.12736 0.901862 0.597237 0.300867 0.628522 0.304626
internal_count=96 65 57 30 20 31 27
is_linear=0
shrinkage=0.2


Tree=49
num_leaves=10
num_cat=0
split_feature=2 0 0 0 2 2 2 0 2
split_gain=0.233567 0.339503 0.192845 0.119163 0.0873226 0.181049 0.13426 0.00134245 3.23462e-05
threshold=4.9500000000000011 4.9500000000000011 6.0500000000000007 6.3500000000000005 4.7500000000000009 3.6000000000000005 1.6500000000000001 6.4500000000000011 4.2500000000000009
decision_type=2 2 2 2 2 2 2 2 2
left_child=1 -1 -2 4 5 6 -3 -4 -7
right_child=2 3 7 -5 -6 8 -8 -9 -10
leaf_value=-0.104988505951709 -0.0018082111061352376 -0.13494533758959765 -0.15531405832545128 0.15023888585950018 -0.0090863822123664392 0.13643231932619043 0.093764415642064433 -0.13631469090263021 0.13904976558722257
leaf_weight=0.53999709896743331 0.97411643154919125 0.21768134459853195 0.31113061029464006 0.57064330577850331 0.7158716246485709 0.39531278796494007 0.19431690406054258 0.28504261840134859 0.36160760000348091
leaf_count=16 6 15 5 7 4 13 6 17 7
internal_value=0 0.0385903 -0.0566391 0.070166 0.045923 0.0796119 -0.0270755 -0.14623 0.137683
internal_weight=0 2.99543 1.57029 2.45543 1.88479 1.16892 0.411998 0.596173 0.75692
internal_count=96 68 28 52 45 41 21 22 20
is_linear=0
shrinkage=0.2


Tree=50
num_leaves=8
num_cat=0
split_feature=3 0 3 3 0 0 3
split_gain=0.888893 0.24995 0.0906079 0.001311 0.000298989 1.68593e-05 3.0757e-06
threshold=1.7500000000000002 4.9500000000000011 1.4500000000000002 1.8500000000000003 6.0500000000000007 5.8500000000000005 0.50000000000000011
decision_type=2 2 2 2 2 2 2
left_child=1 -1 5 -2 -5 6 -3
right_child=3 2 -4 4 -6 -7 -8
leaf_value=0.076844473064582461 0.15272779247291679 -0.13422836722901638 -0.053073441663877167 0.14320930304728302 0.13574285611316583 -0.13693243659935678 -0.13534293637828984
leaf_weight=0.50691428175196085 0.46409077756106831 0.14682807447388802 1.8571265824139116 0.43575303629040718 0.4225674569606781 0.29112246260046959 0.30425550881773233
leaf_count=16 5 17 11 5 17 9 16
internal_value=0 -0.0516256 -0.0766795 0.144164 0.139533 -0.135746 -0.13498
internal_weight=0 3.10625 2.59933 1.32241 0.85832 0.742206 0.451084
internal_count=96 69 53 27 22 42 33
is_linear=0
shrinkage=0.2


Tree=51
num_leaves=7
num_cat=0
split_feature=2 3 2 3 3 3
split_gain=0.621838 1.11065e-05 4.83009e-06 9.02882e-06 1.97426e-06 8.402e-07
threshold=2.6000000000000001 1.0500000000000003 5.1500000000000012 1.5500000000000003 1.4500000000000002 0.25000000000000006
decision_type=2 2 2 2 2 2
left_child=5 -2 3 4 -3 -1
right_child=1 2 -4 -5 -6 -7
leaf_value=0.13498301835222262 -0.13686403397565375 -0.13415386890266143 -0.13414393802184907 -0.13631504592217311 -0.1351572656266605 0.13551121097253313
leaf_weight=0.37595100048929453 0.16490476112812757 0.15816459571942687 0.17906210152432323 0.22342216689139605 0.15560297202318907 0.17726399190723896
leaf_count=23 7 18 21 9 9 9
internal_value=0 -0.135384 -0.135044 -0.135343 -0.134651 0.135152
internal_weight=0 0.881157 0.716252 0.53719 0.313768 0.553215
internal_count=96 64 57 36 27 32
is_linear=0
shrinkage=0.2


Tree=52
num_leaves=11
num_cat=0
split_feature=2 0 0 2 2 0 2 2 0 2
split_gain=0.189128 0.253441 0.169127 0.141348 0.218497 0.0780025 0.0935282 0.0318011 0.00163653 4.49486e-07
threshold=4.9500000000000011 5.1500000000000012 6.0500000000000007 4.4500000000000011 2.6000000000000001 6.3500000000000005 4.7500000000000009 4.0500000000000007 6.3500000000000005 1.4500000000000002
decision_type=2 2 2 2 2 2 2 2 2 2
left_child=1 3 -2 4 9 6 7 -3 -4 -1
right_child=2 5 8 -5 -6 -7 -8 -9 -10 -11
leaf_value=-0.13411785409491314 -0.0028365311522500465 0.048899595879445562 -0.1588828693848201 -0.17552752220457427 0.14249785736227821 0.14744808315187521 -0.00077807418845709283 0.13707609449362956 -0.13595230537795208 -0.13469056784242592
leaf_weight=0.12948392843827639 0.9503419157117603 0.26126267947256543 0.2213142616674304 0.27390006184577942 0.23166165128350258 0.47194291092455376 0.66210194677114487 0.43768997211009264 0.28457905165851116 0.095055639743804932
leaf_count=16 6 14 2 1 3 7 4 14 20 9
internal_value=0 0.0376924 -0.0525656 -0.061957 0.00622989 0.0773838 0.0530892 0.104116 -0.145984 -0.13436
internal_weight=0 2.5631 1.45624 0.730101 0.456201 1.833 1.36105 0.698953 0.505893 0.22454
internal_count=96 68 28 29 28 39 32 28 22 25
is_linear=0
shrinkage=0.2


Tree=53
num_leaves=9
num_cat=0
split_feature=2 2 0 0 2 0 2 2
split_gain=0.381358 0.11476 0.169491 0.0015076 9.34914e-06 7.17389e-06 1.57593e-07 4.58559e-09
threshold=4.4500000000000011 4.9500000000000011 6.0500000000000007 6.4500000000000011 2.6000000000000001 5.5500000000000007 1.3500000000000003 1.4500000000000002
decision_type=2 2 2 2 2 2 2 2
left_child=4 -2 -3 -4 6 -6 -1 -8
right_child=1 2 3 -5 5 -7 7 -9
leaf_value=-0.13436697402553358 -0.0052097961083833952 0.017158539541116399 0.15498208413826053 0.13640056825960584 -0.13660003120127923 -0.13488514850345457 -0.13399262709052692 -0.13406057506685007
leaf_weight=0.085615067742765283 1.5702992714941504 1.0066688619554041 0.33549912273883808 0.36431313771754503 0.18950442969799042 0.20114898588508368 0.069056275766342878 0.093546210322529078
leaf_count=9 14 6 5 17 8 14 10 13
internal_value=0 0.0338079 0.0697118 0.145309 -0.135107 -0.135717 -0.134147 -0.134032
internal_weight=0 3.27678 1.70648 0.699812 0.638871 0.390653 0.248218 0.162602
internal_count=96 42 28 22 54 22 32 23
is_linear=0
shrinkage=0.2


Tree=54
num_leaves=8
num_cat=0
split_feature=2 0 0 2 0 0 2
split_gain=0.493619 2.16362e-05 1.85407e-06 2.99341e-06 4.22915e-07 2.25543e-08 2.21197e-08
threshold=2.6000000000000001 5.1500000000000012 6.3500000000000005 4.7500000000000009 4.9500000000000011 5.6500000000000012 5.3500000000000005
decision_type=2 2 2 2 2 2 2
left_child=4 -2 3 5 -1 -3 -4
right_child=1 2 6 -5 -6 -7 -8
leaf_value=0.13453431975326116 -0.13722926654586706 -0.13418014055216262 -0.13405224148425024 -0.1352254669515803 0.13493633485041656 -0.13403174262229542 -0.13390956620201974
leaf_weight=0.17312544118613005 0.1460999883711338 0.076156894210726023 0.073828035965561867 0.2219433207064867 0.26472268160432577 0.088659689761698246 0.1056863684207201
leaf_count=14 4 9 10 12 18 12 17
internal_value=0 -0.135059 -0.134499 -0.134746 0.134777 -0.1341 -0.133968
internal_weight=0 0.712374 0.566274 0.38676 0.437848 0.164817 0.179514
internal_count=96 64 60 33 32 21 27
is_linear=0
shrinkage=0.2


Tree=55
num_leaves=10
num_cat=0
split_feature=3 2 2 3 2 2 2 3 2
split_gain=0.516375 0.0877858 0.228945 0.272312 0.338369 0.000551553 5.5685e-05 2.31392e-05 1.70997e-07
threshold=1.7500000000000002 4.9500000000000011 4.5500000000000007 1.5500000000000003 2.6000000000000001 4.9500000000000011 5.1500000000000012 1.0500000000000003 1.4500000000000002
decision_type=2 2 2 2 2 2 2 2 2
left_child=1 2 3 4 8 -2 -7 -6 -1
right_child=5 -3 -4 -5 7 6 -8 -9 -10
leaf_value=-0.13405581743319947 -0.14770207750758652 -0.0050770861735403277 0.16107234734093911 -0.16914282979538703 0.13872566275724815 -0.13903709093959907 -0.13418215847761844 0.13636146934012078 -0.13438741327606069
leaf_weight=0.13192086806520886 0.36954780668020237 0.95844361931085575 0.68910687044262875 0.25033465027809143 0.27272072806954384 0.21135339513421059 0.17092280276119709 0.42156179063022137 0.11771092284470797
leaf_count=19 3 4 7 1 7 4 20 18 13
internal_value=0 0.0441981 0.0692744 0.016305 0.0654874 -0.142192 -0.136866 0.13729 -0.134212
internal_weight=0 2.8418 1.88336 1.19425 0.943914 0.751824 0.382276 0.694283 0.249632
internal_count=96 69 65 58 57 27 24 25 32
is_linear=0
shrinkage=0.2


Tree=56
num_leaves=9
num_cat=0
split_feature=3 0 3 0 0 3 3 3
split_gain=0.647982 0.181282 0.403505 0.21341 0.5855 0.000751369 7.52025e-06 7.9936e-07
threshold=1.7500000000000002 4.9500000000000011 1.5500000000000003 6.0500000000000007 5.8500000000000005 1.8500000000000003 1.2500000000000002 0.50000000000000011
decision_type=2 2 2 2 2 2 2 2
left_child=1 -1 3 4 6 -2 7 -3
right_child=5 2 -4 -5 -6 -7 -8 -9
leaf_value=0.071526175377724308 0.15006063258954036 -0.13385814823711348 -0.24493422432957065 -0.093467547964555253 0.21431384665187339 0.13867966496034681 -0.13617757864378585 -0.13464649010344779
leaf_weight=0.42126287706196386 0.37498225551098574 0.086403003428131564 0.43046642839908589 0.91005471255630255 0.40693968813866377 0.60868486762046814 0.14935097191482782 0.12717432668432593
leaf_count=16 5 17 2 13 3 22 8 10
internal_value=0 -0.048261 -0.0721721 -0.0279033 0.0495997 0.143018 -0.135089 -0.134328
internal_weight=0 2.53165 2.11039 1.67992 0.769868 0.983667 0.362928 0.213577
internal_count=96 69 53 51 38 27 35 27
is_linear=0
shrinkage=0.2


Tree=57
num_leaves=8
num_cat=0
split_feature=2 2 3 2 3 3 2
split_gain=0.393108 2.86331e-06 2.69086e-06 3.51383e-06 7.35253e-07 1.9524e-07 5.66512e-10
threshold=2.6000000000000001 5.1500000000000012 1.5500000000000003 3.6000000000000005 1.4500000000000002 0.25000000000000006 5.7500000000000009
decision_type=2 2 2 2 2 2 2
left_child=5 2 3 -2 -5 -1 -3
right_child=1 6 -4 4 -6 -7 -8
leaf_value=0.13437660313571539 -0.13575442151878778 -0.13383598767904784 -0.1356239688838855 -0.1338475629209061 -0.13458751359007523 0.13469598559164239 -0.1338067538499059
leaf_weight=0.23984209913760424 0.078790392260998487 0.058284960221499205 0.16307938657701015 0.11477660876698792 0.10096552316099405 0.11245946073904634 0.048645462840795517
leaf_count=23 4 11 9 21 9 9 10
internal_value=0 -0.134754 -0.134972 -0.134611 -0.134194 0.134479 -0.133823
internal_weight=0 0.564542 0.457612 0.294533 0.215742 0.352302 0.10693
internal_count=96 64 43 34 30 32 21
is_linear=0
shrinkage=0.2


Tree=58
num_leaves=8
num_cat=0
split_feature=2 0 0 2 2 2 2
split_gain=0.10213 0.169695 0.0651107 0.0383212 0.0937273 0.0604883 4.02814e-06
threshold=4.9500000000000011 4.9500000000000011 6.3500000000000005 4.7500000000000009 3.6000000000000005 1.6500000000000001 4.2500000000000009
decision_type=2 2 2 2 2 2 2
left_child=1 -1 3 4 5 -3 -6
right_child=-2 2 -4 -5 6 -7 -8
leaf_value=-0.088846451861451611 -0.039452252473632841 -0.1341588498174798 0.14298241101036635 0.0036577145894920631 0.13497351821675652 0.08051517153009044 0.13626793334429171
leaf_weight=0.35975475981831584 1.2751330793835221 0.10865679383277871 0.32773937936872233 0.54728947579860687 0.19971831329166889 0.10158714698627591 0.18546942342072725
leaf_count=16 28 15 7 4 13 6 7
internal_value=0 0.0342758 0.0643982 0.0418598 0.0769732 -0.0304311 0.135597
internal_weight=0 1.83022 1.47046 1.14272 0.595432 0.210244 0.385188
internal_count=96 68 52 45 41 21 20
is_linear=0
shrinkage=0.2


Tree=59
num_leaves=10
num_cat=0
split_feature=2 0 2 0 0 2 0 2 0
split_gain=0.237574 0.163374 0.124892 0.225192 0.00119303 3.43135e-06 2.31993e-06 6.16727e-08 8.53252e-09
threshold=4.4500000000000011 5.8500000000000005 4.9500000000000011 6.0500000000000007 6.3500000000000005 2.6000000000000001 5.5500000000000007 1.3500000000000003 4.9500000000000011
decision_type=2 2 2 2 2 2 2 2 2
left_child=5 -2 -3 -4 -5 7 -7 -1 -9
right_child=1 2 3 4 -6 6 -8 8 -10
leaf_value=-0.13404220185115168 0.11984079666425462 -0.059592250725583953 -0.029427114004745836 0.15594306302178437 0.13615628840411004 -0.13567490102857571 -0.13447259457175767 -0.13385106692808521 -0.13373532750863021
leaf_weight=0.058316949754953717 0.59367528185248408 0.82332086190581355 0.73608645796775796 0.2101092142984271 0.29029024578630924 0.12397318333387375 0.13313572783954442 0.044775324873626232 0.059119182638823986
leaf_count=9 8 10 2 2 20 8 14 8 15
internal_value=0 0.0274025 0.00076001 0.0409459 0.144464 -0.134598 -0.135052 -0.133878 -0.133785
internal_weight=0 2.65348 2.05981 1.23649 0.500399 0.41932 0.257109 0.162211 0.103895
internal_count=96 42 34 24 22 54 22 32 23
is_linear=0
shrinkage=0.2


Tree=60
num_leaves=7
num_cat=0
split_feature=3 3 0 3 0 3
split_gain=0.280885 0.00412153 1.90717e-06 1.90494e-06 1.05014e-08 8.55094e-09
threshold=0.50000000000000011 1.0500000000000003 6.3500000000000005 1.5500000000000003 5.0500000000000007 1.8500000000000003
decision_type=2 2 2 2 2 2
left_child=4 -2 3 -3 -1 -4
right_child=1 2 5 -5 -6 -7
leaf_value=0.13414409836121838 -0.089185319918186248 -0.13413554079922285 -0.13377549940018363 -0.1352082105309261 0.13422644402405856 -0.13366204790977218
leaf_weight=0.1562010464258492 0.10268433950841427 0.12250634166412055 0.049872093135491014 0.14414171688258648 0.10266216425225139 0.056883568875491619
leaf_count=19 8 20 11 10 12 16
internal_value=0 -0.124671 -0.134429 -0.134715 0.134177 -0.133715
internal_weight=0 0.476088 0.373404 0.266648 0.258863 0.106756
internal_count=96 65 57 30 31 27
is_linear=0
shrinkage=0.2


Tree=61
num_leaves=13
num_cat=0
split_feature=3 3 2 2 2 2 2 2 3 2 2 2
split_gain=0.354628 0.10748 0.82673 0.121558 0.137088 0.00334359 0.000278575 1.53977e-05 1.19089e-05 4.36821e-07 6.04534e-08 6.6135e-09
threshold=1.7500000000000002 1.5500000000000003 4.9500000000000011 3.6000000000000005 2.6000000000000001 4.7500000000000009 4.9500000000000011 5.1500000000000012 1.4500000000000002 4.2500000000000009 1.5500000000000003 1.3500000000000003
decision_type=2 2 2 2 2 2 2 2 2 2 2 2
left_child=1 2 3 4 10 8 -2 -8 9 -5 11 -1
right_child=6 -3 -4 5 -6 -7 7 -9 -10 -11 -12 -13
leaf_value=-0.13384148628320094 -0.14471668474767904 0.10971662707259633 -0.19826934231391219 0.13459103781370471 0.13857710263421305 0.16113506918544432 -0.13703565038505663 -0.13387481194852247 0.13694690257506381 0.1350865273599077 -0.13405483080641217 -0.13374003808709364
leaf_weight=0.043701773276553224 0.29589125514030445 0.62249264121055592 0.51336775720119465 0.13997258711606264 0.14299130067229271 0.37366814911365509 0.14102323353290558 0.10952410497702658 0.17298927996307611 0.1447871383279562 0.046728418674319983 0.062414618674665689
leaf_count=9 3 3 2 12 4 2 4 20 5 9 7 16
internal_value=0 0.0389581 0.0121106 0.107921 -0.00218125 0.147097 -0.140561 -0.135654 0.135638 0.134843 -0.133865 -0.133782
internal_weight=0 2.26311 1.64062 1.12725 0.295836 0.831417 0.546439 0.250547 0.457749 0.28476 0.152845 0.106116
internal_count=96 69 66 64 36 28 27 24 26 21 32 25
is_linear=0
shrinkage=0.2


Tree=62
num_leaves=10
num_cat=0
split_feature=1 0 0 1 1 1 1 1 1
split_gain=0.402072 0.105032 0.589911 0.170747 0.0500439 0.132539 0.0223391 3.94868e-06 3.03304e-09
threshold=2.2500000000000004 6.0500000000000007 5.8500000000000005 2.8500000000000001 2.7500000000000004 2.8500000000000001 3.0500000000000003 3.0500000000000003 3.4500000000000006
decision_type=2 2 2 2 2 2 2 2 2
left_child=-1 2 3 -2 -3 -6 -7 -5 -9
right_child=1 4 -4 7 5 6 -8 8 -10
leaf_value=0.19175418071881478 0.083325202566868276 -0.041714929559014985 -0.27216649156306477 -0.13550335889411894 0.14936118673188684 0.03724247426894603 -0.050224847809491907 -0.13363501910126882 -0.13370932494600221
leaf_weight=0.39467955194413695 0.593260318040848 0.41270432807505109 0.38382979948073626 0.10166230378672481 0.29953947709873319 0.1831758301705122 0.32231033593416214 0.042205484118312597 0.045836851466447115
leaf_count=3 19 4 2 10 4 13 15 13 13
internal_value=0 -0.0261767 -0.0690581 0.030511 0.014911 0.0439408 -0.0185288 -0.134654 -0.133674
internal_weight=0 2.38452 1.16679 0.782965 1.21773 0.805026 0.505486 0.189705 0.0880423
internal_count=96 93 57 55 36 32 28 36 26
is_linear=0
shrinkage=0.2


Tree=63
num_leaves=6
num_cat=0
split_feature=2 1 1 1 1
split_gain=0.247901 2.03223e-06 4.60876e-07 3.54681e-08 2.1673e-09
threshold=2.6000000000000001 2.8500000000000001 2.5500000000000003 3.4500000000000006 3.0500000000000003
decision_type=2 2 2 2 2
left_child=3 2 -2 -1 -3
right_child=1 4 -4 -5 -6
leaf_value=0.13399057768402434 -0.13493806497432101 -0.13365273924638871 -0.13440159920709255 0.13415410847042392 -0.13370670810175458
leaf_weight=0.12505002971738577 0.13309719599783421 0.058535728137940168 0.12348704854957759 0.092142643872648478 0.060555128147825599
leaf_count=19 13 19 17 13 15
internal_value=0 -0.134363 -0.13468 0.13406 -0.13368
internal_weight=0 0.375675 0.256584 0.217193 0.119091
internal_count=96 64 30 32 34
is_linear=0
shrinkage=0.2


Tree=64
num_leaves=7
num_cat=0
split_feature=0 2 2 2 2 2
split_gain=0.0692797 0.103553 0.0626087 0.0398805 0.0246594 5.26723e-06
threshold=4.9500000000000011 4.7500000000000009 3.6000000000000005 1.6500000000000001 4.9500000000000011 4.4500000000000011
decision_type=2 2 2 2 2 2
left_child=-1 2 3 -2 -3 -4
right_child=1 4 5 -5 -6 -7
leaf_value=-0.086018923399288919 -0.13385760390632903 0.025246341833530191 0.13442649831778677 0.079982117039102879 -0.026037410007094183 0.13590820247610455
leaf_weight=0.30099847796373103 0.066054011462256645 0.5745515078306197 0.17904407996684313 0.07393101928755641 1.0800726960878817 0.20682095363736153
leaf_count=16 15 5 18 6 28 8
internal_value=0 0.0163411 0.0936546 -0.0209213 -0.00822965 0.135221
internal_weight=0 2.18047 0.52585 0.139985 1.65462 0.385865
internal_count=96 80 47 21 33 26
is_linear=0
shrinkage=0.2


Tree=65
num_leaves=7
num_cat=0
split_feature=2 0 2 0 0 2
split_gain=0.161256 0.130985 0.0573383 2.62045e-06 2.48711e-07 1.70713e-07
threshold=4.4500000000000011 5.8500000000000005 4.9500000000000011 4.9500000000000011 5.8500000000000005 2.6000000000000001
decision_type=2 2 2 2 2 2
left_child=3 -2 -3 -1 5 -5
right_child=1 2 -4 4 -6 -7
leaf_value=-0.13534351747070192 0.11807631425826136 -0.047862721990146101 0.027153871390474971 -0.13361266727740459 -0.13444809523308621 -0.13408054396189559
leaf_weight=0.095864575356245374 0.46127201244235072 0.66625416558235873 1.0496435509994624 0.045104059274308383 0.051289907656610012 0.10114248422905803
leaf_count=15 8 10 24 18 6 15
internal_value=0 0.0234609 -0.00197381 -0.134486 -0.134069 -0.133936
internal_weight=0 2.17717 1.7159 0.293401 0.197536 0.146247
internal_count=96 42 34 54 39 33
is_linear=0
shrinkage=0.2


Tree=66
num_leaves=8
num_cat=0
split_feature=2 0 0 2 0 2 0
split_gain=0.198665 2.96105e-06 3.76871e-07 4.63645e-07 6.2514e-08 1.29917e-08 1.42505e-10
threshold=2.6000000000000001 4.9500000000000011 6.3500000000000005 4.7500000000000009 5.5500000000000007 1.4500000000000002 6.7500000000000009
decision_type=2 2 2 2 2 2 2
left_child=5 -2 3 4 -3 -1 -4
right_child=1 2 6 -5 -6 -7 -8
leaf_value=0.13385233924589043 -0.13565726432472841 -0.13393716057693683 -0.13359427833971979 -0.13439454963808825 -0.13357618335651106 0.13396356399379514 -0.13361178781917912
leaf_weight=0.095998494885861874 0.050216555595397949 0.038082698825746775 0.033098780084401369 0.11098768841475248 0.038682448444887996 0.074689880013465881 0.042423381586559117
leaf_count=19 2 8 12 12 15 13 15
internal_value=0 -0.13425 -0.133981 -0.134133 -0.133755 0.133901 -0.133604
internal_weight=0 0.313492 0.263275 0.187753 0.0767651 0.170688 0.0755222
internal_count=96 64 62 35 23 32 27
is_linear=0
shrinkage=0.2


Tree=67
num_leaves=6
num_cat=0
split_feature=0 2 2 0 2
split_gain=0.0502014 0.0851261 0.049966 0.016441 3.85464e-06
threshold=4.9500000000000011 4.7500000000000009 3.6000000000000005 6.0500000000000007 4.4500000000000011
decision_type=2 2 2 2 2
left_child=-1 2 -2 -3 -4
right_child=1 3 4 -5 -6
leaf_value=-0.077612006777798503 -0.020124405397007716 0.013586376498920614 0.13416961840511032 -0.026799688948927664 0.1355787577940579
leaf_weight=0.26466958527453277 0.11274128919467363 0.82799714524298884 0.13738034595735371 0.78591976687312126 0.17859072331339121
leaf_count=16 21 7 18 26 8
internal_value=0 0.0149629 0.0941809 -0.00608019 0.134966
internal_weight=0 2.04263 0.428712 1.61392 0.315971
internal_count=96 80 47 33 26
is_linear=0
shrinkage=0.2


Tree=68
num_leaves=10
num_cat=0
split_feature=1 0 0 1 1 1 1 1 1
split_gain=0.257905 0.0984835 0.419321 0.207791 0.116087 0.112976 0.0198341 1.71935e-06 1.27855e-09
threshold=2.2500000000000004 6.0500000000000007 5.8500000000000005 2.6500000000000008 2.8500000000000001 2.8500000000000001 3.0500000000000003 3.0500000000000003 3.4500000000000006
decision_type=2 2 2 2 2 2 2 2 2
left_child=-1 2 5 -3 -5 -2 -6 -7 -9
right_child=1 3 -4 4 6 7 -8 8 -10
leaf_value=0.16371102355163045 0.080701687661566671 -0.15764165252749554 -0.23537718535137617 0.14607278681235725 0.048908657260839782 -0.13505142861736649 -0.042311608125515078 -0.13350986479746174 -0.13357232649175174
leaf_weight=0.34398984815925393 0.46491556474938966 0.20817307336255908 0.37369356025010347 0.3823500070720911 0.15384880756027997 0.071012222208082676 0.25071851257234812 0.024750871700234711 0.027867329772561789
leaf_count=3 19 2 2 6 13 10 15 13 13
internal_value=0 -0.0240665 -0.069688 0.0200489 0.0670555 0.0355153 -0.00762238 -0.134409 -0.133543
internal_weight=0 1.95733 0.96224 0.99509 0.786917 0.588546 0.404567 0.12363 0.0526182
internal_count=96 93 57 36 34 55 28 36 26
is_linear=0
shrinkage=0.2


Tree=69
num_leaves=8
num_cat=0
split_feature=2 2 2 3 2 3 2
split_gain=0.163522 9.06679e-07 2.73905e-07 6.27565e-07 1.29311e-07 3.97189e-08 9.95533e-11
threshold=2.6000000000000001 3.6000000000000005 5.1500000000000012 1.5500000000000003 4.7500000000000009 0.25000000000000006 4.2500000000000009
decision_type=2 2 2 2 2 2 2
left_child=5 -2 3 4 6 -1 -3
right_child=1 2 -4 -5 -6 -7 -8
leaf_value=0.13372675851816326 -0.13496281667463994 -0.13352234640423613 -0.13358680771383363 -0.13450314490565532 -0.13405135032507365 0.13395036971170915 -0.13353972325501429
leaf_weight=0.090545773273333907 0.04516642028465867 0.026114441803656518 0.053849771153181791 0.080839891918003559 0.029968918301165104 0.04895186354406178 0.026642172713764012
leaf_count=23 4 13 21 9 4 9 13
internal_value=0 -0.134147 -0.133978 -0.134107 -0.13372 0.133805 -0.133531
internal_weight=0 0.262582 0.217415 0.163565 0.0827255 0.139498 0.0527566
internal_count=96 64 60 39 30 32 26
is_linear=0
shrinkage=0.2


Tree=70
num_leaves=9
num_cat=0
split_feature=3 0 3 0 0 3 0 3
split_gain=0.261541 0.0761403 0.185161 0.156914 0.163421 0.0217265 0.00453015 0.000134398
threshold=1.7500000000000002 4.9500000000000011 1.5500000000000003 6.0500000000000007 5.8500000000000005 1.0500000000000003 5.0500000000000007 1.8500000000000003
decision_type=2 2 2 2 2 2 2 2
left_child=1 -1 3 4 5 6 -3 -2
right_child=7 2 -4 -5 -6 -7 -8 -9
leaf_value=-0.064397337049728207 -0.14265006725257309 0.046974818946396824 0.16948133102927387 0.090830778733502093 -0.15648408473940634 0.13457087147801955 -0.030971220655797167 -0.13541461329096582
leaf_weight=0.24505964177660677 0.2016203321982174 0.061615561600774305 0.41308054700493801 0.51045018620789051 0.31567304022610188 0.10309796268120408 0.057806896278634667 0.20927655487321317
leaf_count=16 5 8 2 13 3 12 15 22
internal_value=0 0.0387706 0.0560668 0.0113907 -0.0639543 0.0673107 0.00924474 -0.138965
internal_weight=0 1.70678 1.46172 1.04864 0.538193 0.22252 0.119422 0.410897
internal_count=96 69 53 51 38 35 23 27
is_linear=0
shrinkage=0.2


Tree=71
num_leaves=7
num_cat=0
split_feature=2 2 0 2 2 2
split_gain=0.118059 0.0109288 5.85831e-06 8.46708e-08 2.86898e-08 2.76706e-07
threshold=4.4500000000000011 4.9500000000000011 4.9500000000000011 4.0500000000000007 3.6000000000000005 2.6000000000000001
decision_type=2 2 2 2 2 2
left_child=2 -2 -1 4 5 -4
right_child=1 -3 3 -5 -6 -7
leaf_value=-0.13609920332561418 0.0025258888662146144 0.033213982566261291 -0.13349726653150859 -0.13372603745590217 -0.13418769055179836 -0.13438610341116974
leaf_weight=0.079822709318250751 0.82632174436002959 1.0591929503716526 0.026486164540983737 0.044166349340230227 0.040824399329721928 0.029741922859102488
leaf_count=15 14 28 18 12 6 3
internal_value=0 0.019765 -0.13473 -0.133956 -0.13406 -0.133967
internal_weight=0 1.88551 0.221042 0.141219 0.0970525 0.0562281
internal_count=96 42 54 39 27 21
is_linear=0
shrinkage=0.2


end of trees

feature_importances:
Column_2=193
Column_0=136
Column_1=84
Column_3=83

parameters:
[boosting: gbdt]
[objective: multiclass]
[metric: multi_logloss]
[tree_learner: serial]
[device_type: cpu]
[data_sample_strategy: bagging]
[data: ]
[valid: ]
[num_iterations: 10000]
[learning_rate: 0.2]
[num_leaves: 63]
[num_threads: 0]
[seed: 1236]
[deterministic: 0]
[force_col_wise: 0]
[force_row_wise: 0]
[histogram_pool_size: -1]
[max_depth: -1]
[min_data_in_leaf: 10]
[min_sum_hessian_in_leaf: 0.001]
[bagging_fraction: 0.9]
[pos_bagging_fraction: 1]
[neg_bagging_fraction: 1]
[bagging_freq: 0]
[bagging_seed: 21709]
[feature_fraction: 0.5]
[feature_fraction_bynode: 1]
[feature_fraction_seed: 24116]
[extra_trees: 0]
[extra_seed: 15571]
[early_stopping_round: 0]
[early_stopping_min_delta: 0]
[first_metric_only: 0]
[max_delta_step: 0]
[lambda_l1: 0]
[lambda_l2: 0]
[linear_lambda: 0]
[min_gain_to_split: 0]
[drop_rate: 0.1]
[max_drop: 50]
[skip_drop: 0.5]
[xgboost_dart_mode: 0]
[uniform_drop: 0]
[drop_seed: 15722]
[top_rate: 0.2]
[other_rate: 0.1]
[min_data_per_group: 100]
[max_cat_threshold: 32]
[cat_l2: 10]
[cat_smooth: 10]
[max_cat_to_onehot: 4]
[top_k: 20]
[monotone_constraints: ]
[monotone_constraints_method: basic]
[monotone_penalty: 0]
[feature_contri: ]
[forcedsplits_filename: ]
[refit_decay_rate: 0.9]
[cegb_tradeoff: 1]
[cegb_penalty_split: 0]
[cegb_penalty_feature_lazy: ]
[cegb_penalty_feature_coupled: ]
[path_smooth: 0]
[interaction_constraints: ]
[verbosity: -1]
[saved_feature_importance_type: 0]
[use_quantized_grad: 0]
[num_grad_quant_bins: 4]
[quant_train_renew_leaf: 0]
[stochastic_rounding: 1]
[linear_tree: 0]
[max_bin: 255]
[max_bin_by_feature: ]
[min_data_in_bin: 3]
[bin_construct_sample_cnt: 200000]
[data_random_seed: 4074]
[is_enable_sparse: 1]
[enable_bundle: 1]
[use_missing: 1]
[zero_as_missing: 0]
[feature_pre_filter: 1]
[pre_partition: 0]
[two_round: 0]
[header: 0]
[label_column: ]
[weight_column: ]
[group_column: ]
[ignore_column: ]
[categorical_feature: ]
[forcedbins_filename: ]
[precise_float_parser: 0]
[parser_config_file: ]
[objective_seed: 10917]
[num_class: 3]
[is_unbalance: 0]
[scale_pos_weight: 1]
[sigmoid: 1]
[boost_from_average: 1]
[reg_sqrt: 0]
[alpha: 0.9]
[fair_c: 1]
[poisson_max_delta_step: 0.7]
[tweedie_variance_power: 1.5]
[lambdarank_truncation_level: 30]
[lambdarank_norm: 1]
[label_gain: ]
[lambdarank_position_bias_regularization: 0]
[eval_at: ]
[multi_error_top_k: 1]
[auc_mu_weights: ]
[num_machines: 1]
[local_listen_port: 12400]
[time_out: 120]
[machine_list_filename: ]
[machines: ]
[gpu_platform_id: -1]
[gpu_device_id: -1]
[gpu_use_dp: 0]
[num_gpu: 1]

end of parameters

pandas_categorical:null
