tree
version=v4
num_class=3
num_tree_per_iteration=3
label_index=0
max_feature_idx=3
objective=multiclass num_class:3
feature_names=Column_0 Column_1 Column_2 Column_3
feature_infos=[4.2999999999999998:7.7000000000000002] [2:4.4000000000000004] [1:6.7000000000000002] [0.10000000000000001:2.5]
tree_sizes=426 427 445 552 444 551 552 443 447 536 429 448 537 429 446 553 444 448 554 445 449 538 427 447 446 429 446 553 543 448 446 428 447 537 445 449 553 429 448 448 445 448 449 428 448 551 444 449 448 428 448 535 445 449 446 427 448 447 445 449 535 546 550 448 546 546 533 442 448 552 427 548 449 427 547 553 427 447 449 429 547 551 429 650 449 546 651 553 444 548 448 542 449 535 542 654 446 444 654 550 444 449 536 445 656 552 446 449 536 446 448 553 446 653 536 445 548 450 446 550 552 442 555 536 444 548 551 444 548 537 446 550 552 444 556 536 549 550 449 552 550 554 447 549 535 446 555 553 446 550 540 446 551 556 446 550 538 448 550 552 447 550 537 444 551 553 447 551

Tree=0
num_leaves=3
num_cat=0
split_feature=2 0
split_gain=61.0462 0.0902098
threshold=1.8 5.8500000000000005
decision_type=2 2
left_child=-1 -2
right_child=1 -3
leaf_value=-0.9986122886681098 -1.141794106849928 -1.1486122886681098
leaf_weight=10.333333641290663 7.3333335518837002 14.333333760499952
leaf_count=31 22 43
internal_value=-1.09861 -1.1463
internal_weight=0 21.6667
internal_count=96 65
is_linear=0
shrinkage=1


Tree=1
num_leaves=3
num_cat=0
split_feature=2 2
split_gain=15.9883 34.6849
threshold=1.8 4.7500000000000009
decision_type=2 2
left_child=-1 -2
right_child=1 -3
leaf_value=-1.1186342807950069 -0.97579637795710406 -1.1017470410506243
leaf_weight=10.489746093749998 10.151367187500002 11.843261718749998
leaf_count=31 30 35
internal_value=-1.06784 -1.04362
internal_weight=0 21.9946
internal_count=96 65
is_linear=0
shrinkage=1


Tree=2
num_leaves=3
num_cat=0
split_feature=2 0
split_gain=53.1974 3.55271e-15
threshold=4.7500000000000009 5.2500000000000009
decision_type=2 2
left_child=1 -1
right_child=-2 -3
leaf_value=-1.1795917532077194 -1.0445587942892507 -1.1795917532077194
leaf_weight=9.5109052360057884 11.478678733110426 10.494791984558104
leaf_count=29 35 32
internal_value=-1.13036 -1.17959
internal_weight=0 20.0057
internal_count=96 61
is_linear=0
shrinkage=1


Tree=3
num_leaves=4
num_cat=0
split_feature=3 2 0
split_gain=54.1254 0.0858848 1.61797e-06
threshold=0.45000000000000007 4.4500000000000011 6.3500000000000005
decision_type=2 2 2
left_child=-1 -2 -3
right_child=1 2 -4
leaf_value=0.091136288231930221 -0.042068489229715227 -0.048815500018817438 -0.048781450103560831
leaf_weight=10.78492119908333 7.1759438514709499 7.1467228233814222 6.8164059519767761
leaf_count=31 22 22 21
internal_value=0 -0.0465142 -0.0487989
internal_weight=0 21.1391 13.9631
internal_count=96 65 43
is_linear=0
shrinkage=0.05


Tree=4
num_leaves=3
num_cat=0
split_feature=3 2
split_gain=14.7232 30.3053
threshold=0.45000000000000007 4.7500000000000009
decision_type=2 2
left_child=-1 -2
right_child=1 -3
leaf_value=-0.049584086048208888 0.084349443210190223 -0.032701183391121651
leaf_weight=10.237854242324827 10.534880220890047 11.639437973499296
leaf_count=31 30 35
internal_value=0 0.0229088
internal_weight=0 22.1743
internal_count=96 65
is_linear=0
shrinkage=0.05


Tree=5
num_leaves=4
num_cat=0
split_feature=2 0 1
split_gain=47.2237 3.8827e-07 1.20861e-07
threshold=4.7500000000000009 5.6500000000000012 3.2500000000000004
decision_type=2 2 2
left_child=1 2 -1
right_child=-2 -3 -4
leaf_value=-0.04806366202712678 0.078166073355441693 -0.048083396231857922 -0.048073396453626044
leaf_weight=6.376445293426519 11.964320242404936 6.6987305283546439 6.3780766129493713
leaf_count=20 35 21 20
internal_value=0 -0.0480736 -0.0480685
internal_weight=0 19.4533 12.7545
internal_count=96 61 40
is_linear=0
shrinkage=0.05


Tree=6
num_leaves=4
num_cat=0
split_feature=3 2 0
split_gain=48.0732 0.0863576 1.45804e-06
threshold=0.45000000000000007 4.4500000000000011 6.3500000000000005
decision_type=2 2 2
left_child=-1 -2 -3
right_child=1 2 -4
leaf_value=0.083590472621250383 -0.040843477990786477 -0.047699323800660699 -0.047666534792221937
leaf_weight=11.145949542522432 6.9929958581924465 6.945472836494444 6.6237705945968628
leaf_count=31 22 22 21
internal_value=0 -0.0453572 -0.0476833
internal_weight=0 20.5622 13.5692
internal_count=96 65 43
is_linear=0
shrinkage=0.05


Tree=7
num_leaves=3
num_cat=0
split_feature=3 2
split_gain=13.4673 26.5437
threshold=0.45000000000000007 4.7500000000000009
decision_type=2 2
left_child=-1 -2
right_child=1 -3
leaf_value=-0.04834212857504297 0.077678004498758058 -0.031534401637959772
leaf_weight=9.9467275440692884 10.841805428266527 11.428070366382597
leaf_count=31 30 35
internal_value=0 0.0216343
internal_weight=0 22.2699
internal_count=96 65
is_linear=0
shrinkage=0.05


Tree=8
num_leaves=3
num_cat=0
split_feature=2 1
split_gain=42.1567 1.04146e-06
threshold=4.7500000000000009 3.0500000000000003
decision_type=2 2
left_child=1 -1
right_child=-2 -3
leaf_value=-0.046991413160011167 0.071804453863076989 -0.047014984628138995
leaf_weight=8.659244000911718 12.354001790285109 10.212893784046171
leaf_count=28 35 33
internal_value=0 -0.0470042
internal_weight=0 18.8721
internal_count=96 61
is_linear=0
shrinkage=0.05


Tree=9
num_leaves=4
num_cat=0
split_feature=2 0 2
split_gain=43.2115 0.0834232 1.39223e-06
threshold=1.8 5.8500000000000005 5.0500000000000007
decision_type=2 2 2
left_child=-1 -2 -3
right_child=1 2 -4
leaf_value=0.077713354249094743 -0.039857672513770377 -0.046688103851706651 -0.046655575682615733
leaf_weight=11.380401283502581 6.8163112401962307 6.7392214238643628 6.426277756690979
leaf_count=31 22 22 21
internal_value=0 -0.0443476 -0.0466722
internal_weight=0 19.9818 13.1655
internal_count=96 65 43
is_linear=0
shrinkage=0.05


Tree=10
num_leaves=3
num_cat=0
split_feature=2 2
split_gain=12.4422 24.0661
threshold=1.8 4.9500000000000011
decision_type=2 2
left_child=-1 -2
right_child=1 -3
leaf_value=-0.047337237922730806 0.063357554573804167 -0.042660820906169933
leaf_weight=9.6579143106937426 13.280327349901201 8.9672027230262739
leaf_count=31 37 28
internal_value=0 0.0206252
internal_weight=0 22.2475
internal_count=96 65
is_linear=0
shrinkage=0.05


Tree=11
num_leaves=3
num_cat=0
split_feature=2 1
split_gain=37.8174 1.83423e-06
threshold=4.7500000000000009 3.0500000000000003
decision_type=2 2
left_child=1 -1
right_child=-2 -3
leaf_value=-0.046000047467038521 0.066439344541638537 -0.046031842300745578
leaf_weight=8.3805817961692863 12.65413063764572 9.8881677985191327
leaf_count=28 35 33
internal_value=0 -0.0460173
internal_weight=0 18.2687
internal_count=96 61
is_linear=0
shrinkage=0.05


Tree=12
num_leaves=4
num_cat=0
split_feature=2 0 2
split_gain=38.8465 0.083369 2.09146e-05
threshold=1.8 5.8500000000000005 5.0500000000000007
decision_type=2 2 2
left_child=-1 -2 -3
right_child=1 2 -4
leaf_value=0.072534434227751909 -0.038810017201575703 -0.045659652971416498 -0.045787808907781682
leaf_weight=11.537375152111055 6.6332333385944393 6.5021473467349988 6.2375634908676147
leaf_count=31 22 22 21
internal_value=0 -0.0433556 -0.0457224
internal_weight=0 19.3729 12.7397
internal_count=96 65 43
is_linear=0
shrinkage=0.05


Tree=13
num_leaves=3
num_cat=0
split_feature=2 2
split_gain=11.4135 21.6078
threshold=1.8 4.9500000000000011
decision_type=2 2
left_child=-1 -2
right_child=1 -3
leaf_value=-0.046286639661180802 0.059395478752556075 -0.041589822501037238
leaf_weight=9.3406519293785113 13.441795289516451 8.7420997917652112
leaf_count=31 37 28
internal_value=0 0.0195998
internal_weight=0 22.1839
internal_count=96 65
is_linear=0
shrinkage=0.05


Tree=14
num_leaves=3
num_cat=0
split_feature=2 2
split_gain=34.2362 1.543e-05
threshold=4.7500000000000009 1.5500000000000003
decision_type=2 2
left_child=1 -1
right_child=-2 -3
leaf_value=-0.045092192038768519 0.062081859288174994 -0.045185957245657007
leaf_weight=8.0963739156723076 12.861941546201704 9.5780427157878858
leaf_count=28 35 33
internal_value=0 -0.045143
internal_weight=0 17.6744
internal_count=96 61
is_linear=0
shrinkage=0.05


Tree=15
num_leaves=4
num_cat=0
split_feature=3 2 3
split_gain=35.2812 0.0789461 8.07604e-05
threshold=0.45000000000000007 4.4500000000000011 1.8500000000000003
decision_type=2 2 2
left_child=-1 -2 -3
right_child=1 2 -4
leaf_value=0.068438646188198657 -0.038032945124718727 -0.044737444145933856 -0.04499414079723648
leaf_weight=11.590600222349169 6.4628558754920986 6.5477698743343336 5.7590397298336029
leaf_count=31 22 23 20
internal_value=0 -0.0425077 -0.0448576
internal_weight=0 18.7697 12.3068
internal_count=96 65 43
is_linear=0
shrinkage=0.05


Tree=16
num_leaves=3
num_cat=0
split_feature=3 2
split_gain=10.5745 19.5434
threshold=0.45000000000000007 4.9500000000000011
decision_type=2 2
left_child=-1 -2
right_child=1 -3
leaf_value=-0.045461859133258169 0.056152381150875313 -0.04057130749756193
leaf_weight=9.0296253859996813 13.518490672111513 8.5100356340408307
leaf_count=31 37 28
internal_value=0 0.0187862
internal_weight=0 22.0285
internal_count=96 65
is_linear=0
shrinkage=0.05


Tree=17
num_leaves=3
num_cat=0
split_feature=2 2
split_gain=31.0959 4.58033e-05
threshold=4.7500000000000009 1.5500000000000003
decision_type=2 2
left_child=1 -1
right_child=-2 -3
leaf_value=-0.04424368572640186 0.058304273444513825 -0.044408104290080914
leaf_weight=7.8030464649200502 13.000372797250746 9.2654339671134931
leaf_count=28 35 33
internal_value=0 -0.0443329
internal_weight=0 17.0685
internal_count=96 61
is_linear=0
shrinkage=0.05


Tree=18
num_leaves=4
num_cat=0
split_feature=3 0 2
split_gain=31.9844 0.0813038 0.000105698
threshold=0.45000000000000007 5.8500000000000005 5.0500000000000007
decision_type=2 2 2
left_child=-1 -2 -3
right_child=1 2 -4
leaf_value=0.064699468712588831 -0.037038984673620379 -0.043930565437302407 -0.044228901936126615
leaf_weight=11.583617657423021 6.2679949700832394 6.0300330519676191 5.8482632339000702
leaf_count=31 22 22 21
internal_value=0 -0.0416463 -0.0440775
internal_weight=0 18.1463 11.8783
internal_count=96 65 43
is_linear=0
shrinkage=0.05


Tree=19
num_leaves=3
num_cat=0
split_feature=3 2
split_gain=9.72796 17.6659
threshold=0.45000000000000007 4.9500000000000011
decision_type=2 2
left_child=-1 -2
right_child=1 -3
leaf_value=-0.044570296308340182 0.053112830526900703 -0.039605898967943046
leaf_weight=8.6976841688156146 13.551460266113283 8.2740830779075605
leaf_count=31 37 28
internal_value=0 0.0179631
internal_weight=0 21.8255
internal_count=96 65
is_linear=0
shrinkage=0.05


Tree=20
num_leaves=3
num_cat=0
split_feature=2 2
split_gain=28.3131 8.39007e-05
threshold=4.7500000000000009 1.5500000000000003
decision_type=2 2
left_child=1 -1
right_child=-2 -3
leaf_value=-0.043458178166500286 0.054981303642566252 -0.043684861949468141
leaf_weight=7.5053915381431642 13.076810121536253 8.9489509761333448
leaf_count=28 35 33
internal_value=0 -0.0435815
internal_weight=0 16.4543
internal_count=96 61
is_linear=0
shrinkage=0.05


Tree=21
num_leaves=4
num_cat=0
split_feature=2 0 2
split_gain=29.2533 0.0780796 0.000143217
threshold=1.8 5.8500000000000005 5.0500000000000007
decision_type=2 2 2
left_child=-1 -2 -3
right_child=1 2 -4
leaf_value=0.061713434791161093 -0.036343205108540701 -0.043175681910286971 -0.043529493932457253
leaf_weight=11.495459496974947 6.0921073555946377 5.7922069281339628 5.6501342356204987
leaf_count=31 22 22 21
internal_value=0 -0.0409158 -0.0433504
internal_weight=0 17.5344 11.4423
internal_count=96 65 43
is_linear=0
shrinkage=0.05


Tree=22
num_leaves=3
num_cat=0
split_feature=2 2
split_gain=9.04052 16.0628
threshold=1.8 4.9500000000000011
decision_type=2 2
left_child=-1 -2
right_child=1 -3
leaf_value=-0.04390002868615181 0.050595213984495638 -0.03867902423020405
leaf_weight=8.3758980631828326 13.515726625919344 8.0333592891693097
leaf_count=31 37 28
internal_value=0 0.0173144
internal_weight=0 21.5491
internal_count=96 65
is_linear=0
shrinkage=0.05


Tree=23
num_leaves=3
num_cat=0
split_feature=2 2
split_gain=25.8527 0.00012677
threshold=4.7500000000000009 1.5500000000000003
decision_type=2 2
left_child=1 -1
right_child=-2 -3
leaf_value=-0.042732270382086865 0.052062479252610067 -0.04301633680003112
leaf_weight=7.2060105800628689 13.097254693508146 8.6325434446334821
leaf_count=28 35 33
internal_value=0 -0.0428871
internal_weight=0 15.8386
internal_count=96 61
is_linear=0
shrinkage=0.05


Tree=24
num_leaves=3
num_cat=0
split_feature=2 2
split_gain=26.7083 0.000368058
threshold=3.4000000000000004 4.5500000000000007
decision_type=2 2
left_child=-1 -2
right_child=1 -3
leaf_value=0.0552254403659194 -0.043147336322407942 -0.042653188622246874
leaf_weight=12.25233167409897 6.0609703361988094 9.9618448764085752
leaf_count=34 23 39
internal_value=0 -0.0428401
internal_weight=0 16.0228
internal_count=96 62
is_linear=0
shrinkage=0.05


Tree=25
num_leaves=3
num_cat=0
split_feature=2 2
split_gain=8.33463 14.5785
threshold=1.8 4.9500000000000011
decision_type=2 2
left_child=-1 -2
right_child=1 -3
leaf_value=-0.043140612765419827 0.048163291196354839 -0.037792042636635229
leaf_weight=8.0392605066299456 13.447936177253725 7.7907293736934653
leaf_count=31 37 28
internal_value=0 0.0166333
internal_weight=0 21.2387
internal_count=96 65
is_linear=0
shrinkage=0.05


Tree=26
num_leaves=3
num_cat=0
split_feature=2 2
split_gain=23.6571 0.00017135
threshold=4.7500000000000009 1.5500000000000003
decision_type=2 2
left_child=1 -1
right_child=-2 -3
leaf_value=-0.04206024813625301 0.049464079547299589 -0.04239719143500853
leaf_weight=6.9062946736812618 13.068817824125288 8.3172605931758863
leaf_count=28 35 33
internal_value=0 -0.0422443
internal_weight=0 15.2236
internal_count=96 61
is_linear=0
shrinkage=0.05


Tree=27
num_leaves=4
num_cat=0
split_feature=3 3 2
split_gain=24.5436 0.0972877 0.000254938
threshold=0.45000000000000007 1.3500000000000003 5.0500000000000007
decision_type=2 2 2
left_child=-1 -2 -3
right_child=1 2 -4
leaf_value=0.056637146246429619 -0.033707934914524625 -0.041840677271887249 -0.042315870484327306
leaf_weight=11.181802749633791 4.9788622856140163 5.3146069794893247 6.0191814005374908
leaf_count=31 19 22 24
internal_value=0 -0.0395338 -0.042093
internal_weight=0 16.3127 11.3338
internal_count=96 65 46
is_linear=0
shrinkage=0.05


Tree=28
num_leaves=4
num_cat=0
split_feature=3 2 1
split_gain=7.7642 13.3644 0.60925
threshold=0.45000000000000007 5.0500000000000007 2.8500000000000001
decision_type=2 2 2
left_child=-1 2 -2
right_child=1 -3 -4
leaf_value=-0.042556878169409701 0.032779485057171653 -0.043570092517153762 0.053346098662432673
leaf_weight=7.7234185039997127 7.294826954603197 6.4708914160728446 7.1110889315605164
leaf_count=31 21 24 20
internal_value=0 0.0161199 0.0429316
internal_weight=0 20.8768 14.4059
internal_count=96 65 41
is_linear=0
shrinkage=0.05


Tree=29
num_leaves=3
num_cat=0
split_feature=2 2
split_gain=21.684 0.000171201
threshold=4.7500000000000009 1.5500000000000003
decision_type=2 2
left_child=1 -1
right_child=-2 -3
leaf_value=-0.041461251571199093 0.047120657238223985 -0.041805039099545499
leaf_weight=6.6194595694541949 12.997366428375242 7.9953414648771286
leaf_count=28 35 33
internal_value=0 -0.0416493
internal_weight=0 14.6148
internal_count=96 61
is_linear=0
shrinkage=0.05


Tree=30
num_leaves=3
num_cat=0
split_feature=2 2
split_gain=22.6006 0.000394537
threshold=3.4000000000000004 4.5500000000000007
decision_type=2 2
left_child=-1 -2
right_child=1 -3
leaf_value=0.050979944127214849 -0.041989932204017158 -0.0414586574795274
leaf_weight=11.845339238643648 5.6436612755060187 9.1767356842756254
leaf_count=34 23 39
internal_value=0 -0.041661
internal_weight=0 14.8204
internal_count=96 62
is_linear=0
shrinkage=0.05


Tree=31
num_leaves=3
num_cat=0
split_feature=2 2
split_gain=7.20295 12.2262
threshold=1.8 4.9500000000000011
decision_type=2 2
left_child=-1 -2
right_child=1 -3
leaf_value=-0.041980629681463988 0.044354879578665192 -0.036204655716479496
leaf_weight=7.3959378004074123 13.183520734310152 7.327395796775817
leaf_count=31 37 28
internal_value=0 0.0155755
internal_weight=0 20.5109
internal_count=96 65
is_linear=0
shrinkage=0.05


Tree=32
num_leaves=3
num_cat=0
split_feature=2 2
split_gain=19.9344 0.000219228
threshold=4.7500000000000009 1.5500000000000003
decision_type=2 2
left_child=1 -1
right_child=-2 -3
leaf_value=-0.040884762320702574 0.045042378627902065 -0.0412821385088415
leaf_weight=6.3246161937713641 12.892361998558043 7.6921007633209229
leaf_count=28 35 33
internal_value=0 -0.0411028
internal_weight=0 14.0167
internal_count=96 61
is_linear=0
shrinkage=0.05


Tree=33
num_leaves=4
num_cat=0
split_feature=2 1 2
split_gain=20.8068 0.126009 0.000642721
threshold=1.8 3.0500000000000003 4.4500000000000011
decision_type=2 2 2
left_child=-1 2 -2
right_child=1 -3 -4
leaf_value=0.052762452324351096 -0.041719147250564359 -0.031279656247251077 -0.040939108322108113
leaf_weight=10.701466679573061 4.8033728748559934 4.4566786438226691 5.8654246181249619
leaf_count=31 20 19 26
internal_value=0 -0.0383407 -0.0412903
internal_weight=0 15.1255 10.6688
internal_count=96 65 46
is_linear=0
shrinkage=0.05


Tree=34
num_leaves=3
num_cat=0
split_feature=3 2
split_gain=6.69276 11.1802
threshold=0.45000000000000007 4.9500000000000011
decision_type=2 2
left_child=-1 -2
right_child=1 -3
leaf_value=-0.041420285065479907 0.042639640973622404 -0.035414187822204755
leaf_weight=7.0806263685226467 13.007613539695742 7.0875377357006064
leaf_count=31 37 28
internal_value=0 0.0151101
internal_weight=0 20.0952
internal_count=96 65
is_linear=0
shrinkage=0.05


Tree=35
num_leaves=3
num_cat=0
split_feature=2 2
split_gain=18.3297 0.000214578
threshold=4.7500000000000009 1.5500000000000003
decision_type=2 2
left_child=1 -1
right_child=-2 -3
leaf_value=-0.040370732094114292 0.043115508791171264 -0.040772525572956304
leaf_weight=6.0451482534408587 12.752623319625853 7.3790416419506073
leaf_count=28 35 33
internal_value=0 -0.0405916
internal_weight=0 13.4242
internal_count=96 61
is_linear=0
shrinkage=0.05


Tree=36
num_leaves=4
num_cat=0
split_feature=2 2 3
split_gain=19.2842 0.000266378 0.00016971
threshold=3.4000000000000004 4.4500000000000011 1.8500000000000003
decision_type=2 2 2
left_child=-1 -2 -3
right_child=1 2 -4
leaf_value=0.047655018235490232 -0.040973174934238035 -0.040295077980743554 -0.040721891333941308
leaf_weight=11.29610848426819 4.3218305408954611 4.8890954554080945 4.4478196501731873
leaf_count=34 19 23 20
internal_value=0 -0.0406486 -0.0404984
internal_weight=0 13.6587 9.33692
internal_count=96 62 43
is_linear=0
shrinkage=0.05


Tree=37
num_leaves=3
num_cat=0
split_feature=2 3
split_gain=6.21891 10.2427
threshold=1.8 1.5500000000000003
decision_type=2 2
left_child=-1 -2
right_child=1 -3
leaf_value=-0.040939933823396578 0.045162483177931777 -0.028060932535774727
leaf_weight=6.7629524767398861 11.460835039615633 8.1879453808069211
leaf_count=31 34 31
internal_value=0 0.0146492
internal_weight=0 19.6488
internal_count=96 65
is_linear=0
shrinkage=0.05


Tree=38
num_leaves=3
num_cat=0
split_feature=2 2
split_gain=16.896 0.000245695
threshold=4.7500000000000009 1.5500000000000003
decision_type=2 2
left_child=1 -1
right_child=-2 -3
leaf_value=-0.039875267396111989 0.041393651767677751 -0.040314998839874432
leaf_weight=5.7600596249103564 12.589945346117018 7.0824874490499496
leaf_count=28 35 33
internal_value=0 -0.0401178
internal_weight=0 12.8425
internal_count=96 61
is_linear=0
shrinkage=0.05


Tree=39
num_leaves=3
num_cat=0
split_feature=2 2
split_gain=17.8049 0.000221414
threshold=3.4000000000000004 4.5500000000000007
decision_type=2 2
left_child=-1 -2
right_child=1 -3
leaf_value=0.04611462707944005 -0.040442194403761907 -0.040018849622698686
leaf_weight=11.004138588905336 4.9965243488550177 8.0882987529039365
leaf_count=34 23 39
internal_value=0 -0.0401805
internal_weight=0 13.0848
internal_count=96 62
is_linear=0
shrinkage=0.05


Tree=40
num_leaves=3
num_cat=0
split_feature=3 2
split_gain=5.81406 9.56759
threshold=0.45000000000000007 4.9500000000000011
decision_type=2 2
left_child=-1 -2
right_child=1 -3
leaf_value=-0.040534700333228597 0.040023114272521892 -0.034088724339622005
leaf_weight=6.4646525382995632 12.538656473159792 6.6720592379569998
leaf_count=31 37 28
internal_value=0 0.0142834
internal_weight=0 19.2107
internal_count=96 65
is_linear=0
shrinkage=0.05


Tree=41
num_leaves=3
num_cat=0
split_feature=2 2
split_gain=15.5415 0.000228588
threshold=4.7500000000000009 1.5500000000000003
decision_type=2 2
left_child=1 -1
right_child=-2 -3
leaf_value=-0.039433465770124528 0.039668309605113292 -0.039867493779714422
leaf_weight=5.4920878112316149 12.42044562101364 6.7768064439296722
leaf_count=28 35 33
internal_value=0 -0.0396732
internal_weight=0 12.2689
internal_count=96 61
is_linear=0
shrinkage=0.05


Tree=42
num_leaves=3
num_cat=0
split_feature=2 2
split_gain=16.4579 0.000181858
threshold=3.4000000000000004 4.5500000000000007
decision_type=2 2
left_child=-1 -2
right_child=1 -3
leaf_value=0.044696679400482428 -0.039994441047285931 -0.039602359377046946
leaf_weight=10.696412801742555 4.7871761322021467 7.7377605885267258
leaf_count=34 23 39
internal_value=0 -0.0397522
internal_weight=0 12.5249
internal_count=96 62
is_linear=0
shrinkage=0.05


Tree=43
num_leaves=3
num_cat=0
split_feature=2 2
split_gain=5.40995 8.77592
threshold=1.8 4.9500000000000011
decision_type=2 2
left_child=-1 -2
right_child=1 -3
leaf_value=-0.040073975918348596 0.038669228544803938 -0.033363880269268675
leaf_weight=6.167434990406039 12.302538722753527 6.4426303356885901
leaf_count=31 37 28
internal_value=0 0.0139118
internal_weight=0 18.7452
internal_count=96 65
is_linear=0
shrinkage=0.05


Tree=44
num_leaves=3
num_cat=0
split_feature=2 2
split_gain=14.3375 0.000216775
threshold=4.7500000000000009 1.5500000000000003
decision_type=2 2
left_child=1 -1
right_child=-2 -3
leaf_value=-0.039023884155184679 0.038159750875705986 -0.03945653847066477
leaf_weight=5.2314402759075183 12.214750766754149 6.4827214330434799
leaf_count=28 35 33
internal_value=0 -0.0392633
internal_weight=0 11.7142
internal_count=96 61
is_linear=0
shrinkage=0.05


Tree=45
num_leaves=4
num_cat=0
split_feature=3 1 2
split_gain=15.2942 0.12539 0.000735157
threshold=0.45000000000000007 3.0500000000000003 4.4500000000000011
decision_type=2 2 2
left_child=-1 2 -2
right_child=1 -3 -4
leaf_value=0.047304173984028391 -0.04009575701605797 -0.028821534802188794 -0.039191016465632507
leaf_weight=9.4676514267921466 4.1327735036611539 3.8404466807842246 4.9162105768918991
leaf_count=31 20 19 26
internal_value=0 -0.0363915 -0.0396042
internal_weight=0 12.8894 9.04898
internal_count=96 65 46
is_linear=0
shrinkage=0.05


Tree=46
num_leaves=3
num_cat=0
split_feature=3 3
split_gain=5.06884 8.21865
threshold=0.45000000000000007 1.5500000000000003
decision_type=2 2
left_child=-1 -2
right_child=1 -3
leaf_value=-0.039738756451462902 0.041838191850185481 -0.026243762094498413
leaf_weight=5.885455489158633 10.694082751870157 7.5710386484861365
leaf_count=31 34 31
internal_value=0 0.0136177
internal_weight=0 18.2651
internal_count=96 65
is_linear=0
shrinkage=0.05


Tree=47
num_leaves=3
num_cat=0
split_feature=2 2
split_gain=13.2403 0.000204945
threshold=4.7500000000000009 1.5500000000000003
decision_type=2 2
left_child=1 -1
right_child=-2 -3
leaf_value=-0.038643992361679091 0.036758518193231074 -0.039074797693920728
leaf_weight=4.9786593616008776 11.994276612997053 6.1967909187078476
leaf_count=28 35 33
internal_value=0 -0.0388829
internal_weight=0 11.1755
internal_count=96 61
is_linear=0
shrinkage=0.05


Tree=48
num_leaves=3
num_cat=0
split_feature=2 2
split_gain=14.2002 0.000108425
threshold=3.4000000000000004 4.5500000000000007
decision_type=2 2
left_child=-1 -2
right_child=1 -3
leaf_value=0.042500478028829357 -0.039191219135367529 -0.038874897269684135
leaf_weight=10.005775660276415 4.3834105283021909 7.091882199048996
leaf_count=34 23 39
internal_value=0 -0.0389957
internal_weight=0 11.4753
internal_count=96 62
is_linear=0
shrinkage=0.05


Tree=49
num_leaves=3
num_cat=0
split_feature=2 2
split_gain=4.72393 7.55946
threshold=1.8 4.9500000000000011
decision_type=2 2
left_child=-1 -2
right_child=1 -3
leaf_value=-0.039405055205164595 0.036651308092551731 -0.03214354734904059
leaf_weight=5.5984093546867397 11.742286682128908 6.0509016513824454
leaf_count=31 37 28
internal_value=0 0.0132563
internal_weight=0 17.7932
internal_count=96 65
is_linear=0
shrinkage=0.05


Tree=50
num_leaves=3
num_cat=0
split_feature=2 2
split_gain=12.2211 0.000212711
threshold=4.7500000000000009 1.5500000000000003
decision_type=2 2
left_child=1 -1
right_child=-2 -3
leaf_value=-0.038275240557243746 0.035380398521567505 -0.038725125878259707
leaf_weight=4.7226617336273211 11.78798660635948 5.9220623373985291
leaf_count=28 35 33
internal_value=0 -0.0385255
internal_weight=0 10.6447
internal_count=96 61
is_linear=0
shrinkage=0.05


Tree=51
num_leaves=4
num_cat=0
split_feature=2 1 2
split_gain=13.1865 0.125672 0.000656051
threshold=1.8 3.0500000000000003 4.4500000000000011
decision_type=2 2 2
left_child=-1 2 -2
right_child=1 -3 -4
leaf_value=0.045321456760538385 -0.03938606623231726 -0.02768298832789854 -0.038493226825947247
leaf_weight=8.7772974669933337 3.8002431690692884 3.5715418756008139 4.4863981753587723
leaf_count=31 20 19 26
internal_value=0 -0.0355234 -0.0389027
internal_weight=0 11.8582 8.28664
internal_count=96 65 46
is_linear=0
shrinkage=0.05


Tree=52
num_leaves=3
num_cat=0
split_feature=3 3
split_gain=4.40763 7.04382
threshold=0.45000000000000007 1.5500000000000003
decision_type=2 2
left_child=-1 -2
right_child=1 -3
leaf_value=-0.039043521163785032 0.039800797582291152 -0.024935199426536946
leaf_weight=5.3279923200607326 10.135454580187799 7.1778177767992011
leaf_count=31 34 31
internal_value=0 0.0129622
internal_weight=0 17.3133
internal_count=96 65
is_linear=0
shrinkage=0.05


Tree=53
num_leaves=3
num_cat=0
split_feature=2 2
split_gain=11.3014 0.000198464
threshold=4.7500000000000009 1.5500000000000003
decision_type=2 2
left_child=1 -1
right_child=-2 -3
leaf_value=-0.037947944509985981 0.034144042276601026 -0.038393331862349306
leaf_weight=4.4862833321094531 11.548643201589583 5.6526428312063217
leaf_count=28 35 33
internal_value=0 -0.0381963
internal_weight=0 10.1389
internal_count=96 61
is_linear=0
shrinkage=0.05


Tree=54
num_leaves=3
num_cat=0
split_feature=2 2
split_gain=12.3063 6.07874e-05
threshold=3.4000000000000004 4.5500000000000007
decision_type=2 2
left_child=-1 -2
right_child=1 -3
leaf_value=0.040667831161360211 -0.038494733023049073 -0.03824695219707186
leaf_weight=9.2945451438426989 4.00106133520603 6.4906856864690781
leaf_count=34 23 39
internal_value=0 -0.0383414
internal_weight=0 10.4917
internal_count=96 62
is_linear=0
shrinkage=0.05


Tree=55
num_leaves=3
num_cat=0
split_feature=2 2
split_gain=4.11546 6.52529
threshold=1.8 4.9500000000000011
decision_type=2 2
left_child=-1 -2
right_child=1 -3
leaf_value=-0.038775161112323021 0.03485357110575104 -0.030980061607925952
leaf_weight=5.0606290400028255 11.158020436763765 5.6799885332584372
leaf_count=31 37 28
internal_value=0 0.0126458
internal_weight=0 16.838
internal_count=96 65
is_linear=0
shrinkage=0.05


Tree=56
num_leaves=3
num_cat=0
split_feature=2 2
split_gain=10.444 0.000200673
threshold=4.7500000000000009 1.5500000000000003
decision_type=2 2
left_child=1 -1
right_child=-2 -3
leaf_value=-0.037629451148047527 0.032913589194379554 -0.038088916648651126
leaf_weight=4.2476479709148425 11.329035639762877 5.3943929970264435
leaf_count=28 35 33
internal_value=0 -0.0378865
internal_weight=0 9.64204
internal_count=96 61
is_linear=0
shrinkage=0.05


Tree=57
num_leaves=3
num_cat=0
split_feature=2 2
split_gain=11.4333 5.39281e-05
threshold=3.4000000000000004 5.0500000000000007
decision_type=2 2
left_child=-1 -2
right_child=1 -3
leaf_value=0.039707290723119765 -0.03794709247504062 -0.038184077982626692
leaf_weight=8.9579205214977282 6.0240549445152265 3.9909078925848007
leaf_count=34 38 24
internal_value=0 -0.0380415
internal_weight=0 10.015
internal_count=96 62
is_linear=0
shrinkage=0.05


Tree=58
num_leaves=3
num_cat=0
split_feature=3 3
split_gain=3.86502 6.07484
threshold=0.45000000000000007 1.5500000000000003
decision_type=2 2
left_child=-1 -2
right_child=1 -3
leaf_value=-0.038540136060864531 0.038145980183438122 -0.023671517767728804
leaf_weight=4.8144923150539425 9.5523736029863375 6.8056955784559241
leaf_count=31 34 31
internal_value=0 0.0124271
internal_weight=0 16.3581
internal_count=96 65
is_linear=0
shrinkage=0.05


Tree=59
num_leaves=3
num_cat=0
split_feature=2 2
split_gain=9.66857 0.000184864
threshold=4.7500000000000009 1.5500000000000003
decision_type=2 2
left_child=1 -1
right_child=-2 -3
leaf_value=-0.037347079342522106 0.031803738278921238 -0.037799390998748322
leaf_weight=4.0286970436573046 11.080590337514876 5.1425881385803223
leaf_count=28 35 33
internal_value=0 -0.0376007
internal_weight=0 9.17129
internal_count=96 61
is_linear=0
shrinkage=0.05


Tree=60
num_leaves=4
num_cat=0
split_feature=2 1 0
split_gain=10.6528 0.126239 0.00063655
threshold=1.8 3.0500000000000003 5.8500000000000005
decision_type=2 2 2
left_child=-1 2 -2
right_child=1 -3 -4
leaf_value=0.04300764010857891 -0.038536094336484639 -0.026115470596736384 -0.037598160942564469
leaf_weight=7.7420379221439388 3.5019520223140699 3.1909632310271263 3.7418248131871223
leaf_count=31 21 19 25
internal_value=0 -0.0344015 -0.0380516
internal_weight=0 10.4347 7.24378
internal_count=96 65 46
is_linear=0
shrinkage=0.05


Tree=61
num_leaves=4
num_cat=0
split_feature=2 3 1
split_gain=3.71068 6.52694 0.568942
threshold=5.0500000000000007 0.45000000000000007 2.8500000000000001
decision_type=2 2 2
left_child=1 -1 -3
right_child=-2 2 -4
leaf_value=-0.038230912370753406 -0.039114409512044895 0.021588829842756001 0.043944183213411397
leaf_weight=4.5720485150814083 4.5129188150167456 5.8367643058300001 5.5545009523630142
leaf_count=31 24 21 20
internal_value=0 0.0122345 0.0324895
internal_weight=0 15.9633 11.3913
internal_count=96 72 41
is_linear=0
shrinkage=0.05


Tree=62
num_leaves=4
num_cat=0
split_feature=2 1 2
split_gain=8.98789 1.76861 0.0236751
threshold=5.0500000000000007 2.8500000000000001 4.2500000000000009
decision_type=2 2 2
left_child=1 -1 -3
right_child=-2 2 -4
leaf_value=-0.0003436504386916128 0.045517487502797244 -0.037201154993069328 -0.042814979456054399
leaf_weight=4.5819093436002749 7.0502620637416831 4.8729618191719055 3.0558232516050339
leaf_count=22 24 35 15
internal_value=0 -0.0250737 -0.0393648
internal_weight=0 12.5107 7.92879
internal_count=96 72 50
is_linear=0
shrinkage=0.05


Tree=63
num_leaves=3
num_cat=0
split_feature=2 2
split_gain=9.95784 3.75936e-05
threshold=3.4000000000000004 4.9500000000000011
decision_type=2 2
left_child=-1 -2
right_child=1 -3
leaf_value=0.038266224440829014 -0.037408160919346498 -0.037611631876523464
leaf_weight=8.2598063647747058 4.8976578414440137 4.2314404994249344
leaf_count=34 34 28
internal_value=0 -0.0375025
internal_weight=0 9.1291
internal_count=96 62
is_linear=0
shrinkage=0.05


Tree=64
num_leaves=4
num_cat=0
split_feature=2 3 1
split_gain=3.42924 5.97666 0.534238
threshold=5.0500000000000007 0.45000000000000007 2.8500000000000001
decision_type=2 2 2
left_child=1 -1 -3
right_child=-2 2 -4
leaf_value=-0.038015196860664922 -0.038702991474963352 0.020569066190623875 0.042428944303343805
leaf_weight=4.3329869657754925 4.2807242572307578 5.7758886814117414 5.4156366288661957
leaf_count=31 24 21 20
internal_value=0 0.0118435 0.0311472
internal_weight=0 15.5245 11.1915
internal_count=96 72 41
is_linear=0
shrinkage=0.05


Tree=65
num_leaves=4
num_cat=0
split_feature=3 1 2
split_gain=8.39516 0.367446 0.0108849
threshold=1.5500000000000003 2.8500000000000001 1.5500000000000003
decision_type=2 2 2
left_child=1 -1 -3
right_child=-2 2 -4
leaf_value=-0.018476415192417793 0.035073260052088086 -0.0368275523467331 -0.040978242920079698
leaf_weight=3.4621738940477389 9.087719723582266 3.478069081902504 2.8936007767915726
leaf_count=19 31 27 19
internal_value=0 -0.0315881 -0.0387125
internal_weight=0 9.83384 6.37167
internal_count=96 65 46
is_linear=0
shrinkage=0.05


Tree=66
num_leaves=4
num_cat=0
split_feature=2 1 2
split_gain=9.3004 0.127687 0.000634415
threshold=1.8 3.0500000000000003 4.4500000000000011
decision_type=2 2 2
left_child=-1 2 -2
right_child=1 -3 -4
leaf_value=0.041861896528280623 -0.03811792649904721 -0.0250746433987655 -0.037137367261711102
leaf_weight=7.0714931637048748 3.0771151781082136 2.9403674080967903 3.5556072592735291
leaf_count=31 20 19 26
internal_value=0 -0.0337475 -0.0375923
internal_weight=0 9.57309 6.63272
internal_count=96 65 46
is_linear=0
shrinkage=0.05


Tree=67
num_leaves=3
num_cat=0
split_feature=2 2
split_gain=3.23474 4.83179
threshold=5.0500000000000007 3.4000000000000004
decision_type=2 2
left_child=1 -1
right_child=-2 -3
leaf_value=-0.027946524250220529 -0.038403929819744331 0.0319270465146878
leaf_weight=5.0882286578416851 4.0967529565095893 9.9761251211166364
leaf_count=34 24 38
internal_value=0 0.0117038
internal_weight=0 15.0644
internal_count=96 72
is_linear=0
shrinkage=0.05


Tree=68
num_leaves=3
num_cat=0
split_feature=2 2
split_gain=7.84358 0.000222731
threshold=4.7500000000000009 1.5500000000000003
decision_type=2 2
left_child=1 -1
right_child=-2 -3
leaf_value=-0.036607821587152978 0.029147991606371118 -0.037142439378077423
leaf_weight=3.4204582348465946 10.340109109878538 4.526215672492981
leaf_count=28 35 33
internal_value=0 -0.0369123
internal_weight=0 7.94667
internal_count=96 61
is_linear=0
shrinkage=0.05


Tree=69
num_leaves=4
num_cat=0
split_feature=3 1 2
split_gain=8.6892 0.129677 0.000653113
threshold=0.45000000000000007 3.0500000000000003 4.4500000000000011
decision_type=2 2 2
left_child=-1 2 -2
right_child=1 -3 -4
leaf_value=0.041298670047149461 -0.037933157861495835 -0.024541901505744763 -0.036915554702298091
leaf_weight=6.7555800825357446 2.9503656178712827 2.8463271260261536 3.3868228644132614
leaf_count=31 20 19 26
internal_value=0 -0.0334074 -0.0373893
internal_weight=0 9.18352 6.33719
internal_count=96 65 46
is_linear=0
shrinkage=0.05


Tree=70
num_leaves=3
num_cat=0
split_feature=2 3
split_gain=2.99332 4.64174
threshold=1.8 1.5500000000000003
decision_type=2 2
left_child=-1 -2
right_child=1 -3
leaf_value=-0.0377167814389242 0.035349656071719401 -0.021796079407278349
leaf_weight=3.9288083389401462 8.4957406818866712 6.1084011793136588
leaf_count=31 34 31
internal_value=0 0.0114476
internal_weight=0 14.6041
internal_count=96 65
is_linear=0
shrinkage=0.05


Tree=71
num_leaves=4
num_cat=0
split_feature=3 1 2
split_gain=7.30976 0.346347 0.0103645
threshold=1.5500000000000003 2.8500000000000001 1.5500000000000003
decision_type=2 2 2
left_child=1 -1 -3
right_child=-2 2 -4
leaf_value=-0.017991562915629158 0.03344141149356504 -0.036375151546008143 -0.040636785776616641
leaf_weight=3.2912021204829234 8.6184123307466489 3.1035398542881012 2.640603594481945
leaf_count=19 31 27 19
internal_value=0 -0.0309242 -0.0383342
internal_weight=0 9.03535 5.74414
internal_count=96 65 46
is_linear=0
shrinkage=0.05


Tree=72
num_leaves=3
num_cat=0
split_feature=2 2
split_gain=8.14563 4.03464e-05
threshold=3.4000000000000004 4.9500000000000011
decision_type=2 2
left_child=-1 -2
right_child=1 -3
leaf_value=0.036386016982171247 -0.036731679316171842 -0.036957481264401286
leaf_weight=7.2746380865573883 4.2352072149515152 3.7123464047908783
leaf_count=34 34 28
internal_value=0 -0.0368372
internal_weight=0 7.94755
internal_count=96 62
is_linear=0
shrinkage=0.05


Tree=73
num_leaves=3
num_cat=0
split_feature=2 3
split_gain=2.799 4.18578
threshold=1.8 1.5500000000000003
decision_type=2 2
left_child=-1 -2
right_child=1 -3
leaf_value=-0.037560790482776781 0.034202999708893941 -0.020830990507883965
leaf_weight=3.7186025530099895 8.2551532536745054 5.9419600516557685
leaf_count=31 34 31
internal_value=0 0.0111695
internal_weight=0 14.1971
internal_count=96 65
is_linear=0
shrinkage=0.05


Tree=74
num_leaves=4
num_cat=0
split_feature=2 1 0
split_gain=6.8289 1.6522 0.0257369
threshold=5.0500000000000007 2.8500000000000001 5.8500000000000005
decision_type=2 2 2
left_child=1 -1 -3
right_child=-2 2 -4
leaf_value=0.0010014918410824732 0.042713363033109519 -0.036293157001471787 -0.042662933119133634
leaf_weight=4.2916869297623652 6.1435592472553244 4.0151792839169502 2.6209385991096497
leaf_count=22 24 36 14
internal_value=0 -0.0231741 -0.0388089
internal_weight=0 10.9278 6.63612
internal_count=96 72 50
is_linear=0
shrinkage=0.05


Tree=75
num_leaves=4
num_cat=0
split_feature=3 1 1
split_gain=7.60616 0.128213 0.000569392
threshold=0.45000000000000007 3.0500000000000003 2.7500000000000004
decision_type=2 2 2
left_child=-1 2 -2
right_child=1 -3 -4
leaf_value=0.040424888909183401 -0.037515541810858477 -0.023672887016853914 -0.036519456357606297
leaf_weight=6.1324185580015191 2.6747056543827039 2.6369609832763672 3.0946152582764626
leaf_count=31 20 19 26
internal_value=0 -0.0328066 -0.0369812
internal_weight=0 8.40628 5.76932
internal_count=96 65 46
is_linear=0
shrinkage=0.05


Tree=76
num_leaves=3
num_cat=0
split_feature=2 2
split_gain=2.6112 3.89538
threshold=1.8 4.9500000000000011
decision_type=2 2
left_child=-1 -2
right_child=1 -3
leaf_value=-0.037328896154999527 0.029374328973007641 -0.027215473809002844
leaf_weight=3.523245848715308 9.3096172958612424 4.5161870867013922
leaf_count=31 37 28
internal_value=0 0.0108893
internal_weight=0 13.8258
internal_count=96 65
is_linear=0
shrinkage=0.05


Tree=77
num_leaves=3
num_cat=0
split_feature=2 2
split_gain=6.4035 0.000258678
threshold=4.7500000000000009 1.5500000000000003
decision_type=2 2
left_child=1 -1
right_child=-2 -3
leaf_value=-0.035998628012583377 0.026820669934448562 -0.036620554222169248
leaf_weight=2.8782530203461674 9.6397917270660383 3.9892456009984016
leaf_count=28 35 33
internal_value=0 -0.0363599
internal_weight=0 6.8675
internal_count=96 61
is_linear=0
shrinkage=0.05


Tree=78
num_leaves=3
num_cat=0
split_feature=2 2
split_gain=7.14533 2.72768e-05
threshold=3.4000000000000004 4.9500000000000011
decision_type=2 2
left_child=-1 -2
right_child=1 -3
leaf_value=0.035361752756851619 -0.036363452672454492 -0.036558141225347979
leaf_weight=6.6501064747571945 3.8534186333417892 3.3746462911367416
leaf_count=34 34 28
internal_value=0 -0.0364543
internal_weight=0 7.22806
internal_count=96 62
is_linear=0
shrinkage=0.05


Tree=79
num_leaves=3
num_cat=0
split_feature=2 3
split_gain=2.44565 3.65949
threshold=1.8 1.5500000000000003
decision_type=2 2
left_child=-1 -2
right_child=1 -3
leaf_value=-0.037201350515817855 0.032954677147774253 -0.019942551625905081
leaf_weight=3.3323284462094334 7.7577559649944288 5.6514986008405685
leaf_count=31 34 31
internal_value=0 0.0106605
internal_weight=0 13.4093
internal_count=96 65
is_linear=0
shrinkage=0.05


Tree=80
num_leaves=4
num_cat=0
split_feature=2 1 3
split_gain=6.01502 1.59586 0.0283594
threshold=5.0500000000000007 2.8500000000000001 1.3500000000000003
decision_type=2 2 2
left_child=1 -1 -3
right_child=-2 2 -4
leaf_value=0.0016104941959393174 0.041644726802438546 -0.035936051724189622 -0.04292487683278326
leaf_weight=4.1221016570925695 5.7177956700325021 3.694847546517849 2.3907667100429535
leaf_count=22 24 37 13
internal_value=0 -0.0224108 -0.0386816
internal_weight=0 10.2077 6.08561
internal_count=96 72 50
is_linear=0
shrinkage=0.05


Tree=81
num_leaves=4
num_cat=0
split_feature=3 1 3
split_gain=6.67965 0.12689 0.000595496
threshold=0.45000000000000007 3.0500000000000003 1.3500000000000003
decision_type=2 2 2
left_child=-1 2 -2
right_child=1 -3 -4
leaf_value=0.03970458861150989 -0.037257948594420096 -0.022844680486223484 -0.036181084567741294
leaf_weight=5.5485194772481918 2.2307437434792519 2.4421486109495163 3.0242825374007225
leaf_count=31 18 19 28
internal_value=0 -0.0322618 -0.0366382
internal_weight=0 7.69717 5.25503
internal_count=96 65 46
is_linear=0
shrinkage=0.05


Tree=82
num_leaves=3
num_cat=0
split_feature=2 3
split_gain=2.28285 3.39946
threshold=1.8 1.5500000000000003
decision_type=2 2
left_child=-1 -2
right_child=1 -3
leaf_value=-0.036994318523068156 0.032204478394098297 -0.019445704511777517
leaf_weight=3.1551458388566997 7.5449579060077649 5.5137920081615448
leaf_count=31 34 31
internal_value=0 0.0103962
internal_weight=0 13.0587
internal_count=96 65
is_linear=0
shrinkage=0.05


Tree=83
num_leaves=5
num_cat=0
split_feature=2 3 1 3
split_gain=5.61413 1.74273 0.0435484 0.00931975
threshold=5.0500000000000007 1.5500000000000003 2.7500000000000004 1.2500000000000002
decision_type=2 2 2 2
left_child=1 2 -1 -4
right_child=-2 -3 3 -5
leaf_value=-0.028959178665192927 0.04113458643409635 0.011690149838967467 -0.035749954464234089 -0.040141471056511883
leaf_weight=2.1084302142262441 5.4913565814495096 2.7791205197572708 2.9935171753168106 2.0256538018584251
leaf_count=14 24 9 32 17
internal_value=0 -0.0218943 -0.0349892 -0.0375223
internal_weight=0 9.90672 7.1276 5.01917
internal_count=96 72 63 49
is_linear=0
shrinkage=0.05


Tree=84
num_leaves=3
num_cat=0
split_feature=2 3
split_gain=6.27719 1.41616e-05
threshold=3.4000000000000004 1.5500000000000003
decision_type=2 2
left_child=-1 -2
right_child=1 -3
leaf_value=0.034472552022283588 -0.036036761172129124 -0.036183802125449221
leaf_weight=6.0660044550895691 3.2159987390041351 3.3361359462141991
leaf_count=34 31 31
internal_value=0 -0.0361116
internal_weight=0 6.55213
internal_count=96 62
is_linear=0
shrinkage=0.05


Tree=85
num_leaves=4
num_cat=0
split_feature=1 3 2
split_gain=1.99912 2.38375 0.0843001
threshold=3.2500000000000004 1.5500000000000003 4.1500000000000012
decision_type=2 2 2
left_child=1 2 -1
right_child=-2 -3 -4
leaf_value=0.021289773328160289 -0.032295581950161939 -0.019138591210615674 0.031720010614006082
leaf_weight=3.4699702113866788 3.4731931537389764 4.3165879547595978 4.3856616467237473
leaf_count=22 29 24 21
internal_value=0 0.0107108 0.0271128
internal_weight=0 12.1722 7.85563
internal_count=96 67 43
is_linear=0
shrinkage=0.05


Tree=86
num_leaves=5
num_cat=0
split_feature=2 3 1 3
split_gain=5.26164 1.59943 0.0497557 0.00830722
threshold=5.0500000000000007 1.5500000000000003 2.7500000000000004 1.2500000000000002
decision_type=2 2 2 2
left_child=1 2 -1 -4
right_child=-2 -3 3 -5
leaf_value=-0.028008018105319884 0.040685932953612662 0.010634950672643894 -0.035598537081206562 -0.039855029226085886
leaf_weight=2.0503174662590009 5.2801603823900232 2.7555756866931915 2.8232463747262955 1.9298236966133115
leaf_count=14 24 9 32 17
internal_value=0 -0.021502 -0.0345184 -0.0373267
internal_weight=0 9.55896 6.80339 4.75307
internal_count=96 72 63 49
is_linear=0
shrinkage=0.05


Tree=87
num_leaves=4
num_cat=0
split_feature=3 1 1
split_gain=5.89208 0.126468 0.000556133
threshold=0.45000000000000007 3.0500000000000003 2.7500000000000004
decision_type=2 2 2
left_child=-1 2 -2
right_child=1 -3 -4
leaf_value=0.039063596030534484 -0.036914733557600575 -0.021977230218585806 -0.035834794661841071
leaf_weight=5.0441268682479858 2.2590548917651176 2.2530811280012131 2.5241134464740753
leaf_count=31 20 19 26
internal_value=0 -0.0317442 -0.0363448
internal_weight=0 7.03625 4.78317
internal_count=96 65 46
is_linear=0
shrinkage=0.05


Tree=88
num_leaves=3
num_cat=0
split_feature=3 2
split_gain=2.08218 2.93414
threshold=0.45000000000000007 4.9500000000000011
decision_type=2 2
left_child=-1 -2
right_child=1 -3
leaf_value=-0.036993825227867053 0.027069039397667978 -0.025195453354436809
leaf_weight=2.889012224972249 8.3120794445276243 3.9670153781771651
leaf_count=31 37 28
internal_value=0 0.0101839
internal_weight=0 12.2791
internal_count=96 65
is_linear=0
shrinkage=0.05


Tree=89
num_leaves=4
num_cat=0
split_feature=2 1 3
split_gain=4.92814 1.57555 0.0317706
threshold=5.0500000000000007 2.8500000000000001 1.3500000000000003
decision_type=2 2 2
left_child=1 -1 -3
right_child=-2 2 -4
leaf_value=0.0030722106715781856 0.040241703521989719 -0.035479925532719767 -0.04328971113060158
leaf_weight=3.8890507221221906 5.0587829649448404 3.1141022518277168 2.2381601557135582
leaf_count=22 24 37 13
internal_value=0 -0.0211474 -0.0387458
internal_weight=0 9.24131 5.35226
internal_count=96 72 50
is_linear=0
shrinkage=0.05


Tree=90
num_leaves=3
num_cat=0
split_feature=2 1
split_gain=5.54046 1.25532e-05
threshold=3.4000000000000004 2.9500000000000006
decision_type=2 2
left_child=-1 -2
right_child=1 -3
leaf_value=0.033589266980333037 -0.035746360626009908 -0.035891662412954647
leaf_weight=5.564456582069397 2.9108862206339836 3.0376220494508743
leaf_count=34 31 31
internal_value=0 -0.0358206
internal_weight=0 5.94851
internal_count=96 62
is_linear=0
shrinkage=0.05


Tree=91
num_leaves=4
num_cat=0
split_feature=1 3 0
split_gain=1.74609 2.09959 0.041946
threshold=3.2500000000000004 1.5500000000000003 5.7500000000000009
decision_type=2 2 2
left_child=1 2 -1
right_child=-2 -3 -4
leaf_value=0.022322685722003247 -0.031624509858558122 -0.018299488920263455 0.029872966012765151
leaf_weight=3.5414011403918249 3.1767974346876153 4.1269091591238976 3.827803760766983
leaf_count=24 29 24 19
internal_value=0 0.010254 0.0262445
internal_weight=0 11.4961 7.3692
internal_count=96 67 43
is_linear=0
shrinkage=0.05


Tree=92
num_leaves=3
num_cat=0
split_feature=2 3
split_gain=4.61433 0.000258282
threshold=4.7500000000000009 0.45000000000000007
decision_type=2 2
left_child=1 -1
right_child=-2 -3
leaf_value=-0.035273548422607347 0.023627801800605804 -0.035971505843824879
leaf_weight=2.3986350372433671 8.4619024097919446 2.9626603052020073
leaf_count=31 35 30
internal_value=0 -0.0356592
internal_weight=0 5.3613
internal_count=96 61
is_linear=0
shrinkage=0.05


Tree=93
num_leaves=4
num_cat=0
split_feature=2 1 1
split_gain=5.21099 0.126616 0.000535385
threshold=1.8 3.0500000000000003 2.7500000000000004
decision_type=2 2 2
left_child=-1 2 -2
right_child=1 -3 -4
leaf_value=0.038477512675354042 -0.036679856342866739 -0.021138184674291332 -0.035571240916346995
leaf_weight=4.5788784325122833 2.0778375566005707 2.0917931348085403 2.288486622273922
leaf_count=31 20 19 26
internal_value=0 -0.031253 -0.0360988
internal_weight=0 6.45812 4.36632
internal_count=96 65 46
is_linear=0
shrinkage=0.05


Tree=94
num_leaves=4
num_cat=0
split_feature=1 3 0
split_gain=1.63186 1.9182 0.0395555
threshold=3.2500000000000004 1.5500000000000003 5.7500000000000009
decision_type=2 2 2
left_child=1 2 -1
right_child=-2 -3 -4
leaf_value=0.021774730002424927 -0.031163206054290744 -0.017473453224368933 0.029212277741083138
leaf_weight=3.4441866800189 3.0483525469899186 4.0342974215745926 3.7168784886598587
leaf_count=24 29 24 19
internal_value=0 0.0101008 0.0256351
internal_weight=0 11.1954 7.16107
internal_count=96 67 43
is_linear=0
shrinkage=0.05


Tree=95
num_leaves=5
num_cat=0
split_feature=2 1 3 1
split_gain=4.37238 1.52178 0.0376902 5.65494e-06
threshold=5.0500000000000007 2.8500000000000001 1.4500000000000002 3.3500000000000001
decision_type=2 2 2 2
left_child=1 -1 3 -3
right_child=-2 2 -4 -5
leaf_value=0.0035562862143227441 0.039515407037989225 -0.035300737729308244 -0.044209264617527465 -0.035163714296396385
leaf_weight=3.7493526116013509 4.6804178506135949 1.5502298101782801 1.9115381091833112 1.464113302528858
leaf_count=22 24 20 10 20
internal_value=0 -0.0204469 -0.0387171 -0.0352342
internal_weight=0 8.67523 4.92588 3.01434
internal_count=96 72 50 40
is_linear=0
shrinkage=0.05


Tree=96
num_leaves=3
num_cat=0
split_feature=2 3
split_gain=4.92944 1.84938e-05
threshold=3.4000000000000004 1.5500000000000003
decision_type=2 2
left_child=-1 -2
right_child=1 -3
leaf_value=0.03275787364988661 -0.035487144480997608 -0.03567187279464603
leaf_weight=5.1392272114753723 2.640630692243576 2.7825922593474388
leaf_count=34 31 31
internal_value=0 -0.0355819
internal_weight=0 5.42322
internal_count=96 62
is_linear=0
shrinkage=0.05


Tree=97
num_leaves=3
num_cat=0
split_feature=2 2
split_gain=1.20593 2.39897
threshold=4.9500000000000011 3.4000000000000004
decision_type=2 2
left_child=1 -1
right_child=-2 -3
leaf_value=-0.024508355649127761 -0.023631609795870423 0.026970080829742143
leaf_weight=3.3754647299647313 3.6010875552892694 6.8678791671991348
leaf_count=34 28 34
internal_value=0 0.0100065
internal_weight=0 10.2433
internal_count=96 68
is_linear=0
shrinkage=0.05


Tree=98
num_leaves=5
num_cat=0
split_feature=2 1 3 1
split_gain=4.0997 1.46876 0.0314835 4.60321e-06
threshold=5.0500000000000007 2.8500000000000001 1.4500000000000002 3.3500000000000001
decision_type=2 2 2 2
left_child=1 -1 3 -3
right_child=-2 2 -4 -5
leaf_value=0.0035698568122359726 0.039177336544008547 -0.035182082239037564 -0.043451058492739253 -0.035054796818329979
leaf_weight=3.7135363146662694 4.4873167872428903 1.4636961892247202 1.8864749595522878 1.3799765929579733
leaf_count=22 24 20 10 20
internal_value=0 -0.0199656 -0.0384428 -0.0351203
internal_weight=0 8.44368 4.73015 2.84367
internal_count=96 72 50 40
is_linear=0
shrinkage=0.05


Tree=99
num_leaves=4
num_cat=0
split_feature=3 1 1
split_gain=4.64866 0.12442 0.00059531
threshold=0.45000000000000007 3.0500000000000003 2.7500000000000004
decision_type=2 2 2
left_child=-1 2 -2
right_child=1 -3 -4
leaf_value=0.037988727160498927 -0.036567164497271841 -0.020478760215206265 -0.035345688092003634
leaf_weight=4.1735649630427361 1.922305226325989 1.9320163354277609 2.0734117478132248
leaf_count=31 20 19 26
internal_value=0 -0.0308962 -0.0359333
internal_weight=0 5.92773 3.99572
internal_count=96 65 46
is_linear=0
shrinkage=0.05


Tree=100
num_leaves=3
num_cat=0
split_feature=2 2
split_gain=1.0966 2.14757
threshold=4.9500000000000011 3.4000000000000004
decision_type=2 2
left_child=1 -1
right_child=-2 -3
leaf_value=-0.023516169768865197 -0.02294524554443364 0.025895414033911265
leaf_weight=3.2706604152917844 3.4639320299029359 6.7114799916744232
leaf_count=34 28 34
internal_value=0 0.00970565
internal_weight=0 9.98214
internal_count=96 68
is_linear=0
shrinkage=0.05


Tree=101
num_leaves=3
num_cat=0
split_feature=2 2
split_gain=3.84943 0.000262371
threshold=4.7500000000000009 1.5500000000000003
decision_type=2 2
left_child=1 -1
right_child=-2 -3
leaf_value=-0.034894115682865059 0.021979240756717262 -0.035665090652835414
leaf_weight=1.7892749607563017 7.8399776071310043 2.8792207166552544
leaf_count=28 35 33
internal_value=0 -0.0353696
internal_weight=0 4.6685
internal_count=96 61
is_linear=0
shrinkage=0.05


Tree=102
num_leaves=4
num_cat=0
split_feature=2 1 1
split_gain=4.38642 0.122668 0.000606816
threshold=1.8 3.0500000000000003 2.7500000000000004
decision_type=2 2 2
left_child=-1 2 -2
right_child=1 -3 -4
leaf_value=0.03778475715150989 -0.036498033904701584 -0.020224560459996002 -0.035236957516168538
leaf_weight=3.966332420706749 1.8470746278762817 1.8725842684507368 1.9727596640586853
leaf_count=31 20 19 26
internal_value=0 -0.0307077 -0.0358467
internal_weight=0 5.69242 3.81983
internal_count=96 65 46
is_linear=0
shrinkage=0.05


Tree=103
num_leaves=3
num_cat=0
split_feature=2 2
split_gain=1.00869 1.98109
threshold=4.9500000000000011 3.4000000000000004
decision_type=2 2
left_child=1 -1
right_child=-2 -3
leaf_value=-0.023037714795924293 -0.022310059868350787 0.02524164725994827
leaf_weight=3.1511203497648221 3.3518704771995553 6.5239244401454926
leaf_count=34 28 34
internal_value=0 0.00951727
internal_weight=0 9.67504
internal_count=96 68
is_linear=0
shrinkage=0.05


Tree=104
num_leaves=5
num_cat=0
split_feature=2 1 3 1
split_gain=3.60963 1.41404 0.0258616 4.84439e-06
threshold=5.0500000000000007 2.8500000000000001 1.4500000000000002 3.3500000000000001
decision_type=2 2 2 2
left_child=1 -1 3 -3
right_child=-2 2 -4 -5
leaf_value=0.0041538819014997749 0.038548225841840381 -0.034983146550002162 -0.042718889338885922 -0.034844845625314265
leaf_weight=3.5988465920090675 4.1321939826011658 1.3126926608383658 1.8272806629538534 1.2231948934495447
leaf_count=22 24 20 10 20
internal_value=0 -0.0190472 -0.0381841 -0.0349164
internal_weight=0 7.96201 4.36317 2.53589
internal_count=96 72 50 40
is_linear=0
shrinkage=0.05


Tree=105
num_leaves=4
num_cat=0
split_feature=3 1 1
split_gain=4.13538 0.122286 0.00060357
threshold=0.45000000000000007 3.0500000000000003 2.7500000000000004
decision_type=2 2 2
left_child=-1 2 -2
right_child=1 -3 -4
leaf_value=0.037589712449822552 -0.036428186898086551 -0.019866647727861918 -0.035141717716809732
leaf_weight=3.7704526633024216 1.7731474265456202 1.8084206506609914 1.8767359107732771
leaf_count=31 20 19 26
internal_value=0 -0.0304988 -0.0357667
internal_weight=0 5.4583 3.64988
internal_count=96 65 46
is_linear=0
shrinkage=0.05


Tree=106
num_leaves=3
num_cat=0
split_feature=2 2
split_gain=0.909618 1.79561
threshold=4.9500000000000011 3.4000000000000004
decision_type=2 2
left_child=1 -1
right_child=-2 -3
leaf_value=-0.02247158150083026 -0.021608262207553769 0.024215059737324716
leaf_weight=3.0403166189789754 3.2254287973046312 6.3842287063598633
leaf_count=34 28 34
internal_value=0 0.00915416
internal_weight=0 9.42455
internal_count=96 68
is_linear=0
shrinkage=0.05


Tree=107
num_leaves=3
num_cat=0
split_feature=2 2
split_gain=3.42739 0.000249603
threshold=4.7500000000000009 1.5500000000000003
decision_type=2 2
left_child=1 -1
right_child=-2 -3
leaf_value=-0.034694836123023043 0.021081974446198283 -0.035488437699690366
leaf_weight=1.577053155750036 7.4692215621471405 2.6652873754501343
leaf_count=28 35 33
internal_value=0 -0.0351934
internal_weight=0 4.24234
internal_count=96 61
is_linear=0
shrinkage=0.05


Tree=108
num_leaves=4
num_cat=0
split_feature=2 1 1
split_gain=3.90665 0.12052 0.000611458
threshold=1.8 3.0500000000000003 2.7500000000000004
decision_type=2 2 2
left_child=-1 2 -2
right_child=1 -3 -4
leaf_value=0.037415675776952415 -0.036369807175769382 -0.019627500686069395 -0.035046028912464111
leaf_weight=3.5825716853141785 1.704843766987324 1.7539944127202032 1.7863387316465376
leaf_count=31 20 19 26
internal_value=0 -0.0303203 -0.0356925
internal_weight=0 5.24518 3.49118
internal_count=96 65 46
is_linear=0
shrinkage=0.05


Tree=109
num_leaves=3
num_cat=0
split_feature=2 2
split_gain=0.839709 2.09075
threshold=3.4000000000000004 4.7500000000000009
decision_type=2 2
left_child=-1 -2
right_child=1 -3
leaf_value=-0.02200008958498878 0.037376552801001918 -0.010831831140776736
leaf_weight=2.9319121576845655 3.7773844674229604 5.5586341619491577
leaf_count=34 27 35
internal_value=0 0.00867344
internal_weight=0 9.33602
internal_count=96 62
is_linear=0
shrinkage=0.05


Tree=110
num_leaves=3
num_cat=0
split_feature=2 2
split_gain=3.20779 0.00022899
threshold=4.7500000000000009 1.5500000000000003
decision_type=2 2
left_child=1 -1
right_child=-2 -3
leaf_value=-0.034603370438572249 0.020487505690180895 -0.03538567884632985
leaf_weight=1.4788408689200876 7.3101096749305725 2.5455221012234688
leaf_count=28 35 33
internal_value=0 -0.0350982
internal_weight=0 4.02436
internal_count=96 61
is_linear=0
shrinkage=0.05


Tree=111
num_leaves=4
num_cat=0
split_feature=3 1 1
split_gain=3.68284 0.119294 0.000619722
threshold=0.45000000000000007 3.0500000000000003 2.7500000000000004
decision_type=2 2 2
left_child=-1 2 -2
right_child=1 -3 -4
leaf_value=0.037247305161802281 -0.036313543629068322 -0.019335688105632645 -0.034948317343881999
leaf_weight=3.4034222066402435 1.6335979029536249 1.6995958909392355 1.692411947995424
leaf_count=31 20 19 26
internal_value=0 -0.0301121 -0.0356189
internal_weight=0 5.02561 3.32601
internal_count=96 65 46
is_linear=0
shrinkage=0.05


Tree=112
num_leaves=3
num_cat=0
split_feature=2 2
split_gain=0.787513 1.54895
threshold=4.9500000000000011 3.4000000000000004
decision_type=2 2
left_child=1 -1
right_child=-2 -3
leaf_value=-0.021536845661049121 -0.020502436082858275 0.02335326782508285
leaf_weight=2.8285766839981061 3.0529000163078317 5.9934718459844589
leaf_count=34 28 34
internal_value=0 0.00896034
internal_weight=0 8.82205
internal_count=96 68
is_linear=0
shrinkage=0.05


Tree=113
num_leaves=5
num_cat=0
split_feature=2 1 3 3
split_gain=3.07914 1.3536 0.0267863 2.1214e-05
threshold=5.0500000000000007 2.8500000000000001 1.4500000000000002 0.25000000000000006
decision_type=2 2 2 2
left_child=1 -1 3 -3
right_child=-2 2 -4 -5
leaf_value=0.0048303435773711057 0.037842420782499109 -0.034496406867185171 -0.04301895055057537 -0.034812703143448559
leaf_weight=3.4000613242387772 3.7034715563058853 1.0750859864056113 1.7427583150565626 1.0457957424223421
leaf_count=22 24 22 10 18
internal_value=0 -0.0181783 -0.0384263 -0.0346524
internal_weight=0 7.2637 3.86364 2.12088
internal_count=96 72 50 40
is_linear=0
shrinkage=0.05


Tree=114
num_leaves=4
num_cat=0
split_feature=2 1 1
split_gain=3.47966 0.118303 0.000610786
threshold=1.8 3.0500000000000003 2.7500000000000004
decision_type=2 2 2
left_child=-1 2 -2
right_child=1 -3 -4
leaf_value=0.037100452775787267 -0.036257655561921308 -0.01902879379499391 -0.034871585835835155
leaf_weight=3.2355646044015884 1.569156661629677 1.6419934853911398 1.6105921603739259
leaf_count=31 20 19 26
internal_value=0 -0.0299276 -0.0355556
internal_weight=0 4.82174 3.17975
internal_count=96 65 46
is_linear=0
shrinkage=0.05


Tree=115
num_leaves=3
num_cat=0
split_feature=3 2
split_gain=0.771254 1.82537
threshold=1.5500000000000003 3.4000000000000004
decision_type=2 2
left_child=1 -1
right_child=-2 -3
leaf_value=-0.020967414654006963 -0.015449889990383832 0.030780326752409326
leaf_weight=2.7333853840827942 4.287806823849678 4.5257691964507103
leaf_count=34 31 31
internal_value=0 0.0112951
internal_weight=0 7.25915
internal_count=96 65
is_linear=0
shrinkage=0.05


Tree=116
num_leaves=4
num_cat=0
split_feature=2 1 1
split_gain=2.86294 1.29926 0.0247363
threshold=5.0500000000000007 2.8500000000000001 3.1500000000000008
decision_type=2 2 2
left_child=1 -1 -3
right_child=-2 2 -4
leaf_value=0.0049383612183279664 0.03757702811459393 -0.033792380379357272 -0.041946742972675255
leaf_weight=3.3798509314656258 3.5334733128547668 1.8514049090445044 1.868783291429281
leaf_count=22 24 20 30
internal_value=0 -0.0175016 -0.0378886
internal_weight=0 7.10004 3.72019
internal_count=96 72 50
is_linear=0
shrinkage=0.05


Tree=117
num_leaves=3
num_cat=0
split_feature=3 0
split_gain=3.29016 0.000205572
threshold=1.0500000000000003 6.0500000000000007
decision_type=2 2
left_child=-1 -2
right_child=1 -3
leaf_value=0.030237166111426524 -0.035615474084755842 -0.034880340668810093
leaf_weight=3.7694334201514721 1.6218487545847895 2.2990227080881596
leaf_count=36 23 37
internal_value=0 -0.0351844
internal_weight=0 3.92087
internal_count=96 60
is_linear=0
shrinkage=0.05


Tree=118
num_leaves=3
num_cat=0
split_feature=3 2
split_gain=0.722281 1.68948
threshold=1.5500000000000003 3.4000000000000004
decision_type=2 2
left_child=1 -1
right_child=-2 -3
leaf_value=-0.020404663152639335 -0.015038965189883281 0.030199348907762848
leaf_weight=2.6434612721204758 4.1991145238280296 4.3860789835453033
leaf_count=34 31 31
internal_value=0 0.0111697
internal_weight=0 7.02954
internal_count=96 65
is_linear=0
shrinkage=0.05


Tree=119
num_leaves=4
num_cat=0
split_feature=2 1 1
split_gain=2.69371 1.25448 0.0275955
threshold=5.0500000000000007 2.8500000000000001 3.1500000000000008
decision_type=2 2 2
left_child=1 -1 -3
right_child=-2 2 -4
leaf_value=0.0049385551517715552 0.037372287190659617 -0.033281749485668199 -0.042070517802575626
leaf_weight=3.3499366976320744 3.3871860206127167 1.7958458475768568 1.7768424004316328
leaf_count=22 24 20 30
internal_value=0 -0.0170423 -0.0376528
internal_weight=0 6.92262 3.57269
internal_count=96 72 50
is_linear=0
shrinkage=0.05


Tree=120
num_leaves=4
num_cat=0
split_feature=3 2 1
split_gain=3.11008 0.116699 2.82778e-05
threshold=0.45000000000000007 4.1500000000000012 3.0500000000000003
decision_type=2 2 2
left_child=-1 -2 -3
right_child=1 2 -4
leaf_value=0.036786177727172589 -0.017030928540844769 -0.03474953720692877 -0.035058075226127701
leaf_weight=2.9249548241496086 1.2962510399520395 1.9235942773520949 1.2096013799309728
leaf_count=31 13 34 18
internal_value=0 -0.0296485 -0.0348687
internal_weight=0 4.42945 3.1332
internal_count=96 65 52
is_linear=0
shrinkage=0.05


Tree=121
num_leaves=3
num_cat=0
split_feature=3 2
split_gain=0.68282 1.5526
threshold=1.5500000000000003 3.4000000000000004
decision_type=2 2
left_child=1 -1
right_child=-2 -3
leaf_value=-0.019586162649571307 -0.0146692848128974 0.029638998127635083
leaf_weight=2.5679707378149033 4.1135418117046356 4.2578136324882507
leaf_count=34 31 31
internal_value=0 0.0111197
internal_weight=0 6.82578
internal_count=96 65
is_linear=0
shrinkage=0.05


Tree=122
num_leaves=4
num_cat=0
split_feature=2 1 2
split_gain=2.54793 0.000257029 5.39713e-05
threshold=4.7500000000000009 2.8500000000000001 1.5500000000000003
decision_type=2 2 2
left_child=1 -1 -3
right_child=-2 2 -4
leaf_value=-0.035430175203294688 0.018678951893777732 -0.034273925373874956 -0.034780376451790398
leaf_weight=1.2297162525355818 6.6614855378866196 1.0809273160994055 1.0247746407985685
leaf_count=15 35 27 19
internal_value=0 -0.0348558 -0.0345204
internal_weight=0 3.33542 2.1057
internal_count=96 61 46
is_linear=0
shrinkage=0.05


Tree=123
num_leaves=4
num_cat=0
split_feature=2 1 0
split_gain=2.9441 0.116391 0.000946769
threshold=1.8 3.0500000000000003 5.7500000000000009
decision_type=2 2 2
left_child=-1 2 -2
right_child=1 -3 -4
leaf_value=0.036663784039690617 -0.036535649690516869 -0.018044911000777011 -0.034674680396353186
leaf_weight=2.7798767760396004 1.1875616423785689 1.4589862674474714 1.610027093440294
leaf_count=31 16 19 30
internal_value=0 -0.0294939 -0.0354647
internal_weight=0 4.25658 2.79759
internal_count=96 65 46
is_linear=0
shrinkage=0.05


Tree=124
num_leaves=3
num_cat=0
split_feature=3 2
split_gain=0.625095 1.4341
threshold=1.5500000000000003 3.4000000000000004
decision_type=2 2
left_child=1 -1
right_child=-2 -3
leaf_value=-0.01901133662662096 -0.014009524604827085 0.029090255542376153
leaf_weight=2.4863377399742603 4.0383298173546791 4.1125166416168213
leaf_count=34 31 31
internal_value=0 0.0109664
internal_weight=0 6.59885
internal_count=96 65
is_linear=0
shrinkage=0.05


Tree=125
num_leaves=4
num_cat=0
split_feature=2 1 1
split_gain=2.44336 1.22126 0.0299903
threshold=5.0500000000000007 2.8500000000000001 3.1500000000000008
decision_type=2 2 2
left_child=1 -1 -3
right_child=-2 2 -4
leaf_value=0.0052551645313880686 0.037050916044608959 -0.033268285073471994 -0.0427856540334077
leaf_weight=3.2383253313601017 3.1426376849412918 1.6916472725570204 1.6207726746797559
leaf_count=22 24 20 30
internal_value=0 -0.0165792 -0.0379251
internal_weight=0 6.55075 3.31242
internal_count=96 72 50
is_linear=0
shrinkage=0.05


Tree=126
num_leaves=4
num_cat=0
split_feature=3 1 0
split_gain=2.78195 0.11456 0.000921761
threshold=0.45000000000000007 3.0500000000000003 5.7500000000000009
decision_type=2 2 2
left_child=-1 2 -2
right_child=1 -3 -4
leaf_value=0.036551445688133337 -0.036491723345454294 -0.017810741325815099 -0.034613674459445513
leaf_weight=2.6383030638098717 1.1406037174165251 1.4130745120346544 1.529403895139694
leaf_count=31 16 19 30
internal_value=0 -0.0293231 -0.035416
internal_weight=0 4.08308 2.67001
internal_count=96 65 46
is_linear=0
shrinkage=0.05


Tree=127
num_leaves=3
num_cat=0
split_feature=3 2
split_gain=0.586168 1.32634
threshold=1.5500000000000003 3.4000000000000004
decision_type=2 2
left_child=1 -1
right_child=-2 -3
leaf_value=-0.018457002267977821 -0.013636703322142084 0.028526297614779667
leaf_weight=2.409019973129034 3.9598382189869881 3.990208275616169
leaf_count=34 31 31
internal_value=0 0.0108392
internal_weight=0 6.39923
internal_count=96 65
is_linear=0
shrinkage=0.05


Tree=128
num_leaves=4
num_cat=0
split_feature=2 1 1
split_gain=2.3034 1.17825 0.0329615
threshold=5.0500000000000007 2.8500000000000001 3.1500000000000008
decision_type=2 2 2
left_child=1 -1 -3
right_child=-2 2 -4
leaf_value=0.0052429940220496121 0.036884587219679271 -0.032743211474002797 -0.042917656484326994
leaf_weight=3.2113995067775249 3.0136211439967155 1.644319746643305 1.5429933816194532
leaf_count=22 24 20 30
internal_value=0 -0.0161321 -0.0376687
internal_weight=0 6.39871 3.18731
internal_count=96 72 50
is_linear=0
shrinkage=0.05


Tree=129
num_leaves=4
num_cat=0
split_feature=2 1 0
split_gain=2.62899 0.113047 0.000894536
threshold=1.8 3.0500000000000003 5.7500000000000009
decision_type=2 2 2
left_child=-1 2 -2
right_child=1 -3 -4
leaf_value=0.036442454182741564 -0.036449497159067444 -0.017559874898530912 -0.034557541815843237
leaf_weight=2.5041473656892776 1.0959196388721473 1.3694935403764246 1.453216105699539
leaf_count=31 16 19 30
internal_value=0 -0.0291463 -0.0353709
internal_weight=0 3.91863 2.54914
internal_count=96 65 46
is_linear=0
shrinkage=0.05


Tree=130
num_leaves=3
num_cat=0
split_feature=3 2
split_gain=0.550315 1.22624
threshold=1.5500000000000003 3.4000000000000004
decision_type=2 2
left_child=1 -1
right_child=-2 -3
leaf_value=-0.017899901665565428 -0.013278567516500632 0.027969718440251836
leaf_weight=2.3355073444545269 3.8845352008938789 3.8735792636871338
leaf_count=34 31 31
internal_value=0 0.0107162
internal_weight=0 6.20909
internal_count=96 65
is_linear=0
shrinkage=0.05


Tree=131
num_leaves=4
num_cat=0
split_feature=2 1 1
split_gain=2.17286 1.13642 0.0359252
threshold=5.0500000000000007 2.8500000000000001 3.1500000000000008
decision_type=2 2 2
left_child=1 -1 -3
right_child=-2 2 -4
leaf_value=0.0052298267724730542 0.036729522341294653 -0.032216825082331611 -0.043044774123830967
leaf_weight=3.1851712577044964 2.8900976553559303 1.5995478667318823 1.4700460396707056
leaf_count=22 24 20 30
internal_value=0 -0.0156924 -0.0374024
internal_weight=0 6.25477 3.06959
internal_count=96 72 50
is_linear=0
shrinkage=0.05


Tree=132
num_leaves=4
num_cat=0
split_feature=3 1 0
split_gain=2.48768 0.111072 0.000865332
threshold=0.45000000000000007 3.0500000000000003 5.7500000000000009
decision_type=2 2 2
left_child=-1 2 -2
right_child=1 -3 -4
leaf_value=0.03634901142192578 -0.036408525064233442 -0.017349696946525973 -0.034505908033235284
leaf_weight=2.3779221922159195 1.0533782206475741 1.3273104503750799 1.3812224268913267
leaf_count=31 16 19 30
internal_value=0 -0.0289855 -0.0353291
internal_weight=0 3.76191 2.4346
internal_count=96 65 46
is_linear=0
shrinkage=0.05


Tree=133
num_leaves=3
num_cat=0
split_feature=3 2
split_gain=0.517154 1.13368
threshold=1.5500000000000003 3.4000000000000004
decision_type=2 2
left_child=1 -1
right_child=-2 -3
leaf_value=-0.017348217815250797 -0.012935001966255667 0.027420496659349966
leaf_weight=2.265661433339119 3.812261164188385 3.7623954117298126
leaf_count=34 31 31
internal_value=0 0.0105941
internal_weight=0 6.02806
internal_count=96 65
is_linear=0
shrinkage=0.05


Tree=134
num_leaves=4
num_cat=0
split_feature=2 1 2
split_gain=2.05144 0.000271601 4.35538e-05
threshold=4.7500000000000009 2.8500000000000001 1.5500000000000003
decision_type=2 2 2
left_child=1 -1 -3
right_child=-2 2 -4
leaf_value=-0.03529858201319655 0.017107472863742316 -0.034032622795316006 -0.034546643591977143
leaf_weight=1.1313473023474219 6.1099699437618256 0.81484770402312257 0.83377558551728725
leaf_count=15 35 27 19
internal_value=0 -0.034702 -0.0342926
internal_weight=0 2.77997 1.64862
internal_count=96 61 46
is_linear=0
shrinkage=0.05


Tree=135
num_leaves=4
num_cat=0
split_feature=2 1 0
split_gain=2.35892 0.10913 0.000854656
threshold=1.8 3.0500000000000003 5.7500000000000009
decision_type=2 2 2
left_child=-1 2 -2
right_child=1 -3 -4
leaf_value=0.03625668454139111 -0.036380688885902748 -0.017179383404990301 -0.034448766320428384
leaf_weight=2.2617490887641907 1.0135396905243403 1.2940193600952623 1.3154800049960611
leaf_count=31 16 19 30
internal_value=0 -0.0288212 -0.0352895
internal_weight=0 3.62304 2.32902
internal_count=96 65 46
is_linear=0
shrinkage=0.05


Tree=136
num_leaves=4
num_cat=0
split_feature=0 1 3
split_gain=0.50267 0.738822 0.29572
threshold=6.3500000000000005 2.6500000000000008 1.0500000000000003
decision_type=2 2 2
left_child=1 -1 -3
right_child=-2 2 -4
leaf_value=0.018369458439841529 0.023186084322845246 -0.032169450473384667 -0.0067061412921861603
leaf_weight=2.3937678970396519 2.0899611860513687 1.7214817367494104 3.3769475296139717
leaf_count=15 24 32 25
internal_value=0 -0.00454515 -0.0153038
internal_weight=0 7.4922 5.09843
internal_count=96 72 57
is_linear=0
shrinkage=0.05


Tree=137
num_leaves=4
num_cat=0
split_feature=2 1 1
split_gain=1.99042 1.10535 0.0605474
threshold=5.0500000000000007 2.8500000000000001 3.0500000000000003
decision_type=2 2 2
left_child=1 -1 -3
right_child=-2 2 -4
leaf_value=0.0055031607921046822 0.036510134486122725 -0.028384334429662053 -0.043361738232378585
leaf_weight=3.0869690217077732 2.7020365744829178 1.0914132464677098 1.7676581684499977
leaf_count=22 24 15 35
internal_value=0 -0.0152437 -0.0376443
internal_weight=0 5.94604 2.85907
internal_count=96 72 50
is_linear=0
shrinkage=0.05


Tree=138
num_leaves=3
num_cat=0
split_feature=3 0
split_gain=2.23142 0.00021629
threshold=1.0500000000000003 6.0500000000000007
decision_type=2 2
left_child=-1 -2
right_child=1 -3
leaf_value=0.028217188929654857 -0.035317558506730906 -0.034442134645268338
leaf_weight=2.7407077439129353 1.2382707446813586 1.6400963664054868
leaf_count=36 23 37
internal_value=0 -0.0348187
internal_weight=0 2.87837
internal_count=96 60
is_linear=0
shrinkage=0.05


Tree=139
num_leaves=4
num_cat=0
split_feature=0 1 0
split_gain=0.476066 0.694201 0.207105
threshold=6.3500000000000005 2.6500000000000008 5.6500000000000012
decision_type=2 2 2
left_child=1 -1 -3
right_child=-2 2 -4
leaf_value=0.017835865031145412 0.022780222894470424 -0.026999030572464514 -0.0063505536922599266
leaf_weight=2.3663025088608265 2.0516406297683716 2.0997105725109577 2.8801141977310181
leaf_count=15 24 34 23
internal_value=0 -0.00446159 -0.0150568
internal_weight=0 7.34613 4.97982
internal_count=96 72 57
is_linear=0
shrinkage=0.05


Tree=140
num_leaves=4
num_cat=0
split_feature=2 1 1
split_gain=1.89176 1.06019 0.0646648
threshold=5.0500000000000007 2.8500000000000001 3.0500000000000003
decision_type=2 2 2
left_child=1 -1 -3
right_child=-2 2 -4
leaf_value=0.0054441753239069723 0.036393152863674748 -0.027642826135405502 -0.043300272893505604
leaf_weight=3.0778648480772972 2.6165339201688766 1.0815463010221722 1.6895671989768741
leaf_count=22 24 15 35
internal_value=0 -0.0147546 -0.0371893
internal_weight=0 5.84898 2.77111
internal_count=96 72 50
is_linear=0
shrinkage=0.05


Tree=141
num_leaves=4
num_cat=0
split_feature=3 0 2
split_gain=2.1162 0.106474 3.71132e-05
threshold=0.45000000000000007 5.6500000000000012 5.0500000000000007
decision_type=2 2 2
left_child=-1 -2 -3
right_child=1 2 -4
leaf_value=0.036021180104478905 -0.015100124187466497 -0.034673503701805157 -0.034267293690733627
leaf_weight=2.0289157070219517 1.0110594332218172 1.4090751409530642 0.93569283932447422
leaf_count=31 12 29 24
internal_value=0 -0.0286631 -0.0345114
internal_weight=0 3.35583 2.34477
internal_count=96 65 53
is_linear=0
shrinkage=0.05


Tree=142
num_leaves=3
num_cat=0
split_feature=3 2
split_gain=0.478113 0.922967
threshold=1.5500000000000003 3.4000000000000004
decision_type=2 2
left_child=1 -1
right_child=-2 -3
leaf_value=-0.016001796594166149 -0.012400100894087903 0.026347326775213526
leaf_weight=2.0321165844798088 3.7013020142912865 3.5068599209189415
leaf_count=34 31 31
internal_value=0 0.0108105
internal_weight=0 5.53898
internal_count=96 65
is_linear=0
shrinkage=0.05


Tree=143
num_leaves=4
num_cat=0
split_feature=2 1 1
split_gain=1.79931 1.01506 0.0687737
threshold=5.0500000000000007 2.8500000000000001 3.0500000000000003
decision_type=2 2 2
left_child=1 -1 -3
right_child=-2 2 -4
leaf_value=0.0053442717956160837 0.036274190762046445 -0.02692060476770677 -0.043234585468547054
leaf_weight=3.0656483434140682 2.5271136686205864 1.0749961975961926 1.6188669763505457
leaf_count=22 24 15 35
internal_value=0 -0.0143323 -0.0367244
internal_weight=0 5.75951 2.69386
internal_count=96 72 50
is_linear=0
shrinkage=0.05


Tree=144
num_leaves=4
num_cat=0
split_feature=2 1 2
split_gain=2.00386 0.103791 0.00078134
threshold=1.8 3.0500000000000003 4.2500000000000009
decision_type=2 2 2
left_child=-1 2 -2
right_child=1 -3 -4
leaf_value=0.035939357767176806 -0.036305821324813886 -0.01643383830988266 -0.034342596276132557
leaf_weight=1.9274038150906561 0.87794606387615282 1.1471311338245866 1.1988572049885986
leaf_count=31 15 19 31
internal_value=0 -0.028505 -0.0351725
internal_weight=0 3.22393 2.0768
internal_count=96 65 46
is_linear=0
shrinkage=0.05


Tree=145
num_leaves=3
num_cat=0
split_feature=3 2
split_gain=0.452254 0.847175
threshold=1.5500000000000003 3.4000000000000004
decision_type=2 2
left_child=1 -1
right_child=-2 -3
leaf_value=-0.015308568054761829 -0.012101053279365033 0.025811131532988137
leaf_weight=1.9788405150175092 3.6341444030404091 3.4130640774965286
leaf_count=34 31 31
internal_value=0 0.0107201
internal_weight=0 5.3919
internal_count=96 65
is_linear=0
shrinkage=0.05


Tree=146
num_leaves=4
num_cat=0
split_feature=2 1 2
split_gain=1.71759 0.000268268 3.4472e-05
threshold=4.7500000000000009 2.8500000000000001 1.5500000000000003
decision_type=2 2 2
left_child=1 -1 -3
right_child=-2 2 -4
leaf_value=-0.035198424179508282 0.016010799623594568 -0.033857193339366445 -0.034370132482376824
leaf_weight=1.0609322376549246 5.6861915439367294 0.616381039842963 0.69900002516806126
leaf_count=15 35 27 19
internal_value=0 -0.0346069 -0.0341298
internal_weight=0 2.37631 1.31538
internal_count=96 61 46
is_linear=0
shrinkage=0.05


Tree=147
num_leaves=4
num_cat=0
split_feature=3 1 2
split_gain=1.90674 0.100917 0.000764938
threshold=0.45000000000000007 3.0500000000000003 4.2500000000000009
decision_type=2 2 2
left_child=-1 2 -2
right_child=1 -3 -4
leaf_value=0.035885946496212615 -0.036279547111993556 -0.016367178903231468 -0.034295810683399118
leaf_weight=1.836192190647125 0.84520709887146983 1.1187858358025549 1.1433131434023378
leaf_count=31 15 19 31
internal_value=0 -0.0283802 -0.035139
internal_weight=0 3.10731 1.98852
internal_count=96 65 46
is_linear=0
shrinkage=0.05


Tree=148
num_leaves=3
num_cat=0
split_feature=3 3
split_gain=0.409293 0.792588
threshold=1.5500000000000003 1.0500000000000003
decision_type=2 2
left_child=1 -1
right_child=-2 -3
leaf_value=-0.014595315800401444 -0.011480042791572975 0.025600055369184152
leaf_weight=1.9667589981108902 3.578640528023243 3.2579849250614643
leaf_count=36 31 29
internal_value=0 0.0104692
internal_weight=0 5.22474
internal_count=96 65
is_linear=0
shrinkage=0.05


Tree=149
num_leaves=4
num_cat=0
split_feature=3 0 1
split_gain=1.65497 0.834541 0.0569809
threshold=1.8500000000000003 5.9500000000000011 3.1500000000000008
decision_type=2 2 2
left_child=1 2 -1
right_child=-2 -3 -4
leaf_value=-0.029965341665721647 0.037798020027337204 0.0021786873620253762 -0.046099408931747361
leaf_weight=1.2218859586864712 2.209014005959034 3.435806680470705 0.99114935472607602
leaf_count=24 20 25 27
internal_value=0 -0.0132452 -0.0371913
internal_weight=0 5.64884 2.21304
internal_count=96 76 51
is_linear=0
shrinkage=0.05


Tree=150
num_leaves=4
num_cat=0
split_feature=2 1 2
split_gain=1.80448 0.132915 0.000746961
threshold=1.8 3.1500000000000008 4.2500000000000009
decision_type=2 2 2
left_child=-1 2 -2
right_child=1 -3 -4
leaf_value=0.035811920647671434 -0.036194913900982249 -0.011891539225226346 -0.034261376529470471
leaf_weight=1.7435937039554117 0.81319504417479116 0.88208614662289608 1.2948381248861549
leaf_count=31 15 14 36
internal_value=0 -0.0281881 -0.0350073
internal_weight=0 2.99012 2.10803
internal_count=96 65 51
is_linear=0
shrinkage=0.05


Tree=151
num_leaves=3
num_cat=0
split_feature=3 2
split_gain=0.372126 0.732011
threshold=1.5500000000000003 3.4000000000000004
decision_type=2 2
left_child=1 -1
right_child=-2 -3
leaf_value=-0.014800590697893433 -0.010964004885297621 0.024579646918352349
leaf_weight=1.8594720084220169 3.5143399052321911 3.2296290881931782
leaf_count=34 31 31
internal_value=0 0.0101908
internal_weight=0 5.0891
internal_count=96 65
is_linear=0
shrinkage=0.05


Tree=152
num_leaves=4
num_cat=0
split_feature=2 1 1
split_gain=1.59204 0.977813 0.0628486
threshold=5.0500000000000007 2.8500000000000001 3.0500000000000003
decision_type=2 2 2
left_child=1 -1 -3
right_child=-2 2 -4
leaf_value=0.0057944398551210887 0.036040698444476597 -0.027440700660856618 -0.043709517885082795
leaf_weight=2.9181955084204674 2.2878264710307121 1.0069163553416731 1.4463649634271858
leaf_count=22 24 15 35
internal_value=0 -0.0137655 -0.0370322
internal_weight=0 5.37148 2.45328
internal_count=96 72 50
is_linear=0
shrinkage=0.05


Tree=153
num_leaves=4
num_cat=0
split_feature=3 0 2
split_gain=1.71367 0.0992047 3.94938e-05
threshold=0.45000000000000007 5.6500000000000012 5.0500000000000007
decision_type=2 2 2
left_child=-1 -2 -3
right_child=1 2 -4
leaf_value=0.035758737924527252 -0.014393758971844833 -0.034550549372629684 -0.034090534915246343
leaf_weight=1.6586471796035764 0.90826931037008796 1.2058458179235456 0.76105647347867478
leaf_count=31 12 29 24
internal_value=0 -0.0280612 -0.0343726
internal_weight=0 2.87517 1.9669
internal_count=96 65 53
is_linear=0
shrinkage=0.05


Tree=154
num_leaves=3
num_cat=0
split_feature=3 3
split_gain=0.349678 0.680459
threshold=1.5500000000000003 1.0500000000000003
decision_type=2 2
left_child=1 -1
right_child=-2 -3
leaf_value=-0.01393378579075007 -0.010672419315445417 0.024369184033902161
leaf_weight=1.8517475463449953 3.4558303207159042 3.1017610132694244
leaf_count=36 31 29
internal_value=0 0.0100506
internal_weight=0 4.95351
internal_count=96 65
is_linear=0
shrinkage=0.05


Tree=155
num_leaves=4
num_cat=0
split_feature=2 1 1
split_gain=1.50849 0.941492 0.0642645
threshold=5.0500000000000007 2.8500000000000001 3.0500000000000003
decision_type=2 2 2
left_child=1 -1 -3
right_child=-2 2 -4
leaf_value=0.0057593414591404274 0.035942760440350267 -0.026980106337976952 -0.043659767666721527
leaf_weight=2.8976041041314602 2.1969870701432228 0.99051026627421412 1.3848841041326521
leaf_count=22 24 15 35
internal_value=0 -0.0133699 -0.0367046
internal_weight=0 5.273 2.37539
internal_count=96 72 50
is_linear=0
shrinkage=0.05


Tree=156
num_leaves=4
num_cat=0
split_feature=2 2 2
split_gain=1.62546 0.107784 3.82013e-05
threshold=1.8 4.0500000000000007 5.0500000000000007
decision_type=2 2 2
left_child=-1 -2 -3
right_child=1 2 -4
leaf_value=0.035698700714187577 -0.012756915624349954 -0.034500760277398651 -0.034040596164903722
leaf_weight=1.5781322605907915 0.8249855283647779 1.2277763988822696 0.71289319731295098
leaf_count=31 10 31 24
internal_value=0 -0.027896 -0.0343317
internal_weight=0 2.76566 1.94067
internal_count=96 65 55
is_linear=0
shrinkage=0.05


Tree=157
num_leaves=3
num_cat=0
split_feature=2 1
split_gain=0.337854 0.960762
threshold=4.7500000000000009 3.1500000000000008
decision_type=2 2
left_child=1 -1
right_child=-2 -3
leaf_value=0.031526495254240533 -0.0077888837734123514 -0.020914655787665506
leaf_weight=2.4118105024099354 4.4523166231811047 1.3692461308091877
leaf_count=32 35 29
internal_value=0 0.0125358
internal_weight=0 3.78106
internal_count=96 61
is_linear=0
shrinkage=0.05


Tree=158
num_leaves=4
num_cat=0
split_feature=2 1 1
split_gain=1.42781 0.906299 0.0658001
threshold=5.0500000000000007 2.8500000000000001 3.0500000000000003
decision_type=2 2 2
left_child=1 -1 -3
right_child=-2 2 -4
leaf_value=0.005701235426355652 0.035845587209489237 -0.026519190356522962 -0.043626778866547061
leaf_weight=2.8800990767776966 2.1041789650917053 0.97505065612494979 1.3270430061966179
leaf_count=22 24 15 35
internal_value=0 -0.012993 -0.0363809
internal_weight=0 5.18219 2.30209
internal_count=96 72 50
is_linear=0
shrinkage=0.05


Tree=159
num_leaves=4
num_cat=0
split_feature=3 2 2
split_gain=1.54256 0.105591 4.00119e-05
threshold=0.45000000000000007 4.0500000000000007 5.0500000000000007
decision_type=2 2 2
left_child=-1 -2 -3
right_child=1 2 -4
leaf_value=0.035641698613470163 -0.012560293396700209 -0.034478191387977079 -0.033994053970506567
leaf_weight=1.5051600933074949 0.79971835762262378 1.18236986733973 0.6678094808012246
leaf_count=31 10 31 24
internal_value=0 -0.0277415 -0.0343034
internal_weight=0 2.6499 1.85018
internal_count=96 65 55
is_linear=0
shrinkage=0.05


Tree=160
num_leaves=3
num_cat=0
split_feature=3 2
split_gain=0.320112 0.600509
threshold=1.5500000000000003 3.4000000000000004
decision_type=2 2
left_child=1 -1
right_child=-2 -3
leaf_value=-0.013671167084273531 -0.010252036655875919 0.02350212743714937
leaf_weight=1.7073453348129985 3.3486273847520351 2.9872939176857471
leaf_count=34 31 31
internal_value=0 0.00998295
internal_weight=0 4.69464
internal_count=96 65
is_linear=0
shrinkage=0.05


Tree=161
num_leaves=4
num_cat=0
split_feature=3 0 1
split_gain=1.37209 0.761132 0.0508577
threshold=1.8500000000000003 5.9500000000000011 3.1500000000000008
decision_type=2 2 2
left_child=1 2 -1
right_child=-2 -3 -4
leaf_value=-0.03004632971084456 0.037398785418947693 0.0024619748317721295 -0.04641867519626458
leaf_weight=1.0961528066545723 1.8995130136609075 3.2647443730384111 0.83613284956663836
leaf_count=24 20 25 27
internal_value=0 -0.0122589 -0.0371309
internal_weight=0 5.19703 1.93229
internal_count=96 76 51
is_linear=0
shrinkage=0.05


Tree=162
num_leaves=4
num_cat=0
split_feature=2 0 2
split_gain=1.46435 0.107801 3.75489e-05
threshold=1.8 5.5500000000000007 5.0500000000000007
decision_type=2 2 2
left_child=-1 -2 -3
right_child=1 2 -4
leaf_value=0.035584786075725294 -0.011751113880069016 -0.034434547780199033 -0.03395569331819738
leaf_weight=1.4309036135673525 0.75498928874731097 1.166090805083513 0.63086159527301777
leaf_count=31 9 32 24
internal_value=0 -0.0276053 -0.0342664
internal_weight=0 2.55194 1.79695
internal_count=96 65 56
is_linear=0
shrinkage=0.05


Tree=163
num_leaves=3
num_cat=0
split_feature=2 1
split_gain=0.30884 0.873596
threshold=4.7500000000000009 3.1500000000000008
decision_type=2 2
left_child=1 -1
right_child=-2 -3
leaf_value=0.031306278813720965 -0.0073635370793428108 -0.020368304973667681
leaf_weight=2.2528215181082492 4.3357327505946159 1.28408314473927
leaf_count=32 35 29
internal_value=0 0.0125457
internal_weight=0 3.5369
internal_count=96 61
is_linear=0
shrinkage=0.05


Tree=164
num_leaves=4
num_cat=0
split_feature=2 1 1
split_gain=1.3018 0.863097 0.0635753
threshold=5.0500000000000007 2.8500000000000001 3.0500000000000003
decision_type=2 2 2
left_child=1 -1 -3
right_child=-2 2 -4
leaf_value=0.0058729216599782315 0.035688491454358089 -0.026313740419691006 -0.043540604950903172
leaf_weight=2.7918676324188709 1.9465692862868307 0.94303285330534015 1.2395242527127264
leaf_count=22 24 15 35
internal_value=0 -0.0125417 -0.0360973
internal_weight=0 4.97442 2.18256
internal_count=96 72 50
is_linear=0
shrinkage=0.05


Tree=165
num_leaves=4
num_cat=0
split_feature=3 1 1
split_gain=1.39119 0.121899 0.000625134
threshold=0.45000000000000007 3.1500000000000008 2.6500000000000008
decision_type=2 2 2
left_child=-1 2 -2
right_child=1 -3 -4
leaf_value=0.035534242526294599 -0.0360275648106856 -0.010620434608870088 -0.034071742270826447
leaf_weight=1.3659711107611658 0.6835034973919395 0.74668714217841614 1.0156609807163475
leaf_count=31 14 14 37
internal_value=0 -0.0274589 -0.0348585
internal_weight=0 2.44585 1.69916
internal_count=96 65 51
is_linear=0
shrinkage=0.05


Tree=166
num_leaves=3
num_cat=0
split_feature=2 1
split_gain=0.292677 0.825124
threshold=4.7500000000000009 3.1500000000000008
decision_type=2 2
left_child=1 -1
right_child=-2 -3
leaf_value=0.03104482157474775 -0.0071302831203027333 -0.020029416136056369
leaf_weight=2.1772187482565646 4.2759128957986832 1.2418142557144163
leaf_count=32 35 29
internal_value=0 0.0124943
internal_weight=0 3.41903
internal_count=96 61
is_linear=0
shrinkage=0.05


Tree=167
num_leaves=4
num_cat=0
split_feature=3 0 1
split_gain=1.24458 0.710796 0.0487598
threshold=1.8500000000000003 5.9500000000000011 3.1500000000000008
decision_type=2 2 2
left_child=1 2 -1
right_child=-2 -3 -4
leaf_value=-0.029814900612041714 0.037180029537720045 0.0023428493899841788 -0.046466992243111738
leaf_weight=1.0216335002332924 1.7539374753832815 3.199542136862874 0.77164399065077294
leaf_count=24 20 25 27
internal_value=0 -0.0117809 -0.0369803
internal_weight=0 4.99282 1.79328
internal_count=96 76 51
is_linear=0
shrinkage=0.05


end of trees

feature_importances:
Column_2=210
Column_1=96
Column_3=86
Column_0=29

parameters:
[boosting: gbdt]
[objective: multiclass]
[metric: multi_logloss]
[tree_learner: serial]
[device_type: cpu]
[data_sample_strategy: bagging]
[data: ]
[valid: ]
[num_iterations: 10000]
[learning_rate: 0.05]
[num_leaves: 63]
[num_threads: 0]
[seed: 1237]
[deterministic: 0]
[force_col_wise: 0]
[force_row_wise: 0]
[histogram_pool_size: -1]
[max_depth: -1]
[min_data_in_leaf: 20]
[min_sum_hessian_in_leaf: 0.001]
[bagging_fraction: 1]
[pos_bagging_fraction: 1]
[neg_bagging_fraction: 1]
[bagging_freq: 0]
[bagging_seed: 32458]
[feature_fraction: 1]
[feature_fraction_bynode: 1]
[feature_fraction_seed: 15412]
[extra_trees: 0]
[extra_seed: 19498]
[early_stopping_round: 0]
[early_stopping_min_delta: 0]
[first_metric_only: 0]
[max_delta_step: 0]
[lambda_l1: 0]
[lambda_l2: 0]
[linear_lambda: 0]
[min_gain_to_split: 0]
[drop_rate: 0.1]
[max_drop: 50]
[skip_drop: 0.5]
[xgboost_dart_mode: 0]
[uniform_drop: 0]
[drop_seed: 818]
[top_rate: 0.2]
[other_rate: 0.1]
[min_data_per_group: 100]
[max_cat_threshold: 32]
[cat_l2: 10]
[cat_smooth: 10]
[max_cat_to_onehot: 4]
[top_k: 20]
[monotone_constraints: ]
[monotone_constraints_method: basic]
[monotone_penalty: 0]
[feature_contri: ]
[forcedsplits_filename: ]
[refit_decay_rate: 0.9]
[cegb_tradeoff: 1]
[cegb_penalty_split: 0]
[cegb_penalty_feature_lazy: ]
[cegb_penalty_feature_coupled: ]
[path_smooth: 0]
[interaction_constraints: ]
[verbosity: -1]
[saved_feature_importance_type: 0]
[use_quantized_grad: 0]
[num_grad_quant_bins: 4]
[quant_train_renew_leaf: 0]
[stochastic_rounding: 1]
[linear_tree: 0]
[max_bin: 255]
[max_bin_by_feature: ]
[min_data_in_bin: 3]
[bin_construct_sample_cnt: 200000]
[data_random_seed: 4078]
[is_enable_sparse: 1]
[enable_bundle: 1]
[use_missing: 1]
[zero_as_missing: 0]
[feature_pre_filter: 1]
[pre_partition: 0]
[two_round: 0]
[header: 0]
[label_column: ]
[weight_column: ]
[group_column: ]
[ignore_column: ]
[categorical_feature: ]
[forcedbins_filename: ]
[precise_float_parser: 0]
[parser_config_file: ]
[objective_seed: 21231]
[num_class: 3]
[is_unbalance: 0]
[scale_pos_weight: 1]
[sigmoid: 1]
[boost_from_average: 1]
[reg_sqrt: 0]
[alpha: 0.9]
[fair_c: 1]
[poisson_max_delta_step: 0.7]
[tweedie_variance_power: 1.5]
[lambdarank_truncation_level: 30]
[lambdarank_norm: 1]
[label_gain: ]
[lambdarank_position_bias_regularization: 0]
[eval_at: ]
[multi_error_top_k: 1]
[auc_mu_weights: ]
[num_machines: 1]
[local_listen_port: 12400]
[time_out: 120]
[machine_list_filename: ]
[machines: ]
[gpu_platform_id: -1]
[gpu_device_id: -1]
[gpu_use_dp: 0]
[num_gpu: 1]

end of parameters

pandas_categorical:null
