tree
version=v4
num_class=3
num_tree_per_iteration=3
label_index=0
max_feature_idx=3
objective=multiclass num_class:3
feature_names=Column_0 Column_1 Column_2 Column_3
feature_infos=[4.2999999999999998:7.7000000000000002] [2:4.4000000000000004] [1:6.7000000000000002] [0.10000000000000001:2.5]
tree_sizes=546 620 740 835 830 843 948 843 745 841 841 849 938 844 848 747 1044 950 938 928 851 952 931 934 1054 826 952 957 850 854

Tree=0
num_leaves=4
num_cat=0
split_feature=3 3 0
split_gain=61.0462 0.253846 3.55271e-15
threshold=0.45000000000000007 1.2500000000000002 5.8500000000000005
decision_type=2 2 2
left_child=-1 -2 -3
right_child=1 2 -4
leaf_value=-0.69861228866810976 -1.2386122886681097 -1.2986122886681097 -1.2986122886681097
leaf_weight=10.333333641290663 3.3333334326744106 4.0000001192092922 14.333333760499952
leaf_count=31 10 12 43
internal_value=-1.09861 -1.28938 -1.29861
internal_weight=0 21.6667 18.3333
internal_count=96 65 55
is_linear=0
shrinkage=1


Tree=1
num_leaves=5
num_cat=0
split_feature=2 2 2 2
split_gain=15.9883 34.6849 2.94759 0.197018
threshold=1.8 4.7500000000000009 5.0500000000000007 4.0500000000000007
decision_type=2 2 2 2
left_child=-1 3 -3 -2
right_child=1 2 -4 -5
leaf_value=-1.2710152331759592 -0.73906718122790749 -1.0560867273383625 -1.2710152331759592 -0.67996184212256816
leaf_weight=10.489746093749998 3.3837890625000018 3.7221679687499991 8.1210937499999982 6.767578125
leaf_count=31 10 11 24 20
internal_value=-1.06784 -0.970942 -1.20347 -0.699664
internal_weight=0 21.9946 11.8433 10.1514
internal_count=96 65 35 30
is_linear=0
shrinkage=1


Tree=2
num_leaves=6
num_cat=0
split_feature=0 1 0 1 0
split_gain=22.0695 0.756877 0.408681 1.84412 0.949922
threshold=5.7500000000000009 2.8500000000000001 6.0500000000000007 3.1500000000000008 6.5500000000000007
decision_type=2 2 2 2 2
left_child=1 -1 -2 4 -4
right_child=2 -3 3 -5 -6
leaf_value=-1.2256463408689071 -1.022370918841105 -1.3272840518828084 -0.94614263558067901 -0.82833528872365725 -1.0833535454494456
leaf_weight=3.9355469942092922 3.9355469942092922 11.478678733110426 5.247395992279051 3.6075847446918479 3.279622495174408
leaf_count=12 12 35 16 11 10
internal_value=-1.13036 -1.30133 -0.966366 -0.948203 -0.998916
internal_weight=0 15.4142 16.0702 12.1346 8.52702
internal_count=96 47 49 37 26
is_linear=0
shrinkage=1


Tree=3
num_leaves=7
num_cat=0
split_feature=2 2 2 1 1 2
split_gain=37.7903 0.258433 0.00874334 0.00365981 0.000784151 0.000801115
threshold=1.8 4.0500000000000007 4.7500000000000009 3.3500000000000001 3.1500000000000008 5.0500000000000007
decision_type=2 2 2 2 2 2
left_child=3 -2 -3 -1 5 -4
right_child=1 2 4 -5 -6 -7
leaf_value=0.28829144163528148 -0.11955131820225934 -0.17710536779285715 -0.18540568880307273 0.28097929263242233 -0.1841313235207912 -0.18957948852187745
leaf_weight=4.454781651496889 2.9883955121040371 5.5647441446781185 3.0254474878311139 7.1044974029064178 2.9965209364891052 4.6924811005592346
leaf_count=12 10 20 10 19 10 15
internal_value=0 -0.173613 -0.183537 0.283797 -0.186877 -0.187943
internal_weight=0 19.2676 16.2792 11.5593 10.7144 7.71793
internal_count=96 65 55 31 35 25
is_linear=0
shrinkage=0.2


Tree=4
num_leaves=7
num_cat=0
split_feature=2 2 2 0 2 2
split_gain=10.876 22.9354 2.35502 0.207823 0.000215986 0.00012704
threshold=1.8 4.7500000000000009 5.0500000000000007 5.6500000000000012 1.4500000000000002 5.5500000000000007
decision_type=2 2 2 2 2 2
left_child=4 3 -3 -2 -1 -4
right_child=1 2 5 -5 -6 -7
leaf_value=-0.18201074609155657 0.24399337294030726 0.0037401270197448635 -0.19054289741108979 0.30073645854809672 -0.18397646928274172 -0.18889747594571776
leaf_weight=5.2876956462860125 4.0819684863090533 3.7858692109584791 3.7782701551914215 7.0252822935581207 3.8738443851470947 3.7297099530696869
leaf_count=18 11 11 12 19 13 12
internal_value=0 0.0758193 -0.124873 0.279883 -0.182842 -0.189726
internal_weight=0 22.4011 11.2938 11.1073 9.16154 7.50798
internal_count=96 65 35 30 31 24
is_linear=0
shrinkage=0.2


Tree=5
num_leaves=7
num_cat=0
split_feature=2 2 1 2 2 1
split_gain=38.858 1.78111 0.0363436 0.0143143 0.00181954 0.000426195
threshold=4.7500000000000009 5.0500000000000007 3.0500000000000003 3.8500000000000001 4.2500000000000009 3.3500000000000001
decision_type=2 2 2 2 2 2
left_child=3 -2 -3 5 -5 -1
right_child=1 2 -4 4 -6 -7
leaf_value=-0.18184368667228476 0.15834365486953239 0.33436369877498151 0.30846943502337398 -0.18811951901723567 -0.19444619148973141 -0.17930912228140686
leaf_weight=4.9686153531074577 3.8046684861183158 4.6728700995445234 4.0448066592216492 3.0623634159564963 4.4760134816169739 5.6960403025150299
leaf_count=17 11 13 11 10 14 20
internal_value=0 0.272519 0.322349 -0.185205 -0.191876 -0.18049
internal_weight=0 12.5223 8.71768 18.203 7.53838 10.6647
internal_count=96 35 24 61 24 37
is_linear=0
shrinkage=0.2


Tree=6
num_leaves=8
num_cat=0
split_feature=0 1 1 0 1 0 0
split_gain=18.6253 1.54008 1.41308 0.0146942 0.000208844 0.000160625 0.000116152
threshold=5.4500000000000011 3.1500000000000008 3.2500000000000004 5.0500000000000007 2.8500000000000001 6.0500000000000007 6.4500000000000011
decision_type=2 2 2 2 2 2 2
left_child=1 -1 4 -3 5 -2 -6
right_child=2 3 -4 -5 6 -7 -8
leaf_value=0.076305803318780813 -0.17230605349149117 0.22515242216901352 -0.01518096425328134 0.24210290808362075 -0.16896594760585035 -0.17025715797285931 -0.17059340387494662
leaf_weight=3.4815316945314434 3.3975967913866061 3.6224889755249006 2.8470833599567404 4.699753612279892 3.4691376388072968 2.7850985825061798 3.5483794957399368
leaf_count=11 13 10 10 13 14 11 14
internal_value=0 0.187999 -0.142973 0.234725 -0.170536 -0.171383 -0.169789
internal_weight=0 11.8038 16.0473 8.32224 13.2002 6.1827 7.01752
internal_count=96 34 62 23 52 24 28
is_linear=0
shrinkage=0.2


Tree=7
num_leaves=7
num_cat=0
split_feature=3 2 2 3 3 2
split_gain=8.07568 14.8335 0.742117 0.114206 0.0528062 0.00471862
threshold=0.45000000000000007 4.9500000000000011 4.5500000000000007 1.9500000000000002 1.2500000000000002 1.4500000000000002
decision_type=2 2 2 2 2 2
left_child=5 2 4 -3 -2 -1
right_child=1 3 -4 -5 -6 -7
leaf_value=-0.16846538483527709 0.20413944675605103 -0.12870055785910309 0.11918151275011198 -0.17717997907474731 0.23482827134150039 -0.17839643652956949
leaf_weight=4.4553295671939876 3.6268096566200274 3.7104394435882559 3.8656147718429557 4.0821781158447266 5.8770663142204285 3.3547481894493103
leaf_count=18 10 13 11 15 16 13
internal_value=0 0.0652284 0.193065 -0.154097 0.223117 -0.172731
internal_weight=0 21.1621 13.3695 7.79262 9.50388 7.81008
internal_count=96 65 37 28 26 31
is_linear=0
shrinkage=0.2


Tree=8
num_leaves=6
num_cat=0
split_feature=3 3 3 3 0
split_gain=22.7138 0.834476 0.719156 0.00344888 9.85778e-05
threshold=1.5500000000000003 1.8500000000000003 1.3500000000000003 0.45000000000000007 5.1500000000000012
decision_type=2 2 2 2 2
left_child=2 -2 3 4 -1
right_child=1 -3 -4 -5 -6
leaf_value=-0.16627896020218913 0.14660221388986502 0.2602712299192147 -0.076706683190032973 -0.17357123853188444 -0.16783080481601501
leaf_weight=4.9995194971561485 3.972026050090788 7.3894662261009216 4.5620729327201834 5.0226626694202423 2.4347344487905502
leaf_count=21 11 20 15 19 10
internal_value=0 0.220532 -0.144643 -0.169523 -0.166787
internal_weight=0 11.3615 17.019 12.4569 7.43425
internal_count=96 31 65 50 31
is_linear=0
shrinkage=0.2


Tree=9
num_leaves=7
num_cat=0
split_feature=2 1 2 2 2 2
split_gain=18.7026 0.196501 0.00587883 0.00159314 0.0005501 9.02389e-05
threshold=3.4000000000000004 3.2500000000000004 1.4500000000000002 4.8500000000000005 4.1500000000000012 5.1500000000000012
decision_type=2 2 2 2 2 2
left_child=1 -1 -3 4 -2 -5
right_child=3 2 -4 5 -6 -7
leaf_value=0.15089910793844033 -0.16259561628289054 0.2003848981429589 0.21177743628565104 -0.16523926659401622 -0.15864449526632166 -0.16381358846164615
leaf_weight=3.8720634579658526 2.179202273488043 3.3105282485485077 4.0020685493946075 3.023972362279892 3.9905150532722473 4.3026693910360336
leaf_count=12 10 10 12 13 20 19
internal_value=0 0.18733 0.20662 -0.162408 -0.16004 -0.164402
internal_weight=0 11.1847 7.3126 13.4964 6.16972 7.32664
internal_count=96 34 22 62 30 32
is_linear=0
shrinkage=0.2


Tree=10
num_leaves=7
num_cat=0
split_feature=1 0 0 1 0 0
split_gain=4.47241 1.09497 0.949863 0.576137 0.348097 0.187274
threshold=3.2500000000000004 5.0500000000000007 5.7500000000000009 2.8500000000000001 6.5500000000000007 5.6500000000000012
decision_type=2 2 2 2 2 2
left_child=1 -1 -3 -4 -5 -2
right_child=5 2 3 4 -6 -7
leaf_value=-0.06559626466720718 -0.1668729126443807 0.14460175197158223 -0.012255978126610029 0.030859041232612211 0.11981866036842855 -0.093452129376993862
leaf_weight=2.8511364161968293 4.3540055304765692 4.7155387401580837 5.1120705902576429 3.4704607874155045 3.5686734765768051 2.0410504192113876
leaf_count=12 20 14 17 12 12 9
internal_value=0 0.049036 0.0684134 0.0388468 0.0759595 -0.14344
internal_weight=0 19.7179 16.8667 12.1512 7.03913 6.39506
internal_count=96 67 55 41 24 29
is_linear=0
shrinkage=0.2


Tree=11
num_leaves=7
num_cat=0
split_feature=2 2 3 2 3 2
split_gain=18.2817 0.941589 0.00652332 0.00424092 0.00045713 0.000189284
threshold=4.7500000000000009 5.0500000000000007 1.9500000000000002 4.2500000000000009 0.45000000000000007 1.3500000000000003
decision_type=2 2 2 2 2 2
left_child=3 -2 -3 4 5 -1
right_child=1 2 -4 -5 -6 -7
leaf_value=-0.16090503362116237 0.096442318937743382 0.22012570845508567 0.20884979080243837 -0.16856118812111864 -0.16220828177149546 -0.15857584495222951
leaf_weight=2.0899042338132876 4.0713244974613181 3.5659624636173231 4.8345001935958862 3.407725751399993 3.4727918207645416 4.200972706079483
leaf_count=10 11 10 14 14 16 21
internal_value=0 0.175379 0.213636 -0.162487 -0.160366 -0.15935
internal_weight=0 12.4718 8.40046 13.1714 9.76367 6.29088
internal_count=96 35 24 61 47 31
is_linear=0
shrinkage=0.2


Tree=12
num_leaves=8
num_cat=0
split_feature=2 0 2 2 2 0 0
split_gain=13.9365 0.164905 0.000323498 0.000306458 0.00022033 6.2666e-05 3.45568e-05
threshold=1.8 5.5500000000000007 1.3500000000000003 4.7500000000000009 5.0500000000000007 6.3500000000000005 6.0500000000000007
decision_type=2 2 2 2 2 2 2
left_child=2 -2 -1 6 -5 -6 -3
right_child=1 3 -4 4 5 -7 -8
leaf_value=0.18444666095753229 -0.094407882791296624 -0.15451410676408742 0.1818981427327625 -0.15782935012415045 -0.15623180280862795 -0.15469968024387307 -0.15327858815082007
leaf_weight=2.9726104140281695 2.1530375629663459 1.762523546814917 6.0413661003112793 2.1524737328290939 1.868823394179344 2.4914310723543167 1.8622801005840299
leaf_count=10 9 10 21 11 10 14 11
internal_value=0 -0.144677 0.182739 -0.155353 -0.156174 -0.155356 -0.153879
internal_weight=0 12.2906 9.01398 10.1375 6.51273 4.36025 3.6248
internal_count=96 65 31 56 35 24 21
is_linear=0
shrinkage=0.2


Tree=13
num_leaves=7
num_cat=0
split_feature=3 2 2 3 3 3
split_gain=4.65551 8.61773 0.574805 0.211806 0.0265049 0.00205646
threshold=0.45000000000000007 4.9500000000000011 4.5500000000000007 1.8500000000000003 1.2500000000000002 0.25000000000000006
decision_type=2 2 2 2 2 2
left_child=5 2 4 -3 -2 -1
right_child=1 3 -4 -5 -6 -7
leaf_value=-0.15464277392024983 0.16719842387649325 -0.088442005975252688 0.086989670099716948 -0.16455880768411976 0.19054529912472418 -0.16298229618077609
leaf_weight=3.8769200295209911 3.1939081549644488 2.2911704927682868 3.7682443261146537 4.0421279072761536 4.9743402302265167 1.7020053863525388
leaf_count=22 10 9 11 19 16 9
internal_value=0 0.0515522 0.151607 -0.137022 0.181416 -0.157187
internal_weight=0 18.2698 11.9365 6.3333 8.16825 5.57893
internal_count=96 65 37 28 26 31
is_linear=0
shrinkage=0.2


Tree=14
num_leaves=7
num_cat=0
split_feature=0 1 0 1 1 1
split_gain=5.36645 0.624491 0.844967 0.599534 0.000364813 1.11476e-05
threshold=5.5500000000000007 2.8500000000000001 6.0500000000000007 3.1500000000000008 3.1500000000000008 3.4500000000000006
decision_type=2 2 2 2 2 2
left_child=4 -2 -3 -4 -1 -6
right_child=1 2 3 -5 5 -7
leaf_value=-0.15502882999971879 0.11189165451767227 -0.065517844997078065 0.017177696144849292 0.1311241019833119 -0.15233131606304109 -0.15164204098626632
leaf_weight=2.5199553966522243 6.3894068300724056 2.6294441372156125 4.2968290448188782 3.239583745598793 1.6244176775217058 2.2228660732507706
leaf_count=14 21 11 15 11 10 14
internal_value=0 0.062895 0.0320998 0.0661584 -0.153158 -0.151933
internal_weight=0 16.5553 10.1659 7.53641 6.36724 3.84728
internal_count=96 58 37 26 38 24
is_linear=0
shrinkage=0.2


Tree=15
num_leaves=6
num_cat=0
split_feature=3 3 2 2 3
split_gain=10.6474 0.13308 0.00164891 0.000407881 0.00013954
threshold=0.45000000000000007 1.2500000000000002 1.4500000000000002 4.7500000000000009 1.8500000000000003
decision_type=2 2 2 2 2
left_child=2 -2 -1 -3 -5
right_child=1 3 -4 4 -6
leaf_value=0.168709960294328 -0.093499371324242075 -0.14912727752548224 0.17467691203466496 -0.15318912533734927 -0.15118534368554726
leaf_weight=4.4161971062421825 1.9820944070816029 2.7976077347993833 3.1910115927457809 2.517378181219101 3.1044902801513672
leaf_count=18 10 20 13 15 20
internal_value=0 -0.140124 0.171213 -0.151101 -0.152083
internal_weight=0 10.4016 7.60721 8.41948 5.62187
internal_count=96 65 31 55 35
is_linear=0
shrinkage=0.2


Tree=16
num_leaves=9
num_cat=0
split_feature=3 3 3 0 3 3 3 0
split_gain=3.52803 6.67315 0.851737 0.195389 0.049551 0.0138975 0.00264706 0.000107359
threshold=0.45000000000000007 1.5500000000000003 1.8500000000000003 6.2500000000000009 1.2500000000000002 2.0500000000000003 0.25000000000000006 4.9500000000000011
decision_type=2 2 2 2 2 2 2 2
left_child=6 3 -3 4 -2 -4 7 -1
right_child=1 2 5 -5 -6 -7 -8 -9
leaf_value=-0.15044353234677738 0.15037092514950814 -0.025090492573246061 -0.17806906166342995 0.19000418377726747 0.11437668583386713 -0.15402352321027316 -0.15967963161815896 -0.14808862912596965
leaf_weight=1.499893233180049 2.9277591258287448 3.1317813098430625 1.842283755540848 3.6507651507854462 3.2040543258190155 2.010918527841568 1.4099685102701185 1.6009173244237898
leaf_count=10 10 11 8 12 12 12 9 12
internal_value=0 0.0467581 -0.102557 0.153373 0.131563 -0.16552 -0.152495 -0.149228
internal_weight=0 16.7676 6.98498 9.78258 6.13181 3.8532 4.51078 3.10081
internal_count=96 65 31 34 22 20 31 22
is_linear=0
shrinkage=0.2


Tree=17
num_leaves=8
num_cat=0
split_feature=2 2 2 3 3 2 2
split_gain=11.0793 0.832791 0.00612789 0.00374742 0.000653167 0.000131262 5.9274e-05
threshold=4.7500000000000009 5.0500000000000007 3.8500000000000001 1.9500000000000002 1.3500000000000003 1.5500000000000003 1.3500000000000003
decision_type=2 2 2 2 2 2 2
left_child=2 -2 5 -3 -4 6 -1
right_child=1 3 4 -5 -6 -7 -8
leaf_value=-0.14932179275659008 0.06807760321953954 0.18739682334889823 -0.15666900025624075 0.17803181804347112 -0.16146073261084859 -0.15058933925179363 -0.14767366697399831
leaf_weight=1.3892542347311994 4.0570353567600232 3.0472332835197449 2.3422266095876694 3.8921959698200226 2.2129906266927719 1.346539221704006 2.3482383042573929
leaf_count=10 11 10 13 14 11 9 18
internal_value=0 0.14006 -0.15367 0.182144 -0.158997 -0.148896 -0.148286
internal_weight=0 10.9965 9.63925 6.93943 4.55522 5.08403 3.73749
internal_count=96 35 61 24 24 37 28
is_linear=0
shrinkage=0.2


Tree=18
num_leaves=8
num_cat=0
split_feature=2 0 2 2 2 0 0
split_gain=7.94872 0.15524 0.00189743 0.0002198 0.000241916 2.76935e-05 4.52825e-06
threshold=1.8 5.5500000000000007 1.4500000000000002 4.7500000000000009 5.0500000000000007 6.0500000000000007 6.3500000000000005
decision_type=2 2 2 2 2 2 2
left_child=2 -2 -1 5 -5 -3 -6
right_child=1 3 -4 4 6 -7 -8
leaf_value=0.15910449568391527 -0.079261907897299325 -0.14619930240471807 0.16615746310973151 -0.14986085667747293 -0.1471026427535356 -0.14483556475773254 -0.14660405527011861
leaf_weight=3.6102775335311899 1.6749391257762889 1.1849301531910899 2.6424950957298279 1.6056276410818098 1.2668611705303194 1.1976547688245771 1.7150145545601843
leaf_count=18 9 10 13 11 10 11 14
internal_value=0 -0.133934 0.162085 -0.147072 -0.147882 -0.145514 -0.146816
internal_weight=0 8.64503 6.25277 6.97009 4.5875 2.38258 2.98188
internal_count=96 65 31 56 35 21 24
is_linear=0
shrinkage=0.2


Tree=19
num_leaves=8
num_cat=0
split_feature=2 2 3 3 3 3 3
split_gain=2.88495 4.47829 1.62196 0.0355521 0.00446827 0.00265794 0.00136787
threshold=5.0500000000000007 1.8 1.5500000000000003 1.2500000000000002 1.4500000000000002 0.25000000000000006 1.9500000000000002
decision_type=2 2 2 2 2 2 2
left_child=1 5 3 -3 -5 -1 -2
right_child=6 2 -4 4 -6 -7 -8
leaf_value=-0.14525524137876758 -0.15661059080957351 0.13333204108640179 -0.021620268722616562 0.1667590423012105 0.1554375933141573 -0.15687645562448788 -0.14893479360838077
leaf_weight=2.4510695636272462 1.8203471004962914 2.6037455499172193 2.8855535984039298 3.0604798793792725 2.5615070313215256 1.1596997529268263 1.8958441838622091
leaf_count=22 10 10 9 13 9 9 14
internal_value=0 0.0445137 0.107395 0.152653 0.161601 -0.148988 -0.152695
internal_weight=0 14.7221 11.1113 8.22573 5.62199 3.61077 3.71619
internal_count=96 72 41 32 22 31 24
is_linear=0
shrinkage=0.2


Tree=20
num_leaves=7
num_cat=0
split_feature=2 2 0 0 2 0
split_gain=8.08246 0.807463 0.00483259 0.000619268 0.00015245 1.03138e-05
threshold=4.7500000000000009 5.0500000000000007 5.7500000000000009 6.3500000000000005 1.5500000000000003 4.9500000000000011
decision_type=2 2 2 2 2 2
left_child=2 -2 4 -3 5 -1
right_child=1 3 -4 -5 -6 -7
leaf_value=-0.14459821954239357 0.053703278559276604 0.17244335863093993 -0.15548595099462909 0.16830428070768882 -0.14641875808910132 -0.14382713017128212
leaf_weight=1.2849207744002371 3.9989048540592176 2.5218546837568283 2.8569510579109192 3.3888170570135117 2.1618121936917305 1.5083920732140539
leaf_count=12 11 10 16 14 18 15
internal_value=0 0.123112 -0.148935 0.17007 -0.145158 -0.144182
internal_weight=0 9.90958 7.81208 5.91067 4.95513 2.79331
internal_count=96 35 61 24 45 27
is_linear=0
shrinkage=0.2


Tree=21
num_leaves=8
num_cat=0
split_feature=3 2 3 2 2 3 3
split_gain=6.05999 0.2133 0.00619803 6.71654e-05 0.000247693 1.02785e-05 3.018e-06
threshold=0.45000000000000007 3.8500000000000001 0.25000000000000006 4.7500000000000009 5.0500000000000007 1.3500000000000003 2.0500000000000003
decision_type=2 2 2 2 2 2 2
left_child=2 -2 -1 5 -5 -3 -6
right_child=1 3 -4 4 6 -7 -8
leaf_value=0.15195243281923854 -0.049121624607614808 -0.14300906958632717 0.16703838382796771 -0.14692288522485716 -0.14376505060195452 -0.14386056951772558 -0.14331250817462537
leaf_weight=3.4895293712615967 1.1179402992129324 1.211486801505089 1.5837702453136442 1.3718272373080256 1.2020944356918337 1.0660097599029539 1.1566587910056112
leaf_count=22 6 13 9 11 12 11 12
internal_value=0 -0.129337 0.156662 -0.144263 -0.144786 -0.143408 -0.143543
internal_weight=0 7.12602 5.0733 6.00808 3.73058 2.2775 2.35875
internal_count=96 65 31 59 35 24 24
is_linear=0
shrinkage=0.2


Tree=22
num_leaves=8
num_cat=0
split_feature=2 2 2 0 2 0 0
split_gain=2.12649 3.16294 1.09576 0.0966451 0.000817916 9.943e-05 2.14106e-06
threshold=5.0500000000000007 1.8 4.7500000000000009 5.5500000000000007 1.4500000000000002 6.3500000000000005 6.0500000000000007
decision_type=2 2 2 2 2 2 2
left_child=1 4 3 -3 -1 -2 -5
right_child=5 2 -4 6 -6 -7 -8
leaf_value=-0.14242943855052015 -0.14916750271725968 0.10801561812228602 0.0058363746780858514 0.16062186039841883 -0.14925079281368409 -0.14682778743989708 0.16090561452576158
leaf_weight=1.5918457210063928 1.2841151133179676 2.0562258362770063 3.6300947666168213 1.978205159306526 1.2593876421451566 1.6731769442558286 2.3007589876651764
leaf_count=18 10 9 11 10 13 14 11
internal_value=0 0.0403034 0.0934483 0.14365 -0.145442 -0.147844 0.160774
internal_weight=0 12.8165 9.96528 6.33519 2.85123 2.95729 4.27896
internal_count=96 72 41 30 31 24 21
is_linear=0
shrinkage=0.2


Tree=23
num_leaves=8
num_cat=0
split_feature=2 3 3 2 2 2 3
split_gain=5.89865 0.755968 0.0219597 0.00138462 0.00052035 8.94537e-06 3.07773e-06
threshold=4.7500000000000009 1.8500000000000003 2.0500000000000003 4.4500000000000011 1.8 1.3500000000000003 1.2500000000000002
decision_type=2 2 2 2 2 2 2
left_child=3 -2 -3 4 5 -1 -6
right_child=1 2 -4 -5 6 -7 -8
leaf_value=-0.14247767749747464 0.052788868606526207 0.18566392260560582 0.1566483998121781 -0.15159136808683082 -0.14575492852079064 -0.1416897687138941 -0.14620093338394488
leaf_weight=0.86889413744211319 4.5994996279478055 1.96001660823822 2.2308522015810013 1.1652131304144857 1.1182248592376711 1.7120707109570501 1.3859403878450391
leaf_count=10 15 8 12 8 10 21 12
internal_value=0 0.108774 0.170219 -0.145373 -0.143948 -0.141955 -0.146002
internal_weight=0 8.79037 4.19087 6.25034 5.08513 2.58096 2.50417
internal_count=96 35 20 61 53 31 22
is_linear=0
shrinkage=0.2


Tree=24
num_leaves=9
num_cat=0
split_feature=0 1 1 0 1 0 0 1
split_gain=3.15604 0.714345 0.479001 0.00739345 5.86281e-05 1.64844e-05 3.46638e-05 6.33054e-06
threshold=5.4500000000000011 3.0500000000000003 3.3500000000000001 5.0500000000000007 2.6500000000000008 5.8500000000000005 6.3500000000000005 3.0500000000000003
decision_type=2 2 2 2 2 2 2 2
left_child=1 -1 4 -3 -2 -6 -7 -8
right_child=2 3 -4 -5 5 6 7 -9
leaf_value=-0.018099443521518096 -0.1432664704698827 0.1466002093128419 0.0271583885866045 0.16548594114534909 -0.14070855333204285 -0.14272932135800853 -0.14163030828848641 -0.14087150267124968
leaf_weight=1.283231049776077 1.039197079837322 1.4717713594436648 0.78686058521270741 1.8990326672792432 0.72866188362240825 0.98402817547321353 0.87068542093038537 0.88863362371921539
leaf_count=9 11 12 7 13 10 11 11 12
internal_value=0 0.108895 -0.116833 0.15724 -0.141949 -0.141554 -0.141779 -0.141247
internal_weight=0 4.65404 5.29807 3.3708 4.51121 3.47201 2.74335 1.75932
internal_count=96 34 62 25 55 44 34 23
is_linear=0
shrinkage=0.2


Tree=25
num_leaves=7
num_cat=0
split_feature=2 2 2 1 1 2
split_gain=1.65945 2.3562 0.788324 0.0932416 0.00114435 2.2252e-05
threshold=5.0500000000000007 1.8 4.7500000000000009 2.9500000000000006 3.3500000000000001 5.5500000000000007
decision_type=2 2 2 2 2 2
left_child=1 4 3 -3 -1 -2
right_child=5 2 -4 -5 -6 -7
leaf_value=-0.14846373576010938 -0.14556702521541259 0.15573609376395325 0.012329425988123137 0.1013989146796221 -0.13945708307515733 -0.14434801200764197
leaf_weight=1.0803738832473748 1.2557664513587963 3.1755279675126058 3.5617137402296066 2.09764264523983 1.1812283694744108 1.1452444642782209
leaf_count=12 12 18 11 12 19 12
internal_value=0 0.0383932 0.0850217 0.134121 -0.14376 -0.144986
internal_weight=0 11.0965 8.83488 5.27317 2.2616 2.40101
internal_count=96 72 41 30 31 24
is_linear=0
shrinkage=0.2


Tree=26
num_leaves=8
num_cat=0
split_feature=3 3 3 3 0 3 0
split_gain=3.87231 0.501802 0.250628 0.0149948 0.000363416 6.33969e-05 6.00058e-07
threshold=1.5500000000000003 1.8500000000000003 1.3500000000000003 2.0500000000000003 5.7500000000000009 0.45000000000000007 4.9500000000000011
decision_type=2 2 2 2 2 2 2
left_child=2 -2 4 -3 5 6 -1
right_child=1 3 -4 -5 -6 -7 -8
leaf_value=-0.13978741619027221 0.05161274144277727 0.17691573510418634 -0.06048491857101828 0.15060810580901207 -0.14497125408480399 -0.14164176119720781 -0.13955958787953135
leaf_weight=0.78709848225116807 2.992548331618309 1.6848566532135012 2.5856454819440842 1.7845507711172102 0.87789512425661076 0.96644319593906391 1.1210243776440618
leaf_count=12 11 8 15 12 8 12 18
internal_value=0 0.111622 -0.108396 0.163384 -0.14141 -0.140322 -0.139654
internal_weight=0 6.46196 6.33811 3.46941 3.75246 2.87457 1.90812
internal_count=96 31 65 20 50 42 30
is_linear=0
shrinkage=0.2


Tree=27
num_leaves=8
num_cat=0
split_feature=2 1 2 1 2 2 1
split_gain=3.70399 0.185556 0.00643269 0.000104645 2.84601e-05 4.16577e-05 6.03265e-06
threshold=3.4000000000000004 3.1500000000000008 1.4500000000000002 2.5500000000000003 4.4500000000000011 5.0500000000000007 3.0500000000000003
decision_type=2 2 2 2 2 2 2
left_child=1 -1 -3 -2 -5 -6 -7
right_child=3 2 -4 4 5 6 -8
leaf_value=0.055776569739690966 -0.14297025154330964 0.14390387932251919 0.16277377912374705 -0.13929768192825173 -0.14151645928500803 -0.14027802779905818 -0.13948621575090708
leaf_weight=1.0536647289991381 0.69129246473312367 1.3795987516641619 1.5174633115530012 0.88357888534665141 1.1530155502259734 0.88087338954210259 0.68353341892361641
leaf_count=8 8 14 12 15 15 13 11
internal_value=0 0.127648 0.153788 -0.140716 -0.140284 -0.140604 -0.139932
internal_weight=0 3.95073 2.89706 4.29229 3.601 2.71742 1.56441
internal_count=96 34 26 62 54 39 24
is_linear=0
shrinkage=0.2


Tree=28
num_leaves=7
num_cat=0
split_feature=1 0 0 0 0 1
split_gain=0.906529 0.651567 0.621093 0.146723 0.113661 0.0147957
threshold=3.2500000000000004 6.5500000000000007 5.9500000000000011 5.4500000000000011 5.1500000000000012 2.7500000000000004
decision_type=2 2 2 2 2 2
left_child=1 2 4 -2 -1 -6
right_child=3 -3 -4 -5 5 -7
leaf_value=0.007700340002424165 -0.15427132556907239 0.13851040203636319 -0.05409773414278625 -0.043509458789106191 0.064171520363770412 0.092476119085616065
leaf_weight=1.2277899533510188 1.3093005716800701 1.8628982827067373 3.6028022132813931 0.75380482152104367 1.3245561271905901 1.6702357828617094
leaf_count=13 19 13 20 10 10 11
internal_value=0 0.0322077 0.00690147 -0.113802 0.0589474 0.0799574
internal_weight=0 9.68828 7.82538 2.06311 4.22258 2.99479
internal_count=96 67 54 29 34 21
is_linear=0
shrinkage=0.2


Tree=29
num_leaves=7
num_cat=0
split_feature=2 2 0 0 2 0
split_gain=3.22831 0.706529 0.000653056 0.000388558 2.51748e-05 3.72845e-06
threshold=4.7500000000000009 5.0500000000000007 5.7500000000000009 6.3500000000000005 1.5500000000000003 4.9500000000000011
decision_type=2 2 2 2 2 2
left_child=2 -2 4 -3 5 -1
right_child=1 3 -4 -5 -6 -7
leaf_value=-0.13863290680059753 0.023917634375098158 0.15285154094649683 -0.14409031032265229 0.14850386210257563 -0.13956784654995821 -0.13796993035783886
leaf_weight=0.64706077426672004 3.761790543794632 1.4878484755754473 1.5576823949813841 1.837987422943115 1.112876486033201 0.71339823678135872
leaf_count=12 11 10 16 14 18 15
internal_value=0 0.0832918 -0.140883 0.150449 -0.138862 -0.138285
internal_weight=0 7.08763 4.03102 3.32584 2.47334 1.36046
internal_count=96 35 61 24 45 27
is_linear=0
shrinkage=0.2


end of trees

feature_importances:
Column_2=73
Column_0=43
Column_3=43
Column_1=27

parameters:
[boosting: gbdt]
[objective: multiclass]
[metric: multi_logloss]
[tree_learner: serial]
[device_type: cpu]
[data_sample_strategy: bagging]
[data: ]
[valid: ]
[num_iterations: 10000]
[learning_rate: 0.2]
[num_leaves: 63]
[num_threads: 0]
[seed: 1236]
[deterministic: 0]
[force_col_wise: 0]
[force_row_wise: 0]
[histogram_pool_size: -1]
[max_depth: -1]
[min_data_in_leaf: 10]
[min_sum_hessian_in_leaf: 0.001]
[bagging_fraction: 1]
[pos_bagging_fraction: 1]
[neg_bagging_fraction: 1]
[bagging_freq: 0]
[bagging_seed: 21709]
[feature_fraction: 0.5]
[feature_fraction_bynode: 1]
[feature_fraction_seed: 24116]
[extra_trees: 0]
[extra_seed: 15571]
[early_stopping_round: 0]
[early_stopping_min_delta: 0]
[first_metric_only: 0]
[max_delta_step: 0]
[lambda_l1: 0]
[lambda_l2: 0]
[linear_lambda: 0]
[min_gain_to_split: 0]
[drop_rate: 0.1]
[max_drop: 50]
[skip_drop: 0.5]
[xgboost_dart_mode: 0]
[uniform_drop: 0]
[drop_seed: 15722]
[top_rate: 0.2]
[other_rate: 0.1]
[min_data_per_group: 100]
[max_cat_threshold: 32]
[cat_l2: 10]
[cat_smooth: 10]
[max_cat_to_onehot: 4]
[top_k: 20]
[monotone_constraints: ]
[monotone_constraints_method: basic]
[monotone_penalty: 0]
[feature_contri: ]
[forcedsplits_filename: ]
[refit_decay_rate: 0.9]
[cegb_tradeoff: 1]
[cegb_penalty_split: 0]
[cegb_penalty_feature_lazy: ]
[cegb_penalty_feature_coupled: ]
[path_smooth: 0]
[interaction_constraints: ]
[verbosity: -1]
[saved_feature_importance_type: 0]
[use_quantized_grad: 0]
[num_grad_quant_bins: 4]
[quant_train_renew_leaf: 0]
[stochastic_rounding: 1]
[linear_tree: 0]
[max_bin: 255]
[max_bin_by_feature: ]
[min_data_in_bin: 3]
[bin_construct_sample_cnt: 200000]
[data_random_seed: 4074]
[is_enable_sparse: 1]
[enable_bundle: 1]
[use_missing: 1]
[zero_as_missing: 0]
[feature_pre_filter: 1]
[pre_partition: 0]
[two_round: 0]
[header: 0]
[label_column: ]
[weight_column: ]
[group_column: ]
[ignore_column: ]
[categorical_feature: ]
[forcedbins_filename: ]
[precise_float_parser: 0]
[parser_config_file: ]
[objective_seed: 10917]
[num_class: 3]
[is_unbalance: 0]
[scale_pos_weight: 1]
[sigmoid: 1]
[boost_from_average: 1]
[reg_sqrt: 0]
[alpha: 0.9]
[fair_c: 1]
[poisson_max_delta_step: 0.7]
[tweedie_variance_power: 1.5]
[lambdarank_truncation_level: 30]
[lambdarank_norm: 1]
[label_gain: ]
[lambdarank_position_bias_regularization: 0]
[eval_at: ]
[multi_error_top_k: 1]
[auc_mu_weights: ]
[num_machines: 1]
[local_listen_port: 12400]
[time_out: 120]
[machine_list_filename: ]
[machines: ]
[gpu_platform_id: -1]
[gpu_device_id: -1]
[gpu_use_dp: 0]
[num_gpu: 1]

end of parameters

pandas_categorical:null
